~o
<STREAMINFO> 1 25
<VECSIZE> 25<NULLD><MFCC_D_N_Z_0><DIAGC>
~s "silst"
<MEAN> 25
 -1.432133e+01 7.773883e-01 -6.016104e+00 8.881959e-01 -7.234277e-01 4.185679e+00 -5.439322e+00 -3.139055e+00 2.617118e-01 3.122022e+00 -4.619106e-01 2.434230e+00 4.149176e+00 1.217585e+00 1.656413e+00 -8.710593e-01 1.159620e-01 -5.857893e-01 2.245316e+00 5.340607e-01 7.416829e-01 -3.607013e-01 -5.661068e-01 -1.121037e-01 4.535258e+00
<VARIANCE> 25
 9.543086e+01 9.912192e+00 2.619369e+01 1.501597e+01 9.822832e+00 5.431969e+00 4.269836e+01 1.484642e+01 1.695912e+01 1.038412e+01 1.220395e+01 6.636691e+00 3.915571e+00 5.850870e-01 1.158960e+00 1.525172e+00 8.797426e-01 6.348187e-01 3.224329e+00 1.773242e+00 1.942458e+00 7.263117e-01 9.568411e-01 7.341202e-01 5.392814e+00
<GCONST> 8.300374e+01
~h "a"
<BEGINHMM>
<NUMSTATES> 5
<STATE> 2
<MEAN> 25
 -6.015543e+00 4.221894e+00 -1.190105e+00 -1.708891e+00 6.796157e-01 2.820078e+00 -8.464519e-01 -1.842784e+00 3.746592e+00 3.090473e+00 -1.716968e+00 2.928094e+00 -9.415820e-04 2.742071e-02 1.497329e-02 -5.058678e-03 1.674707e-02 1.386447e-03 -7.216632e-02 -5.665137e-02 -1.402412e-02 5.525455e-03 4.209828e-03 3.094654e-02 -8.941493e-03
<VARIANCE> 25
 1.360104e+00 2.878063e+00 3.033935e+00 4.110216e+00 4.050950e+00 5.981641e+00 7.446255e+00 8.163214e+00 7.703469e+00 7.097312e+00 5.538363e+00 4.990614e+00 8.811239e-02 2.437751e-01 2.433333e-01 3.569779e-01 3.546663e-01 6.055509e-01 8.165509e-01 9.718202e-01 8.533665e-01 7.534508e-01 7.284403e-01 5.392607e-01 4.227508e-02
<GCONST> 5.185746e+01
<STATE> 3
<MEAN> 25
 -5.855553e+00 4.307979e+00 -1.058357e+00 -1.583717e+00 5.541892e-01 2.043464e+00 -1.557680e+00 -2.665017e+00 2.741700e+00 3.570240e+00 -9.430429e-01 3.422694e+00 3.960313e+00 -1.815307e+00 -1.082966e+00 -1.418443e+00 -2.847377e+00 -1.921297e+00 1.370612e+00 1.373103e+00 -2.009560e+00 -1.205667e+00 9.885343e-01 -1.374200e+00 3.711702e+00
<VARIANCE> 25
 1.998403e+00 2.825911e+00 7.807806e+00 7.372027e+00 5.438037e+00 5.514415e+00 7.601279e+00 4.690784e+00 6.172948e+00 4.348324e+00 4.425776e+00 1.837308e+00 3.342555e+00 2.436586e+00 8.363213e-01 2.037609e+00 3.276771e+00 1.402742e+00 2.076621e+00 1.869140e+00 1.304138e+00 6.676818e-01 6.503632e-01 8.911976e-01 4.131383e+00
<GCONST> 7.033801e+01
<STATE> 4
<MEAN> 25
 8.339984e+00 -8.837523e+00 3.831270e+00 2.379849e+00 -2.014283e-01 -5.565261e+00 -4.579754e-01 1.533496e+00 -3.713469e+00 -3.245551e+00 3.647529e+00 -3.419209e+00 3.356105e-01 -3.097058e-01 3.545241e-02 2.795051e-02 -1.839733e-01 -3.006808e-01 2.576727e-03 4.697267e-02 -6.281016e-02 -7.271603e-03 1.634567e-01 -1.161672e-01 4.434846e-01
<VARIANCE> 25
 8.333742e+01 8.794536e+01 6.321031e+01 1.326059e+02 1.136454e+02 3.742508e+01 4.508967e+01 2.943530e+01 6.747413e+01 3.323505e+01 2.475155e+01 2.540884e+01 4.646957e+00 3.778232e+00 1.528555e+00 3.482177e+00 4.614811e+00 2.930892e+00 2.416943e+00 2.496109e+00 3.440197e+00 2.558141e+00 1.682179e+00 1.691982e+00 5.280244e+00
<GCONST> 1.074100e+02
<TRANSP> 5
 0.000000e+00 1.000000e+00 0.000000e+00 0.000000e+00 0.000000e+00
 0.000000e+00 9.624189e-01 3.758114e-02 0.000000e+00 0.000000e+00
 0.000000e+00 0.000000e+00 4.477804e-01 5.522196e-01 0.000000e+00
 0.000000e+00 0.000000e+00 0.000000e+00 9.288874e-01 7.111257e-02
 0.000000e+00 0.000000e+00 0.000000e+00 0.000000e+00 0.000000e+00
<ENDHMM>
~h "i"
<BEGINHMM>
<NUMSTATES> 5
<STATE> 2
<MEAN> 25
 1.250550e+01 -8.752158e+00 1.229445e+01 1.099648e+01 5.055524e-01 -1.418620e+01 -2.924278e+00 2.937589e+00 -9.841455e+00 -7.387086e+00 1.595152e+00 -7.839807e+00 9.394190e-02 -4.815569e-01 -1.538018e-01 -8.825713e-01 -2.236775e-01 -6.095282e-01 -8.866126e-01 -4.199535e-01 -8.148462e-01 6.556214e-02 1.076782e+00 4.201181e-01 3.979739e-01
<VARIANCE> 25
 8.950584e+00 2.553666e+01 2.445091e+01 3.261739e+01 1.760750e+01 1.882557e+01 4.139133e+01 2.597816e+01 3.246250e+01 9.948503e+00 2.797693e+01 1.854630e+01 5.906301e-01 1.602614e+00 4.900690e+00 1.963562e+00 2.030215e+00 3.075274e+00 2.806436e+00 2.067558e+00 1.172467e+00 8.777007e-01 7.835431e-01 9.859327e-01 7.165541e-01
<GCONST> 8.810961e+01
<STATE> 3
<MEAN> 25
 1.543611e+01 -6.366369e+00 5.636777e-01 3.560287e-01 -3.395195e+00 -1.279876e+01 -8.674068e+00 -2.009273e+00 -1.025832e+01 2.168261e+00 8.668061e+00 -6.703978e+00 -1.415573e-01 8.128449e-01 -9.597278e-01 -4.753014e-01 -2.190506e-01 9.763070e-01 4.829762e-01 1.510285e-01 1.275898e+00 7.780372e-01 -3.720854e-01 1.088321e-01 -7.965806e-01
<VARIANCE> 25
 1.318460e+01 2.006948e+01 1.403122e+01 1.297779e+01 1.675320e+01 1.833543e+01 1.244546e+01 8.268085e+00 3.845726e+01 3.684944e+01 1.107798e+01 1.331863e+01 4.301819e-01 1.021576e+00 8.755379e-01 7.278563e-01 1.862780e+00 1.386716e+00 1.138583e+00 1.034439e+00 1.458436e+00 1.354480e+00 8.051905e-01 9.102460e-01 2.957148e-01
<GCONST> 7.833298e+01
<STATE> 4
<MEAN> 25
 6.439133e+00 -6.022506e+00 -6.805787e+00 -3.517843e+00 -2.679186e-01 -4.887564e-01 2.308776e-01 7.009130e+00 4.217156e+00 -2.836892e+00 -1.794870e+00 -1.677153e+00 -9.919716e-01 -8.474964e-02 -6.940316e-01 -7.642347e-01 -1.692988e-01 6.820289e-01 1.228796e+00 8.338605e-01 3.390614e-01 -8.157855e-01 -7.343961e-01 8.151143e-01 -8.195351e-01
<VARIANCE> 25
 2.675420e+01 3.465125e+01 2.022430e+01 4.157141e+01 1.652512e+01 2.048139e+01 2.944319e+01 4.581652e+01 3.386903e+01 3.955023e+01 3.336802e+01 2.402025e+01 2.783169e+00 4.575860e+00 1.455055e+00 3.196464e+00 2.552989e+00 3.080373e+00 3.615505e+00 4.826417e+00 1.973383e+00 3.364757e+00 1.556959e+00 2.059337e+00 1.133523e+00
<GCONST> 9.861800e+01
<TRANSP> 5
 0.000000e+00 1.000000e+00 0.000000e+00 0.000000e+00 0.000000e+00
 0.000000e+00 8.520507e-01 1.479493e-01 0.000000e+00 0.000000e+00
 0.000000e+00 0.000000e+00 8.484381e-01 1.515618e-01 0.000000e+00
 0.000000e+00 0.000000e+00 0.000000e+00 8.281682e-01 1.718318e-01
 0.000000e+00 0.000000e+00 0.000000e+00 0.000000e+00 0.000000e+00
<ENDHMM>
~h "l"
<BEGINHMM>
<NUMSTATES> 5
<STATE> 2
<MEAN> 25
 -5.792785e+00 2.224222e+00 -1.410586e-01 -3.122514e-02 1.973145e+00 1.736241e+00 -6.122983e-02 2.129336e-01 3.913164e+00 2.109376e+00 -1.781895e+00 1.218629e+00 2.240795e-02 -4.266072e-02 -2.598106e-02 2.770650e-02 8.430481e-04 1.523295e-02 -4.676691e-02 -1.771428e-01 -1.499203e-01 -8.372086e-02 -1.277199e-01 -1.637219e-01 1.921239e-02
<VARIANCE> 25
 1.086717e+00 2.248126e+00 1.752893e+00 3.687048e+00 3.069422e+00 3.575031e+00 5.956255e+00 7.429122e+00 5.719230e+00 7.492126e+00 3.675828e+00 4.773932e+00 3.635241e-01 2.311469e-01 1.619527e-01 3.735934e-01 3.548326e-01 4.379718e-01 5.984116e-01 9.239998e-01 7.764945e-01 8.698776e-01 5.659589e-01 7.108747e-01 1.598514e-01
<GCONST> 5.064198e+01
<STATE> 3
<MEAN> 25
 -6.491555e+00 2.973740e+00 -2.456740e-01 -1.200032e+00 5.621538e-01 9.557692e-01 -1.822015e+00 -1.764064e+00 3.427341e+00 3.273572e+00 -1.010367e+00 1.550336e+00 7.428036e-01 1.655840e-01 3.271299e-01 5.123830e-01 2.272208e-01 1.620519e-01 2.262207e-01 -1.600087e-01 -6.466439e-01 -5.400809e-01 1.810673e-01 -1.887981e-01 5.517243e-01
<VARIANCE> 25
 3.796315e+00 4.002983e+00 2.949286e+00 9.316163e+00 3.177630e+00 8.315886e+00 7.038173e+00 8.926265e+00 8.366642e+00 6.608365e+00 6.432969e+00 6.270890e+00 3.197625e+00 4.003706e-01 4.605967e-01 1.638047e+00 6.571220e-01 1.401000e+00 1.134059e+00 1.777882e+00 4.841140e+00 2.030196e+00 6.569712e-01 1.858112e+00 1.894804e+00
<GCONST> 7.081358e+01
<STATE> 4
<MEAN> 25
 1.499300e+01 -3.430082e+00 4.248632e+00 9.604293e+00 5.841386e+00 6.074478e+00 7.697526e-01 -7.772710e+00 -1.301241e+01 -6.491172e+00 3.272562e+00 -5.899824e+00 1.288009e+00 -9.274042e-01 7.370846e-02 5.917269e-01 -3.038227e-01 -2.190870e-01 4.460369e-01 3.782168e-02 -1.096099e+00 -4.957819e-01 2.867167e-01 -4.501418e-01 1.338683e+00
<VARIANCE> 25
 1.837779e+01 2.059027e+01 3.382362e+00 5.798328e+00 6.589347e+00 2.038739e+01 8.553164e+00 8.956057e+00 1.222742e+01 5.089679e+00 1.152786e+01 1.132902e+01 3.554253e+00 9.710205e-01 1.086777e+00 2.378248e+00 9.677248e-01 1.916190e+00 1.237986e+00 9.487433e-01 5.157684e+00 1.665974e+00 1.610749e+00 1.434915e+00 2.909111e+00
<GCONST> 8.012432e+01
<TRANSP> 5
 0.000000e+00 1.000000e+00 0.000000e+00 0.000000e+00 0.000000e+00
 0.000000e+00 9.596869e-01 4.031306e-02 0.000000e+00 0.000000e+00
 0.000000e+00 0.000000e+00 8.773205e-01 1.226795e-01 0.000000e+00
 0.000000e+00 0.000000e+00 0.000000e+00 8.928359e-01 1.071641e-01
 0.000000e+00 0.000000e+00 0.000000e+00 0.000000e+00 0.000000e+00
<ENDHMM>
~h "m"
<BEGINHMM>
<NUMSTATES> 5
<STATE> 2
<MEAN> 25
 6.319025e+00 4.335402e+00 -2.675402e-01 -2.473616e-01 -4.896953e-01 1.865656e+00 5.437343e+00 4.452228e+00 1.068574e+00 5.946113e-01 2.547887e+00 2.743508e+00 -1.230094e+00 7.388687e-01 1.361155e-01 5.723224e-02 4.694118e-02 8.324408e-01 5.219417e-01 1.983114e-01 1.994587e-01 4.279557e-01 -1.146059e-01 -1.524532e-01 -1.559572e+00
<VARIANCE> 25
 7.900982e+01 1.326812e+01 1.707351e+01 4.223528e+01 5.562498e+01 5.137529e+01 1.949957e+01 3.246785e+01 6.279821e+01 3.807948e+01 1.131550e+01 3.476096e+01 2.049946e+00 2.117217e+00 1.663695e+00 2.619663e+00 4.743227e+00 3.681537e+00 2.291399e+00 3.241664e+00 5.352904e+00 3.288342e+00 1.277825e+00 6.224129e+00 1.575268e+00
<GCONST> 1.008467e+02
<STATE> 3
<MEAN> 25
 -2.646037e+00 3.392783e+00 1.005786e+00 1.311605e+00 1.568802e+00 2.916856e+00 2.573779e+00 9.045196e-01 1.648938e+00 2.537533e+00 1.165861e+00 2.038248e+00 2.207758e-01 -4.006469e-01 -3.807434e-02 1.107394e-01 -2.671640e-01 -3.248419e-01 5.715761e-02 -1.230499e-01 -7.888937e-01 -5.274846e-01 -2.110001e-01 -6.454484e-01 2.902394e-01
<VARIANCE> 25
 6.644995e+01 9.664613e+00 4.078501e+00 1.290487e+01 7.863986e+00 1.123601e+01 1.530127e+01 1.198549e+01 6.007719e+01 2.552055e+01 1.051914e+01 2.347877e+01 1.214520e+00 1.350505e+00 6.287249e-01 1.062152e+00 8.850560e-01 1.213745e+00 1.411195e+00 1.328073e+00 2.018121e+00 1.008257e+00 7.933006e-01 1.527274e+00 9.273203e-01
<GCONST> 8.053035e+01
<STATE> 4
<MEAN> 25
 1.139008e+01 -2.777490e+00 2.723866e+00 3.403521e+00 -2.884845e+00 -3.099418e+00 4.711161e+00 9.653823e-01 -1.109834e+01 -4.280499e+00 3.348870e+00 -5.716980e+00 1.010349e+00 -9.669552e-01 -9.327456e-02 -2.133409e-01 -5.212789e-01 -1.428670e+00 -5.984180e-01 7.472128e-01 5.647570e-01 1.630801e-01 1.708290e-01 -1.030115e-01 1.390465e+00
<VARIANCE> 25
 4.948974e+01 4.054268e+01 3.298744e+01 5.702496e+01 4.142698e+01 4.319212e+01 3.122835e+01 2.492466e+01 9.489559e+01 2.969089e+01 2.511875e+01 6.147754e+01 4.342693e+00 4.211307e+00 3.557252e+00 6.050666e+00 2.011564e+00 6.713175e+00 3.673608e+00 2.690744e+00 8.492174e+00 3.799649e+00 2.031805e+00 3.734618e+00 3.915406e+00
<GCONST> 1.082583e+02
<TRANSP> 5
 0.000000e+00 1.000000e+00 0.000000e+00 0.000000e+00 0.000000e+00
 0.000000e+00 6.190961e-01 3.809039e-01 0.000000e+00 0.000000e+00
 0.000000e+00 0.000000e+00 7.813014e-01 2.186986e-01 0.000000e+00
 0.000000e+00 0.000000e+00 0.000000e+00 7.834331e-01 2.165668e-01
 0.000000e+00 0.000000e+00 0.000000e+00 0.000000e+00 0.000000e+00
<ENDHMM>
~h "o"
<BEGINHMM>
<NUMSTATES> 5
<STATE> 2
<MEAN> 25
 1.565469e+01 2.896547e+00 4.392070e+00 1.751078e+00 -1.436799e+01 -1.485535e+01 -3.964507e+00 2.390081e+00 -1.332384e+00 -4.354004e+00 -2.553857e+00 -9.661820e+00 -7.565882e-01 6.443295e-01 -3.420194e-02 -7.482839e-02 1.117286e-01 -2.689145e-01 -3.096831e-01 -3.386863e-01 2.022370e-01 6.420417e-01 -3.386482e-02 2.834434e-01 -8.555721e-01
<VARIANCE> 25
 2.299135e+01 1.912123e+01 1.257929e+01 9.867586e+00 1.307747e+01 3.133317e+01 7.559628e+00 8.253655e+00 8.122535e+00 1.239213e+01 7.711213e+00 1.061687e+01 1.151282e+00 6.712273e-01 6.848404e-01 1.111861e+00 9.518949e-01 2.086862e+00 3.369889e-01 5.260276e-01 1.487384e+00 1.010700e+00 4.613013e-01 8.667439e-01 9.135253e-01
<GCONST> 7.384646e+01
<STATE> 3
<MEAN> 25
 1.407906e-01 9.972764e+00 1.756257e+00 -1.106541e+00 -1.569059e-02 2.146250e+00 5.002199e-01 -9.642623e-02 4.894193e+00 3.430329e+00 -2.140473e+00 1.017129e+00 -1.904394e+00 -8.190949e-01 -1.181146e-01 3.596188e-01 1.816813e+00 1.950836e+00 5.975450e-01 2.279554e-01 6.521913e-01 5.747769e-01 8.064720e-01 1.604252e+00 -1.141370e+00
<VARIANCE> 25
 2.613303e+01 1.710586e+01 3.970418e+00 1.030027e+01 2.379034e+01 3.302171e+01 2.748044e+01 1.851279e+01 1.183175e+01 2.095877e+01 1.892442e+01 1.783593e+01 1.518177e+00 8.427249e-01 6.090548e-01 1.073680e+00 3.137599e+00 4.859573e+00 7.694897e-01 6.861477e-01 1.155925e+00 1.662638e+00 1.001110e+00 1.346103e+00 7.338549e-01
<GCONST> 8.254353e+01
<STATE> 4
<MEAN> 25
 -6.610621e+00 3.614867e+00 -6.111836e-01 -6.439337e-01 1.794505e+00 3.202804e+00 -1.046925e-01 -1.381413e+00 3.790053e+00 3.070102e+00 -1.626885e+00 3.476274e+00 -3.240497e-02 -4.343142e-02 -2.598693e-02 -1.369883e-02 -6.408788e-03 7.195453e-03 1.259081e-03 -2.085469e-02 -2.430714e-02 -1.186556e-02 -8.399602e-03 -1.712670e-02 -1.290219e-02
<VARIANCE> 25
 1.327000e+00 1.916821e+00 2.545829e+00 2.745986e+00 4.256622e+00 4.959008e+00 7.731579e+00 6.187361e+00 6.350718e+00 6.436999e+00 5.951705e+00 6.794712e+00 5.652144e-02 1.630730e-01 2.236218e-01 3.200184e-01 3.898294e-01 4.896402e-01 7.992844e-01 6.538883e-01 6.647851e-01 6.785150e-01 6.758267e-01 7.235347e-01 1.891393e-02
<GCONST> 4.804479e+01
<TRANSP> 5
 0.000000e+00 1.000000e+00 0.000000e+00 0.000000e+00 0.000000e+00
 0.000000e+00 9.091058e-01 9.089413e-02 0.000000e+00 0.000000e+00
 0.000000e+00 0.000000e+00 7.798393e-01 2.201607e-01 0.000000e+00
 0.000000e+00 0.000000e+00 0.000000e+00 9.829094e-01 1.709058e-02
 0.000000e+00 0.000000e+00 0.000000e+00 0.000000e+00 0.000000e+00
<ENDHMM>
~h "p"
<BEGINHMM>
<NUMSTATES> 5
<STATE> 2
<MEAN> 25
 1.008389e+01 1.302903e+00 3.258710e+00 5.793385e-01 -5.158494e+00 -1.131459e+00 9.577759e+00 7.000516e+00 3.552040e+00 -1.763951e+00 -5.504721e+00 -2.834664e+00 -2.955472e+00 1.808990e-01 -7.153415e-01 2.296036e-01 3.687908e+00 3.073733e+00 1.187870e-01 1.069979e+00 2.084698e+00 1.198196e+00 7.370120e-01 1.106994e-01 -2.421382e+00
<VARIANCE> 25
 1.412603e+01 5.337413e+01 2.801216e+01 4.120326e+01 4.021591e+01 4.576394e+01 1.622496e+01 2.653816e+01 2.297913e+01 1.898981e+01 7.261759e+00 1.317160e+01 7.797135e-01 1.704949e+00 1.362470e+00 2.943761e+00 1.800239e+00 7.241614e+00 3.621109e+00 1.516656e+00 5.711666e-01 6.829569e-01 1.858812e+00 3.048793e+00 3.284616e-01
<GCONST> 8.947020e+01
<STATE> 3
<MEAN> 25
 4.259476e+00 -7.312099e+00 -8.110380e+00 -2.787272e+00 -3.057629e+00 -3.377428e+00 5.043084e+00 1.336812e+01 7.236915e+00 -1.101512e+00 -8.186848e-01 -1.456065e+00 -1.279228e+00 -4.000165e-01 -1.388628e+00 -6.100000e-01 -7.390503e-01 -7.946383e-01 -1.507413e+00 -1.119369e+00 -4.884654e-01 -1.124811e-01 6.282421e-01 7.560351e-01 -1.197863e+00
<VARIANCE> 25
 4.150293e+00 7.763593e+01 3.797906e+01 1.227490e+01 2.202065e+01 1.977058e+01 1.363386e+01 5.263696e+01 1.817445e+01 2.703070e+01 8.694130e+00 5.394802e+00 1.596723e+00 5.128579e-01 1.353814e+00 1.099278e+00 2.603430e+00 7.871712e-01 2.274356e+00 2.138016e+00 1.411780e+00 1.163131e+00 5.414291e-01 9.966955e-01 8.224782e-01
<GCONST> 8.274450e+01
<STATE> 4
<MEAN> 25
 -5.257132e+00 3.382871e+00 -1.278818e-01 -5.494885e-01 1.376165e+00 1.187213e+00 -3.935650e-01 6.885498e-01 4.061069e+00 1.603837e+00 -1.401969e+00 2.250154e+00 -1.057285e-01 -4.900138e-02 -2.926996e-02 -1.536068e-03 3.302150e-02 -3.437633e-02 -1.122652e-01 -5.607065e-02 -3.518023e-03 -4.538423e-02 -5.781679e-02 5.611057e-03 -7.494041e-02
<VARIANCE> 25
 1.128292e+01 6.504889e+00 6.140373e+00 6.805827e+00 9.458026e+00 9.293145e+00 7.531686e+00 1.515602e+01 7.260306e+00 8.599747e+00 7.077744e+00 7.460575e+00 1.123884e+00 5.228181e-01 5.036775e-01 5.559514e-01 6.202887e-01 8.200924e-01 7.864299e-01 1.398578e+00 8.644493e-01 7.973846e-01 6.081275e-01 9.343188e-01 7.282650e-01
<GCONST> 6.765003e+01
<TRANSP> 5
 0.000000e+00 1.000000e+00 0.000000e+00 0.000000e+00 0.000000e+00
 0.000000e+00 7.100827e-01 2.899174e-01 0.000000e+00 0.000000e+00
 0.000000e+00 0.000000e+00 5.956110e-01 4.043890e-01 0.000000e+00
 0.000000e+00 0.000000e+00 0.000000e+00 9.751821e-01 2.481783e-02
 0.000000e+00 0.000000e+00 0.000000e+00 0.000000e+00 0.000000e+00
<ENDHMM>
~h "r"
<BEGINHMM>
<NUMSTATES> 5
<STATE> 2
<MEAN> 25
 -2.692493e+00 3.148876e+00 -4.164535e+00 -5.995052e+00 -3.685675e+00 4.711811e-01 2.769101e+00 3.941233e+00 5.214767e+00 1.452125e+00 -2.823303e+00 1.684187e+00 -8.452665e-01 2.543830e-01 9.847437e-01 7.920774e-01 7.233409e-01 6.654972e-01 -5.101510e-01 -1.204899e+00 -6.035398e-01 4.483483e-01 5.550138e-01 2.883803e-02 -5.846449e-01
<VARIANCE> 25
 4.465581e+00 3.263450e+00 9.646849e+00 7.304920e+00 1.038820e+01 1.288827e+01 1.044706e+01 1.888051e+01 1.791683e+01 7.649992e+00 7.640895e+00 7.093413e+00 2.165692e-01 7.987120e-01 6.425886e-01 1.943648e+00 7.410205e-01 7.872301e-01 1.768171e+00 7.599965e-01 1.177566e+00 6.455019e-01 1.323738e+00 6.096843e-01 7.554478e-02
<GCONST> 6.712845e+01
<STATE> 3
<MEAN> 25
 -5.553725e+00 2.281158e+00 -4.645587e-01 -5.468152e-01 -4.371889e-01 2.197790e+00 1.323877e+00 -7.783240e-01 2.366390e+00 2.492540e+00 -3.154144e-01 1.977803e+00 -1.654487e-01 3.023170e-02 2.413260e-01 3.764417e-01 2.357868e-01 3.280917e-02 -2.519083e-01 -3.197055e-01 -8.476420e-02 2.190544e-02 9.651580e-02 -3.841750e-02 -1.106873e-01
<VARIANCE> 25
 1.086717e+00 9.003443e+00 4.556480e+00 2.672207e+01 4.211598e+00 1.123298e+01 1.069787e+01 7.818144e+00 1.046140e+01 5.467445e+00 7.496757e+00 6.036544e+00 7.244796e-02 6.939540e-01 2.827141e-01 1.541890e+00 5.785944e-01 1.171733e+00 7.370585e-01 6.237783e-01 1.038190e+00 5.786642e-01 5.488210e-01 7.828816e-01 7.616404e-02
<GCONST> 6.025628e+01
<STATE> 4
<MEAN> 25
 -6.435022e+00 3.997941e+00 -1.238586e-01 -6.681235e-01 1.240511e+00 2.947543e+00 -1.096542e+00 -2.549887e+00 3.353090e+00 2.966770e+00 -1.837322e+00 2.360323e+00 -6.445793e-03 -3.231924e-03 8.631654e-03 6.903711e-03 1.394308e-02 2.694032e-04 -1.244262e-02 -2.942738e-03 6.112261e-03 5.630740e-03 -9.214384e-03 2.463497e-03 -8.884198e-04
<VARIANCE> 25
 1.086717e+00 2.303497e+00 2.480142e+00 3.197502e+00 4.045282e+00 5.167469e+00 5.456895e+00 5.925471e+00 6.485081e+00 6.386550e+00 6.030667e+00 5.786960e+00 4.390336e-02 1.202447e-01 2.119816e-01 3.100277e-01 4.011248e-01 5.430997e-01 6.132329e-01 6.022291e-01 6.305172e-01 6.331363e-01 6.619354e-01 5.783502e-01 1.891393e-02
<GCONST> 4.639472e+01
<TRANSP> 5
 0.000000e+00 1.000000e+00 0.000000e+00 0.000000e+00 0.000000e+00
 0.000000e+00 7.016155e-01 2.983845e-01 0.000000e+00 0.000000e+00
 0.000000e+00 0.000000e+00 8.636578e-01 1.363422e-01 0.000000e+00
 0.000000e+00 0.000000e+00 0.000000e+00 9.852635e-01 1.473648e-02
 0.000000e+00 0.000000e+00 0.000000e+00 0.000000e+00 0.000000e+00
<ENDHMM>
~h "t"
<BEGINHMM>
<NUMSTATES> 5
<STATE> 2
<MEAN> 25
 5.796454e+00 -3.646803e+00 5.110244e+00 5.491170e+00 6.377389e+00 -4.349760e+00 -5.944489e+00 -8.885814e-01 -4.667670e+00 -4.431005e+00 1.849484e+00 -4.866399e+00 -3.125194e-01 -2.159261e-01 1.632585e-01 -3.263240e-01 -1.993391e-02 5.754924e-02 3.255084e-02 2.726116e-01 5.396161e-01 -2.455267e-02 -2.349824e-02 3.265951e-01 2.819213e-02
<VARIANCE> 25
 6.187268e+01 4.781565e+01 2.433093e+01 2.747371e+01 1.503195e+01 3.321590e+01 3.840744e+01 1.450016e+01 5.685949e+01 3.532472e+01 2.414580e+01 2.843063e+01 4.195427e+00 5.757299e+00 2.578497e+00 2.780362e+00 1.732294e+00 3.454764e+00 4.463464e+00 2.110191e+00 3.535243e+00 3.910885e+00 2.296383e+00 1.761610e+00 9.616967e+00
<GCONST> 1.025905e+02
<STATE> 3
<MEAN> 25
 1.420295e+01 -1.147042e+01 6.089314e+00 2.808574e+00 4.563673e+00 -6.116171e+00 -9.360537e+00 -3.050252e+00 -1.260283e+01 -8.741820e+00 4.947814e+00 -5.750868e+00 1.285218e+00 -1.556669e-01 -7.400622e-01 -4.741155e-01 -1.173524e+00 -2.437667e-01 5.892818e-01 -2.472650e-01 -1.154649e+00 -5.383880e-01 1.310783e-01 -3.956972e-02 7.283564e-01
<VARIANCE> 25
 1.374662e+01 1.766466e+01 1.855776e+01 3.663877e+01 2.023804e+01 1.709022e+01 4.827614e+01 1.778181e+01 3.454048e+01 2.926028e+01 9.721384e+00 1.673931e+01 2.588008e+00 2.080670e+00 1.392328e+00 2.626052e+00 2.435059e+00 2.285245e+00 2.984389e+00 2.791554e+00 4.305223e+00 3.041036e+00 1.791816e+00 2.003381e+00 1.934282e+00
<GCONST> 9.389922e+01
<STATE> 4
<MEAN> 25
 1.877601e+01 -4.501043e+00 -4.362267e+00 -9.628112e+00 -1.170386e+01 -6.625625e+00 5.590901e+00 5.811621e+00 -8.563784e+00 -6.964900e+00 3.903387e+00 -2.979861e+00 -5.310985e-01 9.730135e-01 -3.197401e-01 -3.946171e-01 -7.406647e-01 1.340968e-01 4.846629e-01 4.902370e-01 6.622499e-01 2.547362e-01 -4.982628e-01 5.763888e-02 -1.028438e+00
<VARIANCE> 25
 1.354839e+01 2.991976e+01 1.287260e+01 1.953861e+01 2.053798e+01 1.678052e+01 2.087966e+01 2.208397e+01 1.080999e+01 2.189938e+01 2.291125e+01 3.018116e+01 1.373570e+00 1.149863e+00 8.092709e-01 1.098137e+00 1.680354e+00 1.104633e+00 1.188182e+00 1.757598e+00 1.587161e+00 1.570194e+00 1.151443e+00 2.033650e+00 1.192244e+00
<GCONST> 8.509486e+01
<TRANSP> 5
 0.000000e+00 1.000000e+00 0.000000e+00 0.000000e+00 0.000000e+00
 0.000000e+00 9.403948e-01 5.960517e-02 0.000000e+00 0.000000e+00
 0.000000e+00 0.000000e+00 8.702594e-01 1.297406e-01 0.000000e+00
 0.000000e+00 0.000000e+00 0.000000e+00 9.038624e-01 9.613769e-02
 0.000000e+00 0.000000e+00 0.000000e+00 0.000000e+00 0.000000e+00
<ENDHMM>
~h "ai"
<BEGINHMM>
<NUMSTATES> 5
<STATE> 2
<MEAN> 25
 -1.530740e+00 -1.092090e+01 -5.632850e+00 -4.413469e+00 -5.994431e-01 2.475627e+00 9.573648e+00 1.388764e+01 3.770288e+00 -6.463414e+00 9.966712e-01 6.821893e+00 -4.169044e-01 4.572744e-01 3.251937e-01 2.499872e-01 7.285838e-02 2.478077e-01 5.927922e-01 9.109548e-02 -3.107323e-01 1.222412e-01 7.031725e-02 6.912438e-02 -4.775713e-01
<VARIANCE> 25
 2.772785e+00 2.324112e+01 1.023819e+01 1.154573e+01 1.759529e+01 7.822258e+00 1.571847e+01 1.348362e+01 1.479662e+01 1.614491e+01 1.094977e+01 5.852445e+00 5.218603e-01 8.843520e-01 1.949176e+00 1.022824e+00 7.981594e-01 6.760079e-01 6.167077e-01 8.284113e-01 7.728195e-01 1.511114e+00 1.786800e+00 7.734366e-01 2.770539e-01
<GCONST> 7.262547e+01
<STATE> 3
<MEAN> 25
 -1.905354e+00 -3.500872e+00 -7.614930e+00 -5.604358e+00 -2.671565e+00 2.083042e+00 8.897797e+00 1.026986e+01 1.502138e+00 -6.387585e+00 -2.845367e+00 3.575145e+00 -2.314682e-01 1.413987e+00 3.101624e-01 7.271960e-02 -1.820933e-01 -4.347716e-01 -9.636838e-01 -1.499240e+00 -6.427100e-01 2.377372e-01 -3.162136e-01 -2.296314e-01 -8.436635e-01
<VARIANCE> 25
 3.974395e+00 1.161870e+01 6.106350e+00 2.899274e+00 4.438492e+00 3.646366e+00 9.566586e+00 1.105979e+01 2.042713e+01 2.380914e+01 3.985550e+00 7.917593e+00 3.652787e-01 7.098184e-01 1.214709e+00 1.273587e+00 6.135700e-01 7.454675e-01 2.061538e+00 1.075764e+00 1.105456e+00 8.996356e-01 1.836662e+00 1.521862e+00 6.744516e-02
<GCONST> 6.716425e+01
<STATE> 4
<MEAN> 25
 -2.172045e+00 1.962152e+00 -8.142922e+00 -8.873738e+00 -5.296771e+00 1.733858e+00 5.026258e+00 3.441315e+00 1.121406e+00 -2.459774e+00 -3.795960e+00 2.818837e+00 -2.831218e-01 5.649020e-01 4.769894e-01 5.534859e-02 1.076422e-01 2.518951e-01 -4.042100e-01 -7.252082e-01 2.642018e-01 5.845380e-01 2.791943e-02 -2.533883e-02 -3.700787e-01
<VARIANCE> 25
 2.824064e+00 6.026428e+00 5.550242e+00 6.399671e+00 5.879152e+00 5.521104e+00 8.474459e+00 8.213515e+00 8.200724e+00 1.105156e+01 5.828302e+00 6.792079e+00 1.862146e-01 3.003841e-01 6.489832e-01 7.532758e-01 8.724899e-01 5.370491e-01 6.125525e-01 4.314152e-01 1.264684e+00 1.035295e+00 6.861846e-01 6.289368e-01 6.764042e-02
<GCONST> 5.930697e+01
<TRANSP> 5
 0.000000e+00 1.000000e+00 0.000000e+00 0.000000e+00 0.000000e+00
 0.000000e+00 8.539389e-01 1.460611e-01 0.000000e+00 0.000000e+00
 0.000000e+00 0.000000e+00 6.234719e-01 3.765281e-01 0.000000e+00
 0.000000e+00 0.000000e+00 0.000000e+00 8.131702e-01 1.868298e-01
 0.000000e+00 0.000000e+00 0.000000e+00 0.000000e+00 0.000000e+00
<ENDHMM>
~h "am"
<BEGINHMM>
<NUMSTATES> 5
<STATE> 2
<MEAN> 25
 1.788565e+01 -7.713736e+00 2.328392e+00 6.251445e+00 -1.167433e+00 -3.676452e+00 2.780182e+00 -2.574549e+00 -1.735709e+01 -7.711959e+00 1.281644e+00 -8.411063e+00 1.174764e+00 -1.697071e+00 2.566680e-01 -2.782167e+00 -1.772264e+00 -2.527547e+00 -1.008428e+00 1.553516e+00 -1.019992e+00 -5.275839e-01 6.093055e-01 -8.438477e-01 2.300585e+00
<VARIANCE> 25
 1.388181e+01 1.781165e+01 8.467777e+00 4.753061e+01 1.004729e+01 1.358404e+01 6.412377e+01 1.075733e+01 5.969538e+00 6.196727e+00 1.269694e+01 8.713439e+00 2.776411e+00 2.579973e-01 7.789776e-01 8.519412e+00 7.843018e-01 1.518179e+00 5.297012e+00 3.599089e-01 4.876734e+00 1.742848e+00 2.442669e+00 2.782255e+00 1.448600e+00
<GCONST> 8.403017e+01
<STATE> 3
<MEAN> 25
 1.543993e+01 -8.260894e+00 6.302867e+00 2.784644e+00 -6.890012e+00 -8.759928e+00 6.751610e+00 4.478636e+00 -1.702346e+01 -1.056054e+01 4.270516e+00 -4.519655e+00 1.108626e-01 8.908370e-02 -2.327710e-01 -6.511616e-01 -8.337870e-01 -6.969211e-01 1.094987e-01 9.286576e-01 1.391543e+00 -7.948753e-02 -2.452890e-01 7.747065e-01 8.648491e-02
<VARIANCE> 25
 1.713607e+01 1.126271e+01 3.082340e+01 9.991932e+01 7.583271e+00 6.565547e+00 6.688416e+01 8.012248e+00 6.056146e+01 4.237962e+00 4.136087e+00 6.735349e+00 6.430215e-02 7.137817e-01 6.262501e-01 1.038006e+00 1.128835e+00 9.159474e-01 3.082099e-01 1.655368e+00 3.477882e+00 7.304106e-01 1.001290e+00 5.454716e-01 4.110011e-01
<GCONST> 7.359552e+01
<STATE> 4
<MEAN> 25
 1.847785e+01 -4.038089e+00 1.363302e+00 -2.181819e+00 -1.516051e+01 -1.307343e+01 4.099071e+00 3.233779e+00 -3.897712e+00 -9.265456e-01 8.396857e-01 -5.174303e-01 -3.080946e-01 9.436994e-01 5.020944e-02 2.874509e-01 -1.826501e-01 2.763915e-01 4.537619e-01 -2.636270e-01 6.577470e-01 6.612749e-01 -5.972583e-01 -4.167639e-03 -7.685444e-01
<VARIANCE> 25
 4.969328e+00 4.188601e+01 1.634176e+01 4.770516e+01 1.975468e+01 2.418073e+01 2.148749e+01 2.407971e+01 3.624351e+01 4.261932e+01 6.388952e+00 5.789799e+00 7.855174e-01 3.230917e+00 1.849644e+00 4.366765e+00 2.854899e+00 2.274454e+00 4.377571e+00 2.458051e+00 3.817059e+00 4.423594e+00 1.367106e+00 9.722908e-01 1.557639e+00
<GCONST> 9.213615e+01
<TRANSP> 5
 0.000000e+00 1.000000e+00 0.000000e+00 0.000000e+00 0.000000e+00
 0.000000e+00 6.667631e-01 3.332369e-01 0.000000e+00 0.000000e+00
 0.000000e+00 0.000000e+00 8.621778e-01 1.378222e-01 0.000000e+00
 0.000000e+00 0.000000e+00 0.000000e+00 8.996247e-01 1.003753e-01
 0.000000e+00 0.000000e+00 0.000000e+00 0.000000e+00 0.000000e+00
<ENDHMM>
~h "ch"
<BEGINHMM>
<NUMSTATES> 5
<STATE> 2
<MEAN> 25
 2.611756e+00 2.427773e+00 -2.208816e+00 5.844574e-01 -2.229137e+00 -2.004437e+00 7.958964e-01 -1.531583e-01 -4.296108e+00 -2.352232e-01 7.817515e-01 6.002712e-01 -1.963217e+00 1.852249e+00 -1.414364e-01 -1.187632e+00 4.461305e-01 1.837825e+00 5.864658e-01 -6.630328e-01 1.598502e+00 8.581721e-01 -7.130433e-01 1.766648e+00 -2.224615e+00
<VARIANCE> 25
 2.731128e+01 1.475690e+01 3.178199e+01 5.617939e+01 3.101942e+01 3.199863e+01 9.332558e+00 9.057259e+00 2.520317e+01 2.382785e+01 5.759778e+00 2.975397e+01 2.524168e+00 1.704641e+00 2.954830e+00 3.646188e+00 4.378175e+00 3.868552e+00 2.787297e-01 1.548476e+00 4.678461e+00 2.144279e+00 1.005505e+00 2.928814e+00 1.637663e+00
<GCONST> 9.201725e+01
<STATE> 3
<MEAN> 25
 -5.458094e+00 4.806781e+00 -2.223973e+00 -2.062347e+00 8.516329e-01 4.197693e+00 5.957807e-01 -9.126042e-01 3.592170e+00 3.514557e+00 -1.545433e+00 2.810210e+00 1.205575e-01 -1.016207e-01 -1.463898e-02 1.184670e-01 -2.294809e-03 -8.119109e-02 -1.091963e-01 -1.420222e-01 -1.436163e-01 -3.228733e-02 -3.744648e-02 -2.585471e-01 1.148314e-01
<VARIANCE> 25
 1.489165e+00 2.451927e+00 4.136000e+00 3.854904e+00 4.983499e+00 5.768461e+00 9.563485e+00 8.547436e+00 6.995585e+00 6.735305e+00 4.751698e+00 5.583594e+00 1.356509e+00 3.228543e-01 5.637777e-01 1.097777e+00 6.477010e-01 9.210252e-01 1.013424e+00 9.024512e-01 1.783766e+00 8.905858e-01 5.844436e-01 9.881581e-01 7.921751e-01
<GCONST> 6.267372e+01
<STATE> 4
<MEAN> 25
 1.537654e+01 -6.500450e+00 1.511526e-01 1.520822e+00 -7.730552e+00 -4.545707e+00 4.541077e+00 3.168286e+00 -1.296396e+01 -7.884911e+00 3.343014e+00 -6.055710e+00 5.333503e-01 -4.201038e-01 -7.286566e-02 -3.137630e-01 -5.000570e-01 -2.960482e-01 1.917790e-01 4.339989e-01 -1.222191e-01 -2.752686e-01 1.068511e-01 7.705335e-02 6.155875e-01
<VARIANCE> 25
 1.417003e+01 2.713913e+01 2.921653e+01 1.188610e+02 3.901541e+01 1.712795e+01 1.992452e+01 5.276105e+01 4.492885e+01 2.669608e+01 1.502248e+01 1.250196e+01 1.868761e+00 1.181677e+00 1.654352e+00 3.156216e+00 1.011965e+00 9.314526e-01 1.825382e+00 8.630884e-01 4.248999e+00 2.877063e+00 9.565787e-01 1.656675e+00 1.710757e+00
<GCONST> 9.218038e+01
<TRANSP> 5
 0.000000e+00 1.000000e+00 0.000000e+00 0.000000e+00 0.000000e+00
 0.000000e+00 7.552114e-01 2.447886e-01 0.000000e+00 0.000000e+00
 0.000000e+00 0.000000e+00 9.544609e-01 4.553911e-02 0.000000e+00
 0.000000e+00 0.000000e+00 0.000000e+00 9.561377e-01 4.386231e-02
 0.000000e+00 0.000000e+00 0.000000e+00 0.000000e+00 0.000000e+00
<ENDHMM>
~h "eh"
<BEGINHMM>
<NUMSTATES> 5
<STATE> 2
<MEAN> 25
 2.726413e+00 4.992077e+00 5.848403e-01 -2.782775e-01 -1.433547e-01 3.456892e+00 3.011162e+00 4.859936e-01 -2.853490e-01 -7.726398e-01 -1.745025e+00 -1.336974e+00 1.458210e+00 9.928274e-01 8.291332e-01 1.224547e+00 1.370656e+00 8.723989e-01 -1.838657e-01 -1.140603e+00 -6.972245e-01 2.849475e-01 -3.730495e-01 -1.489110e+00 8.522647e-01
<VARIANCE> 25
 8.839468e+01 4.690377e+01 1.542205e+01 1.919822e+01 3.347771e+01 2.704392e+01 2.114526e+01 1.350104e+01 3.015239e+01 3.857393e+01 1.374341e+01 3.443987e+01 3.586469e+00 3.243478e+00 3.278108e+00 1.704160e+00 3.993639e+00 5.308678e+00 3.593554e+00 2.202595e+00 6.022592e+00 2.305531e+00 1.784374e+00 7.780129e+00 3.495784e+00
<GCONST> 1.014586e+02
<STATE> 3
<MEAN> 25
 1.098145e+01 6.997987e+00 1.557203e+00 6.330047e+00 5.460962e+00 8.841936e+00 7.784767e+00 -6.178383e+00 -8.139097e+00 2.556132e+00 7.199019e-02 -1.039927e+01 9.908615e-01 -3.227983e-01 -2.618250e-02 1.475979e-01 -1.183612e-02 -3.563858e-01 -1.822296e-01 -2.608547e-02 -5.773022e-01 -8.792859e-02 4.540727e-01 -4.502517e-01 8.939549e-01
<VARIANCE> 25
 3.267351e+01 2.314902e+01 7.090707e+00 1.911288e+01 2.308113e+01 2.297392e+01 3.736371e+01 1.438452e+01 2.465086e+01 2.601771e+01 1.299836e+01 2.690162e+01 2.399620e+00 1.196315e+00 1.112026e+00 1.120861e+00 1.007787e+00 1.935901e+00 2.074054e+00 9.110621e-01 3.775944e+00 2.071591e+00 1.323960e+00 2.328436e+00 2.871607e+00
<GCONST> 8.918262e+01
<STATE> 4
<MEAN> 25
 1.261053e+01 -1.744395e+00 2.001812e+00 5.678450e+00 6.664625e+00 2.558877e+00 -2.102192e+00 -1.711258e+00 -8.750401e+00 -5.587073e+00 4.193789e+00 -5.101961e+00 7.418134e-01 -6.708924e-01 3.902450e-01 4.764341e-01 3.189756e-01 -1.195322e+00 -8.103504e-01 6.615640e-02 -7.497399e-01 -6.378082e-01 2.400836e-01 -4.406930e-01 1.074054e+00
<VARIANCE> 25
 1.588239e+01 4.165004e+01 1.530472e+01 2.709568e+01 5.422558e+01 6.211002e+01 8.716464e+01 1.140691e+01 2.792113e+01 2.497339e+01 3.163253e+01 3.365570e+01 4.094450e+00 5.678867e+00 1.568885e+00 1.650230e+00 2.560285e+00 6.405492e+00 7.192293e+00 1.175413e+00 5.975739e+00 4.369425e+00 2.762778e+00 2.714782e+00 7.369326e+00
<GCONST> 1.033148e+02
<TRANSP> 5
 0.000000e+00 1.000000e+00 0.000000e+00 0.000000e+00 0.000000e+00
 0.000000e+00 4.793597e-01 5.206404e-01 0.000000e+00 0.000000e+00
 0.000000e+00 0.000000e+00 7.702109e-01 2.297891e-01 0.000000e+00
 0.000000e+00 0.000000e+00 0.000000e+00 7.263535e-01 2.736464e-01
 0.000000e+00 0.000000e+00 0.000000e+00 0.000000e+00 0.000000e+00
<ENDHMM>
~h "eu"
<BEGINHMM>
<NUMSTATES> 5
<STATE> 2
<MEAN> 25
 5.969320e+00 4.338443e-02 -1.003271e-01 -2.608963e+00 -2.886338e+00 -4.075798e+00 -3.954688e-01 -2.940238e+00 -5.704866e+00 -7.981814e-01 3.618695e+00 -2.654401e-01 4.674767e+00 -2.493667e+00 3.311390e-01 -9.685260e-01 -1.752404e+00 -2.944842e+00 6.216817e-01 5.715425e-01 -3.392618e+00 -1.561415e+00 2.360838e+00 -1.000704e+00 5.346378e+00
<VARIANCE> 25
 1.002421e+02 3.833476e+01 1.354091e+01 1.696011e+01 2.694446e+01 4.103007e+01 1.727815e+01 3.426524e+01 7.089985e+01 2.195866e+01 2.939506e+01 1.870820e+01 3.497133e+00 2.917429e+00 1.167229e+00 1.240905e+00 2.359455e+00 1.730404e+00 2.038516e+00 3.828243e+00 3.712315e+00 1.930066e+00 1.187289e+00 1.222866e+00 3.526079e+00
<GCONST> 9.644613e+01
<STATE> 3
<MEAN> 25
 1.761277e+01 -9.313922e+00 1.772066e+00 -2.751176e+00 -2.719704e+00 -9.276068e+00 -1.146753e+00 -3.291945e+00 -1.749043e+01 -5.858665e+00 7.993932e+00 -3.109603e+00 1.561466e-01 2.184144e-02 -1.498356e-01 -1.298597e-01 -1.178457e-01 1.483743e-01 -8.210263e-02 1.689493e-01 -4.505810e-02 1.425322e-01 -6.542447e-02 -2.204498e-02 -2.462071e-02
<VARIANCE> 25
 1.086717e+00 4.529976e+00 6.492736e+00 6.728682e+00 1.526738e+01 6.379471e+00 7.053347e+00 1.780386e+01 7.876256e+00 1.093591e+01 5.538181e+00 6.743407e+00 8.578341e-02 1.429731e+00 3.623799e-01 9.461992e-01 1.121203e+00 3.750088e-01 7.211232e-01 7.404675e-01 7.224000e-01 4.260476e-01 3.765604e-01 3.699620e-01 3.934817e-01
<GCONST> 6.006095e+01
<STATE> 4
<MEAN> 25
 1.003636e+01 -2.395307e+00 -1.839032e-01 -7.326576e-01 -2.743149e+00 -2.558191e+00 2.307001e+00 8.021978e+00 1.437911e+00 -3.643815e+00 3.993339e-01 -2.534307e+00 -5.967906e-01 2.866858e-01 -1.934429e-01 -2.494993e-02 6.484766e-02 1.975583e-01 1.062901e-01 2.141572e-01 7.049552e-01 1.279759e-01 -4.012758e-01 1.331280e-01 -6.707721e-01
<VARIANCE> 25
 5.388893e+01 1.635207e+01 1.917768e+01 7.128834e+01 9.109073e+01 4.877783e+01 6.715437e+01 1.298937e+02 1.356525e+02 2.328779e+01 3.283571e+01 2.235690e+01 1.654892e+00 1.494734e+00 1.136300e+00 2.000595e+00 2.867905e+00 2.756688e+00 3.211604e+00 3.651229e+00 3.753012e+00 2.045800e+00 2.212689e+00 1.469324e+00 9.536362e-01
<GCONST> 1.015044e+02
<TRANSP> 5
 0.000000e+00 1.000000e+00 0.000000e+00 0.000000e+00 0.000000e+00
 0.000000e+00 7.844465e-01 2.155535e-01 0.000000e+00 0.000000e+00
 0.000000e+00 0.000000e+00 9.188589e-01 8.114111e-02 0.000000e+00
 0.000000e+00 0.000000e+00 0.000000e+00 9.670459e-01 3.295412e-02
 0.000000e+00 0.000000e+00 0.000000e+00 0.000000e+00 0.000000e+00
<ENDHMM>
~h "ff"
<BEGINHMM>
<NUMSTATES> 5
<STATE> 2
<MEAN> 25
 1.127377e+01 -4.494942e+00 -4.414293e+00 -4.876573e+00 -9.463271e+00 -6.953463e+00 4.878940e+00 5.451510e+00 -5.175091e+00 -9.602305e-01 4.329048e+00 -4.002810e+00 3.886442e+00 -2.534321e+00 9.863611e-01 2.534524e-01 -2.966041e-01 -3.061459e+00 -5.334574e-01 1.105000e+00 -1.842313e+00 -2.034839e+00 2.370275e+00 -1.872596e+00 5.141441e+00
<VARIANCE> 25
 5.566445e+01 1.973554e+01 1.281244e+01 4.774534e+01 5.094440e+01 1.814780e+01 4.401319e+01 1.528303e+01 1.728893e+01 1.238548e+01 1.844426e+01 1.172050e+01 2.885872e+00 1.409043e+00 2.866619e+00 1.199304e+01 5.600012e+00 1.340666e+00 5.283302e+00 2.625506e+00 4.437186e+00 1.520775e+00 1.547838e+00 2.415723e+00 3.903849e+00
<GCONST> 9.762422e+01
<STATE> 3
<MEAN> 25
 7.636887e+00 -3.111560e+00 3.973487e+00 -2.745879e+00 3.896552e+00 -5.310624e+00 5.399781e+00 4.064445e+00 1.850469e+00 2.202763e-01 6.882194e+00 -3.072475e-01 -4.547769e-01 6.971585e-02 6.407512e-01 6.993968e-01 8.870943e-01 1.368927e-01 -1.280609e-01 -1.140068e-01 2.220917e-01 8.186413e-02 -8.356678e-02 1.201470e-01 -5.993941e-02
<VARIANCE> 25
 8.719907e+01 2.804370e+01 2.809960e+01 3.848901e+01 8.088456e+01 2.751165e+01 2.505765e+01 1.992095e+01 5.410082e+01 1.417145e+01 1.767674e+01 1.419471e+01 4.098084e+00 2.607635e+00 1.973245e+00 2.189756e+00 2.454291e+00 3.241861e+00 2.737216e+00 2.428889e+00 3.159147e+00 1.601444e+00 2.052779e+00 1.380987e+00 1.767614e+00
<GCONST> 9.785643e+01
<STATE> 4
<MEAN> 25
 8.068023e-01 -1.664969e+01 1.310644e+01 9.374825e+00 2.429649e+00 -9.317623e+00 -1.406520e+00 2.049196e+00 7.719076e-02 -5.926100e+00 3.492660e+00 -1.749028e+00 -4.864379e-02 -1.150686e-01 -1.293846e-01 6.636303e-03 -2.484316e-01 -3.544567e-02 -2.297822e-01 -9.146162e-02 -4.964930e-02 8.070415e-03 -7.532101e-02 -5.815873e-02 -1.839896e-01
<VARIANCE> 25
 6.884601e+01 5.475644e+01 1.122317e+01 6.947687e+01 1.705929e+01 2.185932e+01 1.686573e+01 2.096420e+01 7.548018e+01 2.028506e+01 9.589296e+00 1.269726e+01 2.174279e+00 2.893189e+00 1.539286e+00 2.824529e+00 1.084274e+00 1.378083e+00 1.079137e+00 1.320778e+00 3.274982e+00 1.508570e+00 1.143215e+00 1.353922e+00 6.016954e-01
<GCONST> 9.035693e+01
<TRANSP> 5
 0.000000e+00 1.000000e+00 0.000000e+00 0.000000e+00 0.000000e+00
 0.000000e+00 5.718680e-01 4.281320e-01 0.000000e+00 0.000000e+00
 0.000000e+00 0.000000e+00 9.473707e-01 5.262930e-02 0.000000e+00
 0.000000e+00 0.000000e+00 0.000000e+00 9.712844e-01 2.871564e-02
 0.000000e+00 0.000000e+00 0.000000e+00 0.000000e+00 0.000000e+00
<ENDHMM>
~h "la"
<BEGINHMM>
<NUMSTATES> 5
<STATE> 2
<MEAN> 25
 1.353868e+01 -7.653361e+00 -3.038699e+00 -4.133997e+00 -9.367600e+00 -6.153232e+00 6.601920e+00 6.794680e+00 -5.077408e+00 -4.011951e+00 2.387291e+00 -3.477507e+00 -2.658674e-01 -5.365567e-03 -4.773834e-01 -2.813012e-01 -1.427064e-01 -3.093167e-02 2.681314e-01 4.137928e-01 4.500962e-01 1.361603e-01 -1.227263e-01 6.391826e-02 -3.353204e-01
<VARIANCE> 25
 3.022320e+01 3.555976e+01 6.798921e+01 8.713363e+01 3.264859e+01 1.705585e+01 2.596413e+01 4.657093e+01 9.608109e+01 2.353436e+01 2.885111e+01 2.715831e+01 3.527554e+00 2.221547e+00 1.931280e+00 3.019275e+00 1.928216e+00 1.514489e+00 2.889872e+00 1.271548e+00 5.446480e+00 2.054054e+00 1.879591e+00 2.392883e+00 4.217882e+00
<GCONST> 1.009738e+02
<STATE> 3
<MEAN> 25
 -9.528922e-01 5.457609e-01 -8.128757e+00 -7.939178e+00 -6.178819e+00 -4.363188e-01 6.654837e+00 8.014188e+00 5.201094e+00 -9.969735e-01 -3.513453e+00 1.720389e+00 -1.065536e+00 1.038346e+00 1.191665e+00 5.024540e-01 9.944205e-01 1.114859e+00 -4.829850e-01 -1.153421e+00 -1.220845e-01 2.250303e-01 -3.505262e-01 6.855267e-02 -9.859855e-01
<VARIANCE> 25
 8.943821e+00 1.801232e+01 1.403264e+01 1.238035e+01 1.073464e+01 2.006312e+01 1.236152e+01 1.778479e+01 1.306802e+01 1.508104e+01 1.022965e+01 7.860658e+00 4.453320e-01 7.695732e-01 4.419296e-01 1.379935e+00 1.114416e+00 1.593116e+00 1.587672e+00 1.210533e+00 1.312143e+00 1.545202e+00 1.000671e+00 7.683309e-01 3.694663e-01
<GCONST> 7.573269e+01
<STATE> 4
<MEAN> 25
 -6.018587e+00 3.579851e+00 -3.436771e-01 -8.976892e-01 1.163126e+00 2.672689e+00 -4.291224e-01 -1.476989e+00 3.549426e+00 2.763467e+00 -1.656090e+00 2.064277e+00 -3.087412e-02 -5.587095e-03 5.158783e-02 7.220169e-02 5.433465e-02 -9.835579e-03 -6.345555e-02 -6.876247e-02 -3.142421e-02 2.680744e-02 4.024975e-02 1.585172e-02 -1.786086e-02
<VARIANCE> 25
 1.412800e+00 2.598486e+00 3.162630e+00 4.610238e+00 4.650526e+00 5.376766e+00 6.757413e+00 7.387313e+00 5.750952e+00 6.907533e+00 6.480729e+00 6.033838e+00 6.351179e-02 1.214617e-01 2.237230e-01 3.909115e-01 4.320577e-01 4.541885e-01 6.343163e-01 6.382262e-01 5.949761e-01 7.064202e-01 6.716276e-01 5.949810e-01 1.975598e-02
<GCONST> 4.886241e+01
<TRANSP> 5
 0.000000e+00 1.000000e+00 0.000000e+00 0.000000e+00 0.000000e+00
 0.000000e+00 9.508175e-01 4.918249e-02 0.000000e+00 0.000000e+00
 0.000000e+00 0.000000e+00 8.742807e-01 1.257193e-01 0.000000e+00
 0.000000e+00 0.000000e+00 0.000000e+00 9.831256e-01 1.687446e-02
 0.000000e+00 0.000000e+00 0.000000e+00 0.000000e+00 0.000000e+00
<ENDHMM>
~h "lu"
<BEGINHMM>
<NUMSTATES> 5
<STATE> 2
<MEAN> 25
 -3.947879e+00 2.591607e+00 8.773208e-03 -1.397719e+00 -2.224655e-01 7.398618e-01 -1.357087e+00 -1.854496e+00 3.718586e+00 2.799539e+00 -8.480613e-01 1.587022e+00 1.300208e+00 3.626227e-01 3.098085e-01 1.165270e+00 1.195202e+00 5.299972e-01 -1.024317e-01 -7.701152e-01 -1.418452e+00 -7.771220e-01 -1.317100e-01 -9.791555e-01 8.307685e-01
<VARIANCE> 25
 3.620623e+01 2.325318e+01 3.815115e+00 1.526609e+01 1.785217e+01 2.060541e+01 1.179613e+01 4.439004e+00 2.559548e+01 1.156771e+01 1.179043e+01 7.925468e+00 4.087578e+00 1.698011e+00 5.697480e-01 1.686681e+00 2.605229e+00 2.534750e+00 8.456839e-01 1.746614e+00 3.197150e+00 1.956694e+00 7.831355e-01 1.376019e+00 2.360423e+00
<GCONST> 8.378349e+01
<STATE> 3
<MEAN> 25
 1.103366e+01 -1.423550e+00 1.984497e+00 4.534649e+00 4.983627e+00 -7.197587e-01 -1.713933e+00 -6.651448e+00 -8.016836e+00 -1.506690e+00 2.554377e+00 -5.004379e+00 2.492411e+00 -1.680022e-02 3.880143e-01 2.315767e+00 2.558910e+00 1.267439e+00 -3.604938e-01 -7.441519e-01 -2.726353e+00 -1.597356e+00 5.950528e-01 -1.060710e+00 1.949423e+00
<VARIANCE> 25
 2.486469e+01 1.088937e+02 8.234282e+00 3.729756e+01 9.026119e+01 1.622794e+02 2.447501e+01 1.314798e+01 2.491021e+01 1.745312e+01 4.276407e+01 9.970624e+00 4.960617e+00 3.108179e+00 1.048253e+00 1.385135e+00 3.837409e+00 3.209823e+00 2.404895e+00 1.725686e+00 1.899053e+00 2.397352e+00 3.274873e+00 1.405802e+00 4.406047e+00
<GCONST> 9.864230e+01
<STATE> 4
<MEAN> 25
 1.335450e+01 -1.764056e+00 2.420540e+00 9.555097e+00 1.034008e+01 2.596960e+00 -2.253657e+00 -2.145558e+00 -5.942978e+00 -4.522484e+00 1.808598e+00 -4.366138e+00 1.352864e-01 1.621663e-02 -5.192155e-02 -1.671460e-01 -2.877252e-01 -1.226752e-01 3.243048e-01 3.135918e-01 1.827940e-01 4.584928e-02 4.148090e-02 2.106313e-01 1.091615e-01
<VARIANCE> 25
 7.711776e+00 3.515093e+01 1.384654e+01 2.867540e+01 8.075665e+01 5.098970e+01 2.974994e+01 3.176795e+01 4.641057e+01 2.574080e+01 1.393582e+01 2.459299e+01 4.785274e-01 2.035873e+00 8.991666e-01 2.269051e+00 2.322307e+00 2.780390e+00 2.246150e+00 2.226857e+00 2.661902e+00 2.594941e+00 1.599140e+00 2.212715e+00 1.344203e+00
<GCONST> 9.328429e+01
<TRANSP> 5
 0.000000e+00 1.000000e+00 0.000000e+00 0.000000e+00 0.000000e+00
 0.000000e+00 6.971613e-01 3.028387e-01 0.000000e+00 0.000000e+00
 0.000000e+00 0.000000e+00 5.727004e-01 4.272996e-01 0.000000e+00
 0.000000e+00 0.000000e+00 0.000000e+00 9.511408e-01 4.885922e-02
 0.000000e+00 0.000000e+00 0.000000e+00 0.000000e+00 0.000000e+00
<ENDHMM>
~h "sp"
<BEGINHMM>
<NUMSTATES> 3
<STATE> 2
~s "silst"
<TRANSP> 3
 0.000000e+00 1.531736e-01 8.468264e-01
 0.000000e+00 4.094970e-01 5.905030e-01
 0.000000e+00 0.000000e+00 0.000000e+00
<ENDHMM>
~h "ein"
<BEGINHMM>
<NUMSTATES> 5
<STATE> 2
<MEAN> 25
 5.962405e+00 3.684371e+00 -7.782772e+00 -1.033824e+01 -1.166151e+01 -3.519589e+00 9.487914e+00 9.289879e+00 8.700505e-01 -1.327421e+00 -3.839207e-01 1.623490e+00 -2.653896e+00 -1.873947e-01 -4.829895e-02 1.891111e-01 1.365740e+00 1.107415e+00 -2.562963e-01 2.327692e-01 1.948150e+00 6.778520e-01 -9.052610e-01 3.852414e-01 -1.952460e+00
<VARIANCE> 25
 1.462433e+01 9.781996e+00 8.142813e+00 3.357701e+01 1.259985e+01 6.893525e+00 1.988524e+01 2.091460e+01 1.582547e+01 1.186751e+01 7.358397e+00 8.726237e+00 2.505971e+00 9.224491e-01 8.942078e-01 1.775916e+00 3.136180e+00 2.060428e+00 1.209159e+00 1.093457e+00 3.622371e+00 2.124546e+00 1.514117e+00 1.153500e+00 1.708322e+00
<GCONST> 8.299291e+01
<STATE> 3
<MEAN> 25
 -1.984175e+00 3.218395e+00 -6.079417e+00 -9.806391e+00 -6.920788e+00 7.891997e-01 6.281392e+00 5.935488e+00 4.804791e+00 -3.481657e-01 -4.853011e+00 2.234260e-01 -8.522353e-01 4.876272e-02 8.143655e-01 1.131489e+00 1.350093e+00 7.262321e-01 -5.295057e-01 -6.741781e-01 1.696447e-01 2.199201e-01 -1.665037e-01 -2.083722e-01 -5.392951e-01
<VARIANCE> 25
 4.715179e+00 1.462862e+00 7.937441e+00 1.103869e+01 1.591306e+01 6.815814e+00 1.087853e+01 1.034959e+01 8.550261e+00 8.808117e+00 4.564629e+00 6.007171e+00 3.333638e-01 1.975247e-01 4.137148e-01 1.030390e+00 1.027846e+00 6.034494e-01 8.787779e-01 6.491480e-01 4.441654e-01 6.486828e-01 7.943260e-01 7.486367e-01 1.032263e-01
<GCONST> 6.074718e+01
<STATE> 4
<MEAN> 25
 -6.212969e+00 3.302979e+00 -2.932180e-01 -1.070971e+00 1.029936e+00 2.659765e+00 8.176054e-02 -1.373749e+00 4.118983e+00 2.832009e+00 -2.330875e+00 2.307909e+00 -3.825945e-02 -2.311990e-02 5.119710e-02 9.175312e-02 5.565596e-02 -1.422610e-02 -6.875769e-02 -8.237243e-02 -4.409679e-02 1.882161e-02 6.145805e-02 3.520773e-02 -1.730265e-02
<VARIANCE> 25
 1.086717e+00 2.280935e+00 2.265519e+00 4.262932e+00 4.719407e+00 4.344351e+00 6.678283e+00 7.855745e+00 6.791158e+00 6.336293e+00 7.512116e+00 5.765976e+00 4.200247e-02 1.221287e-01 2.032906e-01 3.245227e-01 3.736254e-01 4.823986e-01 6.334855e-01 7.919792e-01 7.683376e-01 6.661331e-01 6.249002e-01 6.919201e-01 1.891393e-02
<GCONST> 4.776296e+01
<TRANSP> 5
 0.000000e+00 1.000000e+00 0.000000e+00 0.000000e+00 0.000000e+00
 0.000000e+00 7.581233e-01 2.418767e-01 0.000000e+00 0.000000e+00
 0.000000e+00 0.000000e+00 8.453264e-01 1.546736e-01 0.000000e+00
 0.000000e+00 0.000000e+00 0.000000e+00 9.784428e-01 2.155712e-02
 0.000000e+00 0.000000e+00 0.000000e+00 0.000000e+00 0.000000e+00
<ENDHMM>
~h "sil"
<BEGINHMM>
<NUMSTATES> 5
<STATE> 2
<MEAN> 25
 -2.433139e+01 -1.810863e+00 -9.283719e+00 3.106790e+00 -6.001931e-01 5.446105e+00 -1.135394e+01 -5.801595e+00 -2.173342e+00 3.505741e+00 9.202135e-01 2.679809e+00 7.759240e-03 -2.264824e-02 1.577879e-02 1.470699e-02 9.113990e-03 -7.907572e-03 -1.198703e-02 1.154702e-01 2.491228e-02 -1.675824e-02 -1.028784e-02 9.165491e-03 -2.777194e-03
<VARIANCE> 25
 3.602138e+01 4.342594e+00 1.315932e+01 4.098801e+00 2.932904e+00 3.896056e+00 1.766066e+01 6.451587e+00 7.857126e+00 6.193408e+00 4.574273e+00 4.095105e+00 3.177048e-02 5.821099e-02 1.435778e-01 3.351734e-01 3.436671e-01 2.466662e-01 4.195733e-01 5.305523e-01 6.258476e-01 7.322405e-01 4.954417e-01 5.099710e-01 1.891393e-02
<GCONST> 4.955320e+01
<STATE> 3
~s "silst"
<STATE> 4
<MEAN> 25
 -2.688562e+00 1.564084e+00 -1.855702e-01 -6.769953e-01 2.266836e-01 1.033205e+00 -1.033936e-01 -8.110235e-01 1.596918e+00 9.772843e-01 -9.188828e-01 1.093133e+00 9.814827e-03 1.087669e-02 2.055297e-02 2.517402e-03 1.156430e-02 -7.933814e-03 2.329001e-03 8.265013e-03 2.380519e-02 4.562207e-03 2.751889e-03 -4.703534e-03 2.187282e-02
<VARIANCE> 25
 5.772793e+01 2.210244e+01 1.262392e+01 1.873745e+01 2.214790e+01 2.697853e+01 1.898170e+01 2.431527e+01 3.589574e+01 2.334213e+01 1.367958e+01 1.794892e+01 5.858699e-01 1.209856e+00 6.344305e-01 9.495138e-01 1.036210e+00 1.237970e+00 1.456069e+00 1.415386e+00 1.334962e+00 1.262948e+00 9.192244e-01 9.821290e-01 7.199376e-01
<GCONST> 8.353884e+01
<TRANSP> 5
 0.000000e+00 1.000000e+00 0.000000e+00 0.000000e+00 0.000000e+00
 0.000000e+00 8.074882e-01 8.981556e-02 1.026963e-01 0.000000e+00
 0.000000e+00 0.000000e+00 7.665892e-01 2.334108e-01 0.000000e+00
 0.000000e+00 1.762016e-04 0.000000e+00 9.695976e-01 3.022619e-02
 0.000000e+00 0.000000e+00 0.000000e+00 0.000000e+00 0.000000e+00
<ENDHMM>
