~o
<STREAMINFO> 1 25
<VECSIZE> 25<NULLD><MFCC_D_N_Z_0><DIAGC>
~t "T_ein"
<TRANSP> 5
 0.000000e+00 1.000000e+00 0.000000e+00 0.000000e+00 0.000000e+00
 0.000000e+00 8.665411e-01 1.334589e-01 0.000000e+00 0.000000e+00
 0.000000e+00 0.000000e+00 8.897497e-01 1.102503e-01 0.000000e+00
 0.000000e+00 0.000000e+00 0.000000e+00 9.765006e-01 2.349934e-02
 0.000000e+00 0.000000e+00 0.000000e+00 0.000000e+00 0.000000e+00
~t "T_a"
<TRANSP> 5
 0.000000e+00 1.000000e+00 0.000000e+00 0.000000e+00 0.000000e+00
 0.000000e+00 9.652406e-01 3.475940e-02 0.000000e+00 0.000000e+00
 0.000000e+00 0.000000e+00 4.761904e-01 5.238097e-01 0.000000e+00
 0.000000e+00 0.000000e+00 0.000000e+00 9.067042e-01 9.329581e-02
 0.000000e+00 0.000000e+00 0.000000e+00 0.000000e+00 0.000000e+00
~t "T_i"
<TRANSP> 5
 0.000000e+00 1.000000e+00 0.000000e+00 0.000000e+00 0.000000e+00
 0.000000e+00 8.223806e-01 1.776195e-01 0.000000e+00 0.000000e+00
 0.000000e+00 0.000000e+00 8.666142e-01 1.333859e-01 0.000000e+00
 0.000000e+00 0.000000e+00 0.000000e+00 8.464964e-01 1.535036e-01
 0.000000e+00 0.000000e+00 0.000000e+00 0.000000e+00 0.000000e+00
~t "T_l"
<TRANSP> 5
 0.000000e+00 1.000000e+00 0.000000e+00 0.000000e+00 0.000000e+00
 0.000000e+00 9.642005e-01 3.579948e-02 0.000000e+00 0.000000e+00
 0.000000e+00 0.000000e+00 8.124083e-01 1.875917e-01 0.000000e+00
 0.000000e+00 0.000000e+00 0.000000e+00 8.888782e-01 1.111218e-01
 0.000000e+00 0.000000e+00 0.000000e+00 0.000000e+00 0.000000e+00
~t "T_m"
<TRANSP> 5
 0.000000e+00 1.000000e+00 0.000000e+00 0.000000e+00 0.000000e+00
 0.000000e+00 8.485669e-01 1.514331e-01 0.000000e+00 0.000000e+00
 0.000000e+00 0.000000e+00 8.880774e-01 1.119226e-01 0.000000e+00
 0.000000e+00 0.000000e+00 0.000000e+00 8.496878e-01 1.503122e-01
 0.000000e+00 0.000000e+00 0.000000e+00 0.000000e+00 0.000000e+00
~t "T_o"
<TRANSP> 5
 0.000000e+00 1.000000e+00 0.000000e+00 0.000000e+00 0.000000e+00
 0.000000e+00 9.250157e-01 7.498422e-02 0.000000e+00 0.000000e+00
 0.000000e+00 0.000000e+00 8.342291e-01 1.657710e-01 0.000000e+00
 0.000000e+00 0.000000e+00 0.000000e+00 9.811879e-01 1.881211e-02
 0.000000e+00 0.000000e+00 0.000000e+00 0.000000e+00 0.000000e+00
~t "T_p"
<TRANSP> 5
 0.000000e+00 1.000000e+00 0.000000e+00 0.000000e+00 0.000000e+00
 0.000000e+00 7.376363e-01 2.623637e-01 0.000000e+00 0.000000e+00
 0.000000e+00 0.000000e+00 6.668489e-01 3.331511e-01 0.000000e+00
 0.000000e+00 0.000000e+00 0.000000e+00 9.589006e-01 4.109944e-02
 0.000000e+00 0.000000e+00 0.000000e+00 0.000000e+00 0.000000e+00
~t "T_r"
<TRANSP> 5
 0.000000e+00 1.000000e+00 0.000000e+00 0.000000e+00 0.000000e+00
 0.000000e+00 7.153318e-01 2.846682e-01 0.000000e+00 0.000000e+00
 0.000000e+00 0.000000e+00 8.711032e-01 1.288968e-01 0.000000e+00
 0.000000e+00 0.000000e+00 0.000000e+00 9.846647e-01 1.533529e-02
 0.000000e+00 0.000000e+00 0.000000e+00 0.000000e+00 0.000000e+00
~t "T_t"
<TRANSP> 5
 0.000000e+00 1.000000e+00 0.000000e+00 0.000000e+00 0.000000e+00
 0.000000e+00 9.398218e-01 6.017810e-02 0.000000e+00 0.000000e+00
 0.000000e+00 0.000000e+00 8.672507e-01 1.327493e-01 0.000000e+00
 0.000000e+00 0.000000e+00 0.000000e+00 8.880688e-01 1.119312e-01
 0.000000e+00 0.000000e+00 0.000000e+00 0.000000e+00 0.000000e+00
~t "T_ai"
<TRANSP> 5
 0.000000e+00 1.000000e+00 0.000000e+00 0.000000e+00 0.000000e+00
 0.000000e+00 8.532034e-01 1.467966e-01 0.000000e+00 0.000000e+00
 0.000000e+00 0.000000e+00 7.422270e-01 2.577731e-01 0.000000e+00
 0.000000e+00 0.000000e+00 0.000000e+00 7.572885e-01 2.427116e-01
 0.000000e+00 0.000000e+00 0.000000e+00 0.000000e+00 0.000000e+00
~t "T_am"
<TRANSP> 5
 0.000000e+00 1.000000e+00 0.000000e+00 0.000000e+00 0.000000e+00
 0.000000e+00 7.000759e-01 2.999241e-01 0.000000e+00 0.000000e+00
 0.000000e+00 0.000000e+00 8.125020e-01 1.874980e-01 0.000000e+00
 0.000000e+00 0.000000e+00 0.000000e+00 9.078733e-01 9.212676e-02
 0.000000e+00 0.000000e+00 0.000000e+00 0.000000e+00 0.000000e+00
~t "T_ch"
<TRANSP> 5
 0.000000e+00 1.000000e+00 0.000000e+00 0.000000e+00 0.000000e+00
 0.000000e+00 7.675248e-01 2.324752e-01 0.000000e+00 0.000000e+00
 0.000000e+00 0.000000e+00 9.629175e-01 3.708253e-02 0.000000e+00
 0.000000e+00 0.000000e+00 0.000000e+00 9.275330e-01 7.246704e-02
 0.000000e+00 0.000000e+00 0.000000e+00 0.000000e+00 0.000000e+00
~t "T_eh"
<TRANSP> 5
 0.000000e+00 1.000000e+00 0.000000e+00 0.000000e+00 0.000000e+00
 0.000000e+00 6.332596e-01 3.667403e-01 0.000000e+00 0.000000e+00
 0.000000e+00 0.000000e+00 8.017525e-01 1.982475e-01 0.000000e+00
 0.000000e+00 0.000000e+00 0.000000e+00 7.874704e-01 2.125297e-01
 0.000000e+00 0.000000e+00 0.000000e+00 0.000000e+00 0.000000e+00
~t "T_eu"
<TRANSP> 5
 0.000000e+00 1.000000e+00 0.000000e+00 0.000000e+00 0.000000e+00
 0.000000e+00 7.667152e-01 2.332848e-01 0.000000e+00 0.000000e+00
 0.000000e+00 0.000000e+00 9.428638e-01 5.713619e-02 0.000000e+00
 0.000000e+00 0.000000e+00 0.000000e+00 9.572892e-01 4.271086e-02
 0.000000e+00 0.000000e+00 0.000000e+00 0.000000e+00 0.000000e+00
~t "T_ff"
<TRANSP> 5
 0.000000e+00 1.000000e+00 0.000000e+00 0.000000e+00 0.000000e+00
 0.000000e+00 8.222221e-01 1.777779e-01 0.000000e+00 0.000000e+00
 0.000000e+00 0.000000e+00 9.556938e-01 4.430616e-02 0.000000e+00
 0.000000e+00 0.000000e+00 0.000000e+00 9.738386e-01 2.616140e-02
 0.000000e+00 0.000000e+00 0.000000e+00 0.000000e+00 0.000000e+00
~t "T_lu"
<TRANSP> 5
 0.000000e+00 1.000000e+00 0.000000e+00 0.000000e+00 0.000000e+00
 0.000000e+00 7.027282e-01 2.972718e-01 0.000000e+00 0.000000e+00
 0.000000e+00 0.000000e+00 7.305446e-01 2.694554e-01 0.000000e+00
 0.000000e+00 0.000000e+00 0.000000e+00 9.621531e-01 3.784689e-02
 0.000000e+00 0.000000e+00 0.000000e+00 0.000000e+00 0.000000e+00
~s "silst"
<MEAN> 25
 -1.277509e+01 1.303326e+00 -5.162073e+00 7.391239e-01 -3.855921e-01 3.899550e+00 -4.765095e+00 -3.199709e+00 5.565767e-01 2.901827e+00 -8.104098e-01 2.212228e+00 3.932710e+00 1.050876e+00 1.713839e+00 -5.972237e-01 2.339479e-03 -6.759035e-01 2.109963e+00 3.785148e-01 1.405350e-01 -5.550098e-01 -3.626515e-01 -3.198403e-01 4.336813e+00
<VARIANCE> 25
 9.664594e+01 1.111752e+01 2.752896e+01 1.434673e+01 9.667157e+00 6.480541e+00 4.072427e+01 1.389385e+01 1.720053e+01 9.525457e+00 1.202732e+01 7.065180e+00 4.319146e+00 7.566536e-01 1.274250e+00 2.410644e+00 1.277709e+00 6.568017e-01 3.258605e+00 1.954250e+00 5.411804e+00 1.246889e+00 1.566647e+00 1.393993e+00 4.844616e+00
<GCONST> 8.717300e+01
~h "la"
<BEGINHMM>
<NUMSTATES> 5
<STATE> 2
<MEAN> 25
 1.426302e+01 -8.400265e+00 -3.573096e+00 -5.146755e+00 -9.994164e+00 -6.719330e+00 6.157817e+00 7.402058e+00 -5.206438e+00 -3.973527e+00 2.835735e+00 -3.400811e+00 -3.304183e-01 -2.655918e-02 -5.462568e-01 -4.242727e-01 -1.570937e-01 2.748310e-03 2.183896e-01 4.498465e-01 6.417587e-01 2.156343e-01 -1.541785e-01 1.528545e-01 -3.554927e-01
<VARIANCE> 25
 2.769125e+01 3.023848e+01 6.014945e+01 7.980159e+01 2.943811e+01 1.663413e+01 2.635957e+01 4.420177e+01 8.579825e+01 2.205132e+01 2.702668e+01 2.437152e+01 2.704749e+00 2.277578e+00 1.644147e+00 2.751690e+00 1.885879e+00 1.528093e+00 2.636686e+00 1.260908e+00 4.300431e+00 2.087090e+00 1.688677e+00 1.953932e+00 3.489743e+00
<GCONST> 9.866891e+01
<STATE> 3
<MEAN> 25
 -1.613612e+00 1.455008e+00 -6.935697e+00 -7.661989e+00 -5.512101e+00 4.666590e-01 6.300393e+00 6.964623e+00 4.910516e+00 -7.942583e-01 -3.697974e+00 1.614408e+00 -9.145303e-01 8.324652e-01 1.082865e+00 5.524846e-01 8.734586e-01 8.741379e-01 -4.985547e-01 -1.036606e+00 -1.192039e-01 2.907057e-01 -2.563785e-01 -3.047864e-02 -8.143750e-01
<VARIANCE> 25
 7.498447e+00 1.140099e+01 1.432278e+01 1.113064e+01 1.147591e+01 1.506780e+01 1.087649e+01 1.751914e+01 1.117594e+01 1.298999e+01 9.260025e+00 7.449707e+00 4.588894e-01 7.724418e-01 5.256553e-01 1.266962e+00 1.002393e+00 1.417640e+00 1.461953e+00 1.343328e+00 1.222470e+00 1.325702e+00 9.046859e-01 6.877775e-01 3.867342e-01
<GCONST> 7.372241e+01
<STATE> 4
<MEAN> 25
 -6.062870e+00 3.599203e+00 -2.765187e-01 -7.640663e-01 1.248354e+00 2.661631e+00 -5.811475e-01 -1.632095e+00 3.487278e+00 2.793845e+00 -1.578573e+00 2.098329e+00 -3.207785e-02 -1.099890e-02 4.503072e-02 5.948012e-02 4.785237e-02 -6.904602e-03 -5.401694e-02 -5.609197e-02 -3.040024e-02 2.811407e-02 5.028097e-02 2.580448e-02 -1.528026e-02
<VARIANCE> 25
 1.086717e+00 2.622722e+00 3.049512e+00 4.088166e+00 4.374322e+00 5.417241e+00 6.122001e+00 6.678117e+00 5.470770e+00 6.665202e+00 6.388356e+00 5.945972e+00 5.199504e-02 1.151145e-01 2.137139e-01 3.656600e-01 4.381014e-01 4.584384e-01 6.052092e-01 6.052712e-01 5.819751e-01 6.853725e-01 6.683038e-01 5.994551e-01 1.891393e-02
<GCONST> 4.754813e+01
<TRANSP> 5
 0.000000e+00 1.000000e+00 0.000000e+00 0.000000e+00 0.000000e+00
 0.000000e+00 9.584386e-01 4.156139e-02 0.000000e+00 0.000000e+00
 0.000000e+00 0.000000e+00 8.904870e-01 1.095131e-01 0.000000e+00
 0.000000e+00 0.000000e+00 0.000000e+00 9.820129e-01 1.798713e-02
 0.000000e+00 0.000000e+00 0.000000e+00 0.000000e+00 0.000000e+00
<ENDHMM>
~h "sp"
<BEGINHMM>
<NUMSTATES> 3
<STATE> 2
~s "silst"
<TRANSP> 3
 0.000000e+00 1.459839e-01 8.540161e-01
 0.000000e+00 6.118957e-01 3.881043e-01
 0.000000e+00 0.000000e+00 0.000000e+00
<ENDHMM>
~h "l+am"
<BEGINHMM>
<NUMSTATES> 5
<STATE> 2
<MEAN> 25
 -5.968702e+00 2.279939e+00 -3.571336e-01 -5.452639e-01 1.687748e+00 1.631580e+00 -5.122194e-01 -1.658392e-01 3.945095e+00 2.226878e+00 -1.726156e+00 1.204838e+00 -2.882402e-02 -2.005056e-02 -8.256773e-03 1.460065e-02 1.756317e-02 2.571544e-02 -1.252352e-02 -2.119790e-02 -3.671758e-02 -3.645510e-02 -7.957853e-03 -2.470871e-02 -2.393238e-02
<VARIANCE> 25
 1.086717e+00 1.969186e+00 1.743214e+00 4.779933e+00 3.227602e+00 3.732858e+00 7.260931e+00 8.266282e+00 5.462473e+00 6.426839e+00 3.239812e+00 4.268614e+00 6.965471e-02 1.414924e-01 1.648929e-01 2.890021e-01 2.910962e-01 4.095585e-01 6.705526e-01 7.243916e-01 5.952929e-01 6.521328e-01 3.402337e-01 5.240299e-01 1.918600e-02
<GCONST> 4.446020e+01
<STATE> 3
<MEAN> 25
 -5.833106e+00 3.289681e+00 6.970944e-01 1.048396e+00 1.650668e+00 9.387784e-01 -8.838784e-01 -1.033771e+00 2.214153e+00 2.048447e+00 -1.588276e+00 9.949041e-01 1.900574e+00 1.187829e-01 5.552386e-01 1.128841e+00 3.512061e-01 8.790670e-02 2.449614e-01 -8.849074e-01 -1.773936e+00 -9.487595e-01 1.234798e-01 -7.531772e-01 1.453435e+00
<VARIANCE> 25
 9.811991e+00 8.381692e+00 3.024873e+00 9.000222e+00 6.773345e+00 1.132840e+01 3.815822e+00 8.081170e+00 1.005186e+01 1.209845e+01 9.252806e+00 1.030154e+01 5.187603e+00 1.031216e+00 5.208017e-01 3.540914e+00 1.443585e+00 2.240515e+00 1.019341e+00 2.575153e+00 6.990444e+00 2.921948e+00 1.013214e+00 3.201956e+00 3.302828e+00
<GCONST> 8.060413e+01
<STATE> 4
<MEAN> 25
 1.544711e+01 -3.914874e+00 4.251857e+00 9.737838e+00 5.782596e+00 6.103576e+00 8.745279e-01 -7.910671e+00 -1.341725e+01 -6.554897e+00 3.559942e+00 -5.936485e+00 1.129274e+00 -9.050566e-01 2.328591e-02 4.211656e-01 -4.146730e-01 -1.738180e-01 4.675284e-01 1.092364e-01 -9.466376e-01 -4.684772e-01 2.453528e-01 -3.242933e-01 1.207853e+00
<VARIANCE> 25
 1.328635e+01 1.477826e+01 3.507384e+00 5.514133e+00 6.738991e+00 2.111704e+01 8.566001e+00 8.752850e+00 8.089756e+00 5.164089e+00 9.641773e+00 1.171019e+01 2.980248e+00 9.928917e-01 1.056139e+00 1.652693e+00 6.594769e-01 1.929495e+00 1.270817e+00 8.414198e-01 4.722665e+00 1.706721e+00 1.622463e+00 1.043871e+00 2.537395e+00
<GCONST> 7.741789e+01
~t "T_l"
<ENDHMM>
~h "i-ai+r"
<BEGINHMM>
<NUMSTATES> 5
<STATE> 2
<MEAN> 25
 -1.527679e+00 -1.095077e+01 -5.595424e+00 -4.369699e+00 -5.663603e-01 2.505109e+00 9.617524e+00 1.390002e+01 3.762340e+00 -6.461283e+00 1.017373e+00 6.847220e+00 -4.087556e-01 4.679327e-01 3.227782e-01 2.651804e-01 7.950426e-02 2.596282e-01 6.060677e-01 8.897897e-02 -3.168945e-01 1.426085e-01 7.000268e-02 5.441484e-02 -4.815313e-01
<VARIANCE> 25
 2.810335e+00 2.333672e+01 1.004260e+01 1.156808e+01 1.762762e+01 7.746785e+00 1.556993e+01 1.358287e+01 1.487325e+01 1.623443e+01 1.094087e+01 5.775315e+00 5.147317e-01 8.699036e-01 1.959223e+00 1.030812e+00 8.043448e-01 6.537530e-01 6.123207e-01 8.364033e-01 7.795686e-01 1.453489e+00 1.798514e+00 7.456297e-01 2.758598e-01
<GCONST> 7.250706e+01
<STATE> 3
<MEAN> 25
 -2.421697e+00 -2.747396e+00 -7.324364e+00 -5.717145e+00 -2.787094e+00 2.426494e+00 8.567499e+00 9.057834e+00 1.099637e+00 -6.042204e+00 -2.739234e+00 3.932688e+00 -1.615732e-01 1.356012e+00 3.460060e-01 4.781839e-02 -1.368230e-01 -1.535684e-01 -8.247357e-01 -1.448096e+00 -1.512555e-01 5.560478e-01 -3.467954e-01 -1.312068e-01 -7.317777e-01
<VARIANCE> 25
 3.898145e+00 1.089162e+01 5.359368e+00 2.447143e+00 3.536103e+00 5.332506e+00 1.099459e+01 1.353880e+01 1.680388e+01 1.886418e+01 4.583581e+00 7.255029e+00 2.966976e-01 5.559847e-01 1.003986e+00 1.018479e+00 5.567543e-01 8.225455e-01 1.585596e+00 8.677703e-01 1.501664e+00 9.320132e-01 1.386576e+00 1.170785e+00 8.285169e-02
<GCONST> 6.556040e+01
<STATE> 4
<MEAN> 25
 -1.769196e+00 2.884375e+00 -8.587825e+00 -9.766378e+00 -5.995611e+00 1.286276e+00 4.163085e+00 2.515094e+00 1.360244e+00 -1.621047e+00 -4.160076e+00 2.267026e+00 -3.636837e-01 3.662001e-01 4.889769e-01 7.222721e-02 1.523872e-01 1.963967e-01 -3.619478e-01 -5.382617e-01 7.870285e-02 3.924588e-01 1.600155e-01 -5.350340e-02 -3.336686e-01
<VARIANCE> 25
 2.417984e+00 2.474001e+00 5.391323e+00 4.492999e+00 5.068778e+00 3.824562e+00 3.829727e+00 4.489622e+00 7.892237e+00 9.111493e+00 5.181170e+00 6.006806e+00 1.789173e-01 1.609056e-01 6.753776e-01 8.381505e-01 1.004560e+00 5.454428e-01 6.467489e-01 2.911805e-01 1.271298e+00 1.088104e+00 6.944786e-01 7.074206e-01 7.370273e-02
<GCONST> 5.506347e+01
~t "T_ai"
<ENDHMM>
~h "m+eh"
<BEGINHMM>
<NUMSTATES> 5
<STATE> 2
<MEAN> 25
 -6.738404e+00 -7.167308e-01 -1.402098e+00 -1.541326e+00 -1.191992e+00 4.329891e-01 1.469113e+00 1.482285e+00 4.929973e+00 5.374542e+00 8.660092e-01 1.971067e+00 -3.342059e-02 -1.502224e-01 -8.074085e-02 1.253724e-01 -1.344649e-02 -1.456886e-01 -6.516462e-02 7.818171e-02 1.204162e-01 -1.362998e-01 -3.210824e-01 -3.302314e-01 3.877984e-02
<VARIANCE> 25
 1.923012e+00 2.475944e+01 8.503061e+00 1.476729e+01 1.871505e+01 2.096331e+01 2.152236e+01 1.860464e+01 1.222719e+01 1.887824e+01 6.159345e+00 1.708367e+01 1.244300e-01 4.450663e+00 5.256822e-01 1.649283e+00 1.776400e+00 1.853242e+00 3.372640e+00 3.721096e+00 1.148967e+00 2.748782e+00 1.394132e+00 1.515163e+00 8.150989e-01
<GCONST> 8.138615e+01
<STATE> 3
<MEAN> 25
 -7.005674e+00 3.211236e+00 -9.793289e-01 -1.786256e+00 9.408898e-01 3.170753e+00 5.571342e-01 -8.964545e-01 5.720469e+00 4.320006e+00 -2.012631e+00 2.602745e+00 4.235170e-02 1.741456e-01 3.015411e-02 -1.439710e-01 -5.855083e-02 1.061013e-01 -7.906044e-02 -1.898187e-01 -2.243911e-01 -1.571704e-01 -6.654982e-03 7.373987e-03 -2.957718e-02
<VARIANCE> 25
 2.977721e+00 2.811905e+00 2.170992e+00 3.607832e+00 2.473125e+00 4.457804e+00 6.805552e+00 8.774829e+00 7.464620e+00 6.014623e+00 5.868735e+00 8.055135e+00 3.319418e-01 5.955901e-01 4.225521e-01 7.459449e-01 4.326749e-01 6.325538e-01 1.091406e+00 1.352393e+00 1.191219e+00 9.602523e-01 9.091374e-01 1.005402e+00 1.363213e-01
<GCONST> 5.865017e+01
<STATE> 4
<MEAN> 25
 -4.762383e+00 9.076109e-01 -1.956121e+00 -5.058576e-01 4.421811e-01 2.249900e-01 8.383688e-01 1.737320e+00 2.503574e+00 4.093904e-01 -1.037397e+00 4.114155e+00 1.736490e+00 -9.307073e-01 -3.666233e-01 7.535616e-01 -4.344521e-01 -8.294761e-01 1.627764e+00 1.415234e+00 -1.852653e+00 -1.464865e+00 2.182078e-01 -7.179431e-01 1.497026e+00
<VARIANCE> 25
 1.402248e+01 1.602257e+01 1.126973e+01 1.527752e+01 1.109891e+01 4.094932e+01 1.297960e+01 2.425205e+01 1.790936e+01 4.671791e+01 9.829361e+00 2.451906e+01 1.437081e+00 3.359224e+00 1.166147e+00 2.889329e+00 1.873471e+00 5.832324e+00 2.200470e+00 3.528138e+00 1.624499e+00 3.582301e+00 6.170712e-01 6.353066e+00 1.013155e+00
<GCONST> 9.096557e+01
~t "T_m"
<ENDHMM>
~h "t-eh+o"
<BEGINHMM>
<NUMSTATES> 5
<STATE> 2
<MEAN> 25
 1.593647e+01 7.988426e+00 2.434582e+00 -1.040237e+00 -5.555261e+00 -1.754092e+00 1.441596e-01 2.639726e+00 -5.401738e-01 -4.391618e+00 -1.336448e+00 -4.790965e+00 -4.453885e-01 1.128974e+00 8.508519e-02 2.726625e-01 3.857959e-01 8.384978e-01 6.610969e-01 4.523425e-01 1.706060e+00 1.131924e+00 -4.022700e-01 3.006456e-01 -8.574638e-01
<VARIANCE> 25
 1.162302e+01 8.136879e+01 2.129471e+01 8.025185e+00 4.923280e+01 6.346109e+01 1.606498e+01 1.432019e+01 2.084769e+01 5.889542e+01 4.632772e+00 4.253099e+01 3.118676e+00 2.019978e+00 4.085553e+00 5.069560e-01 5.845302e+00 5.111301e+00 1.439812e+00 3.349216e+00 2.370030e+00 7.727330e-01 1.135962e+00 4.297523e+00 2.012560e+00
<GCONST> 9.425060e+01
<STATE> 3
<MEAN> 25
 1.563800e+01 -1.132570e+00 3.749749e+00 -1.047031e+00 -7.987839e+00 -1.098371e+00 1.351696e+00 3.757235e+00 -1.021374e+00 -1.031578e+01 -3.452062e+00 -8.698161e+00 1.288021e-01 1.334957e+00 -1.329375e-01 1.466440e-01 -1.589721e+00 -2.710012e+00 1.893058e-01 7.463495e-01 2.318348e+00 1.866033e+00 -1.124741e+00 -9.287657e-01 -5.802919e-01
<VARIANCE> 25
 1.332302e+01 5.561716e+01 1.593034e+00 5.846416e+00 5.068666e+01 2.280115e+01 8.364318e+00 5.257015e+00 2.022097e+01 7.766606e+01 1.062164e+01 4.314928e+01 1.492687e-01 5.022577e-01 3.075271e-01 5.355930e-01 2.552565e-01 6.756387e-01 7.312391e-01 1.688232e-01 1.252645e+00 1.083342e+00 9.741556e-01 7.103233e-01 1.075596e-01
<GCONST> 6.857274e+01
<STATE> 4
<MEAN> 25
 1.679216e+01 -1.709869e-01 2.831520e+00 -4.385250e-01 -1.065255e+01 -6.534626e+00 2.376805e+00 4.010226e+00 5.938145e-01 -8.137067e+00 -5.851813e+00 -9.449475e+00 9.609884e-02 1.195852e+00 -3.051333e-01 6.550297e-01 -7.139529e-01 -2.369602e+00 -2.255579e-01 1.074910e-03 1.020042e+00 1.867009e+00 -2.156034e-01 3.860746e-01 -5.494661e-01
<VARIANCE> 25
 9.318408e+00 4.385144e+01 2.050492e+00 3.579556e+00 2.508714e+01 2.330385e+01 3.927997e+00 3.335509e+00 1.442819e+01 3.526312e+01 9.265346e+00 2.302135e+01 6.911170e-02 6.008134e-01 1.592870e-01 5.977981e-01 1.019430e-01 6.773329e-01 2.786859e-01 6.554928e-02 7.882683e-01 2.409745e+00 3.396750e-01 2.409758e-01 1.484824e-01
<GCONST> 5.851438e+01
~t "T_eh"
<ENDHMM>
~h "t-ein"
<BEGINHMM>
<NUMSTATES> 5
<STATE> 2
<MEAN> 25
 9.195562e+00 2.924521e+00 -7.928439e+00 -1.142575e+01 -1.380228e+01 -4.480283e+00 9.455368e+00 8.342550e+00 -1.871120e+00 -2.808797e+00 -2.365861e-01 5.703540e-01 -2.379503e+00 6.017154e-01 -4.413472e-02 2.227860e-02 7.643057e-01 6.932995e-01 7.551366e-02 1.110391e-02 1.601277e+00 8.744862e-01 -7.706764e-01 4.988641e-01 -2.140082e+00
<VARIANCE> 25
 3.915898e+01 9.599042e+00 7.621749e+00 2.485464e+01 1.863964e+01 1.124807e+01 1.874557e+01 1.884993e+01 2.604301e+01 2.065203e+01 8.349257e+00 1.418653e+01 2.201035e+00 1.668630e+00 9.729204e-01 1.621546e+00 2.785598e+00 1.698135e+00 1.424195e+00 1.137007e+00 2.720135e+00 1.718412e+00 1.173774e+00 1.194963e+00 1.716418e+00
<GCONST> 8.560876e+01
<STATE> 3
<MEAN> 25
 -3.323375e+00 3.762394e+00 -4.408292e+00 -7.741354e+00 -4.650714e+00 1.570144e+00 4.756901e+00 4.300817e+00 5.353720e+00 7.755323e-01 -4.978957e+00 4.678253e-01 -6.373034e-01 1.247912e-02 7.119893e-01 1.051706e+00 1.129825e+00 4.418415e-01 -5.236021e-01 -6.031420e-01 4.301301e-02 2.103620e-01 -2.719020e-02 -6.404121e-02 -3.865884e-01
<VARIANCE> 25
 3.176462e+00 1.520045e+00 6.136907e+00 1.235347e+01 1.345816e+01 5.932771e+00 6.728686e+00 7.389583e+00 6.834174e+00 7.783950e+00 6.231150e+00 7.705241e+00 3.459545e-01 1.582826e-01 4.111289e-01 7.945222e-01 9.759877e-01 8.108543e-01 6.422479e-01 6.632529e-01 6.955389e-01 8.560991e-01 9.118181e-01 9.247279e-01 1.135380e-01
<GCONST> 6.000602e+01
<STATE> 4
<MEAN> 25
 -6.329570e+00 3.226225e+00 -1.134844e-01 -7.569087e-01 1.295823e+00 2.706638e+00 -1.758772e-01 -1.710325e+00 4.030778e+00 2.890066e+00 -2.150528e+00 2.391595e+00 -2.768102e-02 -3.073756e-02 3.050430e-02 5.207534e-02 2.506562e-02 -1.552039e-02 -4.487801e-02 -4.726501e-02 -3.700027e-02 1.196118e-02 5.836857e-02 1.917171e-02 -7.222439e-03
<VARIANCE> 25
 1.086717e+00 2.223698e+00 1.899562e+00 2.933587e+00 3.883290e+00 4.330296e+00 5.901889e+00 6.830261e+00 6.735149e+00 6.249862e+00 6.872680e+00 5.472155e+00 3.718439e-02 1.214554e-01 1.865557e-01 2.919415e-01 3.548808e-01 4.577031e-01 6.380106e-01 7.997273e-01 7.435210e-01 6.048036e-01 5.900290e-01 6.716458e-01 1.891393e-02
<GCONST> 4.593981e+01
~t "T_ein"
<ENDHMM>
~h "lu+m"
<BEGINHMM>
<NUMSTATES> 5
<STATE> 2
<MEAN> 25
 -6.125356e+00 4.198373e+00 3.474161e-01 -1.081654e+00 3.429380e-01 1.340710e+00 -1.850251e+00 -2.581593e+00 3.939441e+00 2.926714e+00 -2.140718e+00 2.678256e+00 3.173658e+00 1.101177e+00 4.815744e-01 2.016967e+00 2.893583e+00 1.757619e+00 -6.192189e-01 -1.867633e+00 -2.736666e+00 -1.479072e+00 1.308627e-01 -2.055906e+00 2.043461e+00
<VARIANCE> 25
 1.086717e+00 1.579677e+00 2.880782e+00 3.867155e+00 2.913674e+00 1.810869e+00 3.807960e+00 6.639794e+00 1.014585e+01 4.751839e+00 4.112567e+00 3.976811e+00 1.474078e+00 3.007914e-01 2.380996e-01 5.783454e-01 1.147860e+00 8.451736e-01 1.435345e+00 1.722855e+00 1.491461e+00 1.243965e+00 6.703780e-01 4.927764e-01 6.637639e-01
<GCONST> 5.764115e+01
<STATE> 3
<MEAN> 25
 7.119691e+00 7.860306e+00 1.619742e+00 7.756652e+00 1.423443e+01 1.078117e+01 -1.718635e+00 -7.732945e+00 -6.511980e+00 -3.113125e+00 -1.122393e+00 -5.597466e+00 4.272327e+00 -4.983880e-02 -4.096454e-02 2.926645e+00 4.441473e+00 2.864998e+00 1.815668e-01 -8.320552e-01 -3.163014e+00 -2.075309e+00 1.250415e+00 -1.561090e+00 3.190052e+00
<VARIANCE> 25
 9.748507e+00 5.310535e+00 9.049529e+00 5.995770e+00 9.767100e+00 9.735209e+00 5.870278e+00 1.283361e+01 6.023126e+00 1.126399e+01 9.931272e+00 1.022566e+01 3.204337e-01 6.823320e-01 4.216931e-01 1.325425e+00 4.430849e-01 8.708612e-01 4.162579e-01 3.758524e-01 1.046569e+00 1.598879e+00 1.630130e+00 6.019896e-01 1.773035e-01
<GCONST> 6.545877e+01
<STATE> 4
<MEAN> 25
 1.198737e+01 -6.384395e-03 1.439142e+00 1.151678e+01 1.739107e+01 5.555820e+00 -4.286465e+00 -1.196131e+00 -2.798710e+00 -3.968127e+00 1.785504e+00 -3.070559e+00 3.322105e-01 -4.517204e-01 -9.751709e-03 -1.429425e-01 -2.758304e-01 -3.573958e-01 2.836643e-01 2.415270e-01 2.198282e-01 1.524376e-01 1.203903e-01 2.505793e-01 6.239809e-01
<VARIANCE> 25
 5.519679e+00 3.399664e+01 1.208121e+01 1.016502e+01 1.285379e+01 3.770494e+01 1.368562e+01 2.904142e+01 2.899832e+01 1.772255e+01 1.614834e+01 1.187855e+01 5.369706e-01 1.506449e+00 8.159174e-01 2.105506e+00 1.901482e+00 2.394547e+00 2.405505e+00 2.423312e+00 2.907704e+00 2.505578e+00 1.266046e+00 1.530163e+00 5.915081e-01
<GCONST> 8.538908e+01
~t "T_lu"
<ENDHMM>
~h "lu-m"
<BEGINHMM>
<NUMSTATES> 5
<STATE> 2
<MEAN> 25
 8.389118e+00 1.867899e+00 -3.023277e+00 -5.760960e+00 -6.878669e+00 -3.438501e+00 3.272201e+00 5.741213e+00 -1.084467e+00 -3.295897e+00 1.061330e+00 2.287161e+00 -1.668398e+00 3.108501e-01 -1.137380e-01 -2.027973e-01 1.395872e-01 4.250608e-01 3.204013e-01 2.097414e-01 1.243156e+00 9.925507e-01 -7.220730e-03 8.271359e-01 -1.475040e+00
<VARIANCE> 25
 6.709044e+01 3.043979e+01 1.924819e+01 2.179264e+01 4.355478e+01 5.328018e+01 1.858451e+01 1.911938e+01 5.096817e+01 4.678979e+01 1.599854e+01 2.756047e+01 1.785239e+00 2.128318e+00 1.764215e+00 3.371423e+00 4.401850e+00 4.058771e+00 2.211481e+00 3.034695e+00 1.605130e+00 2.362955e+00 1.362850e+00 2.663490e+00 1.919760e+00
<GCONST> 9.827518e+01
<STATE> 3
<MEAN> 25
 -6.839036e+00 3.715097e+00 7.109976e-01 -3.195293e-01 2.171088e+00 3.592157e+00 1.216499e+00 -5.022607e-01 4.455660e+00 4.062347e+00 -3.559282e-01 3.516719e+00 -7.481375e-02 -6.501257e-02 9.008025e-02 1.587786e-01 8.487384e-02 -1.961602e-02 -1.482675e-01 -2.541966e-01 -1.528991e-01 -6.276388e-03 -3.109759e-02 -1.231352e-01 -2.966731e-02
<VARIANCE> 25
 1.774945e+00 1.924520e+00 2.346448e+00 5.158169e+00 3.928931e+00 4.990990e+00 7.988011e+00 1.123391e+01 6.208968e+00 5.013677e+00 9.850776e+00 6.888444e+00 1.322512e-01 1.260126e-01 3.352942e-01 6.097561e-01 5.984621e-01 6.078445e-01 6.633092e-01 6.629897e-01 8.437513e-01 6.049065e-01 8.893628e-01 5.849676e-01 5.706642e-02
<GCONST> 5.309312e+01
<STATE> 4
<MEAN> 25
 8.163836e+00 -2.847916e-01 4.648284e+00 6.111839e+00 -1.629853e+00 -2.598040e+00 4.333353e+00 -6.094483e-01 -1.259859e+01 -5.801147e+00 2.991952e+00 -4.375814e+00 1.236767e+00 -4.035591e-01 -1.674816e-01 -1.816264e-01 -4.372781e-01 -6.896824e-01 -3.644756e-02 2.018722e-01 -6.601794e-01 -4.504589e-01 2.701642e-01 -1.775566e-01 1.161854e+00
<VARIANCE> 25
 6.334587e+01 2.117718e+01 1.757057e+01 3.269421e+01 1.711938e+01 1.874719e+01 2.403166e+01 1.388548e+01 1.105197e+02 5.803252e+01 1.331415e+01 4.860011e+01 3.337537e+00 2.807537e+00 2.296016e+00 3.884452e+00 1.262229e+00 2.213613e+00 2.369730e+00 1.085761e+00 7.300817e+00 3.801025e+00 1.188904e+00 3.759377e+00 2.725313e+00
<GCONST> 9.854341e+01
~t "T_m"
<ENDHMM>
~h "a-lu+m"
<BEGINHMM>
<NUMSTATES> 5
<STATE> 2
<MEAN> 25
 -1.743079e+00 1.089078e+00 2.655743e-02 -2.844169e+00 -1.081361e+00 -7.210376e-01 -2.076550e+00 -1.149746e+00 3.077877e+00 3.617382e+00 1.756993e+00 1.381813e+00 1.310813e-02 -7.992038e-03 4.604066e-01 8.127260e-01 7.910629e-01 3.435831e-01 -3.709712e-01 -6.459906e-01 -7.259859e-01 -2.568091e-01 -2.199760e-01 -3.562373e-01 5.143245e-02
<VARIANCE> 25
 8.211758e+01 3.948733e+01 2.109128e+00 5.755455e+00 1.903945e+01 4.737173e+01 7.047633e+00 5.999915e+00 4.113190e+01 9.081437e+00 3.974668e+01 1.042370e+01 1.890302e+00 4.282662e-01 6.791611e-01 1.545451e+00 1.918939e+00 2.444175e+00 1.400283e+00 1.570724e+00 2.104844e+00 5.434598e-01 6.169130e-01 1.104654e+00 1.146156e+00
<GCONST> 8.108429e+01
<STATE> 3
<MEAN> 25
 1.592176e+01 -7.874416e+00 3.072845e+00 4.928798e+00 2.994411e+00 -8.648798e+00 -1.014246e+01 -3.869321e+00 -9.711601e+00 -4.973583e+00 6.564203e+00 -4.904369e+00 1.253658e-01 1.138071e+00 2.388286e-02 2.566972e+00 3.042866e+00 2.633040e+00 -5.274470e-01 -4.804763e-01 8.156047e-01 -1.367202e+00 -1.736590e+00 -4.584596e-01 -9.534509e-01
<VARIANCE> 25
 4.753707e+00 2.542180e+01 4.824368e+00 2.946437e+01 4.292083e+01 6.185599e+01 2.686278e+01 1.575870e+01 3.546869e+01 2.266810e+01 3.364484e+01 1.019565e+01 2.677147e+00 1.568012e+00 8.557333e-01 2.797846e-01 1.185381e+00 5.215145e+00 3.369020e+00 2.750260e+00 7.009199e+00 2.757500e+00 2.517782e+00 1.551534e+00 3.576707e+00
<GCONST> 9.180964e+01
<STATE> 4
<MEAN> 25
 1.387015e+01 -1.716388e+00 2.766263e+00 9.923722e+00 8.997804e+00 4.914920e+00 -1.020519e+00 -3.750889e+00 -8.551956e+00 -5.327178e+00 2.737299e+00 -6.065226e+00 8.360540e-03 1.338622e-01 -7.539855e-02 -3.722416e-01 -3.880917e-01 -1.179961e-01 2.553812e-01 1.335320e-01 -1.159959e-01 -4.109621e-02 -4.839927e-02 3.979561e-02 -2.520392e-02
<VARIANCE> 25
 4.304770e+00 2.883167e+01 1.559542e+01 1.776974e+01 3.784235e+01 1.540787e+01 6.136233e+01 1.841033e+01 4.548243e+01 3.176480e+01 2.057429e+01 3.159452e+01 3.589101e-01 1.727708e+00 1.080097e+00 1.824996e+00 1.540844e+00 1.635430e+00 3.384861e+00 1.839454e+00 2.223958e+00 3.299335e+00 1.661579e+00 2.481466e+00 9.585418e-01
<GCONST> 8.986437e+01
~t "T_lu"
<ENDHMM>
~h "lu-m+i"
<BEGINHMM>
<NUMSTATES> 5
<STATE> 2
<MEAN> 25
 1.632933e+01 2.422796e+00 1.016692e+00 4.741224e+00 6.347677e+00 7.488271e+00 8.522500e+00 -1.679670e+00 -5.788269e+00 -5.796211e-01 1.715268e+00 -2.436806e+00 2.123396e-01 2.322123e+00 4.335798e-01 2.255702e-01 -1.941067e+00 8.283898e-01 1.653059e+00 -2.430322e-02 -2.444145e+00 -5.389039e-01 -4.202792e-01 -2.144545e+00 -1.904565e+00
<VARIANCE> 25
 5.995222e+00 1.829514e+01 1.246839e+01 1.605764e+01 1.344278e+01 1.290838e+01 8.769943e+00 1.563182e+01 4.265124e+01 1.047438e+01 8.407948e+00 2.587377e+01 5.355344e-01 1.179454e+00 1.522734e+00 2.093388e+00 1.608202e+00 2.203538e+00 2.938221e+00 1.166866e+00 2.778573e+00 1.366702e+00 1.374585e+00 2.626192e+00 1.119930e+00
<GCONST> 8.343371e+01
<STATE> 3
<MEAN> 25
 1.572306e+01 4.579122e+00 1.837323e+00 6.804561e+00 3.368287e+00 6.527797e+00 9.141105e+00 -2.396823e+00 -1.362244e+01 -5.341757e+00 1.790198e+00 -7.701170e+00 -4.014143e-02 -4.141791e-01 -9.183060e-02 -3.756430e-01 -1.485418e-01 -3.344867e-01 -5.430236e-01 1.443405e-01 -1.891484e-01 -8.013734e-01 -6.975192e-01 -8.932087e-01 1.093282e-01
<VARIANCE> 25
 1.086717e+00 5.844984e+00 2.066795e+00 7.413387e-01 9.726421e-01 1.057061e+01 7.602770e+00 8.865854e+00 6.072352e+00 5.433179e+00 3.902564e+00 3.360471e+00 5.636679e-02 1.347728e-01 1.787093e-01 1.210841e-01 3.201599e-01 2.752559e-01 2.937916e-01 5.152705e-01 1.842565e+00 3.331609e-01 3.225645e-01 3.796082e-01 5.131180e-02
<GCONST> 4.224530e+01
<STATE> 4
<MEAN> 25
 1.559480e+01 3.098623e-01 3.447691e+00 1.092142e+01 5.373004e+00 -7.758403e-01 3.598676e+00 1.417366e+00 -6.697291e+00 -4.646141e+00 -3.239033e+00 -1.049949e+01 -6.177059e-01 -2.261668e+00 2.085371e+00 3.018848e+00 -4.856186e-01 -5.203732e+00 -1.479096e+00 2.603680e+00 2.047033e+00 -3.230619e-01 -1.375566e+00 -8.981966e-01 9.942183e-01
<VARIANCE> 25
 2.368359e+00 1.913034e+01 7.869602e+00 3.905221e+01 1.185053e+01 8.139290e+01 3.000729e+01 2.221145e+01 2.311648e+01 6.513232e+00 1.538337e+01 7.267681e+00 2.836284e-01 3.388063e-01 2.481825e+00 1.802437e+00 2.909650e+00 2.965260e+00 3.351764e+00 8.834212e-01 1.671989e+00 6.863650e-01 7.745165e-01 6.062425e-01 7.062358e-02
<GCONST> 7.772066e+01
~t "T_m"
<ENDHMM>
~h "eh+t"
<BEGINHMM>
<NUMSTATES> 5
<STATE> 2
<MEAN> 25
 -4.748466e+00 2.042558e+00 -3.064906e+00 -3.003450e+00 -2.093981e-02 2.879884e+00 1.112784e+00 -8.259544e-01 3.317432e+00 2.509739e+00 -2.628022e+00 2.466084e+00 1.938464e+00 -3.057176e-01 6.681910e-01 1.314063e+00 2.613367e-01 -1.935683e+00 -1.589233e+00 -3.822449e-01 -1.771552e+00 -3.804657e-01 6.842188e-01 -1.710945e+00 1.651251e+00
<VARIANCE> 25
 4.589029e+00 5.311322e+00 2.987301e+01 1.798699e+01 1.001958e+01 3.467149e+00 1.320615e+01 4.790968e+00 1.207487e+01 4.872405e+00 1.643668e+00 7.783322e-01 1.848444e+00 4.367779e-01 1.013321e+00 1.537634e+00 4.145591e-01 1.042641e+00 7.685341e-01 6.133346e-01 3.475565e+00 9.610618e-01 9.832029e-01 1.093258e+00 1.626632e+00
<GCONST> 6.784674e+01
<STATE> 3
<MEAN> 25
 -3.465256e+00 3.145357e+00 -5.488875e-01 6.547588e-01 1.704636e+00 -2.295549e-01 -1.427537e+00 -1.475694e+00 1.654415e+00 2.072884e+00 -1.227716e+00 1.507226e+00 4.767873e+00 -2.414036e+00 1.932665e+00 2.801865e+00 1.569444e+00 -3.996986e+00 -3.350526e+00 -7.058378e-01 -5.126550e+00 -1.923128e+00 2.115323e+00 -4.159225e+00 5.242218e+00
<VARIANCE> 25
 5.783791e+00 5.831201e+00 7.449466e+00 9.134063e+00 8.436468e+00 1.518817e+01 3.911279e+00 5.704886e+00 1.160199e+01 1.999267e+00 5.080823e+00 6.433682e+00 9.790215e-01 3.536528e-01 1.610144e+00 5.323340e+00 6.117799e-01 4.187835e-01 7.352649e-01 8.039784e-01 1.358804e+00 5.023955e-01 2.115050e+00 3.577718e-01 9.365146e-01
<GCONST> 6.674876e+01
<STATE> 4
<MEAN> 25
 1.260717e+01 -9.163600e+00 7.174245e+00 7.013234e+00 6.705523e+00 -1.252121e+01 -1.174410e+01 -2.541138e+00 -1.419065e+01 -6.917055e+00 6.363458e+00 -1.079569e+01 1.614173e+00 -1.462464e+00 1.297552e+00 7.121909e-01 8.127170e-01 -1.208650e+00 -8.489348e-01 3.083019e-01 -1.165951e+00 -1.578361e+00 4.787936e-01 -1.031111e+00 2.522679e+00
<VARIANCE> 25
 5.066468e+00 2.194488e+01 1.778408e+01 1.783797e+01 1.078378e+01 7.844318e+00 1.082259e+01 1.326741e+01 1.681778e+01 1.468151e+01 1.909815e+01 5.600337e+00 4.807292e+00 3.454282e+00 1.265712e+00 1.494889e+00 1.077630e+00 4.237285e+00 2.933944e+00 1.163676e+00 9.182280e+00 1.543928e+00 2.464269e+00 2.976142e+00 7.529146e+00
<GCONST> 8.886092e+01
~t "T_eh"
<ENDHMM>
~h "eh-o"
<BEGINHMM>
<NUMSTATES> 5
<STATE> 2
<MEAN> 25
 1.652461e+01 1.862660e+00 4.578730e+00 2.461156e+00 -1.457831e+01 -1.589282e+01 -3.626187e+00 2.614852e+00 -1.636275e-01 -3.812612e+00 -2.831943e+00 -9.013030e+00 -5.064519e-01 5.539638e-01 5.710519e-02 -1.038387e-02 -7.018581e-02 -4.421083e-01 -3.440465e-01 -2.704627e-01 -1.832436e-01 3.219318e-01 1.589798e-02 5.061270e-02 -6.240165e-01
<VARIANCE> 25
 6.563913e+00 1.832652e+01 1.036071e+01 7.719547e+00 6.604921e+00 1.655445e+01 7.388618e+00 5.494542e+00 9.430494e+00 9.774139e+00 6.345097e+00 1.072976e+01 5.425799e-01 6.899695e-01 7.749494e-01 7.909356e-01 5.296890e-01 6.429834e-01 3.697906e-01 3.914536e-01 7.383667e-01 9.889894e-01 4.574253e-01 5.249010e-01 5.639418e-01
<GCONST> 6.546548e+01
<STATE> 3
<MEAN> 25
 1.033226e+00 9.127342e+00 2.301691e+00 -1.081767e+00 -3.732432e+00 -3.050529e+00 -1.493098e+00 -1.021281e+00 2.761555e+00 2.373646e+00 -3.166720e+00 -1.846092e+00 -2.339803e+00 -6.565593e-01 -4.521838e-01 -2.081078e-03 2.239078e+00 2.792643e+00 7.014073e-01 4.208835e-02 1.271518e+00 1.154101e+00 6.385252e-01 1.932053e+00 -1.584587e+00
<VARIANCE> 25
 2.928880e+01 9.836127e+00 6.993556e+00 9.136709e+00 6.221914e+01 9.651653e+01 3.052382e+01 1.352293e+01 1.836725e+01 2.069053e+01 1.844258e+01 3.360919e+01 1.172796e+00 1.461960e+00 8.148543e-01 1.552226e+00 2.947458e+00 4.054854e+00 1.322592e+00 1.096012e+00 1.603874e+00 1.338655e+00 1.157970e+00 1.027267e+00 7.918268e-01
<GCONST> 8.719095e+01
<STATE> 4
<MEAN> 25
 -6.509881e+00 3.528272e+00 -7.474718e-01 -6.038401e-01 1.776413e+00 3.014352e+00 -3.550050e-01 -1.392553e+00 3.685004e+00 2.933556e+00 -1.764146e+00 3.331328e+00 -2.427305e-02 -2.875866e-02 -2.496373e-02 -1.906599e-02 3.206980e-03 1.868859e-02 2.367966e-02 1.218780e-02 -4.019688e-04 -6.546068e-03 -6.925302e-03 -3.655379e-03 -8.925209e-03
<VARIANCE> 25
 1.086717e+00 1.563215e+00 2.384458e+00 2.751622e+00 4.495162e+00 4.514996e+00 7.319562e+00 6.199927e+00 6.540916e+00 6.326972e+00 5.651921e+00 6.602601e+00 5.537450e-02 1.624541e-01 2.113924e-01 3.252687e-01 4.147888e-01 5.119897e-01 8.015383e-01 6.469885e-01 6.955444e-01 6.776972e-01 6.539454e-01 7.246913e-01 1.891393e-02
<GCONST> 4.746491e+01
~t "T_o"
<ENDHMM>
~h "sil"
<BEGINHMM>
<NUMSTATES> 5
<STATE> 2
<MEAN> 25
 -2.437583e+01 -1.866780e+00 -9.334759e+00 3.070791e+00 -6.755499e-01 5.399538e+00 -1.140119e+01 -5.870631e+00 -2.222497e+00 3.533737e+00 9.388475e-01 2.673558e+00 1.587679e-02 -1.080682e-02 2.772076e-02 3.853579e-02 1.561321e-02 -2.596372e-02 -3.625257e-02 1.088595e-01 3.309228e-02 -4.247175e-02 -3.162324e-02 2.165654e-02 -5.345554e-04
<VARIANCE> 25
 3.494281e+01 3.815386e+00 1.221824e+01 4.553151e+00 2.865623e+00 4.161716e+00 1.628181e+01 5.978418e+00 7.064864e+00 5.952800e+00 4.337622e+00 4.026301e+00 3.194051e-02 5.648486e-02 1.412448e-01 3.165635e-01 3.147558e-01 2.079963e-01 4.394208e-01 5.126535e-01 6.457359e-01 7.886517e-01 5.059807e-01 4.775556e-01 1.891393e-02
<GCONST> 4.880973e+01
<STATE> 3
~s "silst"
<STATE> 4
<MEAN> 25
 -6.002900e+00 2.753011e+00 -9.167300e-01 -1.212645e+00 3.902621e-01 2.217580e+00 1.003666e-01 -1.372962e+00 2.867940e+00 2.139794e+00 -1.580353e+00 2.289730e+00 7.808608e-03 1.907980e-02 2.428100e-02 1.742992e-02 1.130432e-02 -3.733102e-03 2.356983e-03 2.686375e-02 4.912508e-02 1.453642e-02 1.036778e-02 -6.623353e-03 4.834533e-03
<VARIANCE> 25
 2.342831e+00 7.930995e+00 5.322478e+00 6.654288e+00 5.574696e+00 7.121892e+00 9.816634e+00 1.024136e+01 7.510459e+00 7.237679e+00 6.710468e+00 7.497459e+00 1.102460e-01 7.306597e-01 3.449120e-01 5.828547e-01 5.166728e-01 7.264017e-01 9.712378e-01 1.087134e+00 7.906385e-01 6.959695e-01 6.906128e-01 7.578222e-01 1.330430e-01
<GCONST> 6.033133e+01
<TRANSP> 5
 0.000000e+00 1.000000e+00 0.000000e+00 0.000000e+00 0.000000e+00
 0.000000e+00 8.083866e-01 8.982073e-02 1.017927e-01 0.000000e+00
 0.000000e+00 0.000000e+00 7.929371e-01 2.070630e-01 0.000000e+00
 0.000000e+00 4.620302e-16 0.000000e+00 9.601933e-01 3.980670e-02
 0.000000e+00 0.000000e+00 0.000000e+00 0.000000e+00 0.000000e+00
<ENDHMM>
~h "eu+r"
<BEGINHMM>
<NUMSTATES> 5
<STATE> 2
<MEAN> 25
 7.549663e+00 6.475568e-01 1.941371e+00 -2.085378e+00 -3.187933e+00 -5.460050e+00 -2.903786e+00 -4.987774e+00 -7.525779e+00 -3.071957e+00 4.582548e+00 -1.186474e+00 4.482902e+00 -2.488935e+00 8.198224e-01 -5.906713e-01 -1.158162e+00 -2.763811e+00 1.661345e-01 -4.564189e-01 -3.801144e+00 -2.091279e+00 2.514860e+00 -8.469834e-01 5.484301e+00
<VARIANCE> 25
 7.311279e+01 3.432773e+01 1.651936e+01 1.123239e+01 1.592770e+01 3.319818e+01 2.689460e+01 1.483441e+01 6.875968e+01 2.562157e+01 3.192638e+01 1.989942e+01 3.348649e+00 2.571620e+00 1.067645e+00 1.365171e+00 3.261495e+00 1.811458e+00 5.158273e+00 1.229395e+00 4.041334e+00 1.803113e+00 1.356767e+00 1.192304e+00 2.736036e+00
<GCONST> 9.481268e+01
<STATE> 3
<MEAN> 25
 1.777573e+01 -9.249525e+00 2.467368e+00 -2.190136e+00 -2.892791e+00 -9.602391e+00 -2.220160e+00 -3.735467e+00 -1.656192e+01 -5.959771e+00 8.412089e+00 -2.894943e+00 1.753725e-01 1.169684e-01 -2.190152e-01 -2.355330e-01 -3.765920e-01 1.214773e-01 9.793947e-02 2.655531e-01 1.959151e-01 1.560863e-01 -2.475189e-01 -6.479683e-03 -8.539277e-02
<VARIANCE> 25
 1.211040e+00 7.306551e+00 7.054330e+00 8.167014e+00 1.341343e+01 6.636090e+00 9.207554e+00 1.019052e+01 9.578048e+00 1.014051e+01 5.573803e+00 6.605272e+00 1.229010e-01 1.472999e+00 5.250616e-01 8.133545e-01 1.332539e+00 4.795929e-01 1.247192e+00 9.759923e-01 1.405921e+00 7.746751e-01 3.902420e-01 4.168246e-01 4.637530e-01
<GCONST> 6.408299e+01
<STATE> 4
<MEAN> 25
 5.324238e+00 -3.907861e+00 5.508356e-01 -6.049637e+00 -7.335642e+00 -5.639430e+00 4.680660e+00 1.704320e+01 1.054064e+01 -3.333675e+00 -2.599047e+00 -2.973377e-01 -8.267673e-01 2.752461e-01 -2.205967e-01 1.913772e-02 2.234193e-01 2.042144e-01 7.739671e-02 3.596395e-01 8.884630e-01 3.228890e-01 -3.790029e-01 1.495287e-01 -8.432655e-01
<VARIANCE> 25
 4.548627e+01 1.969831e+01 2.359905e+01 1.501096e+01 2.124776e+01 1.303030e+01 1.642737e+01 7.046649e+01 5.905054e+01 2.462484e+01 1.663441e+01 1.991347e+01 2.077543e+00 2.009523e+00 1.499313e+00 1.905017e+00 2.390767e+00 1.465799e+00 1.790633e+00 5.870436e+00 4.584745e+00 2.062225e+00 1.979161e+00 1.753880e+00 4.899849e-01
<GCONST> 9.324022e+01
~t "T_eu"
<ENDHMM>
~h "eu-r"
<BEGINHMM>
<NUMSTATES> 5
<STATE> 2
<MEAN> 25
 -2.264575e+00 3.143147e+00 -4.992812e+00 -6.629369e+00 -4.965813e+00 -5.640033e-01 2.996464e+00 5.269194e+00 6.829685e+00 2.355508e+00 -2.523282e+00 1.219887e+00 -8.355494e-01 2.699665e-01 8.782848e-01 7.929723e-01 9.577109e-01 9.996117e-01 -2.214996e-01 -1.297537e+00 -7.574827e-01 3.616385e-01 7.020392e-01 4.224429e-01 -5.935690e-01
<VARIANCE> 25
 4.264466e+00 3.251561e+00 6.964250e+00 5.238554e+00 9.235591e+00 1.042347e+01 8.424816e+00 1.409987e+01 1.622227e+01 7.853776e+00 6.546028e+00 6.084885e+00 3.201973e-01 1.036683e+00 6.649239e-01 2.530685e+00 1.363862e+00 7.689126e-01 1.600276e+00 6.779117e-01 1.132788e+00 6.827931e-01 1.407032e+00 4.129096e-01 8.891317e-02
<GCONST> 6.637630e+01
<STATE> 3
<MEAN> 25
 -5.671914e+00 1.940874e+00 -9.820820e-02 4.320832e-01 -1.887256e-01 1.677683e+00 9.476546e-01 -1.066164e+00 1.988232e+00 2.879316e+00 4.633826e-01 2.104646e+00 -9.580901e-02 1.329412e-02 1.345644e-01 1.730831e-01 1.348146e-01 5.139584e-02 -1.771084e-01 -2.954035e-01 -2.124555e-01 -1.715207e-01 -5.685034e-02 -1.053607e-01 -6.230953e-02
<VARIANCE> 25
 1.086717e+00 1.051058e+01 4.484719e+00 2.736731e+01 3.904544e+00 1.241174e+01 1.151477e+01 8.366993e+00 1.137290e+01 5.358572e+00 6.499138e+00 7.122169e+00 5.582790e-02 8.770347e-01 2.205855e-01 1.661176e+00 5.059557e-01 1.305782e+00 7.815911e-01 6.973266e-01 1.160296e+00 6.000056e-01 6.034218e-01 7.862424e-01 7.897934e-02
<GCONST> 6.089759e+01
<STATE> 4
<MEAN> 25
 -5.979602e+00 4.543746e+00 -5.194033e-01 -4.857295e-01 2.171221e+00 3.566162e+00 -1.252919e+00 -2.637095e+00 3.063511e+00 3.147318e+00 -1.647454e+00 2.105608e+00 -1.309585e-02 -1.683039e-02 -8.658017e-04 1.228222e-02 1.547454e-02 9.198234e-03 -4.144807e-03 -4.605211e-03 -7.218456e-03 1.657613e-02 -6.419015e-03 9.932811e-03 7.390231e-05
<VARIANCE> 25
 1.086717e+00 2.550535e+00 2.775294e+00 2.907785e+00 3.173149e+00 4.257266e+00 5.975460e+00 6.449526e+00 8.213848e+00 6.902472e+00 6.010687e+00 6.793440e+00 4.622854e-02 1.466978e-01 1.698185e-01 2.953879e-01 4.067986e-01 4.765321e-01 6.727279e-01 6.709478e-01 6.805323e-01 6.211112e-01 7.239168e-01 7.185542e-01 1.891393e-02
<GCONST> 4.715201e+01
~t "T_r"
<ENDHMM>
~h "ff-i+ch"
<BEGINHMM>
<NUMSTATES> 5
<STATE> 2
<MEAN> 25
 1.770713e+00 -1.308165e+01 5.729842e+00 8.498905e+00 -3.935910e-01 -6.901561e+00 -8.585929e+00 -1.460414e+00 3.708344e-01 -6.207652e-01 8.515896e-01 -2.817959e+00 1.270633e+00 4.088686e+00 -2.314657e+00 8.045048e-01 1.469423e-01 1.147921e+00 1.240820e-01 6.598597e-01 -1.378295e+00 5.077878e-01 2.405953e-01 -3.811276e-01 -2.340553e+00
<VARIANCE> 25
 8.658678e+00 4.132623e+01 4.190414e+00 1.016822e+01 5.802490e+00 5.897183e+00 1.215364e+01 4.467041e+00 8.764944e+00 8.014665e+00 1.166518e+01 2.328507e+01 5.326508e-01 1.557317e+00 5.891569e-01 9.946047e-01 1.216466e+00 8.191686e-01 1.587645e+00 5.693095e-01 9.296023e-01 7.520264e-01 1.071252e+00 1.999130e+00 2.732720e-01
<GCONST> 7.124290e+01
<STATE> 3
<MEAN> 25
 3.479518e+00 -5.965511e+00 1.147976e+00 7.853210e+00 -2.133343e+00 -7.281106e+00 -6.102395e+00 8.147852e-01 -2.463540e+00 3.527133e-01 2.175231e+00 -4.730429e+00 -4.874664e-01 2.264946e+00 -2.823804e+00 -1.037469e+00 3.251707e-01 8.847384e-01 2.288211e+00 9.469618e-01 9.471831e-01 2.168798e+00 9.938813e-01 9.107755e-01 -2.207438e+00
<VARIANCE> 25
 7.829695e+00 2.393954e+01 7.032514e+00 7.389007e+00 1.990824e+01 9.582603e+00 5.758686e+00 6.618786e+00 9.395313e+00 7.086180e+00 8.644521e+00 1.312137e+01 1.215463e+00 4.674253e+00 1.118062e+00 2.003728e-01 9.824586e-01 6.486319e-01 8.925032e-01 1.006019e+00 5.504466e-01 9.282784e-01 8.054050e-01 2.306885e+00 4.065183e-01
<GCONST> 7.168297e+01
<STATE> 4
<MEAN> 25
 1.806622e+00 -4.844290e+00 -3.796155e+00 3.271909e+00 9.340181e-01 -1.428341e+00 -2.433007e-01 3.170083e+00 1.107387e+00 3.172355e+00 4.073628e+00 -6.280091e-01 1.846545e-01 1.245178e+00 -1.157655e+00 -2.103964e+00 -5.995559e-01 9.956274e-01 1.421227e+00 8.936931e-02 -7.563437e-01 -7.696331e-01 -4.650434e-01 7.907851e-01 -4.421147e-01
<VARIANCE> 25
 1.239235e+01 2.197030e+01 2.079584e+01 1.377887e+01 7.858109e+00 1.307939e+01 1.278527e+01 1.579761e+01 2.937779e+01 2.224226e+01 5.075590e+00 1.893078e+01 1.752899e+00 1.251280e+00 2.987872e+00 1.377311e+00 2.288021e+00 2.592206e+00 9.734162e-01 2.112108e+00 3.340005e+00 2.722065e+00 1.857941e+00 4.604566e+00 9.138885e-01
<GCONST> 8.716467e+01
~t "T_i"
<ENDHMM>
~h "a-ff+i"
<BEGINHMM>
<NUMSTATES> 5
<STATE> 2
<MEAN> 25
 1.729464e+01 -8.262247e+00 -4.615786e+00 -1.115325e+01 -1.166586e+01 -9.184114e+00 5.060841e+00 7.594797e+00 -5.021554e+00 -2.613449e+00 6.676776e+00 -3.541154e+00 1.040346e+00 -1.720855e-01 7.070777e-01 -4.693421e-01 5.317385e-01 -4.959100e-01 -5.914288e-01 -1.507152e-01 -2.711085e-01 -2.503212e-01 6.855975e-01 -1.154397e-01 1.580339e+00
<VARIANCE> 25
 2.532099e+00 9.680813e+00 4.380017e+00 4.103815e+00 8.856973e+00 4.031898e+00 1.142771e+01 4.129964e+00 6.068680e+00 9.249885e+00 1.634284e+01 2.316520e+00 2.888887e+00 3.882890e+00 9.476287e-01 1.469074e+00 2.275310e+00 1.247670e+00 1.590205e+00 1.553585e+00 7.994874e-01 1.227005e+00 1.265799e+00 1.033964e+00 5.649460e+00
<GCONST> 7.380402e+01
<STATE> 3
<MEAN> 25
 5.201677e+00 -3.196297e+00 7.126561e+00 7.497230e-01 6.910056e+00 -4.793527e+00 4.900439e+00 3.602974e+00 3.221148e+00 1.371932e+00 6.306291e+00 4.112161e-01 -3.620906e-01 -1.642403e-01 6.299506e-01 1.197611e+00 6.146333e-01 1.621412e-01 1.510583e-02 4.406039e-02 2.708559e-02 -7.952583e-02 -1.264167e-01 2.690789e-02 -2.159541e-01
<VARIANCE> 25
 7.443245e+01 3.204271e+01 2.356421e+01 4.336222e+01 4.828510e+01 2.278748e+01 2.272506e+01 1.828284e+01 4.806501e+01 1.208906e+01 1.523269e+01 1.023847e+01 4.769114e+00 3.019622e+00 2.418023e+00 2.940673e+00 3.322997e+00 3.151150e+00 2.490684e+00 2.572377e+00 4.353103e+00 2.079414e+00 1.940785e+00 1.472668e+00 1.298123e+00
<GCONST> 9.744937e+01
<STATE> 4
<MEAN> 25
 2.252785e-01 -1.767020e+01 1.351273e+01 9.757492e+00 1.828266e+00 -9.439716e+00 -2.478798e+00 1.748132e+00 -6.550393e-02 -6.807024e+00 3.220587e+00 -1.984817e+00 -2.455253e-01 -2.025356e-01 -1.351793e-01 -2.637382e-01 -1.764828e-01 -9.398774e-02 -2.616122e-01 -2.027007e-01 1.807835e-01 8.298295e-02 -9.824800e-02 -5.111489e-03 -1.184900e-01
<VARIANCE> 25
 7.220743e+01 5.561234e+01 8.951117e+00 7.819209e+01 1.262519e+01 1.999913e+01 2.087843e+01 2.061240e+01 8.249851e+01 1.707139e+01 9.695194e+00 1.473845e+01 1.707209e+00 2.154807e+00 1.080663e+00 2.270462e+00 9.377665e-01 1.068059e+00 9.979479e-01 1.120794e+00 2.947553e+00 1.306339e+00 1.216653e+00 1.232072e+00 4.129078e-01
<GCONST> 8.778625e+01
~t "T_ff"
<ENDHMM>
~h "m-eh+t"
<BEGINHMM>
<NUMSTATES> 5
<STATE> 2
<MEAN> 25
 2.386903e-01 5.648142e+00 1.803037e+00 3.202242e+00 4.042474e+00 6.565494e+00 6.789293e+00 1.093651e+00 -3.361326e-01 7.881056e-01 -2.278025e+00 -2.330545e+00 2.055578e+00 2.190613e+00 1.771602e+00 1.946620e+00 2.011968e+00 1.999016e+00 8.108617e-01 -1.820465e+00 -1.458044e+00 2.859872e-02 -9.943900e-01 -2.673162e+00 1.021408e+00
<VARIANCE> 25
 2.322538e+01 3.231716e+01 2.970106e+01 2.876329e+01 2.760189e+01 1.559942e+01 2.280607e+01 2.774371e+01 2.697374e+01 2.423200e+01 1.189699e+01 4.525317e+01 3.168851e+00 2.509868e+00 1.364260e+00 1.440449e+00 1.601406e+00 2.135836e+00 3.442657e+00 1.662663e+00 4.423292e+00 2.618242e+00 1.266590e+00 5.839798e+00 2.284565e+00
<GCONST> 9.560444e+01
<STATE> 3
<MEAN> 25
 1.191827e+01 8.489539e+00 2.012556e+00 7.475555e+00 6.948439e+00 1.084152e+01 1.011957e+01 -6.781204e+00 -9.457136e+00 3.351324e+00 3.261271e-01 -1.153585e+01 7.822601e-01 -3.682120e-01 -4.781730e-01 -2.367325e-01 -1.696642e-01 -9.125924e-02 8.886196e-03 4.407118e-02 -3.485762e-01 -2.002316e-01 3.862912e-01 6.237625e-02 6.502119e-01
<VARIANCE> 25
 7.730619e+00 9.664073e+00 7.431361e+00 8.461493e+00 5.132096e+00 3.962391e+00 1.540689e+01 7.263378e+00 1.142735e+01 1.360918e+01 1.066241e+01 6.358826e+00 5.402880e-01 8.642597e-01 4.869019e-01 6.432459e-01 5.098729e-01 1.119090e+00 1.633760e+00 7.737425e-01 9.778948e-01 1.944515e+00 1.108588e+00 1.224734e+00 4.230991e-01
<GCONST> 6.923427e+01
<STATE> 4
<MEAN> 25
 1.623038e+01 -7.432250e+00 2.333813e+00 7.105750e+00 5.346927e+00 -4.687558e+00 -5.411890e+00 -1.491351e+00 -1.147366e+01 -7.736123e+00 5.070549e+00 -6.764001e+00 -3.498625e-01 -3.097860e+00 1.776047e+00 6.597352e-01 -8.174445e-02 -3.232490e+00 -3.454404e+00 4.727038e-01 -5.724930e-01 -1.594092e+00 6.038420e-01 -6.355985e-02 1.716732e+00
<VARIANCE> 25
 3.308293e+00 5.370942e+01 2.698222e+01 1.456360e+01 7.409127e+00 5.620660e+01 5.975178e+01 3.844016e+00 9.343446e+00 6.401619e+00 1.202024e+01 7.480052e+00 6.505522e-01 4.223734e+00 2.144469e+00 1.499851e+00 1.125864e+00 5.589797e+00 4.531780e+00 7.352685e-01 1.732271e+00 1.300451e+00 2.544988e+00 1.068075e+00 1.600024e+00
<GCONST> 8.466345e+01
~t "T_eh"
<ENDHMM>
~h "l-am+p"
<BEGINHMM>
<NUMSTATES> 5
<STATE> 2
<MEAN> 25
 1.811596e+01 -8.082261e+00 2.439037e+00 4.962040e+00 -1.823867e+00 -3.788946e+00 2.202670e+00 -2.433162e+00 -1.719105e+01 -7.863420e+00 1.907737e+00 -8.183715e+00 1.046989e+00 -1.584549e+00 2.009593e-01 -2.761540e+00 -1.838433e+00 -2.368654e+00 -8.484927e-01 1.581225e+00 -8.896179e-01 -5.643916e-01 7.630803e-01 -5.146536e-01 2.151174e+00
<VARIANCE> 25
 1.295763e+01 1.724041e+01 7.726340e+00 5.756003e+01 1.291391e+01 1.232457e+01 6.065157e+01 9.853046e+00 5.607736e+00 5.786650e+00 1.494075e+01 8.309505e+00 2.645585e+00 3.463905e-01 7.293232e-01 7.672490e+00 7.438536e-01 1.594869e+00 4.999303e+00 3.301791e-01 4.542103e+00 1.580689e+00 2.410434e+00 3.474042e+00 1.505185e+00
<GCONST> 8.402941e+01
<STATE> 3
<MEAN> 25
 1.313926e+01 -6.757750e+00 9.517984e+00 8.246456e+00 -5.874658e+00 -7.808412e+00 1.135009e+01 4.110996e+00 -2.145655e+01 -1.129532e+01 3.950545e+00 -5.370436e+00 1.051591e-01 -2.011746e-01 -2.465944e-02 -7.379194e-01 -6.033255e-01 -1.918627e-01 -4.670881e-02 4.070792e-01 5.530723e-01 -3.742491e-01 -4.937548e-02 5.767006e-01 3.036970e-01
<VARIANCE> 25
 5.824443e+00 8.088696e+00 8.728538e+00 4.416471e+01 5.230086e+00 1.655323e+00 2.927122e+01 2.171456e+00 5.540809e+00 6.080046e+00 3.019539e+00 3.726547e+00 8.100422e-02 9.872281e-02 4.587527e-01 8.732038e-01 7.103574e-01 5.568026e-01 6.077082e-01 1.190223e+00 1.252078e+00 2.754939e-01 4.533650e-01 4.826934e-01 8.442874e-02
<GCONST> 5.595152e+01
<STATE> 4
<MEAN> 25
 1.909514e+01 -5.819676e+00 4.122234e-01 -4.223042e+00 -1.440604e+01 -1.287137e+01 2.543715e+00 3.909070e+00 -3.588314e+00 -1.944893e+00 1.708681e+00 -4.048885e-01 -1.098680e-01 9.274804e-01 -1.790717e-01 2.320842e-01 -5.887522e-01 -3.184050e-01 4.359390e-01 7.265165e-02 1.136845e+00 7.782350e-01 -6.611593e-01 2.372063e-01 -6.881062e-01
<VARIANCE> 25
 4.592689e+00 4.031894e+01 1.261706e+01 4.432032e+01 2.105941e+01 2.195612e+01 2.470633e+01 2.499403e+01 2.945623e+01 4.486076e+01 6.335773e+00 4.873935e+00 4.523212e-01 3.079770e+00 1.763748e+00 4.074012e+00 1.926052e+00 1.754687e+00 3.781505e+00 3.176785e+00 5.243434e+00 4.089285e+00 1.344873e+00 9.082803e-01 1.386342e+00
<GCONST> 9.027281e+01
~t "T_am"
<ENDHMM>
~h "i-ch"
<BEGINHMM>
<NUMSTATES> 5
<STATE> 2
<MEAN> 25
 2.713590e-01 2.903001e+00 -4.524282e+00 -3.389240e+00 -3.331550e+00 -5.844311e-01 2.084635e+00 6.250455e-01 -1.475108e+00 5.118431e-01 4.053808e-01 3.389168e+00 -1.540156e+00 1.622913e+00 4.331633e-01 -5.488247e-01 7.864297e-01 1.554006e+00 4.562127e-01 -2.196431e-01 1.098248e+00 3.119116e-01 -4.980895e-01 1.127275e+00 -1.671474e+00
<VARIANCE> 25
 2.499193e+01 1.012930e+01 1.241213e+01 2.118273e+01 2.238298e+01 3.173083e+01 1.650517e+01 1.580108e+01 2.453991e+01 2.199250e+01 5.004289e+00 1.358729e+01 2.213762e+00 1.651591e+00 1.421318e+00 2.925601e+00 3.555976e+00 3.194976e+00 5.521978e-01 1.848396e+00 3.416027e+00 2.326901e+00 9.617106e-01 2.606742e+00 1.343238e+00
<GCONST> 8.815189e+01
<STATE> 3
<MEAN> 25
 -5.806050e+00 5.046925e+00 -1.616596e+00 -1.922798e+00 1.113271e+00 4.396549e+00 4.719136e-01 -1.454446e+00 3.923091e+00 3.972732e+00 -1.650194e+00 2.840108e+00 1.026648e-01 -6.032849e-02 -5.179392e-02 1.088637e-02 -5.635370e-02 -5.215641e-02 -3.379467e-02 -1.015199e-01 -1.235339e-01 -1.386096e-02 -3.550078e-02 -1.601332e-01 8.805534e-02
<VARIANCE> 25
 1.086717e+00 1.069483e+00 3.230421e+00 3.816588e+00 4.479993e+00 5.105900e+00 7.106041e+00 6.201630e+00 6.785175e+00 6.745544e+00 4.995311e+00 4.433140e+00 6.861460e-01 1.718466e-01 3.686380e-01 6.691558e-01 5.807227e-01 7.773122e-01 8.588003e-01 7.090936e-01 1.148381e+00 8.278181e-01 6.055655e-01 5.759796e-01 3.799312e-01
<GCONST> 5.554572e+01
<STATE> 4
<MEAN> 25
 1.313254e+01 -2.906297e+00 3.500063e+00 9.664225e+00 -3.940298e+00 -1.553974e+00 5.154584e+00 -1.517729e+00 -1.676407e+01 -1.032215e+01 2.050132e+00 -7.495366e+00 1.088694e+00 -7.171435e-01 1.732243e-01 5.177796e-03 -5.488681e-01 -4.880093e-01 8.979803e-02 2.205380e-01 -8.316350e-01 -7.175299e-01 2.517636e-01 -1.257126e-01 1.199071e+00
<VARIANCE> 25
 2.108793e+01 1.264827e+01 1.575122e+01 2.206788e+01 2.344681e+01 8.225266e+00 1.861940e+01 1.395580e+01 3.340792e+01 2.206264e+01 1.499108e+01 1.372664e+01 2.396676e+00 7.017485e-01 1.859901e+00 4.169535e+00 5.809277e-01 9.598669e-01 2.040850e+00 7.519680e-01 5.301018e+00 2.928880e+00 8.332012e-01 2.717699e+00 1.753961e+00
<GCONST> 8.666986e+01
~t "T_ch"
<ENDHMM>
~h "a+ff"
<BEGINHMM>
<NUMSTATES> 5
<STATE> 2
<MEAN> 25
 -5.254275e+00 5.081628e+00 -1.933060e+00 -1.909699e+00 8.916906e-01 3.423803e+00 -8.884192e-01 -2.060856e+00 2.853149e+00 2.979145e+00 -1.392463e+00 3.023762e+00 -3.281279e-02 -1.660077e-02 1.439044e-02 -1.398000e-03 -1.465264e-02 -5.236217e-02 -8.547086e-02 -7.504407e-02 -4.130000e-02 -2.572900e-02 -5.237665e-03 3.015025e-02 -1.790287e-02
<VARIANCE> 25
 1.086717e+00 3.312958e+00 2.921576e+00 4.534678e+00 3.624026e+00 6.399249e+00 8.829067e+00 7.439245e+00 7.359926e+00 5.978641e+00 6.229105e+00 5.720707e+00 8.775608e-02 3.677234e-01 2.557419e-01 3.494707e-01 2.249973e-01 4.949015e-01 8.115058e-01 8.132368e-01 8.401636e-01 6.904849e-01 8.098699e-01 5.411643e-01 5.164444e-02
<GCONST> 5.170596e+01
<STATE> 3
<MEAN> 25
 -6.166477e+00 5.008621e+00 -1.021958e+00 -1.369244e+00 5.403376e-01 2.388650e+00 -1.309160e+00 -2.581045e+00 2.250776e+00 3.413254e+00 -1.596502e+00 3.334712e+00 3.861363e+00 -2.007895e+00 -1.277380e+00 -1.252540e+00 -3.358857e+00 -2.349946e+00 1.733318e+00 1.856403e+00 -2.058794e+00 -1.010014e+00 1.051652e+00 -1.676454e+00 3.545326e+00
<VARIANCE> 25
 1.086717e+00 1.647322e+00 1.999840e+00 1.622414e+00 2.182467e+00 2.772079e+00 4.890664e+00 4.985768e+00 4.402615e+00 3.404052e+00 5.079284e+00 2.244408e+00 2.691921e+00 7.335555e-01 7.279295e-01 1.076028e+00 1.906965e+00 7.722994e-01 2.807648e+00 1.562343e+00 1.326180e+00 6.587040e-01 9.324360e-01 7.836111e-01 2.201442e+00
<GCONST> 6.048289e+01
<STATE> 4
<MEAN> 25
 8.039898e+00 -1.347752e+00 -5.194337e+00 -6.282981e+00 -1.049116e+01 -3.734338e+00 6.599758e+00 3.484982e+00 -3.896190e+00 5.718247e-01 2.245861e+00 -1.185760e+00 6.527147e+00 -3.655707e+00 -1.011495e+00 -2.615180e+00 -3.798089e+00 -3.359175e+00 2.410664e+00 3.230004e+00 -2.080175e+00 -1.465796e+00 2.149612e+00 -2.030949e+00 7.124567e+00
<VARIANCE> 25
 4.059910e+01 1.465903e+01 1.993182e+01 2.264817e+01 6.257119e+01 1.583260e+01 5.933776e+01 4.145431e+01 1.458672e+01 1.076461e+01 9.482416e+00 1.542757e+01 3.109031e-01 4.675260e-01 2.090679e-01 8.634814e-01 6.035010e-01 8.518882e-01 9.833360e-01 2.993520e-01 9.330039e-01 1.156409e+00 1.922221e+00 5.935104e-01 5.247511e-01
<GCONST> 7.723054e+01
~t "T_a"
<ENDHMM>
~h "a+lu"
<BEGINHMM>
<NUMSTATES> 5
<STATE> 2
<MEAN> 25
 -6.976858e+00 2.935233e+00 -8.717038e-01 -2.005616e+00 1.325274e-01 2.089552e+00 -3.626195e-01 -1.070575e+00 4.997448e+00 3.420989e+00 -2.079630e+00 2.947397e+00 -1.482067e-02 1.260949e-02 -4.090630e-04 1.363664e-03 9.896304e-03 -1.005223e-02 -6.905486e-02 -7.118252e-02 -4.784597e-02 -2.867943e-03 3.552426e-03 -1.687331e-02 -1.973070e-02
<VARIANCE> 25
 1.203505e+00 2.566912e+00 3.749823e+00 3.969234e+00 5.064890e+00 5.316646e+00 8.614089e+00 9.574931e+00 7.498424e+00 8.193942e+00 5.446181e+00 5.452481e+00 7.464347e-02 2.051237e-01 2.542472e-01 3.487583e-01 5.659511e-01 6.260536e-01 6.720865e-01 9.237303e-01 8.316873e-01 7.724189e-01 5.899127e-01 6.193647e-01 3.052530e-02
<GCONST> 5.193510e+01
<STATE> 3
<MEAN> 25
 -6.664561e+00 4.129462e+00 -3.438631e-02 -1.333790e+00 5.314538e-01 1.846939e+00 -2.128403e+00 -3.720814e+00 2.066071e+00 2.699638e+00 -2.008440e+00 2.676209e+00 4.694198e+00 -2.040790e+00 -9.988335e-01 -2.094144e+00 -3.563003e+00 -2.180406e+00 9.019590e-01 1.536755e+00 -1.659406e+00 -1.481019e+00 1.176107e+00 -1.145037e+00 4.487019e+00
<VARIANCE> 25
 1.298005e+00 1.318140e+00 3.024404e+00 3.942994e+00 2.313361e+00 3.493428e+00 6.837718e+00 1.583664e+00 7.321095e+00 4.213002e+00 3.937750e+00 4.105921e+00 2.529486e+00 3.394666e+00 3.766469e-01 6.525282e-01 1.821567e+00 7.770330e-01 1.472701e+00 1.974417e+00 4.524220e-01 8.724448e-01 1.006070e+00 5.169558e-01 4.134581e+00
<GCONST> 6.164410e+01
<STATE> 4
<MEAN> 25
 1.449062e+01 -7.497761e+00 -1.278136e+00 -2.091383e+00 -3.892140e+00 -6.233920e+00 1.368920e+00 2.402494e+00 -6.951525e+00 -3.130524e+00 5.299797e+00 -4.635558e+00 6.430128e-01 -5.066616e-01 1.242601e-01 -2.861078e-03 -1.287453e-01 -5.867640e-01 -1.932168e-01 8.385158e-02 -2.934752e-01 1.014118e-01 6.185334e-01 -1.294014e-01 8.450297e-01
<VARIANCE> 25
 1.799929e+01 5.199916e+01 1.717218e+01 1.160980e+02 1.428923e+02 4.763343e+01 3.302577e+01 3.832834e+01 3.118019e+01 2.472466e+01 3.348959e+01 1.971272e+01 4.563197e+00 4.236329e+00 1.253184e+00 3.179992e+00 5.637251e+00 3.627283e+00 3.290858e+00 3.485188e+00 2.595375e+00 2.893888e+00 1.967621e+00 1.616285e+00 6.854845e+00
<GCONST> 1.043955e+02
~t "T_a"
<ENDHMM>
~h "m-i+ai"
<BEGINHMM>
<NUMSTATES> 5
<STATE> 2
<MEAN> 25
 1.220096e+01 -8.202404e+00 1.493733e+01 1.245009e+01 -1.242682e-01 -1.446836e+01 -7.403517e-01 3.910088e+00 -9.249758e+00 -8.026165e+00 4.194444e-01 -8.598910e+00 8.912167e-02 -8.690007e-01 -5.835024e-02 -1.270165e+00 -2.925340e-04 -4.934621e-01 -1.312258e+00 -8.898465e-01 -1.220252e+00 -1.934801e-01 1.261145e+00 8.060617e-01 7.173008e-01
<VARIANCE> 25
 2.469887e+00 2.192192e+01 1.187355e+01 2.111594e+01 1.762793e+01 1.701338e+01 3.488928e+01 2.841720e+01 2.000245e+01 5.911925e+00 1.981900e+01 1.380222e+01 6.388609e-01 4.335362e-01 4.744396e+00 1.068189e+00 1.950185e+00 2.003035e+00 2.898824e+00 1.554725e+00 7.330122e-01 6.419450e-01 7.127366e-01 8.008488e-01 2.487062e-01
<GCONST> 7.895110e+01
<STATE> 3
<MEAN> 25
 1.627394e+01 -7.932268e+00 2.045264e+00 4.882436e-01 -2.628190e+00 -1.410012e+01 -9.452627e+00 -2.275427e+00 -1.229248e+01 3.864342e-01 8.994022e+00 -6.458998e+00 1.311855e-02 6.145571e-01 -9.055477e-01 -5.950711e-01 -4.383500e-01 7.053108e-01 1.233596e-01 -9.578357e-03 1.066428e+00 8.661115e-01 -7.788476e-02 -5.512385e-02 -5.711481e-01
<VARIANCE> 25
 3.029683e+00 2.521576e+01 1.925933e+01 1.178730e+01 2.179037e+01 1.359196e+01 1.001319e+01 6.150597e+00 2.695222e+01 4.665116e+01 8.422506e+00 1.161264e+01 3.039573e-01 7.282812e-01 6.616696e-01 6.524394e-01 1.443583e+00 1.244062e+00 1.076235e+00 8.230567e-01 1.601231e+00 9.646221e-01 9.118768e-01 6.361471e-01 2.552257e-01
<GCONST> 7.387990e+01
<STATE> 4
<MEAN> 25
 7.461245e+00 -5.786638e+00 -7.195785e+00 -4.846576e+00 -6.265890e-01 -5.074812e-01 -2.043629e-01 7.075583e+00 5.066667e+00 -3.069422e+00 -2.533808e+00 -1.704957e+00 -1.280419e+00 -3.239691e-01 -6.375001e-01 -5.599571e-01 6.642164e-02 7.429751e-01 1.131575e+00 1.001613e+00 7.314795e-01 -8.177143e-01 -7.925609e-01 8.819667e-01 -9.378352e-01
<VARIANCE> 25
 2.945279e+01 3.584069e+01 1.541308e+01 2.898450e+01 1.668207e+01 1.838670e+01 3.383873e+01 5.317678e+01 1.957031e+01 4.345542e+01 3.308359e+01 2.079615e+01 2.382372e+00 4.497059e+00 9.887108e-01 3.194279e+00 2.793976e+00 3.144092e+00 3.995178e+00 4.945077e+00 1.180818e+00 3.237075e+00 1.518584e+00 1.809437e+00 1.020456e+00
<GCONST> 9.656145e+01
~t "T_i"
<ENDHMM>
~h "eh-t+ein"
<BEGINHMM>
<NUMSTATES> 5
<STATE> 2
<MEAN> 25
 2.421310e+00 -1.163430e+00 4.526009e+00 4.064115e+00 5.781005e+00 -2.585405e+00 -3.532004e+00 2.696546e-01 -9.587228e-01 -1.741139e+00 9.249440e-01 -2.727842e+00 -8.349776e-02 1.426499e-01 -2.922204e-01 -6.944426e-01 -2.655331e-01 3.020106e-01 4.709811e-01 5.428287e-02 3.749802e-01 4.110812e-01 6.962718e-02 5.308622e-01 -6.363964e-02
<VARIANCE> 25
 4.930050e+01 3.541351e+01 2.918467e+01 3.653808e+01 1.934185e+01 2.775996e+01 2.986526e+01 1.535893e+01 3.866492e+01 3.205274e+01 1.984995e+01 2.833275e+01 6.569958e+00 4.703133e+00 2.047494e+00 2.107946e+00 1.290619e+00 3.413774e+00 2.387063e+00 2.566572e+00 4.726120e+00 2.909194e+00 2.392009e+00 2.009113e+00 1.158918e+01
<GCONST> 1.010823e+02
<STATE> 3
<MEAN> 25
 1.739955e+01 -8.225459e+00 2.088485e+00 -3.550554e+00 3.875446e-02 -9.708519e+00 -2.997046e+00 -2.792668e+00 -1.218314e+01 -3.417803e+00 7.518607e+00 -3.393684e+00 2.769619e+00 -1.203785e+00 -2.240807e+00 -3.535042e-01 -2.472090e+00 -9.611648e-01 8.789152e-01 -6.179640e-01 -2.068215e+00 -1.242824e-01 8.897249e-01 -1.594505e-01 1.544626e+00
<VARIANCE> 25
 4.183941e+00 2.314452e+01 1.445758e+01 6.898016e+00 1.495670e+01 1.676865e+01 4.822884e+00 3.224062e+01 6.359219e+00 8.673753e+00 1.631294e+01 5.521418e+00 1.947857e+00 2.235782e+00 8.443380e-01 1.503734e+00 5.087758e-01 1.108157e+00 1.513153e+00 4.527701e+00 4.576641e+00 2.694006e-01 1.575095e+00 2.128352e+00 4.418050e-01
<GCONST> 7.786807e+01
<STATE> 4
<MEAN> 25
 2.021750e+01 -6.998488e+00 -4.320908e+00 -9.570606e+00 -1.053959e+01 -6.978558e+00 5.491253e+00 6.107109e+00 -8.804127e+00 -6.412295e+00 5.650155e+00 -2.782559e+00 -3.597435e-02 6.568286e-01 -4.437022e-01 -4.964912e-01 -9.154419e-01 2.411929e-01 5.259387e-01 5.855349e-01 2.672878e-01 -1.964968e-01 -4.420647e-01 -1.822364e-02 -5.503609e-01
<VARIANCE> 25
 1.697813e+00 1.370466e+01 5.697972e+00 1.700904e+01 1.619280e+01 1.151637e+01 1.732000e+01 2.725956e+01 7.599664e+00 1.424435e+01 1.574688e+01 2.588187e+01 2.384996e-01 8.976517e-01 6.203123e-01 9.280976e-01 9.208226e-01 7.706003e-01 1.169536e+00 1.835300e+00 9.008394e-01 8.688428e-01 1.053525e+00 1.505450e+00 3.581502e-01
<GCONST> 7.326475e+01
~t "T_t"
<ENDHMM>
~h "eh-t+eh"
<BEGINHMM>
<NUMSTATES> 5
<STATE> 2
<MEAN> 25
 3.699241e+00 -2.788804e+00 4.597110e+00 4.776657e+00 5.931189e+00 -2.889201e+00 -5.374954e+00 -1.727605e+00 -4.531203e+00 -4.739491e+00 8.948731e-01 -4.345462e+00 -2.839186e-01 3.305904e-01 3.480536e-02 -3.109749e-01 2.587295e-01 4.950396e-01 3.461035e-02 1.093864e-02 5.310273e-01 1.296894e-01 -1.401771e-01 1.773786e-01 -2.666820e-01
<VARIANCE> 25
 4.359697e+01 3.925893e+01 2.295410e+01 3.628671e+01 1.354340e+01 2.106163e+01 3.222031e+01 1.640337e+01 4.633397e+01 3.244257e+01 1.618519e+01 2.438745e+01 5.215286e+00 5.756090e+00 2.857957e+00 3.777113e+00 2.203643e+00 2.396540e+00 4.985959e+00 2.821419e+00 5.005702e+00 5.045084e+00 2.273700e+00 2.278506e+00 1.077360e+01
<GCONST> 1.026739e+02
<STATE> 3
<MEAN> 25
 1.351051e+01 -1.331987e+01 8.671555e+00 6.770882e+00 7.062319e+00 -5.618076e+00 -1.351574e+01 -4.291146e+00 -1.431933e+01 -1.045315e+01 4.121684e+00 -7.462928e+00 4.913302e-01 -1.086611e-01 -4.275329e-01 -3.206183e-01 -6.238987e-01 2.189783e-01 6.430843e-01 -1.895946e-01 -9.041743e-01 -4.148295e-01 4.593772e-02 1.997663e-01 2.143235e-01
<VARIANCE> 25
 2.714971e+00 4.229987e+00 1.045583e+01 9.942737e+00 4.837114e+00 1.160430e+01 1.890039e+01 5.229949e+00 1.422160e+01 1.636150e+01 6.927860e+00 9.979319e+00 3.716078e-01 1.534742e+00 6.988795e-01 2.607375e+00 1.467975e+00 1.955346e+00 3.211560e+00 1.187855e+00 1.656179e+00 3.913213e+00 1.132184e+00 1.436721e+00 4.460269e-01
<GCONST> 7.531882e+01
<STATE> 4
<MEAN> 25
 1.745022e+01 -5.818095e+00 2.599502e+00 -2.820606e+00 -6.642328e+00 -1.675959e+00 -2.852970e-01 -6.754253e-01 -1.382421e+01 -1.654481e+01 -5.425963e-01 -6.639396e+00 3.984426e-01 2.046372e+00 -1.068511e-01 -5.794964e-01 -3.558335e+00 -1.141969e+00 9.849790e-01 1.809235e+00 3.274426e+00 1.288202e-01 -1.850019e+00 -2.145613e+00 -8.208742e-01
<VARIANCE> 25
 1.888570e+00 1.781671e+01 4.323720e+00 3.392176e+00 3.688665e+01 3.424858e+01 7.629280e+00 6.498579e+00 1.626155e+01 1.698343e+01 7.071664e+00 1.839583e+01 1.867155e-01 4.339636e-01 3.171488e-01 5.368807e-01 1.858750e+00 2.594341e+00 1.748240e+00 4.138629e-01 2.799112e-01 5.015139e+00 1.728205e+00 9.107447e-01 1.579352e-01
<GCONST> 6.959630e+01
~t "T_t"
<ENDHMM>
~h "ai-r"
<BEGINHMM>
<NUMSTATES> 5
<STATE> 2
<MEAN> 25
 -4.539598e+00 3.568785e+00 -2.315353e+00 -4.844283e+00 -9.520248e-01 3.594796e+00 2.346637e+00 9.927576e-01 3.417862e+00 5.956805e-01 -3.487288e+00 2.789998e+00 -7.431573e-01 1.659937e-01 1.374256e+00 1.367398e+00 8.128891e-01 2.610519e-01 -1.157256e+00 -1.174915e+00 -5.468996e-01 5.192809e-01 3.027318e-01 -3.804589e-01 -4.656718e-01
<VARIANCE> 25
 1.086717e+00 2.145872e+00 6.848072e+00 6.390600e+00 1.912350e+00 5.757579e+00 9.223171e+00 9.662777e+00 6.733209e+00 1.943343e+00 3.044698e+00 2.548024e+00 1.320369e-01 1.103916e-01 1.695617e-01 5.670782e-01 2.818995e-01 4.585532e-01 8.140745e-01 4.559736e-01 8.095990e-01 3.194321e-01 6.315237e-01 3.944438e-01 5.267860e-02
<GCONST> 4.678849e+01
<STATE> 3
<MEAN> 25
 -5.550317e+00 3.636242e+00 -1.062863e+00 -2.131522e+00 -9.022744e-01 2.825114e+00 -3.252364e-01 -2.114486e+00 2.740953e+00 2.312665e+00 -1.238461e+00 2.690855e+00 -2.307469e-01 1.021180e-02 2.099431e-01 4.320658e-01 2.168355e-01 -2.820996e-02 -1.951751e-01 -3.566736e-01 -3.282901e-02 1.887604e-01 3.023323e-01 1.331695e-02 -1.456597e-01
<VARIANCE> 25
 1.086717e+00 1.126519e+00 2.982938e+00 5.502921e+00 1.339502e+00 2.704721e+00 5.305038e+00 3.129081e+00 5.541551e+00 5.339737e+00 6.118896e+00 2.979821e+00 9.028228e-02 1.187271e-01 6.785822e-01 7.844851e-01 2.232628e-01 6.049839e-01 4.058356e-01 3.001886e-01 7.248344e-01 9.527844e-01 5.271686e-01 5.376616e-01 5.916862e-02
<GCONST> 4.560316e+01
<STATE> 4
<MEAN> 25
 -6.663832e+00 3.775526e+00 7.522019e-02 -7.729812e-01 7.933757e-01 2.630064e+00 -1.048504e+00 -2.514202e+00 3.506412e+00 2.854429e+00 -2.027660e+00 2.467971e+00 -4.327705e-03 -3.076253e-03 8.743746e-04 -2.871148e-03 3.079583e-03 -6.376673e-03 -1.858342e-02 -1.852201e-02 -2.532458e-03 -2.975943e-03 -4.807493e-03 7.317874e-03 -2.128483e-03
<VARIANCE> 25
 1.086717e+00 2.009538e+00 2.140289e+00 3.104624e+00 3.589778e+00 5.299818e+00 5.271441e+00 5.494400e+00 5.721130e+00 6.250906e+00 5.730825e+00 5.393620e+00 4.061574e-02 1.067329e-01 2.112869e-01 2.938463e-01 3.783126e-01 5.614253e-01 6.031942e-01 5.690182e-01 6.209781e-01 6.481222e-01 6.220628e-01 5.484419e-01 1.891393e-02
<GCONST> 4.514928e+01
~t "T_r"
<ENDHMM>
~h "am-p"
<BEGINHMM>
<NUMSTATES> 5
<STATE> 2
<MEAN> 25
 1.170043e+01 2.794074e+00 4.046601e+00 1.286870e+00 -7.842186e+00 -3.911422e+00 8.802265e+00 4.914820e+00 1.067908e+00 -1.411398e+00 -4.949700e+00 -2.966748e+00 -2.927849e+00 6.609550e-01 -2.155821e-01 1.978035e-01 3.807487e+00 3.493519e+00 3.404624e-01 7.836842e-01 2.039981e+00 9.532058e-01 3.329533e-01 -3.433513e-02 -2.445440e+00
<VARIANCE> 25
 1.901612e+01 3.903514e+01 2.278661e+01 4.023547e+01 4.288340e+01 7.179374e+01 1.997540e+01 1.656476e+01 2.268214e+01 1.544613e+01 6.606261e+00 1.331621e+01 7.167849e-01 1.506113e+00 1.679945e+00 2.603400e+00 1.515470e+00 5.477217e+00 3.516869e+00 7.243784e-01 5.379242e-01 9.931101e-01 2.417447e+00 2.973675e+00 2.523624e-01
<GCONST> 8.811983e+01
<STATE> 3
<MEAN> 25
 4.583367e+00 -8.227658e+00 -7.958130e+00 -2.265300e+00 -2.431352e+00 -3.476057e+00 4.684594e+00 1.387683e+01 7.930174e+00 -1.789698e+00 -2.060152e+00 -1.770570e+00 -1.238866e+00 -4.086177e-01 -1.300720e+00 -3.054196e-01 -3.049037e-01 -7.101266e-01 -1.318737e+00 -4.858896e-01 -1.088477e-01 8.548484e-02 5.943657e-01 4.930876e-01 -1.171132e+00
<VARIANCE> 25
 3.635884e+00 6.055378e+01 3.245628e+01 1.133886e+01 2.352339e+01 1.944675e+01 1.486669e+01 4.451348e+01 1.851286e+01 2.483081e+01 1.350838e+01 4.823853e+00 1.376619e+00 9.814739e-01 1.482803e+00 1.325325e+00 3.101592e+00 7.045668e-01 1.988509e+00 4.048348e+00 1.867494e+00 1.081113e+00 4.910028e-01 1.154258e+00 6.732242e-01
<GCONST> 8.376047e+01
<STATE> 4
<MEAN> 25
 -3.875553e+00 3.028328e+00 -1.088211e-01 -1.497325e-02 1.909722e+00 1.287118e+00 7.253908e-01 2.061319e+00 4.618413e+00 2.162417e+00 -5.320961e-01 2.819938e+00 -1.888521e-01 -8.351325e-02 -7.858823e-02 -4.691068e-02 2.267046e-02 -2.355643e-02 -1.342870e-01 -7.788703e-02 -3.287208e-02 -9.457029e-02 -7.302158e-02 3.444970e-02 -1.342767e-01
<VARIANCE> 25
 1.364521e+01 9.478291e+00 9.065461e+00 8.605749e+00 1.303860e+01 1.232985e+01 6.871210e+00 1.671987e+01 8.450674e+00 1.123459e+01 6.643816e+00 8.832761e+00 1.776513e+00 7.705984e-01 6.380965e-01 6.076907e-01 8.041471e-01 1.038741e+00 9.672604e-01 1.727004e+00 9.970782e-01 9.368014e-01 6.746041e-01 1.145181e+00 1.172969e+00
<GCONST> 7.314859e+01
~t "T_p"
<ENDHMM>
