~o
<STREAMINFO> 1 25
<VECSIZE> 25<NULLD><MFCC_D_N_Z_0><DIAGC>
~t "T_ein"
<TRANSP> 5
 0.000000e+00 1.000000e+00 0.000000e+00 0.000000e+00 0.000000e+00
 0.000000e+00 8.696073e-01 1.303927e-01 0.000000e+00 0.000000e+00
 0.000000e+00 0.000000e+00 8.901968e-01 1.098032e-01 0.000000e+00
 0.000000e+00 0.000000e+00 0.000000e+00 9.764668e-01 2.353321e-02
 0.000000e+00 0.000000e+00 0.000000e+00 0.000000e+00 0.000000e+00
~t "T_a"
<TRANSP> 5
 0.000000e+00 1.000000e+00 0.000000e+00 0.000000e+00 0.000000e+00
 0.000000e+00 9.643665e-01 3.563344e-02 0.000000e+00 0.000000e+00
 0.000000e+00 0.000000e+00 4.990007e-01 5.009993e-01 0.000000e+00
 0.000000e+00 0.000000e+00 0.000000e+00 9.084408e-01 9.155922e-02
 0.000000e+00 0.000000e+00 0.000000e+00 0.000000e+00 0.000000e+00
~t "T_i"
<TRANSP> 5
 0.000000e+00 1.000000e+00 0.000000e+00 0.000000e+00 0.000000e+00
 0.000000e+00 8.115986e-01 1.884014e-01 0.000000e+00 0.000000e+00
 0.000000e+00 0.000000e+00 8.667331e-01 1.332669e-01 0.000000e+00
 0.000000e+00 0.000000e+00 0.000000e+00 8.493534e-01 1.506467e-01
 0.000000e+00 0.000000e+00 0.000000e+00 0.000000e+00 0.000000e+00
~t "T_l"
<TRANSP> 5
 0.000000e+00 1.000000e+00 0.000000e+00 0.000000e+00 0.000000e+00
 0.000000e+00 9.641744e-01 3.582559e-02 0.000000e+00 0.000000e+00
 0.000000e+00 0.000000e+00 8.124080e-01 1.875920e-01 0.000000e+00
 0.000000e+00 0.000000e+00 0.000000e+00 8.888782e-01 1.111217e-01
 0.000000e+00 0.000000e+00 0.000000e+00 0.000000e+00 0.000000e+00
~t "T_m"
<TRANSP> 5
 0.000000e+00 1.000000e+00 0.000000e+00 0.000000e+00 0.000000e+00
 0.000000e+00 8.470536e-01 1.529464e-01 0.000000e+00 0.000000e+00
 0.000000e+00 0.000000e+00 8.838659e-01 1.161341e-01 0.000000e+00
 0.000000e+00 0.000000e+00 0.000000e+00 8.545072e-01 1.454928e-01
 0.000000e+00 0.000000e+00 0.000000e+00 0.000000e+00 0.000000e+00
~t "T_o"
<TRANSP> 5
 0.000000e+00 1.000000e+00 0.000000e+00 0.000000e+00 0.000000e+00
 0.000000e+00 9.276655e-01 7.233448e-02 0.000000e+00 0.000000e+00
 0.000000e+00 0.000000e+00 8.369775e-01 1.630225e-01 0.000000e+00
 0.000000e+00 0.000000e+00 0.000000e+00 9.811923e-01 1.880776e-02
 0.000000e+00 0.000000e+00 0.000000e+00 0.000000e+00 0.000000e+00
~t "T_p"
<TRANSP> 5
 0.000000e+00 1.000000e+00 0.000000e+00 0.000000e+00 0.000000e+00
 0.000000e+00 7.444996e-01 2.555004e-01 0.000000e+00 0.000000e+00
 0.000000e+00 0.000000e+00 6.680837e-01 3.319163e-01 0.000000e+00
 0.000000e+00 0.000000e+00 0.000000e+00 9.589078e-01 4.109216e-02
 0.000000e+00 0.000000e+00 0.000000e+00 0.000000e+00 0.000000e+00
~t "T_r"
<TRANSP> 5
 0.000000e+00 1.000000e+00 0.000000e+00 0.000000e+00 0.000000e+00
 0.000000e+00 7.109131e-01 2.890869e-01 0.000000e+00 0.000000e+00
 0.000000e+00 0.000000e+00 8.680182e-01 1.319819e-01 0.000000e+00
 0.000000e+00 0.000000e+00 0.000000e+00 9.847226e-01 1.527747e-02
 0.000000e+00 0.000000e+00 0.000000e+00 0.000000e+00 0.000000e+00
~t "T_t"
<TRANSP> 5
 0.000000e+00 1.000000e+00 0.000000e+00 0.000000e+00 0.000000e+00
 0.000000e+00 9.328023e-01 6.719768e-02 0.000000e+00 0.000000e+00
 0.000000e+00 0.000000e+00 8.647147e-01 1.352852e-01 0.000000e+00
 0.000000e+00 0.000000e+00 0.000000e+00 8.865585e-01 1.134414e-01
 0.000000e+00 0.000000e+00 0.000000e+00 0.000000e+00 0.000000e+00
~t "T_ai"
<TRANSP> 5
 0.000000e+00 1.000000e+00 0.000000e+00 0.000000e+00 0.000000e+00
 0.000000e+00 8.534275e-01 1.465724e-01 0.000000e+00 0.000000e+00
 0.000000e+00 0.000000e+00 7.522818e-01 2.477182e-01 0.000000e+00
 0.000000e+00 0.000000e+00 0.000000e+00 7.476904e-01 2.523096e-01
 0.000000e+00 0.000000e+00 0.000000e+00 0.000000e+00 0.000000e+00
~t "T_am"
<TRANSP> 5
 0.000000e+00 1.000000e+00 0.000000e+00 0.000000e+00 0.000000e+00
 0.000000e+00 7.000751e-01 2.999249e-01 0.000000e+00 0.000000e+00
 0.000000e+00 0.000000e+00 8.125025e-01 1.874975e-01 0.000000e+00
 0.000000e+00 0.000000e+00 0.000000e+00 9.069942e-01 9.300575e-02
 0.000000e+00 0.000000e+00 0.000000e+00 0.000000e+00 0.000000e+00
~t "T_ch"
<TRANSP> 5
 0.000000e+00 1.000000e+00 0.000000e+00 0.000000e+00 0.000000e+00
 0.000000e+00 7.740669e-01 2.259331e-01 0.000000e+00 0.000000e+00
 0.000000e+00 0.000000e+00 9.623488e-01 3.765116e-02 0.000000e+00
 0.000000e+00 0.000000e+00 0.000000e+00 9.293025e-01 7.069753e-02
 0.000000e+00 0.000000e+00 0.000000e+00 0.000000e+00 0.000000e+00
~t "T_eh"
<TRANSP> 5
 0.000000e+00 1.000000e+00 0.000000e+00 0.000000e+00 0.000000e+00
 0.000000e+00 6.348240e-01 3.651761e-01 0.000000e+00 0.000000e+00
 0.000000e+00 0.000000e+00 8.096397e-01 1.903603e-01 0.000000e+00
 0.000000e+00 0.000000e+00 0.000000e+00 8.235559e-01 1.764440e-01
 0.000000e+00 0.000000e+00 0.000000e+00 0.000000e+00 0.000000e+00
~t "T_eu"
<TRANSP> 5
 0.000000e+00 1.000000e+00 0.000000e+00 0.000000e+00 0.000000e+00
 0.000000e+00 7.741753e-01 2.258247e-01 0.000000e+00 0.000000e+00
 0.000000e+00 0.000000e+00 9.428655e-01 5.713454e-02 0.000000e+00
 0.000000e+00 0.000000e+00 0.000000e+00 9.574931e-01 4.250691e-02
 0.000000e+00 0.000000e+00 0.000000e+00 0.000000e+00 0.000000e+00
~t "T_ff"
<TRANSP> 5
 0.000000e+00 1.000000e+00 0.000000e+00 0.000000e+00 0.000000e+00
 0.000000e+00 8.208280e-01 1.791721e-01 0.000000e+00 0.000000e+00
 0.000000e+00 0.000000e+00 9.548180e-01 4.518199e-02 0.000000e+00
 0.000000e+00 0.000000e+00 0.000000e+00 9.740035e-01 2.599648e-02
 0.000000e+00 0.000000e+00 0.000000e+00 0.000000e+00 0.000000e+00
~t "T_lu"
<TRANSP> 5
 0.000000e+00 1.000000e+00 0.000000e+00 0.000000e+00 0.000000e+00
 0.000000e+00 7.027052e-01 2.972948e-01 0.000000e+00 0.000000e+00
 0.000000e+00 0.000000e+00 7.310420e-01 2.689580e-01 0.000000e+00
 0.000000e+00 0.000000e+00 0.000000e+00 9.620704e-01 3.792952e-02
 0.000000e+00 0.000000e+00 0.000000e+00 0.000000e+00 0.000000e+00
~s "ST_ff_2_1"
<MEAN> 25
 1.751336e+01 -8.113111e+00 -3.933252e+00 -1.127265e+01 -1.110590e+01 -9.077209e+00 4.660336e+00 7.163426e+00 -5.226264e+00 -2.364991e+00 7.031773e+00 -3.326447e+00 5.216827e-01 3.044170e-01 9.323736e-01 -6.029075e-02 9.466774e-01 -2.184296e-01 -8.913001e-01 -5.361419e-01 -1.890857e-01 1.193289e-01 3.822786e-01 8.881469e-02 8.441651e-01
<VARIANCE> 25
 2.077077e+00 1.108470e+01 4.652634e+00 3.556375e+00 9.479372e+00 3.747376e+00 1.246725e+01 4.932709e+00 5.627746e+00 9.175421e+00 1.513845e+01 2.334348e+00 1.429821e+00 2.862666e+00 1.111309e+00 1.094920e+00 1.194951e+00 7.533323e-01 1.124693e+00 1.108830e+00 7.085197e-01 8.830395e-01 6.923046e-01 9.004838e-01 3.223020e+00
<GCONST> 6.903802e+01
~s "ST_ff_3_1"
<MEAN> 25
 4.911230e+00 -3.206817e+00 7.324763e+00 1.109357e+00 7.253253e+00 -4.720867e+00 4.963095e+00 3.598549e+00 3.421220e+00 1.409200e+00 6.244931e+00 4.568796e-01 -3.546543e-01 -1.997356e-01 5.885977e-01 1.204741e+00 5.877637e-01 1.655542e-01 5.527759e-02 9.235108e-02 3.800394e-02 -1.267967e-01 -1.314000e-01 4.388917e-03 -2.031622e-01
<VARIANCE> 25
 7.195930e+01 3.265186e+01 2.270576e+01 4.205684e+01 4.398706e+01 2.293376e+01 2.248701e+01 1.853800e+01 4.694376e+01 1.211245e+01 1.530812e+01 1.028580e+01 4.865949e+00 3.016049e+00 2.394192e+00 3.011524e+00 3.364144e+00 3.203138e+00 2.463793e+00 2.541360e+00 4.447140e+00 2.105042e+00 1.978954e+00 1.498919e+00 1.315652e+00
<GCONST> 9.739383e+01
~s "ST_ff_4_1"
<MEAN> 25
 1.913711e-01 -1.771177e+01 1.346999e+01 9.725548e+00 1.807598e+00 -9.437021e+00 -2.560409e+00 1.700689e+00 -3.356425e-02 -6.754210e+00 3.192321e+00 -1.966982e+00 -2.282309e-01 -1.635533e-01 -1.582140e-01 -2.539887e-01 -1.708545e-01 -8.000223e-02 -2.673443e-01 -1.967100e-01 1.785652e-01 9.537856e-02 -1.013092e-01 -1.144630e-02 -1.355389e-01
<VARIANCE> 25
 7.141620e+01 5.500517e+01 9.127726e+00 7.759179e+01 1.252041e+01 1.986790e+01 2.122794e+01 2.062128e+01 8.195715e+01 1.734800e+01 9.675178e+00 1.464759e+01 1.737023e+00 2.324253e+00 1.125755e+00 2.267086e+00 9.472394e-01 1.089178e+00 9.926564e-01 1.116823e+00 2.913337e+00 1.281203e+00 1.220276e+00 1.260469e+00 4.458526e-01
<GCONST> 8.800401e+01
~s "ST_i_2_1"
<MEAN> 25
 1.047807e+01 -8.632801e+00 1.338812e+01 1.210317e+01 -3.803301e-01 -1.306144e+01 -1.717108e+00 3.198020e+00 -7.413364e+00 -6.812463e+00 2.674387e-01 -7.823836e+00 2.538197e-01 -6.082462e-02 -3.676987e-01 -9.249749e-01 -9.162353e-03 -2.510194e-01 -1.043751e+00 -6.265571e-01 -1.278240e+00 -1.112951e-01 1.117519e+00 6.580036e-01 2.126269e-01
<VARIANCE> 25
 1.733899e+01 2.699902e+01 2.373759e+01 2.010925e+01 1.480708e+01 2.311920e+01 3.837259e+01 2.873232e+01 2.850090e+01 1.409318e+01 1.869524e+01 1.991566e+01 7.951376e-01 4.080034e+00 4.920085e+00 1.578292e+00 1.935027e+00 2.244479e+00 3.127348e+00 1.823164e+00 7.851570e-01 7.253301e-01 8.528277e-01 1.050347e+00 1.602847e+00
<GCONST> 8.925504e+01
~s "ST_i_3_1"
<MEAN> 25
 1.539572e+01 -7.924904e+00 2.245339e+00 1.098142e+00 -2.324254e+00 -1.377399e+01 -9.301940e+00 -2.090145e+00 -1.184618e+01 1.854110e-01 8.481835e+00 -6.313028e+00 -6.584577e-03 6.906794e-01 -1.040915e+00 -6.549572e-01 -3.987394e-01 6.916835e-01 2.365373e-01 5.020105e-02 1.027968e+00 9.485257e-01 2.656959e-02 -2.039198e-03 -6.546035e-01
<VARIANCE> 25
 1.287572e+01 2.594036e+01 1.982565e+01 1.522868e+01 2.288127e+01 1.623154e+01 9.852508e+00 6.431914e+00 3.052890e+01 4.470945e+01 1.154167e+01 1.211639e+01 3.876373e-01 1.144184e+00 9.008923e-01 6.244376e-01 1.390745e+00 1.215297e+00 1.359594e+00 9.067503e-01 1.573727e+00 1.005475e+00 9.788351e-01 8.080006e-01 4.342643e-01
<GCONST> 7.842997e+01
~s "ST_i_4_1"
<MEAN> 25
 6.378783e+00 -5.664664e+00 -6.385141e+00 -3.047738e+00 -4.864590e-01 -8.582990e-01 -3.365439e-01 6.188498e+00 4.066134e+00 -1.794325e+00 -1.053411e+00 -1.608465e+00 -9.517683e-01 6.709656e-02 -7.954656e-01 -8.545150e-01 -3.973619e-02 8.003522e-01 1.217439e+00 8.089907e-01 4.158613e-01 -7.419383e-01 -7.066979e-01 8.431231e-01 -8.651575e-01
<VARIANCE> 25
 3.084733e+01 3.266668e+01 1.862661e+01 3.686702e+01 1.602242e+01 1.820613e+01 2.957741e+01 4.726837e+01 2.444149e+01 4.356528e+01 3.452122e+01 2.001389e+01 2.575751e+00 4.384884e+00 1.534948e+00 3.170054e+00 2.780364e+00 3.020634e+00 3.349228e+00 4.410437e+00 1.974835e+00 3.305882e+00 1.625702e+00 2.325626e+00 1.070871e+00
<GCONST> 9.792328e+01
~s "ST_l_2_1"
<MEAN> 25
 -5.967716e+00 2.277931e+00 -3.575149e-01 -5.450714e-01 1.687825e+00 1.633522e+00 -5.103725e-01 -1.654025e-01 3.945091e+00 2.226798e+00 -1.726046e+00 1.205417e+00 -2.888556e-02 -1.963136e-02 -7.704953e-03 1.503564e-02 1.712984e-02 2.529528e-02 -1.288604e-02 -2.159145e-02 -3.607879e-02 -3.535791e-02 -7.447760e-03 -2.532722e-02 -2.394231e-02
<VARIANCE> 25
 1.086717e+00 1.964543e+00 1.744090e+00 4.783113e+00 3.229123e+00 3.730411e+00 7.260922e+00 8.271340e+00 5.464365e+00 6.421813e+00 3.239625e+00 4.271011e+00 6.969511e-02 1.413381e-01 1.645755e-01 2.888720e-01 2.910179e-01 4.095706e-01 6.708355e-01 7.246941e-01 5.950215e-01 6.506806e-01 3.401124e-01 5.236903e-01 1.919934e-02
<GCONST> 4.445421e+01
~s "ST_l_3_1"
<MEAN> 25
 -5.833103e+00 3.289683e+00 6.970969e-01 1.048392e+00 1.650676e+00 9.387860e-01 -8.838854e-01 -1.033774e+00 2.214153e+00 2.048439e+00 -1.588279e+00 9.949158e-01 1.900576e+00 1.187791e-01 5.552384e-01 1.128844e+00 3.512029e-01 8.790354e-02 2.449637e-01 -8.849114e-01 -1.773942e+00 -9.487578e-01 1.234819e-01 -7.531769e-01 1.453437e+00
<VARIANCE> 25
 9.811979e+00 8.381652e+00 3.024864e+00 9.000175e+00 6.773319e+00 1.132833e+01 3.815822e+00 8.081173e+00 1.005184e+01 1.209842e+01 9.252788e+00 1.030150e+01 5.187605e+00 1.031217e+00 5.208011e-01 3.540897e+00 1.443580e+00 2.240513e+00 1.019346e+00 2.575154e+00 6.990433e+00 2.921959e+00 1.013209e+00 3.201938e+00 3.302826e+00
<GCONST> 8.060406e+01
~s "ST_l_4_1"
<MEAN> 25
 1.544712e+01 -3.914873e+00 4.251859e+00 9.737831e+00 5.782590e+00 6.103598e+00 8.745403e-01 -7.910681e+00 -1.341726e+01 -6.554908e+00 3.559940e+00 -5.936468e+00 1.129274e+00 -9.050550e-01 2.328563e-02 4.211648e-01 -4.146727e-01 -1.738211e-01 4.675299e-01 1.092396e-01 -9.466383e-01 -4.684777e-01 2.453492e-01 -3.242957e-01 1.207852e+00
<VARIANCE> 25
 1.328637e+01 1.477828e+01 3.507380e+00 5.514119e+00 6.739008e+00 2.111700e+01 8.566003e+00 8.752847e+00 8.089748e+00 5.164080e+00 9.641798e+00 1.171016e+01 2.980245e+00 9.928907e-01 1.056142e+00 1.652696e+00 6.594763e-01 1.929499e+00 1.270819e+00 8.414218e-01 4.722669e+00 1.706724e+00 1.622464e+00 1.043869e+00 2.537393e+00
<GCONST> 7.741788e+01
~s "ST_o_2_1"
<MEAN> 25
 1.660501e+01 1.678573e+00 4.498792e+00 2.368656e+00 -1.450369e+01 -1.561332e+01 -3.387203e+00 2.659790e+00 -1.174153e-01 -4.034776e+00 -2.963070e+00 -9.040998e+00 -4.660236e-01 5.841942e-01 5.144075e-02 4.020295e-02 -1.050772e-01 -5.280244e-01 -3.467715e-01 -2.525806e-01 -1.291435e-01 4.227848e-01 2.804337e-02 4.860324e-02 -6.103376e-01
<VARIANCE> 25
 6.102354e+00 1.803344e+01 1.010102e+01 7.957602e+00 6.611740e+00 1.786171e+01 8.435325e+00 5.303538e+00 9.313810e+00 1.045562e+01 6.796687e+00 1.059054e+01 4.982282e-01 7.234310e-01 7.463734e-01 7.732691e-01 5.286304e-01 6.921359e-01 3.678353e-01 3.703095e-01 7.863621e-01 1.153845e+00 4.321073e-01 5.024812e-01 5.254332e-01
<GCONST> 6.562480e+01
~s "ST_o_3_1"
<MEAN> 25
 1.201543e+00 9.098413e+00 2.358587e+00 -1.038658e+00 -3.904147e+00 -3.271209e+00 -1.548968e+00 -1.007663e+00 2.687925e+00 2.296407e+00 -3.197312e+00 -1.991265e+00 -2.347918e+00 -6.284507e-01 -4.575634e-01 -3.630410e-02 2.210853e+00 2.775566e+00 6.854606e-01 1.644147e-02 1.258244e+00 1.127920e+00 6.067861e-01 1.918933e+00 -1.600625e+00
<VARIANCE> 25
 3.049285e+01 9.756410e+00 7.106598e+00 9.101793e+00 6.289052e+01 9.778102e+01 3.022419e+01 1.332124e+01 1.842989e+01 2.069314e+01 1.820432e+01 3.426546e+01 1.156989e+00 1.486295e+00 8.080011e-01 1.598842e+00 2.950773e+00 4.009878e+00 1.316966e+00 1.116303e+00 1.595177e+00 1.366776e+00 1.202481e+00 1.021815e+00 7.931703e-01
<GCONST> 8.732162e+01
~s "ST_o_4_1"
<MEAN> 25
 -6.509845e+00 3.528421e+00 -7.474822e-01 -6.042084e-01 1.776018e+00 3.014806e+00 -3.547724e-01 -1.392473e+00 3.684881e+00 2.933201e+00 -1.764825e+00 3.330539e+00 -2.427785e-02 -2.882853e-02 -2.494470e-02 -1.913123e-02 3.197748e-03 1.868501e-02 2.367324e-02 1.232860e-02 -4.055805e-04 -6.372657e-03 -6.684110e-03 -3.568027e-03 -8.897743e-03
<VARIANCE> 25
 1.086717e+00 1.563071e+00 2.384143e+00 2.752065e+00 4.495429e+00 4.515549e+00 7.319387e+00 6.200103e+00 6.540656e+00 6.329213e+00 5.655772e+00 6.605490e+00 5.538725e-02 1.625179e-01 2.113923e-01 3.252771e-01 4.147950e-01 5.121198e-01 8.013923e-01 6.469395e-01 6.955135e-01 6.782436e-01 6.549973e-01 7.247297e-01 1.891393e-02
<GCONST> 4.746955e+01
~s "ST_r_2_1"
<MEAN> 25
 -3.206511e+00 3.354862e+00 -3.922784e+00 -5.920902e+00 -3.341830e+00 1.123088e+00 2.688358e+00 3.490404e+00 5.479298e+00 1.712065e+00 -2.925600e+00 1.893339e+00 -8.004761e-01 2.196746e-01 1.086597e+00 1.050653e+00 9.143024e-01 7.033437e-01 -5.818509e-01 -1.244577e+00 -6.875276e-01 4.217346e-01 5.766213e-01 1.350637e-01 -5.385535e-01
<VARIANCE> 25
 4.004135e+00 2.827258e+00 8.470815e+00 6.251236e+00 1.012873e+01 1.273756e+01 8.928881e+00 1.672720e+01 1.509243e+01 6.358875e+00 5.355407e+00 5.079679e+00 2.448708e-01 6.750867e-01 5.145990e-01 1.728300e+00 8.959557e-01 7.920855e-01 1.463227e+00 5.880730e-01 1.014208e+00 5.402958e-01 1.095698e+00 5.468966e-01 7.601184e-02
<GCONST> 6.397575e+01
~s "ST_r_3_1"
<MEAN> 25
 -5.623338e+00 2.334918e+00 -3.270390e-01 -1.578401e-01 -3.537695e-01 1.936855e+00 6.892530e-01 -1.287905e+00 2.131457e+00 2.732372e+00 5.652652e-02 2.184628e+00 -1.274484e-01 1.405861e-02 1.634209e-01 2.391872e-01 1.583256e-01 4.754588e-02 -1.832359e-01 -3.094772e-01 -1.694549e-01 -9.370948e-02 2.012806e-02 -9.379810e-02 -8.252679e-02
<VARIANCE> 25
 1.086717e+00 8.976808e+00 4.337586e+00 2.373634e+01 3.440117e+00 1.040346e+01 1.050280e+01 7.572700e+00 1.008802e+01 5.468297e+00 6.913891e+00 6.172447e+00 6.760605e-02 7.049515e-01 3.261483e-01 1.478336e+00 4.498199e-01 1.168525e+00 6.870255e-01 6.125711e-01 1.069635e+00 7.100244e-01 6.269475e-01 7.340047e-01 7.678358e-02
<GCONST> 5.967700e+01
~s "ST_r_4_1"
<MEAN> 25
 -6.434835e+00 4.027796e+00 -1.245719e-01 -6.783869e-01 1.247626e+00 2.938071e+00 -1.120491e+00 -2.556143e+00 3.361198e+00 2.948407e+00 -1.897927e+00 2.353523e+00 -6.590777e-03 -7.323134e-03 1.461379e-04 3.499196e-03 8.535504e-03 -3.094629e-03 -1.382848e-02 -1.552896e-02 -4.735115e-03 3.048256e-03 -4.127354e-03 8.588163e-03 -1.060626e-03
<VARIANCE> 25
 1.086717e+00 2.314532e+00 2.425480e+00 3.049150e+00 3.872997e+00 5.152431e+00 5.513659e+00 5.789718e+00 6.591738e+00 6.475548e+00 5.863407e+00 5.880933e+00 4.393819e-02 1.203696e-01 1.983532e-01 2.961748e-01 3.873708e-01 5.307957e-01 6.259598e-01 6.020750e-01 6.409727e-01 6.423297e-01 6.531146e-01 6.043286e-01 1.891393e-02
<GCONST> 4.620212e+01
~s "ST_am_2_1"
<MEAN> 25
 1.811597e+01 -8.082248e+00 2.439034e+00 4.962024e+00 -1.823885e+00 -3.788978e+00 2.202696e+00 -2.433154e+00 -1.719107e+01 -7.863421e+00 1.907709e+00 -8.183716e+00 1.046992e+00 -1.584551e+00 2.009645e-01 -2.761537e+00 -1.838439e+00 -2.368650e+00 -8.484963e-01 1.581222e+00 -8.896196e-01 -5.643945e-01 7.630908e-01 -5.146511e-01 2.151176e+00
<VARIANCE> 25
 1.295769e+01 1.724045e+01 7.726377e+00 5.756016e+01 1.291397e+01 1.232426e+01 6.065177e+01 9.853055e+00 5.607692e+00 5.786666e+00 1.494072e+01 8.309501e+00 2.645599e+00 3.463915e-01 7.293240e-01 7.672513e+00 7.438536e-01 1.594866e+00 4.999335e+00 3.301784e-01 4.542120e+00 1.580692e+00 2.410438e+00 3.474061e+00 1.505190e+00
<GCONST> 8.402942e+01
~s "ST_am_3_1"
<MEAN> 25
 1.313926e+01 -6.757744e+00 9.517988e+00 8.246466e+00 -5.874659e+00 -7.808409e+00 1.135009e+01 4.110994e+00 -2.145655e+01 -1.129532e+01 3.950544e+00 -5.370434e+00 1.051591e-01 -2.011748e-01 -2.465929e-02 -7.379173e-01 -6.033239e-01 -1.918614e-01 -4.670900e-02 4.070771e-01 5.530703e-01 -3.742487e-01 -4.937569e-02 5.766994e-01 3.036967e-01
<VARIANCE> 25
 5.824445e+00 8.088646e+00 8.728517e+00 4.416455e+01 5.230090e+00 1.655316e+00 2.927116e+01 2.171457e+00 5.540783e+00 6.080023e+00 3.019542e+00 3.726544e+00 8.100427e-02 9.872287e-02 4.587532e-01 8.731968e-01 7.103538e-01 5.567999e-01 6.077084e-01 1.190216e+00 1.252071e+00 2.754939e-01 4.533652e-01 4.826911e-01 8.442858e-02
<GCONST> 5.595145e+01
~s "ST_am_4_1"
<MEAN> 25
 1.911647e+01 -5.926891e+00 4.256597e-01 -4.263768e+00 -1.442478e+01 -1.284063e+01 2.566193e+00 3.893144e+00 -3.623102e+00 -1.956964e+00 1.738087e+00 -4.099036e-01 -9.504466e-02 9.072387e-01 -1.950972e-01 2.343725e-01 -6.192096e-01 -3.343653e-01 4.507376e-01 7.392013e-02 1.134164e+00 7.850153e-01 -6.548110e-01 2.474119e-01 -6.753532e-01
<VARIANCE> 25
 4.588237e+00 3.947945e+01 1.271755e+01 4.456351e+01 2.122181e+01 2.206199e+01 2.488423e+01 2.520398e+01 2.960812e+01 4.527165e+01 6.304617e+00 4.917066e+00 4.333558e-01 3.065743e+00 1.753186e+00 4.112290e+00 1.846192e+00 1.744482e+00 3.794223e+00 3.206920e+00 5.292705e+00 4.123364e+00 1.353399e+00 9.057978e-01 1.382352e+00
<GCONST> 9.024931e+01
~s "ST_ein_2_1"
<MEAN> 25
 9.363079e+00 2.806872e+00 -7.895693e+00 -1.148308e+01 -1.381683e+01 -4.500934e+00 9.324382e+00 8.349613e+00 -1.950857e+00 -2.945451e+00 -1.819658e-01 5.293926e-01 -2.354537e+00 6.223876e-01 -4.904527e-02 2.210580e-02 7.105497e-01 6.699302e-01 8.422380e-02 -4.982448e-03 1.568950e+00 8.566324e-01 -7.754576e-01 5.039640e-01 -2.136417e+00
<VARIANCE> 25
 4.036454e+01 1.017268e+01 7.563849e+00 2.484853e+01 1.853272e+01 1.109925e+01 1.964660e+01 1.849460e+01 2.607055e+01 2.173215e+01 8.461476e+00 1.459484e+01 2.183609e+00 1.665570e+00 9.682636e-01 1.591911e+00 2.882914e+00 1.691987e+00 1.433479e+00 1.129353e+00 2.723478e+00 1.716200e+00 1.148329e+00 1.202337e+00 1.689288e+00
<GCONST> 8.575754e+01
~s "ST_ein_3_1"
<MEAN> 25
 -3.347436e+00 3.757244e+00 -4.372877e+00 -7.691812e+00 -4.605321e+00 1.581220e+00 4.737852e+00 4.283933e+00 5.360831e+00 7.878310e-01 -4.986337e+00 4.580944e-01 -6.345902e-01 1.114915e-02 7.101530e-01 1.052116e+00 1.128856e+00 4.389313e-01 -5.220131e-01 -6.045290e-01 3.962123e-02 2.111099e-01 -2.160775e-02 -5.512881e-02 -3.844343e-01
<VARIANCE> 25
 3.153561e+00 1.526975e+00 6.145787e+00 1.245318e+01 1.344300e+01 5.909451e+00 6.689139e+00 7.334120e+00 6.794374e+00 7.765992e+00 6.262658e+00 7.663986e+00 3.431300e-01 1.581524e-01 4.111209e-01 7.889669e-01 9.714397e-01 8.113692e-01 6.376159e-01 6.641209e-01 6.933646e-01 8.539521e-01 9.094726e-01 9.251860e-01 1.126253e-01
<GCONST> 5.994403e+01
~s "ST_ein_4_1"
<MEAN> 25
 -6.330911e+00 3.226837e+00 -1.124396e-01 -7.549587e-01 1.297926e+00 2.707774e+00 -1.805778e-01 -1.717044e+00 4.028294e+00 2.891501e+00 -2.145602e+00 2.395068e+00 -2.719924e-02 -3.064618e-02 2.983886e-02 5.092962e-02 2.392730e-02 -1.551168e-02 -4.409768e-02 -4.610943e-02 -3.683816e-02 1.145859e-02 5.776774e-02 1.814895e-02 -6.967809e-03
<VARIANCE> 25
 1.086717e+00 2.224638e+00 1.900455e+00 2.934972e+00 3.884309e+00 4.328818e+00 5.893300e+00 6.805369e+00 6.738755e+00 6.251782e+00 6.852315e+00 5.469437e+00 3.704994e-02 1.214077e-01 1.860433e-01 2.912747e-01 3.541469e-01 4.575041e-01 6.379382e-01 7.990650e-01 7.441033e-01 6.051169e-01 5.902738e-01 6.707582e-01 1.891393e-02
<GCONST> 4.592127e+01
~s "ST_a_2_1"
<MEAN> 25
 -6.174940e+00 3.946066e+00 -1.359174e+00 -1.973233e+00 4.766008e-01 2.706900e+00 -6.141820e-01 -1.559402e+00 4.002223e+00 3.217506e+00 -1.754452e+00 2.994749e+00 -2.299458e-02 -3.532177e-03 4.808581e-03 6.604292e-04 7.524820e-04 -2.575002e-02 -7.791859e-02 -7.799695e-02 -4.554981e-02 -1.136514e-02 2.637562e-03 5.498237e-03 -1.838085e-02
<VARIANCE> 25
 1.810000e+00 4.050159e+00 3.638849e+00 4.170564e+00 4.542542e+00 6.247857e+00 8.802007e+00 8.752623e+00 8.568091e+00 7.176657e+00 5.945110e+00 5.562163e+00 8.052363e-02 2.761137e-01 2.529534e-01 3.467407e-01 4.110020e-01 5.636774e-01 7.392948e-01 8.597713e-01 8.350942e-01 7.232634e-01 6.940889e-01 5.821416e-01 3.956727e-02
<GCONST> 5.317064e+01
~s "ST_a_3_1"
<MEAN> 25
 -6.170886e+00 4.647512e+00 -4.949806e-01 -1.261031e+00 7.197266e-01 2.198828e+00 -2.006515e+00 -3.529472e+00 2.041235e+00 3.007300e+00 -1.810376e+00 2.994962e+00 4.465424e+00 -2.045528e+00 -1.103879e+00 -1.769161e+00 -3.494559e+00 -2.359894e+00 1.311467e+00 1.692635e+00 -1.793157e+00 -1.249820e+00 1.142013e+00 -1.443752e+00 4.229021e+00
<VARIANCE> 25
 2.712460e+00 2.016515e+00 2.732566e+00 2.990520e+00 2.907671e+00 3.430954e+00 7.053391e+00 5.153316e+00 6.051482e+00 3.817378e+00 4.284502e+00 3.294991e+00 3.009134e+00 2.164117e+00 5.269548e-01 9.916621e-01 1.794984e+00 9.986587e-01 2.179872e+00 1.751331e+00 8.590829e-01 8.176987e-01 9.438437e-01 7.805187e-01 3.835367e+00
<GCONST> 6.526093e+01
~s "ST_a_4_1"
<MEAN> 25
 1.421706e+01 -7.174111e+00 -1.674309e+00 -2.591995e+00 -4.640038e+00 -6.229182e+00 1.892305e+00 2.723132e+00 -6.743347e+00 -2.935195e+00 5.164197e+00 -4.473690e+00 1.076501e+00 -7.677722e-01 5.580811e-02 -2.191758e-01 -3.970095e-01 -7.889024e-01 -1.077151e-02 3.202381e-01 -4.445998e-01 -5.812971e-02 7.686473e-01 -2.668562e-01 1.344218e+00
<VARIANCE> 25
 2.037346e+01 4.940682e+01 1.898451e+01 1.101889e+02 1.390661e+02 4.454094e+01 3.624383e+01 3.768069e+01 3.008472e+01 2.419527e+01 3.206598e+01 1.934020e+01 6.374868e+00 4.672468e+00 1.239463e+00 3.516938e+00 6.084543e+00 3.818464e+00 3.547471e+00 3.897822e+00 2.678975e+00 3.010650e+00 2.197391e+00 1.727226e+00 9.103938e+00
<GCONST> 1.057467e+02
~s "ST_lu_2_1"
<MEAN> 25
 -2.931765e+00 1.935831e+00 1.245566e-01 -2.358330e+00 -6.636765e-01 -1.745692e-01 -2.042679e+00 -1.544884e+00 3.291664e+00 3.416579e+00 7.056156e-01 1.738885e+00 8.669466e-01 2.958196e-01 4.666989e-01 1.139632e+00 1.366560e+00 7.241336e-01 -4.379615e-01 -9.731661e-01 -1.273685e+00 -5.967711e-01 -1.284018e-01 -8.186096e-01 5.876703e-01
<VARIANCE> 25
 6.375732e+01 3.096293e+01 2.352687e+00 5.776758e+00 1.457847e+01 3.598766e+01 6.335904e+00 6.504313e+00 3.337253e+01 8.087964e+00 3.318886e+01 8.945464e+00 3.748750e+00 6.381042e-01 5.624189e-01 1.571016e+00 2.602665e+00 2.412886e+00 1.420539e+00 1.907782e+00 2.751072e+00 1.037627e+00 6.506336e-01 1.511193e+00 1.800348e+00
<GCONST> 8.261980e+01
~s "ST_lu_3_1"
<MEAN> 25
 1.374747e+01 -3.950608e+00 2.722982e+00 5.767191e+00 5.889783e+00 -3.770322e+00 -8.066890e+00 -4.824615e+00 -8.884644e+00 -4.564682e+00 4.607315e+00 -5.106311e+00 1.137836e+00 8.502838e-01 -2.639884e-03 2.654568e+00 3.378392e+00 2.713953e+00 -3.156831e-01 -5.504048e-01 -1.328138e-01 -1.514596e+00 -1.007060e+00 -7.221695e-01 5.083148e-02
<VARIANCE> 25
 2.028382e+01 6.575537e+01 6.278864e+00 2.480633e+01 5.767609e+01 1.191087e+02 3.485468e+01 1.765521e+01 3.032965e+01 2.046293e+01 3.830700e+01 1.048540e+01 5.284337e+00 1.624599e+00 7.422281e-01 5.618017e-01 1.360413e+00 4.067922e+00 2.758608e+00 2.208790e+00 8.422669e+00 2.639263e+00 3.940732e+00 1.545524e+00 5.939109e+00
<GCONST> 9.735754e+01
~s "ST_lu_4_1"
<MEAN> 25
 1.326052e+01 -1.121971e+00 2.363506e+00 1.053743e+01 1.184487e+01 5.217258e+00 -2.001048e+00 -2.932520e+00 -6.681985e+00 -4.792953e+00 2.475621e+00 -5.060052e+00 1.060845e-01 -3.277981e-02 -4.330664e-02 -2.588902e-01 -3.290665e-01 -1.504764e-01 3.231938e-01 1.356282e-01 -2.502277e-02 4.399253e-02 -2.267691e-02 8.313978e-02 1.656871e-01
<VARIANCE> 25
 5.557595e+00 3.119909e+01 1.466992e+01 1.441399e+01 4.382935e+01 2.261569e+01 4.938478e+01 2.323665e+01 4.780814e+01 2.777406e+01 1.921158e+01 2.716676e+01 4.394793e-01 1.760495e+00 9.865611e-01 1.768861e+00 1.579158e+00 1.911720e+00 3.102514e+00 1.975327e+00 2.456944e+00 2.955685e+00 1.533277e+00 2.173643e+00 9.278991e-01
<GCONST> 9.017931e+01
~s "ST_ai_2_1"
<MEAN> 25
 -1.526387e+00 -1.094771e+01 -5.604705e+00 -4.373843e+00 -5.702586e-01 2.499605e+00 9.609458e+00 1.389957e+01 3.765551e+00 -6.461601e+00 1.012574e+00 6.842178e+00 -4.104142e-01 4.644129e-01 3.231586e-01 2.644345e-01 7.930133e-02 2.567112e-01 6.048616e-01 9.063507e-02 -3.167540e-01 1.386082e-01 7.005495e-02 5.716241e-02 -4.805190e-01
<VARIANCE> 25
 2.808172e+00 2.331073e+01 1.008405e+01 1.157097e+01 1.761441e+01 7.755765e+00 1.558974e+01 1.356230e+01 1.485744e+01 1.621025e+01 1.093982e+01 5.786137e+00 5.158195e-01 8.771227e-01 1.956440e+00 1.034177e+00 8.042060e-01 6.584168e-01 6.141061e-01 8.373405e-01 7.791004e-01 1.462499e+00 1.795934e+00 7.501212e-01 2.761491e-01
<GCONST> 7.254333e+01
~s "ST_ai_3_1"
<MEAN> 25
 -2.337565e+00 -2.628597e+00 -7.432804e+00 -5.776068e+00 -2.834906e+00 2.356404e+00 8.500985e+00 8.850592e+00 8.949794e-01 -6.034209e+00 -2.889174e+00 3.897628e+00 -1.546252e-01 1.345291e+00 3.082453e-01 -2.178060e-02 -1.736178e-01 -1.833495e-01 -8.490416e-01 -1.418508e+00 -1.530468e-01 5.725588e-01 -2.980357e-01 -1.058018e-01 -7.202870e-01
<VARIANCE> 25
 3.934471e+00 1.083053e+01 5.457400e+00 2.500989e+00 3.471170e+00 5.356876e+00 1.067996e+01 1.419786e+01 1.721155e+01 1.824148e+01 4.971249e+00 7.085326e+00 2.863447e-01 5.403929e-01 1.007204e+00 1.099613e+00 5.689126e-01 8.150430e-01 1.547075e+00 8.567371e-01 1.484392e+00 9.060417e-01 1.397492e+00 1.157603e+00 8.503884e-02
<GCONST> 6.563008e+01
~s "ST_ai_4_1"
<MEAN> 25
 -1.829114e+00 2.987317e+00 -8.526525e+00 -9.866219e+00 -6.073116e+00 1.313168e+00 4.055923e+00 2.466634e+00 1.579729e+00 -1.453331e+00 -4.064443e+00 2.236367e+00 -3.788555e-01 3.378509e-01 5.333304e-01 1.441683e-01 2.014034e-01 2.406906e-01 -3.188362e-01 -5.322947e-01 8.956689e-02 3.690496e-01 1.303183e-01 -7.647888e-02 -3.295930e-01
<VARIANCE> 25
 2.405490e+00 2.279290e+00 5.496513e+00 4.345560e+00 5.096912e+00 3.849977e+00 3.677895e+00 4.473387e+00 6.921967e+00 8.624538e+00 5.129968e+00 6.135082e+00 1.800075e-01 1.428602e-01 6.439818e-01 7.346660e-01 9.809462e-01 5.131103e-01 6.148798e-01 3.005618e-01 1.276533e+00 1.113127e+00 6.927251e-01 7.050885e-01 7.396641e-02
<GCONST> 5.438406e+01
~s "ST_la_2_1"
<MEAN> 25
 1.421498e+01 -8.392797e+00 -3.608455e+00 -5.128754e+00 -9.968839e+00 -6.719110e+00 6.145137e+00 7.424196e+00 -5.156770e+00 -3.979026e+00 2.807413e+00 -3.376502e+00 -3.353737e-01 -1.987351e-02 -5.401243e-01 -4.243079e-01 -1.504560e-01 1.273630e-02 2.174699e-01 4.416065e-01 6.403742e-01 2.140762e-01 -1.601057e-01 1.517911e-01 -3.603884e-01
<VARIANCE> 25
 2.816140e+01 3.016725e+01 6.027917e+01 7.960155e+01 2.953898e+01 1.653168e+01 2.640475e+01 4.418274e+01 8.651811e+01 2.205664e+01 2.714780e+01 2.443469e+01 2.707556e+00 2.282039e+00 1.652665e+00 2.756300e+00 1.902820e+00 1.555530e+00 2.633774e+00 1.271228e+00 4.278257e+00 2.090916e+00 1.698554e+00 1.947005e+00 3.484066e+00
<GCONST> 9.873814e+01
~s "ST_la_3_1"
<MEAN> 25
 -1.704327e+00 1.598266e+00 -6.777820e+00 -7.656881e+00 -5.449621e+00 6.041733e-01 6.285092e+00 6.839483e+00 4.878625e+00 -6.986147e-01 -3.685469e+00 1.578491e+00 -8.942414e-01 8.086694e-01 1.068975e+00 5.591623e-01 8.570039e-01 8.384306e-01 -5.134790e-01 -1.026712e+00 -1.223086e-01 3.016975e-01 -2.296623e-01 -2.687111e-02 -7.932859e-01
<VARIANCE> 25
 7.340697e+00 1.053123e+01 1.425717e+01 1.084237e+01 1.151530e+01 1.435208e+01 1.070222e+01 1.709479e+01 1.059451e+01 1.306932e+01 9.145207e+00 7.416371e+00 4.434107e-01 7.653153e-01 5.362670e-01 1.252878e+00 9.784207e-01 1.381935e+00 1.440640e+00 1.350021e+00 1.214909e+00 1.308205e+00 8.800669e-01 6.829277e-01 3.786359e-01
<GCONST> 7.327125e+01
~s "ST_la_4_1"
<MEAN> 25
 -6.065185e+00 3.599583e+00 -2.716739e-01 -7.558311e-01 1.253141e+00 2.657318e+00 -5.968429e-01 -1.648727e+00 3.477644e+00 2.785439e+00 -1.580048e+00 2.101280e+00 -3.102234e-02 -1.105687e-02 4.343289e-02 5.759747e-02 4.634997e-02 -6.881690e-03 -5.262161e-02 -5.614917e-02 -3.093622e-02 2.715475e-02 5.007832e-02 2.663960e-02 -1.476106e-02
<VARIANCE> 25
 1.086717e+00 2.625126e+00 3.048835e+00 4.051513e+00 4.355563e+00 5.417039e+00 6.057856e+00 6.605915e+00 5.447008e+00 6.630396e+00 6.356522e+00 5.925558e+00 5.156817e-02 1.153887e-01 2.127336e-01 3.634104e-01 4.367307e-01 4.584866e-01 6.042793e-01 6.019600e-01 5.816371e-01 6.856937e-01 6.666580e-01 5.997661e-01 1.891393e-02
<GCONST> 4.746731e+01
~s "ST_t_2_1"
<MEAN> 25
 1.781482e+00 -7.233859e-01 3.878226e+00 3.806129e+00 5.518340e+00 -1.685076e+00 -3.307112e+00 -4.518002e-01 -1.340918e+00 -1.868481e+00 6.702794e-01 -2.495530e+00 -5.557092e-02 -9.746477e-03 -2.416068e-01 -6.061304e-01 -1.608415e-01 2.264008e-01 3.296105e-01 5.164874e-02 3.657125e-01 3.719437e-01 8.439731e-02 4.424310e-01 2.848469e-02
<VARIANCE> 25
 3.943362e+01 2.959957e+01 2.483345e+01 3.929685e+01 1.746648e+01 1.664906e+01 2.519326e+01 1.816024e+01 3.456696e+01 2.630008e+01 1.902720e+01 2.182775e+01 7.013732e+00 5.016496e+00 2.696408e+00 3.034898e+00 1.973324e+00 3.205377e+00 3.796328e+00 3.007049e+00 5.557747e+00 3.959989e+00 2.518019e+00 2.274996e+00 1.228480e+01
<GCONST> 1.018201e+02
~s "ST_t_3_1"
<MEAN> 25
 1.417269e+01 -1.272904e+01 7.652177e+00 5.149188e+00 6.057090e+00 -6.152557e+00 -1.179314e+01 -4.247593e+00 -1.406752e+01 -9.550591e+00 4.494819e+00 -6.639840e+00 8.021528e-01 -3.168712e-01 -6.795844e-01 -3.025670e-01 -9.600291e-01 8.913443e-02 6.516362e-01 -2.409160e-01 -9.541301e-01 -4.956945e-01 7.559951e-02 1.405954e-01 4.060355e-01
<VARIANCE> 25
 5.131103e+00 7.284868e+00 1.606886e+01 2.221641e+01 1.194560e+01 1.706565e+01 3.236013e+01 7.791973e+00 1.336640e+01 2.259505e+01 8.816782e+00 1.236918e+01 1.011120e+00 1.850904e+00 1.137205e+00 2.460904e+00 1.963094e+00 1.979765e+00 3.137330e+00 1.648776e+00 2.468485e+00 3.676430e+00 1.337084e+00 1.589896e+00 7.064515e-01
<GCONST> 8.396448e+01
~s "ST_t_4_1"
<MEAN> 25
 1.990579e+01 -6.890878e+00 -3.502491e+00 -8.662814e+00 -1.008463e+01 -6.382192e+00 4.826010e+00 5.311356e+00 -9.417933e+00 -7.593418e+00 4.972311e+00 -3.393234e+00 4.159155e-02 7.871119e-01 -4.253128e-01 -5.148950e-01 -1.227879e+00 3.445015e-02 5.814764e-01 7.504045e-01 6.247981e-01 -1.087449e-01 -5.777099e-01 -2.962793e-01 -5.506482e-01
<VARIANCE> 25
 2.282843e+00 1.397371e+01 1.003126e+01 2.000314e+01 1.844685e+01 1.688561e+01 1.887614e+01 2.922013e+01 1.106225e+01 2.621922e+01 2.011364e+01 2.635736e+01 2.418973e-01 1.083874e+00 6.260386e-01 9.342223e-01 1.718872e+00 1.211072e+00 1.246394e+00 1.807887e+00 1.858211e+00 1.237754e+00 1.503169e+00 1.941850e+00 3.387313e-01
<GCONST> 7.920049e+01
~s "ST_sil_2_1"
<MEAN> 25
 -2.437422e+01 -1.865753e+00 -9.335938e+00 3.071808e+00 -6.745874e-01 5.399651e+00 -1.140197e+01 -5.874085e+00 -2.223449e+00 3.532236e+00 9.385672e-01 2.673194e+00 1.580641e-02 -1.096250e-02 2.786653e-02 3.871707e-02 1.559852e-02 -2.578643e-02 -3.588419e-02 1.085945e-01 3.191040e-02 -4.363150e-02 -3.188820e-02 2.153254e-02 -5.276574e-04
<VARIANCE> 25
 3.499232e+01 3.823295e+00 1.219488e+01 4.540440e+00 2.866974e+00 4.157632e+00 1.626307e+01 5.953073e+00 7.056385e+00 5.958688e+00 4.340189e+00 4.026894e+00 3.200512e-02 5.656232e-02 1.415885e-01 3.166685e-01 3.146285e-01 2.080476e-01 4.400942e-01 5.118989e-01 6.457206e-01 7.889965e-01 5.065396e-01 4.777837e-01 1.891393e-02
<GCONST> 4.881118e+01
~s "silst"
<MEAN> 25
 -1.277509e+01 1.303326e+00 -5.162073e+00 7.391239e-01 -3.855921e-01 3.899550e+00 -4.765095e+00 -3.199709e+00 5.565767e-01 2.901827e+00 -8.104098e-01 2.212228e+00 3.932710e+00 1.050876e+00 1.713839e+00 -5.972237e-01 2.339479e-03 -6.759035e-01 2.109963e+00 3.785148e-01 1.405350e-01 -5.550098e-01 -3.626515e-01 -3.198403e-01 4.336813e+00
<VARIANCE> 25
 9.664595e+01 1.111752e+01 2.752896e+01 1.434673e+01 9.667157e+00 6.480541e+00 4.072427e+01 1.389385e+01 1.720053e+01 9.525457e+00 1.202732e+01 7.065180e+00 4.319145e+00 7.566537e-01 1.274250e+00 2.410644e+00 1.277709e+00 6.568017e-01 3.258605e+00 1.954250e+00 5.411804e+00 1.246889e+00 1.566647e+00 1.393993e+00 4.844616e+00
<GCONST> 8.717300e+01
~s "ST_sil_3_1"
<MEAN> 25
 -1.271587e+01 1.314202e+00 -5.150912e+00 7.168328e-01 -3.864605e-01 3.882677e+00 -4.726463e+00 -3.187124e+00 5.789940e-01 2.890097e+00 -8.283436e-01 2.209618e+00 3.904335e+00 1.047223e+00 1.709006e+00 -5.924884e-01 7.553251e-03 -6.742640e-01 2.089699e+00 3.709075e-01 1.404440e-01 -5.535986e-01 -3.619808e-01 -3.205970e-01 4.309888e+00
<VARIANCE> 25
 9.640182e+01 1.110059e+01 2.750121e+01 1.439187e+01 9.612924e+00 6.519032e+00 4.072277e+01 1.385910e+01 1.720995e+01 9.485549e+00 1.198301e+01 7.024293e+00 4.394508e+00 7.566431e-01 1.277848e+00 2.397983e+00 1.276807e+00 6.538141e-01 3.301577e+00 1.973882e+00 5.376697e+00 1.246308e+00 1.557415e+00 1.385534e+00 4.903730e+00
<GCONST> 8.718153e+01
~s "ST_sil_4_1"
<MEAN> 25
 -6.000105e+00 2.755726e+00 -9.348077e-01 -1.220859e+00 3.881956e-01 2.218110e+00 1.059725e-01 -1.362039e+00 2.871276e+00 2.152691e+00 -1.573807e+00 2.297505e+00 5.964092e-03 1.747073e-02 2.385554e-02 1.848060e-02 1.252340e-02 -2.056614e-03 4.912833e-03 3.047257e-02 4.953102e-02 1.544364e-02 1.220627e-02 -4.396433e-03 3.379222e-03
<VARIANCE> 25
 2.329987e+00 7.945505e+00 5.330714e+00 6.664212e+00 5.612442e+00 7.115144e+00 9.895473e+00 1.027713e+01 7.501902e+00 7.275213e+00 6.720615e+00 7.485886e+00 1.071800e-01 7.268929e-01 3.423963e-01 5.803537e-01 5.126156e-01 7.178041e-01 9.626044e-01 1.088854e+00 7.912539e-01 7.045387e-01 6.897854e-01 7.574334e-01 1.315778e-01
<GCONST> 6.028006e+01
~s "ST_m_2_1"
<MEAN> 25
 7.241780e+00 1.500296e+00 -2.116432e+00 -3.452179e+00 -3.870608e+00 -1.189054e+00 3.509151e+00 3.838778e+00 -9.137415e-01 -1.695395e+00 9.831282e-01 1.340287e+00 -1.071407e+00 4.603312e-01 -4.639202e-02 -1.790600e-01 -2.754586e-01 2.523651e-01 2.833378e-01 2.299332e-01 5.322645e-01 5.082338e-01 -3.939733e-02 2.128249e-01 -1.211324e+00
<VARIANCE> 25
 9.208475e+01 2.937477e+01 1.813920e+01 3.336413e+01 5.811651e+01 5.639164e+01 2.233853e+01 2.680389e+01 5.144192e+01 4.705292e+01 1.324702e+01 2.986256e+01 2.047527e+00 3.030815e+00 1.586280e+00 3.420523e+00 4.311818e+00 3.572884e+00 2.747945e+00 3.033212e+00 3.488034e+00 2.962311e+00 1.407027e+00 3.647837e+00 2.201049e+00
<GCONST> 1.016488e+02
~s "ST_m_3_1"
<MEAN> 25
 -6.033918e+00 3.652744e+00 3.951426e-01 -3.628210e-01 1.983743e+00 3.679332e+00 1.402349e+00 -6.499184e-01 4.154257e+00 3.883584e+00 -5.965410e-01 2.897892e+00 -5.452680e-02 -2.396215e-02 7.333997e-02 5.758029e-02 2.393739e-02 -1.754432e-02 -1.451807e-01 -2.346910e-01 -2.023794e-01 -8.569184e-02 -6.504557e-02 -1.255274e-01 -2.921914e-02
<VARIANCE> 25
 1.998433e+01 2.356287e+00 3.053008e+00 7.201459e+00 3.908330e+00 5.675332e+00 1.021461e+01 1.089715e+01 1.786368e+01 7.869141e+00 9.355153e+00 1.152983e+01 1.653786e-01 2.296528e-01 3.373764e-01 6.211742e-01 5.444430e-01 6.051865e-01 7.435978e-01 8.133175e-01 9.118477e-01 6.739942e-01 8.827788e-01 6.907797e-01 6.974991e-02
<GCONST> 6.023674e+01
~s "ST_m_4_1"
<MEAN> 25
 8.585138e+00 1.325293e-01 3.716320e+00 6.301921e+00 -9.556735e-02 -1.739736e+00 4.053320e+00 -1.527300e-01 -1.044259e+01 -5.124676e+00 1.607008e+00 -4.741873e+00 9.102927e-01 -7.748579e-01 1.601141e-01 4.097319e-01 -4.156805e-01 -1.440271e+00 -1.846372e-01 7.243542e-01 -2.505330e-01 -5.561481e-01 -6.176902e-02 -3.346255e-01 1.116109e+00
<VARIANCE> 25
 7.265913e+01 2.088750e+01 1.831706e+01 3.788661e+01 2.213561e+01 3.344331e+01 2.515485e+01 1.668475e+01 1.039305e+02 4.915516e+01 1.844696e+01 5.081305e+01 3.024805e+00 2.803920e+00 2.848530e+00 4.692994e+00 1.507220e+00 5.336249e+00 2.900175e+00 1.989213e+00 6.961144e+00 3.259646e+00 1.457652e+00 3.369134e+00 2.075871e+00
<GCONST> 1.018545e+02
~s "ST_ch_2_1"
<MEAN> 25
 9.945004e-02 2.831008e+00 -4.381588e+00 -3.114238e+00 -3.136454e+00 -5.712627e-01 2.030049e+00 6.269503e-01 -1.204500e+00 7.963101e-01 4.860139e-01 3.445340e+00 -1.544707e+00 1.615228e+00 4.274330e-01 -5.903683e-01 7.532619e-01 1.523624e+00 4.656147e-01 -2.086135e-01 1.101883e+00 2.909716e-01 -4.821755e-01 1.170137e+00 -1.663803e+00
<VARIANCE> 25
 2.504648e+01 1.019055e+01 1.263696e+01 2.308216e+01 2.264153e+01 3.112321e+01 1.617551e+01 1.540542e+01 2.594553e+01 2.452428e+01 5.138493e+00 1.327099e+01 2.142229e+00 1.618345e+00 1.372384e+00 2.930565e+00 3.481941e+00 3.137549e+00 5.439180e-01 1.806116e+00 3.334030e+00 2.296097e+00 9.644948e-01 2.674109e+00 1.305140e+00
<GCONST> 8.817619e+01
~s "ST_ch_3_1"
<MEAN> 25
 -5.815357e+00 5.040567e+00 -1.634735e+00 -1.954379e+00 1.094164e+00 4.361699e+00 4.648137e-01 -1.449374e+00 3.922966e+00 3.956477e+00 -1.693380e+00 2.821923e+00 3.386771e-02 -5.302164e-02 -4.847115e-02 -2.934653e-02 -7.057731e-02 -2.484532e-02 -2.438658e-02 -8.484755e-02 -7.344838e-02 2.232447e-02 -2.859819e-02 -1.178979e-01 3.365106e-02
<VARIANCE> 25
 1.086717e+00 1.081683e+00 3.237112e+00 3.798013e+00 4.509686e+00 5.079905e+00 7.099646e+00 6.288705e+00 6.804327e+00 6.802713e+00 4.945473e+00 4.458577e+00 3.552730e-01 1.701335e-01 3.709201e-01 5.459127e-01 5.058664e-01 7.338942e-01 8.648097e-01 6.978110e-01 9.728205e-01 7.408727e-01 6.069520e-01 4.521270e-01 1.722423e-01
<GCONST> 5.319780e+01
~s "ST_ch_4_1"
<MEAN> 25
 1.261892e+01 -2.667500e+00 3.394963e+00 9.418728e+00 -3.757848e+00 -1.311568e+00 5.034822e+00 -1.544995e+00 -1.618386e+01 -9.889397e+00 2.024396e+00 -7.194739e+00 1.191457e+00 -7.121755e-01 1.711910e-01 8.989344e-02 -5.087878e-01 -5.238730e-01 7.612897e-02 1.846662e-01 -9.239725e-01 -7.809897e-01 2.309179e-01 -2.107324e-01 1.271235e+00
<VARIANCE> 25
 2.952336e+01 1.417758e+01 1.577576e+01 2.388490e+01 2.383685e+01 9.692541e+00 1.882852e+01 1.347972e+01 4.402439e+01 2.791650e+01 1.462372e+01 1.686307e+01 2.724744e+00 6.834028e-01 1.781852e+00 4.273012e+00 7.535506e-01 9.920838e-01 1.985289e+00 7.827059e-01 5.315998e+00 2.894101e+00 8.333386e-01 2.880374e+00 1.904085e+00
<GCONST> 8.857092e+01
~s "ST_eh_2_1"
<MEAN> 25
 4.452725e+00 5.452329e+00 7.558588e-01 -5.493742e-02 -8.361599e-01 2.440540e+00 3.109846e+00 1.755487e+00 5.557688e-01 -7.504597e-01 -1.992479e+00 -1.872793e+00 1.114993e+00 1.307311e+00 1.012571e+00 1.276611e+00 1.126834e+00 6.396087e-01 1.660476e-01 -5.999463e-01 -3.392243e-01 3.859006e-01 -4.073870e-01 -1.388789e+00 4.690285e-01
<VARIANCE> 25
 9.080357e+01 4.860461e+01 3.123589e+01 2.452691e+01 4.883895e+01 4.420049e+01 2.594776e+01 1.696429e+01 2.280457e+01 4.126281e+01 8.068832e+00 4.017270e+01 4.048403e+00 2.930107e+00 2.896828e+00 2.171616e+00 3.558828e+00 5.913277e+00 3.327570e+00 3.260316e+00 5.456523e+00 2.033515e+00 1.598984e+00 5.763765e+00 3.062358e+00
<GCONST> 1.028631e+02
~s "ST_eh_3_1"
<MEAN> 25
 1.107871e+01 7.477156e+00 1.888154e+00 6.446783e+00 5.723046e+00 9.237639e+00 8.729530e+00 -5.625196e+00 -8.063292e+00 2.245056e+00 -1.361865e-01 -1.029479e+01 1.128502e+00 -5.164037e-01 -2.921071e-01 2.264698e-02 -9.887789e-02 -6.168682e-01 -3.086340e-01 9.980008e-03 -6.897022e-01 -2.636985e-01 4.823722e-01 -3.729397e-01 1.039138e+00
<VARIANCE> 25
 2.596159e+01 1.826836e+01 7.580317e+00 1.368628e+01 2.087391e+01 2.151892e+01 2.657649e+01 1.438951e+01 2.311027e+01 2.602517e+01 1.155546e+01 2.057289e+01 1.972501e+00 1.550215e+00 9.235463e-01 1.524510e+00 7.961937e-01 2.730296e+00 3.087050e+00 9.315981e-01 3.542299e+00 2.458664e+00 1.557061e+00 2.861646e+00 2.293176e+00
<GCONST> 8.845632e+01
~s "ST_eh_4_1"
<MEAN> 25
 1.406637e+01 -8.719730e+00 6.243573e+00 6.794583e+00 5.608420e+00 -9.884878e+00 -9.566038e+00 -1.586085e+00 -1.211210e+01 -8.449369e+00 4.892697e+00 -9.425306e+00 4.083115e-01 -9.271897e-01 1.167209e+00 5.353009e-01 3.623027e-01 -1.246090e+00 -1.278634e+00 2.266254e-01 -4.324666e-01 -1.048470e+00 1.719103e-01 -5.174903e-01 1.181257e+00
<VARIANCE> 25
 6.445192e+00 3.380804e+01 2.451191e+01 1.812476e+01 2.542678e+01 2.744014e+01 3.088556e+01 1.085680e+01 2.854399e+01 1.545191e+01 2.020911e+01 1.216424e+01 3.232520e+00 7.166230e+00 1.644985e+00 1.209996e+00 1.116491e+00 6.381562e+00 4.643884e+00 9.380853e-01 5.195624e+00 2.103126e+00 2.146811e+00 1.940655e+00 6.282047e+00
<GCONST> 9.430629e+01
~s "ST_p_2_1"
<MEAN> 25
 1.183581e+01 2.863196e+00 3.914718e+00 1.254731e+00 -7.962887e+00 -4.230995e+00 8.576321e+00 4.931733e+00 1.041131e+00 -1.392062e+00 -4.855942e+00 -2.885932e+00 -2.894730e+00 7.236722e-01 -1.705486e-01 1.922401e-01 3.775872e+00 3.437657e+00 3.024495e-01 7.614643e-01 2.023675e+00 9.299777e-01 2.894079e-01 -5.515476e-02 -2.434439e+00
<VARIANCE> 25
 1.919857e+01 3.820854e+01 2.284055e+01 3.923137e+01 4.230555e+01 7.371207e+01 2.135874e+01 1.614420e+01 2.211689e+01 1.506036e+01 6.760446e+00 1.321296e+01 7.389421e-01 1.612081e+00 1.711723e+00 2.535976e+00 1.513054e+00 5.449942e+00 3.479152e+00 7.234305e-01 5.337705e-01 9.873891e-01 2.424595e+00 2.912336e+00 2.503145e-01
<GCONST> 8.813657e+01
~s "ST_p_3_1"
<MEAN> 25
 4.581599e+00 -8.240768e+00 -7.980091e+00 -2.274224e+00 -2.446124e+00 -3.494987e+00 4.673610e+00 1.388138e+01 7.931573e+00 -1.808960e+00 -2.065395e+00 -1.767101e+00 -1.234520e+00 -4.046115e-01 -1.297046e+00 -3.053329e-01 -3.040710e-01 -7.096508e-01 -1.306468e+00 -4.789661e-01 -1.085144e-01 8.526083e-02 5.928244e-01 4.935060e-01 -1.168870e+00
<VARIANCE> 25
 3.621020e+00 6.022854e+01 3.240644e+01 1.132662e+01 2.349356e+01 1.943655e+01 1.487472e+01 4.432934e+01 1.846780e+01 2.481731e+01 1.346086e+01 4.810238e+00 1.373877e+00 9.824017e-01 1.481324e+00 1.322443e+00 3.092526e+00 7.024944e-01 2.018798e+00 4.043138e+00 1.861435e+00 1.076962e+00 4.898828e-01 1.150643e+00 6.711219e-01
<GCONST> 8.372173e+01
~s "ST_eu_2_1"
<MEAN> 25
 7.110995e+00 7.503332e-01 1.915830e+00 -1.984460e+00 -3.026076e+00 -5.132947e+00 -2.810991e+00 -4.969393e+00 -7.313581e+00 -2.941957e+00 4.470890e+00 -1.108900e+00 4.404417e+00 -2.351993e+00 7.987948e-01 -5.982221e-01 -1.177807e+00 -2.775420e+00 7.244708e-02 -4.909321e-01 -3.646913e+00 -2.042766e+00 2.385523e+00 -8.309038e-01 5.335933e+00
<VARIANCE> 25
 7.660045e+01 3.355533e+01 1.601126e+01 1.118240e+01 1.621264e+01 3.537759e+01 2.629761e+01 1.437123e+01 6.792662e+01 2.531383e+01 3.129809e+01 1.944729e+01 3.434321e+00 3.058986e+00 1.046940e+00 1.323810e+00 3.168979e+00 1.757776e+00 5.263896e+00 1.226231e+00 4.641454e+00 1.817193e+00 1.825054e+00 1.165138e+00 3.324425e+00
<GCONST> 9.548260e+01
~s "ST_p_4_1"
<MEAN> 25
 -3.876025e+00 3.028111e+00 -1.092562e-01 -1.527244e-02 1.909122e+00 1.286088e+00 7.264203e-01 2.061543e+00 4.618042e+00 2.162596e+00 -5.324923e-01 2.819674e+00 -1.885771e-01 -8.349644e-02 -7.846596e-02 -4.704459e-02 2.249571e-02 -2.353922e-02 -1.343695e-01 -7.824830e-02 -3.340401e-02 -9.461784e-02 -7.303899e-02 3.436236e-02 -1.340820e-01
<VARIANCE> 25
 1.363891e+01 9.488271e+00 9.078175e+00 8.605680e+00 1.305306e+01 1.235631e+01 6.871324e+00 1.672579e+01 8.449389e+00 1.122694e+01 6.644376e+00 8.831791e+00 1.777463e+00 7.707772e-01 6.380708e-01 6.077105e-01 8.040967e-01 1.038667e+00 9.688649e-01 1.726980e+00 9.976473e-01 9.366980e-01 6.745023e-01 1.146776e+00 1.173523e+00
<GCONST> 7.315780e+01
~s "ST_eu_3_1"
<MEAN> 25
 1.777576e+01 -9.249387e+00 2.467304e+00 -2.190264e+00 -2.893000e+00 -9.602399e+00 -2.220060e+00 -3.735403e+00 -1.656170e+01 -5.959726e+00 8.411948e+00 -2.894967e+00 1.753567e-01 1.170023e-01 -2.190066e-01 -2.355469e-01 -3.766204e-01 1.214565e-01 9.795175e-02 2.656288e-01 1.960061e-01 1.560832e-01 -2.475733e-01 -6.504628e-03 -8.541591e-02
<VARIANCE> 25
 1.211052e+00 7.307172e+00 7.054378e+00 8.167454e+00 1.341509e+01 6.636184e+00 9.207840e+00 1.019058e+01 9.579285e+00 1.014030e+01 5.574227e+00 6.605177e+00 1.229128e-01 1.473009e+00 5.250579e-01 8.133361e-01 1.332564e+00 4.795999e-01 1.247190e+00 9.761924e-01 1.406170e+00 7.746614e-01 3.903457e-01 4.168545e-01 4.637605e-01
<GCONST> 6.408432e+01
~s "ST_eu_4_1"
<MEAN> 25
 5.302171e+00 -3.881210e+00 5.131574e-01 -6.060081e+00 -7.334382e+00 -5.626195e+00 4.679272e+00 1.700664e+01 1.053331e+01 -3.308051e+00 -2.594160e+00 -3.053634e-01 -8.262664e-01 2.782457e-01 -2.194850e-01 1.241703e-02 2.201855e-01 2.050660e-01 6.934858e-02 3.487892e-01 8.804906e-01 3.208970e-01 -3.817924e-01 1.470624e-01 -8.433621e-01
<VARIANCE> 25
 4.537920e+01 1.976157e+01 2.379822e+01 1.498665e+01 2.117684e+01 1.301100e+01 1.636869e+01 7.042390e+01 5.885096e+01 2.466979e+01 1.659330e+01 1.987663e+01 2.070223e+00 2.004134e+00 1.494975e+00 1.924976e+00 2.395458e+00 1.466666e+00 1.809836e+00 5.867481e+00 4.576461e+00 2.056940e+00 1.979748e+00 1.749899e+00 4.885104e-01
<GCONST> 9.323762e+01
~h "a"
<BEGINHMM>
<NUMSTATES> 5
<STATE> 2
~s "ST_a_2_1"
<STATE> 3
~s "ST_a_3_1"
<STATE> 4
~s "ST_a_4_1"
~t "T_a"
<ENDHMM>
~h "i"
<BEGINHMM>
<NUMSTATES> 5
<STATE> 2
~s "ST_i_2_1"
<STATE> 3
~s "ST_i_3_1"
<STATE> 4
~s "ST_i_4_1"
~t "T_i"
<ENDHMM>
~h "l"
<BEGINHMM>
<NUMSTATES> 5
<STATE> 2
~s "ST_l_2_1"
<STATE> 3
~s "ST_l_3_1"
<STATE> 4
~s "ST_l_4_1"
~t "T_l"
<ENDHMM>
~h "m"
<BEGINHMM>
<NUMSTATES> 5
<STATE> 2
~s "ST_m_2_1"
<STATE> 3
~s "ST_m_3_1"
<STATE> 4
~s "ST_m_4_1"
~t "T_m"
<ENDHMM>
~h "o"
<BEGINHMM>
<NUMSTATES> 5
<STATE> 2
~s "ST_o_2_1"
<STATE> 3
~s "ST_o_3_1"
<STATE> 4
~s "ST_o_4_1"
~t "T_o"
<ENDHMM>
~h "p"
<BEGINHMM>
<NUMSTATES> 5
<STATE> 2
~s "ST_p_2_1"
<STATE> 3
~s "ST_p_3_1"
<STATE> 4
~s "ST_p_4_1"
~t "T_p"
<ENDHMM>
~h "r"
<BEGINHMM>
<NUMSTATES> 5
<STATE> 2
~s "ST_r_2_1"
<STATE> 3
~s "ST_r_3_1"
<STATE> 4
~s "ST_r_4_1"
~t "T_r"
<ENDHMM>
~h "t"
<BEGINHMM>
<NUMSTATES> 5
<STATE> 2
~s "ST_t_2_1"
<STATE> 3
~s "ST_t_3_1"
<STATE> 4
~s "ST_t_4_1"
~t "T_t"
<ENDHMM>
~h "ai"
<BEGINHMM>
<NUMSTATES> 5
<STATE> 2
~s "ST_ai_2_1"
<STATE> 3
~s "ST_ai_3_1"
<STATE> 4
~s "ST_ai_4_1"
~t "T_ai"
<ENDHMM>
~h "am"
<BEGINHMM>
<NUMSTATES> 5
<STATE> 2
~s "ST_am_2_1"
<STATE> 3
~s "ST_am_3_1"
<STATE> 4
~s "ST_am_4_1"
~t "T_am"
<ENDHMM>
~h "ch"
<BEGINHMM>
<NUMSTATES> 5
<STATE> 2
~s "ST_ch_2_1"
<STATE> 3
~s "ST_ch_3_1"
<STATE> 4
~s "ST_ch_4_1"
~t "T_ch"
<ENDHMM>
~h "eh"
<BEGINHMM>
<NUMSTATES> 5
<STATE> 2
~s "ST_eh_2_1"
<STATE> 3
~s "ST_eh_3_1"
<STATE> 4
~s "ST_eh_4_1"
~t "T_eh"
<ENDHMM>
~h "eu"
<BEGINHMM>
<NUMSTATES> 5
<STATE> 2
~s "ST_eu_2_1"
<STATE> 3
~s "ST_eu_3_1"
<STATE> 4
~s "ST_eu_4_1"
~t "T_eu"
<ENDHMM>
~h "ff"
<BEGINHMM>
<NUMSTATES> 5
<STATE> 2
~s "ST_ff_2_1"
<STATE> 3
~s "ST_ff_3_1"
<STATE> 4
~s "ST_ff_4_1"
~t "T_ff"
<ENDHMM>
~h "la"
<BEGINHMM>
<NUMSTATES> 5
<STATE> 2
~s "ST_la_2_1"
<STATE> 3
~s "ST_la_3_1"
<STATE> 4
~s "ST_la_4_1"
<TRANSP> 5
 0.000000e+00 1.000000e+00 0.000000e+00 0.000000e+00 0.000000e+00
 0.000000e+00 9.586288e-01 4.137116e-02 0.000000e+00 0.000000e+00
 0.000000e+00 0.000000e+00 8.912441e-01 1.087559e-01 0.000000e+00
 0.000000e+00 0.000000e+00 0.000000e+00 9.819326e-01 1.806742e-02
 0.000000e+00 0.000000e+00 0.000000e+00 0.000000e+00 0.000000e+00
<ENDHMM>
~h "lu"
<BEGINHMM>
<NUMSTATES> 5
<STATE> 2
~s "ST_lu_2_1"
<STATE> 3
~s "ST_lu_3_1"
<STATE> 4
~s "ST_lu_4_1"
~t "T_lu"
<ENDHMM>
~h "sp"
<BEGINHMM>
<NUMSTATES> 3
<STATE> 2
~s "ST_sil_3_1"
<TRANSP> 3
 0.000000e+00 1.527878e-01 8.472123e-01
 0.000000e+00 6.012887e-01 3.987113e-01
 0.000000e+00 0.000000e+00 0.000000e+00
<ENDHMM>
~h "t-ein"
<BEGINHMM>
<NUMSTATES> 5
<STATE> 2
~s "ST_ein_2_1"
<STATE> 3
~s "ST_ein_3_1"
<STATE> 4
~s "ST_ein_4_1"
~t "T_ein"
<ENDHMM>
~h "sil"
<BEGINHMM>
<NUMSTATES> 5
<STATE> 2
~s "ST_sil_2_1"
<STATE> 3
~s "ST_sil_3_1"
<STATE> 4
~s "ST_sil_4_1"
<TRANSP> 5
 0.000000e+00 1.000000e+00 0.000000e+00 0.000000e+00 0.000000e+00
 0.000000e+00 8.083872e-01 8.982081e-02 1.017920e-01 0.000000e+00
 0.000000e+00 0.000000e+00 7.939200e-01 2.060799e-01 0.000000e+00
 0.000000e+00 4.754321e-18 0.000000e+00 9.606299e-01 3.937003e-02
 0.000000e+00 0.000000e+00 0.000000e+00 0.000000e+00 0.000000e+00
<ENDHMM>
