~o
<STREAMINFO> 1 25
<VECSIZE> 25<NULLD><MFCC_D_N_Z_0><DIAGC>
~t "T_ein"
<TRANSP> 5
 0.000000e+00 1.000000e+00 0.000000e+00 0.000000e+00 0.000000e+00
 0.000000e+00 8.665411e-01 1.334589e-01 0.000000e+00 0.000000e+00
 0.000000e+00 0.000000e+00 8.897497e-01 1.102503e-01 0.000000e+00
 0.000000e+00 0.000000e+00 0.000000e+00 9.765007e-01 2.349934e-02
 0.000000e+00 0.000000e+00 0.000000e+00 0.000000e+00 0.000000e+00
~t "T_a"
<TRANSP> 5
 0.000000e+00 1.000000e+00 0.000000e+00 0.000000e+00 0.000000e+00
 0.000000e+00 9.652406e-01 3.475939e-02 0.000000e+00 0.000000e+00
 0.000000e+00 0.000000e+00 4.761904e-01 5.238097e-01 0.000000e+00
 0.000000e+00 0.000000e+00 0.000000e+00 9.067042e-01 9.329582e-02
 0.000000e+00 0.000000e+00 0.000000e+00 0.000000e+00 0.000000e+00
~t "T_i"
<TRANSP> 5
 0.000000e+00 1.000000e+00 0.000000e+00 0.000000e+00 0.000000e+00
 0.000000e+00 8.223805e-01 1.776195e-01 0.000000e+00 0.000000e+00
 0.000000e+00 0.000000e+00 8.666141e-01 1.333859e-01 0.000000e+00
 0.000000e+00 0.000000e+00 0.000000e+00 8.464964e-01 1.535036e-01
 0.000000e+00 0.000000e+00 0.000000e+00 0.000000e+00 0.000000e+00
~t "T_l"
<TRANSP> 5
 0.000000e+00 1.000000e+00 0.000000e+00 0.000000e+00 0.000000e+00
 0.000000e+00 9.642005e-01 3.579948e-02 0.000000e+00 0.000000e+00
 0.000000e+00 0.000000e+00 8.124083e-01 1.875917e-01 0.000000e+00
 0.000000e+00 0.000000e+00 0.000000e+00 8.888782e-01 1.111218e-01
 0.000000e+00 0.000000e+00 0.000000e+00 0.000000e+00 0.000000e+00
~t "T_m"
<TRANSP> 5
 0.000000e+00 1.000000e+00 0.000000e+00 0.000000e+00 0.000000e+00
 0.000000e+00 8.485669e-01 1.514331e-01 0.000000e+00 0.000000e+00
 0.000000e+00 0.000000e+00 8.880774e-01 1.119226e-01 0.000000e+00
 0.000000e+00 0.000000e+00 0.000000e+00 8.496878e-01 1.503122e-01
 0.000000e+00 0.000000e+00 0.000000e+00 0.000000e+00 0.000000e+00
~t "T_o"
<TRANSP> 5
 0.000000e+00 1.000000e+00 0.000000e+00 0.000000e+00 0.000000e+00
 0.000000e+00 9.250157e-01 7.498424e-02 0.000000e+00 0.000000e+00
 0.000000e+00 0.000000e+00 8.342290e-01 1.657710e-01 0.000000e+00
 0.000000e+00 0.000000e+00 0.000000e+00 9.811879e-01 1.881211e-02
 0.000000e+00 0.000000e+00 0.000000e+00 0.000000e+00 0.000000e+00
~t "T_p"
<TRANSP> 5
 0.000000e+00 1.000000e+00 0.000000e+00 0.000000e+00 0.000000e+00
 0.000000e+00 7.376363e-01 2.623637e-01 0.000000e+00 0.000000e+00
 0.000000e+00 0.000000e+00 6.668489e-01 3.331511e-01 0.000000e+00
 0.000000e+00 0.000000e+00 0.000000e+00 9.589006e-01 4.109944e-02
 0.000000e+00 0.000000e+00 0.000000e+00 0.000000e+00 0.000000e+00
~t "T_r"
<TRANSP> 5
 0.000000e+00 1.000000e+00 0.000000e+00 0.000000e+00 0.000000e+00
 0.000000e+00 7.153318e-01 2.846682e-01 0.000000e+00 0.000000e+00
 0.000000e+00 0.000000e+00 8.711032e-01 1.288968e-01 0.000000e+00
 0.000000e+00 0.000000e+00 0.000000e+00 9.846647e-01 1.533529e-02
 0.000000e+00 0.000000e+00 0.000000e+00 0.000000e+00 0.000000e+00
~t "T_t"
<TRANSP> 5
 0.000000e+00 1.000000e+00 0.000000e+00 0.000000e+00 0.000000e+00
 0.000000e+00 9.398219e-01 6.017811e-02 0.000000e+00 0.000000e+00
 0.000000e+00 0.000000e+00 8.672507e-01 1.327493e-01 0.000000e+00
 0.000000e+00 0.000000e+00 0.000000e+00 8.880688e-01 1.119312e-01
 0.000000e+00 0.000000e+00 0.000000e+00 0.000000e+00 0.000000e+00
~t "T_ai"
<TRANSP> 5
 0.000000e+00 1.000000e+00 0.000000e+00 0.000000e+00 0.000000e+00
 0.000000e+00 8.532034e-01 1.467966e-01 0.000000e+00 0.000000e+00
 0.000000e+00 0.000000e+00 7.422270e-01 2.577731e-01 0.000000e+00
 0.000000e+00 0.000000e+00 0.000000e+00 7.572884e-01 2.427116e-01
 0.000000e+00 0.000000e+00 0.000000e+00 0.000000e+00 0.000000e+00
~t "T_am"
<TRANSP> 5
 0.000000e+00 1.000000e+00 0.000000e+00 0.000000e+00 0.000000e+00
 0.000000e+00 7.000759e-01 2.999241e-01 0.000000e+00 0.000000e+00
 0.000000e+00 0.000000e+00 8.125020e-01 1.874980e-01 0.000000e+00
 0.000000e+00 0.000000e+00 0.000000e+00 9.078733e-01 9.212675e-02
 0.000000e+00 0.000000e+00 0.000000e+00 0.000000e+00 0.000000e+00
~t "T_ch"
<TRANSP> 5
 0.000000e+00 1.000000e+00 0.000000e+00 0.000000e+00 0.000000e+00
 0.000000e+00 7.675248e-01 2.324752e-01 0.000000e+00 0.000000e+00
 0.000000e+00 0.000000e+00 9.629175e-01 3.708253e-02 0.000000e+00
 0.000000e+00 0.000000e+00 0.000000e+00 9.275330e-01 7.246704e-02
 0.000000e+00 0.000000e+00 0.000000e+00 0.000000e+00 0.000000e+00
~t "T_eh"
<TRANSP> 5
 0.000000e+00 1.000000e+00 0.000000e+00 0.000000e+00 0.000000e+00
 0.000000e+00 6.332597e-01 3.667403e-01 0.000000e+00 0.000000e+00
 0.000000e+00 0.000000e+00 8.017525e-01 1.982475e-01 0.000000e+00
 0.000000e+00 0.000000e+00 0.000000e+00 7.874703e-01 2.125297e-01
 0.000000e+00 0.000000e+00 0.000000e+00 0.000000e+00 0.000000e+00
~t "T_eu"
<TRANSP> 5
 0.000000e+00 1.000000e+00 0.000000e+00 0.000000e+00 0.000000e+00
 0.000000e+00 7.667152e-01 2.332848e-01 0.000000e+00 0.000000e+00
 0.000000e+00 0.000000e+00 9.428638e-01 5.713619e-02 0.000000e+00
 0.000000e+00 0.000000e+00 0.000000e+00 9.572891e-01 4.271085e-02
 0.000000e+00 0.000000e+00 0.000000e+00 0.000000e+00 0.000000e+00
~t "T_ff"
<TRANSP> 5
 0.000000e+00 1.000000e+00 0.000000e+00 0.000000e+00 0.000000e+00
 0.000000e+00 8.222221e-01 1.777779e-01 0.000000e+00 0.000000e+00
 0.000000e+00 0.000000e+00 9.556938e-01 4.430617e-02 0.000000e+00
 0.000000e+00 0.000000e+00 0.000000e+00 9.738386e-01 2.616140e-02
 0.000000e+00 0.000000e+00 0.000000e+00 0.000000e+00 0.000000e+00
~t "T_lu"
<TRANSP> 5
 0.000000e+00 1.000000e+00 0.000000e+00 0.000000e+00 0.000000e+00
 0.000000e+00 7.027282e-01 2.972718e-01 0.000000e+00 0.000000e+00
 0.000000e+00 0.000000e+00 7.305446e-01 2.694554e-01 0.000000e+00
 0.000000e+00 0.000000e+00 0.000000e+00 9.621531e-01 3.784689e-02
 0.000000e+00 0.000000e+00 0.000000e+00 0.000000e+00 0.000000e+00
~s "ST_ff_2_1"
<MEAN> 25
 1.729464e+01 -8.262247e+00 -4.615786e+00 -1.115325e+01 -1.166586e+01 -9.184114e+00 5.060841e+00 7.594797e+00 -5.021554e+00 -2.613449e+00 6.676776e+00 -3.541154e+00 1.040346e+00 -1.720855e-01 7.070777e-01 -4.693421e-01 5.317385e-01 -4.959100e-01 -5.914288e-01 -1.507152e-01 -2.711085e-01 -2.503212e-01 6.855975e-01 -1.154397e-01 1.580339e+00
<VARIANCE> 25
 2.532104e+00 9.680817e+00 4.380016e+00 4.103813e+00 8.856979e+00 4.031898e+00 1.142771e+01 4.129963e+00 6.068680e+00 9.249885e+00 1.634284e+01 2.316520e+00 2.888887e+00 3.882890e+00 9.476286e-01 1.469074e+00 2.275310e+00 1.247670e+00 1.590205e+00 1.553585e+00 7.994874e-01 1.227005e+00 1.265799e+00 1.033964e+00 5.649460e+00
<GCONST> 7.380402e+01
~s "ST_ff_3_1"
<MEAN> 25
 5.201677e+00 -3.196297e+00 7.126561e+00 7.497230e-01 6.910056e+00 -4.793527e+00 4.900439e+00 3.602974e+00 3.221148e+00 1.371932e+00 6.306291e+00 4.112161e-01 -3.620906e-01 -1.642403e-01 6.299506e-01 1.197611e+00 6.146333e-01 1.621412e-01 1.510583e-02 4.406039e-02 2.708559e-02 -7.952584e-02 -1.264167e-01 2.690789e-02 -2.159541e-01
<VARIANCE> 25
 7.443245e+01 3.204271e+01 2.356421e+01 4.336222e+01 4.828510e+01 2.278748e+01 2.272506e+01 1.828284e+01 4.806501e+01 1.208906e+01 1.523269e+01 1.023847e+01 4.769114e+00 3.019622e+00 2.418023e+00 2.940673e+00 3.322997e+00 3.151150e+00 2.490684e+00 2.572377e+00 4.353103e+00 2.079414e+00 1.940785e+00 1.472668e+00 1.298123e+00
<GCONST> 9.744937e+01
~s "ST_ff_4_1"
<MEAN> 25
 2.252785e-01 -1.767020e+01 1.351273e+01 9.757492e+00 1.828266e+00 -9.439716e+00 -2.478798e+00 1.748132e+00 -6.550393e-02 -6.807024e+00 3.220587e+00 -1.984817e+00 -2.455253e-01 -2.025356e-01 -1.351793e-01 -2.637382e-01 -1.764828e-01 -9.398774e-02 -2.616122e-01 -2.027007e-01 1.807835e-01 8.298295e-02 -9.824800e-02 -5.111489e-03 -1.184900e-01
<VARIANCE> 25
 7.220743e+01 5.561230e+01 8.951126e+00 7.819211e+01 1.262519e+01 1.999913e+01 2.087843e+01 2.061240e+01 8.249851e+01 1.707140e+01 9.695194e+00 1.473845e+01 1.707209e+00 2.154807e+00 1.080663e+00 2.270462e+00 9.377665e-01 1.068059e+00 9.979479e-01 1.120794e+00 2.947553e+00 1.306339e+00 1.216653e+00 1.232072e+00 4.129078e-01
<GCONST> 8.778626e+01
~s "ST_i_2_1"
<MEAN> 25
 1.017842e+01 -9.148545e+00 1.315189e+01 1.168391e+01 -1.764929e-01 -1.300107e+01 -2.261698e+00 2.868687e+00 -7.384217e+00 -6.590175e+00 5.032423e-01 -7.477919e+00 3.182300e-01 9.235068e-02 -4.958736e-01 -8.678632e-01 2.825796e-02 -1.751794e-01 -1.033736e+00 -5.893410e-01 -1.250898e+00 -5.749635e-02 1.063249e+00 5.758523e-01 1.243485e-01
<VARIANCE> 25
 2.067490e+01 2.940591e+01 2.363530e+01 2.143333e+01 1.534618e+01 2.380756e+01 4.010192e+01 2.828133e+01 3.229074e+01 1.489169e+01 1.826707e+01 2.086485e+01 8.364691e-01 4.493333e+00 4.734408e+00 1.726717e+00 1.811297e+00 2.194590e+00 2.967050e+00 1.739033e+00 7.750374e-01 7.401605e-01 9.450567e-01 1.253515e+00 1.715039e+00
<GCONST> 9.023715e+01
~s "ST_i_3_1"
<MEAN> 25
 1.525260e+01 -7.775268e+00 1.973636e+00 1.076167e+00 -2.588688e+00 -1.355578e+01 -9.185188e+00 -2.028745e+00 -1.150787e+01 3.837424e-01 8.449699e+00 -6.321012e+00 -2.684164e-02 7.463027e-01 -1.058676e+00 -6.303864e-01 -3.774005e-01 7.196340e-01 2.961732e-01 6.677938e-02 1.056909e+00 9.701011e-01 7.671100e-03 2.198099e-02 -7.017682e-01
<VARIANCE> 25
 1.543718e+01 2.539802e+01 1.834244e+01 1.542058e+01 2.165811e+01 1.668747e+01 1.049802e+01 6.889420e+00 3.264699e+01 4.349289e+01 1.185556e+01 1.195255e+01 3.951268e-01 1.243351e+00 9.683934e-01 6.307287e-01 1.449594e+00 1.198895e+00 1.405819e+00 9.048707e-01 1.518395e+00 1.086373e+00 9.877535e-01 8.380474e-01 4.639737e-01
<GCONST> 7.907978e+01
~s "ST_i_4_1"
<MEAN> 25
 6.277189e+00 -5.589314e+00 -6.483916e+00 -3.146597e+00 -2.998039e-01 -7.003057e-01 -2.125163e-01 6.257786e+00 4.237609e+00 -1.762418e+00 -1.150236e+00 -1.479448e+00 -9.736383e-01 4.604222e-03 -7.464185e-01 -8.832662e-01 -7.303149e-02 7.958796e-01 1.192227e+00 8.105928e-01 4.199351e-01 -8.076463e-01 -7.239800e-01 8.628737e-01 -8.340333e-01
<VARIANCE> 25
 3.117380e+01 3.308330e+01 1.845355e+01 3.671183e+01 1.523756e+01 1.741575e+01 2.943047e+01 4.787485e+01 2.421909e+01 4.546324e+01 3.444642e+01 2.059756e+01 2.605905e+00 4.225026e+00 1.452119e+00 3.208476e+00 2.761456e+00 3.039097e+00 3.376322e+00 4.489633e+00 1.999406e+00 3.129617e+00 1.607402e+00 2.396103e+00 1.038823e+00
<GCONST> 9.780805e+01
~s "ST_l_2_1"
<MEAN> 25
 -5.968702e+00 2.279939e+00 -3.571336e-01 -5.452639e-01 1.687748e+00 1.631580e+00 -5.122194e-01 -1.658392e-01 3.945095e+00 2.226878e+00 -1.726156e+00 1.204838e+00 -2.882402e-02 -2.005056e-02 -8.256773e-03 1.460065e-02 1.756317e-02 2.571544e-02 -1.252352e-02 -2.119790e-02 -3.671758e-02 -3.645510e-02 -7.957853e-03 -2.470871e-02 -2.393238e-02
<VARIANCE> 25
 1.086717e+00 1.969185e+00 1.743214e+00 4.779933e+00 3.227602e+00 3.732858e+00 7.260931e+00 8.266282e+00 5.462474e+00 6.426839e+00 3.239812e+00 4.268614e+00 6.965471e-02 1.414924e-01 1.648929e-01 2.890021e-01 2.910962e-01 4.095585e-01 6.705526e-01 7.243916e-01 5.952929e-01 6.521328e-01 3.402337e-01 5.240299e-01 1.918600e-02
<GCONST> 4.446020e+01
~s "ST_l_3_1"
<MEAN> 25
 -5.833106e+00 3.289681e+00 6.970944e-01 1.048396e+00 1.650668e+00 9.387784e-01 -8.838784e-01 -1.033771e+00 2.214153e+00 2.048447e+00 -1.588276e+00 9.949041e-01 1.900574e+00 1.187829e-01 5.552386e-01 1.128841e+00 3.512061e-01 8.790670e-02 2.449614e-01 -8.849074e-01 -1.773936e+00 -9.487595e-01 1.234798e-01 -7.531772e-01 1.453435e+00
<VARIANCE> 25
 9.811993e+00 8.381693e+00 3.024873e+00 9.000222e+00 6.773345e+00 1.132840e+01 3.815822e+00 8.081170e+00 1.005186e+01 1.209845e+01 9.252806e+00 1.030154e+01 5.187603e+00 1.031216e+00 5.208018e-01 3.540914e+00 1.443585e+00 2.240515e+00 1.019341e+00 2.575153e+00 6.990444e+00 2.921948e+00 1.013214e+00 3.201956e+00 3.302828e+00
<GCONST> 8.060413e+01
~s "ST_l_4_1"
<MEAN> 25
 1.544711e+01 -3.914874e+00 4.251857e+00 9.737838e+00 5.782596e+00 6.103576e+00 8.745279e-01 -7.910671e+00 -1.341725e+01 -6.554896e+00 3.559942e+00 -5.936485e+00 1.129274e+00 -9.050565e-01 2.328591e-02 4.211656e-01 -4.146730e-01 -1.738180e-01 4.675284e-01 1.092364e-01 -9.466376e-01 -4.684772e-01 2.453528e-01 -3.242933e-01 1.207853e+00
<VARIANCE> 25
 1.328635e+01 1.477826e+01 3.507383e+00 5.514137e+00 6.738991e+00 2.111704e+01 8.566001e+00 8.752853e+00 8.089752e+00 5.164093e+00 9.641775e+00 1.171019e+01 2.980248e+00 9.928918e-01 1.056139e+00 1.652693e+00 6.594769e-01 1.929495e+00 1.270817e+00 8.414198e-01 4.722665e+00 1.706721e+00 1.622463e+00 1.043871e+00 2.537395e+00
<GCONST> 7.741788e+01
~s "ST_o_2_1"
<MEAN> 25
 1.652461e+01 1.862660e+00 4.578730e+00 2.461156e+00 -1.457831e+01 -1.589282e+01 -3.626187e+00 2.614852e+00 -1.636275e-01 -3.812612e+00 -2.831943e+00 -9.013030e+00 -5.064519e-01 5.539638e-01 5.710519e-02 -1.038387e-02 -7.018581e-02 -4.421083e-01 -3.440465e-01 -2.704627e-01 -1.832436e-01 3.219318e-01 1.589798e-02 5.061270e-02 -6.240165e-01
<VARIANCE> 25
 6.563904e+00 1.832652e+01 1.036071e+01 7.719546e+00 6.604919e+00 1.655443e+01 7.388618e+00 5.494543e+00 9.430494e+00 9.774139e+00 6.345097e+00 1.072976e+01 5.425799e-01 6.899695e-01 7.749494e-01 7.909356e-01 5.296890e-01 6.429834e-01 3.697906e-01 3.914536e-01 7.383667e-01 9.889895e-01 4.574253e-01 5.249010e-01 5.639418e-01
<GCONST> 6.546547e+01
~s "ST_o_3_1"
<MEAN> 25
 1.033226e+00 9.127342e+00 2.301691e+00 -1.081767e+00 -3.732432e+00 -3.050529e+00 -1.493098e+00 -1.021281e+00 2.761555e+00 2.373646e+00 -3.166720e+00 -1.846092e+00 -2.339803e+00 -6.565593e-01 -4.521838e-01 -2.081078e-03 2.239078e+00 2.792643e+00 7.014074e-01 4.208835e-02 1.271518e+00 1.154101e+00 6.385252e-01 1.932053e+00 -1.584587e+00
<VARIANCE> 25
 2.928880e+01 9.836128e+00 6.993556e+00 9.136709e+00 6.221915e+01 9.651653e+01 3.052382e+01 1.352293e+01 1.836725e+01 2.069053e+01 1.844258e+01 3.360919e+01 1.172796e+00 1.461960e+00 8.148544e-01 1.552226e+00 2.947458e+00 4.054854e+00 1.322592e+00 1.096012e+00 1.603874e+00 1.338655e+00 1.157970e+00 1.027267e+00 7.918270e-01
<GCONST> 8.719095e+01
~s "ST_o_4_1"
<MEAN> 25
 -6.509881e+00 3.528272e+00 -7.474718e-01 -6.038401e-01 1.776413e+00 3.014352e+00 -3.550050e-01 -1.392553e+00 3.685004e+00 2.933556e+00 -1.764146e+00 3.331328e+00 -2.427305e-02 -2.875866e-02 -2.496373e-02 -1.906599e-02 3.206980e-03 1.868859e-02 2.367966e-02 1.218780e-02 -4.019688e-04 -6.546068e-03 -6.925302e-03 -3.655379e-03 -8.925209e-03
<VARIANCE> 25
 1.086717e+00 1.563215e+00 2.384458e+00 2.751622e+00 4.495162e+00 4.514997e+00 7.319562e+00 6.199927e+00 6.540916e+00 6.326972e+00 5.651920e+00 6.602602e+00 5.537450e-02 1.624541e-01 2.113924e-01 3.252687e-01 4.147888e-01 5.119897e-01 8.015383e-01 6.469885e-01 6.955444e-01 6.776972e-01 6.539454e-01 7.246913e-01 1.891393e-02
<GCONST> 4.746491e+01
~s "ST_r_2_1"
<MEAN> 25
 -3.149816e+00 3.308768e+00 -3.950978e+00 -5.934769e+00 -3.403996e+00 1.054239e+00 2.743608e+00 3.605177e+00 5.502100e+00 1.670736e+00 -2.898389e+00 1.830837e+00 -7.995985e-01 2.295093e-01 1.071274e+00 1.016489e+00 9.013589e-01 7.122285e-01 -5.856145e-01 -1.249823e+00 -6.755421e-01 4.229791e-01 5.466635e-01 1.100234e-01 -5.438025e-01
<VARIANCE> 25
 4.258253e+00 2.864388e+00 8.623096e+00 6.444286e+00 1.021555e+01 1.271915e+01 8.835844e+00 1.672045e+01 1.529696e+01 6.290118e+00 5.404516e+00 5.294648e+00 2.490107e-01 6.788207e-01 5.306444e-01 1.845054e+00 9.478417e-01 7.778084e-01 1.502498e+00 5.951269e-01 1.017572e+00 5.473119e-01 1.143173e+00 5.589606e-01 7.870212e-02
<GCONST> 6.445805e+01
~s "ST_r_3_1"
<MEAN> 25
 -5.642306e+00 2.353686e+00 -3.330959e-01 -1.921394e-01 -3.624705e-01 1.957076e+00 6.377133e-01 -1.321424e+00 2.171515e+00 2.741340e+00 4.899381e-02 2.247385e+00 -1.286656e-01 1.254359e-02 1.529187e-01 2.361438e-01 1.547862e-01 3.201231e-02 -1.815075e-01 -3.103224e-01 -1.687175e-01 -8.379440e-02 3.060850e-02 -7.646341e-02 -8.260480e-02
<VARIANCE> 25
 1.089441e+00 8.755074e+00 4.290458e+00 2.325407e+01 3.373760e+00 1.029066e+01 1.030120e+01 7.294030e+00 1.005737e+01 5.413132e+00 6.940058e+00 6.176833e+00 6.757137e-02 6.923931e-01 3.331516e-01 1.460062e+00 4.383610e-01 1.136309e+00 6.901571e-01 6.013174e-01 1.060207e+00 7.098154e-01 6.086193e-01 7.283089e-01 7.543527e-02
<GCONST> 5.938533e+01
~s "ST_r_4_1"
<MEAN> 25
 -6.435072e+00 4.032366e+00 -1.235812e-01 -6.769440e-01 1.254033e+00 2.943031e+00 -1.116846e+00 -2.555289e+00 3.358336e+00 2.952351e+00 -1.900545e+00 2.346822e+00 -7.259173e-03 -7.674695e-03 2.925788e-04 2.195101e-03 7.223608e-03 -1.169490e-03 -1.375614e-02 -1.386919e-02 -4.099135e-03 3.560932e-03 -5.346276e-03 8.192130e-03 -1.392156e-03
<VARIANCE> 25
 1.190907e+00 2.321754e+00 2.431281e+00 3.057178e+00 3.872995e+00 5.146278e+00 5.516117e+00 5.817091e+00 6.598182e+00 6.487837e+00 5.856563e+00 5.890846e+00 4.250939e-02 1.201365e-01 1.974234e-01 2.944128e-01 3.878706e-01 5.330968e-01 6.264879e-01 6.031396e-01 6.408939e-01 6.391767e-01 6.561164e-01 6.053173e-01 1.891501e-02
<GCONST> 4.627295e+01
~s "ST_am_2_1"
<MEAN> 25
 1.811596e+01 -8.082261e+00 2.439037e+00 4.962040e+00 -1.823867e+00 -3.788946e+00 2.202670e+00 -2.433162e+00 -1.719105e+01 -7.863420e+00 1.907737e+00 -8.183715e+00 1.046989e+00 -1.584549e+00 2.009593e-01 -2.761540e+00 -1.838433e+00 -2.368654e+00 -8.484927e-01 1.581225e+00 -8.896179e-01 -5.643916e-01 7.630803e-01 -5.146536e-01 2.151174e+00
<VARIANCE> 25
 1.295764e+01 1.724041e+01 7.726339e+00 5.756003e+01 1.291391e+01 1.232457e+01 6.065157e+01 9.853046e+00 5.607727e+00 5.786652e+00 1.494075e+01 8.309509e+00 2.645585e+00 3.463905e-01 7.293232e-01 7.672491e+00 7.438536e-01 1.594869e+00 4.999303e+00 3.301790e-01 4.542103e+00 1.580689e+00 2.410434e+00 3.474042e+00 1.505185e+00
<GCONST> 8.402940e+01
~s "ST_am_3_1"
<MEAN> 25
 1.313926e+01 -6.757750e+00 9.517984e+00 8.246456e+00 -5.874658e+00 -7.808412e+00 1.135009e+01 4.110996e+00 -2.145655e+01 -1.129532e+01 3.950545e+00 -5.370436e+00 1.051591e-01 -2.011746e-01 -2.465944e-02 -7.379194e-01 -6.033255e-01 -1.918627e-01 -4.670881e-02 4.070792e-01 5.530723e-01 -3.742491e-01 -4.937548e-02 5.767006e-01 3.036970e-01
<VARIANCE> 25
 5.824448e+00 8.088696e+00 8.728539e+00 4.416471e+01 5.230087e+00 1.655323e+00 2.927122e+01 2.171455e+00 5.540802e+00 6.080048e+00 3.019540e+00 3.726545e+00 8.100422e-02 9.872280e-02 4.587527e-01 8.732039e-01 7.103574e-01 5.568026e-01 6.077082e-01 1.190223e+00 1.252078e+00 2.754939e-01 4.533650e-01 4.826934e-01 8.442874e-02
<GCONST> 5.595151e+01
~s "ST_am_4_1"
<MEAN> 25
 1.909514e+01 -5.819676e+00 4.122234e-01 -4.223042e+00 -1.440604e+01 -1.287137e+01 2.543715e+00 3.909070e+00 -3.588314e+00 -1.944893e+00 1.708681e+00 -4.048885e-01 -1.098680e-01 9.274804e-01 -1.790717e-01 2.320842e-01 -5.887522e-01 -3.184050e-01 4.359390e-01 7.265165e-02 1.136845e+00 7.782350e-01 -6.611593e-01 2.372063e-01 -6.881062e-01
<VARIANCE> 25
 4.592682e+00 4.031894e+01 1.261706e+01 4.432032e+01 2.105942e+01 2.195612e+01 2.470633e+01 2.499403e+01 2.945623e+01 4.486076e+01 6.335773e+00 4.873935e+00 4.523212e-01 3.079770e+00 1.763748e+00 4.074012e+00 1.926052e+00 1.754687e+00 3.781505e+00 3.176785e+00 5.243434e+00 4.089285e+00 1.344873e+00 9.082803e-01 1.386342e+00
<GCONST> 9.027281e+01
~s "ST_ein_2_1"
<MEAN> 25
 9.195562e+00 2.924521e+00 -7.928439e+00 -1.142575e+01 -1.380228e+01 -4.480283e+00 9.455368e+00 8.342550e+00 -1.871120e+00 -2.808797e+00 -2.365861e-01 5.703540e-01 -2.379503e+00 6.017154e-01 -4.413472e-02 2.227860e-02 7.643058e-01 6.932995e-01 7.551366e-02 1.110391e-02 1.601277e+00 8.744862e-01 -7.706764e-01 4.988641e-01 -2.140082e+00
<VARIANCE> 25
 3.915898e+01 9.599042e+00 7.621750e+00 2.485468e+01 1.863966e+01 1.124807e+01 1.874556e+01 1.884993e+01 2.604301e+01 2.065203e+01 8.349257e+00 1.418653e+01 2.201035e+00 1.668630e+00 9.729204e-01 1.621546e+00 2.785598e+00 1.698135e+00 1.424195e+00 1.137007e+00 2.720135e+00 1.718412e+00 1.173774e+00 1.194963e+00 1.716418e+00
<GCONST> 8.560876e+01
~s "ST_ein_3_1"
<MEAN> 25
 -3.323375e+00 3.762394e+00 -4.408292e+00 -7.741354e+00 -4.650714e+00 1.570144e+00 4.756901e+00 4.300817e+00 5.353720e+00 7.755323e-01 -4.978957e+00 4.678253e-01 -6.373034e-01 1.247912e-02 7.119893e-01 1.051706e+00 1.129825e+00 4.418415e-01 -5.236021e-01 -6.031420e-01 4.301301e-02 2.103620e-01 -2.719020e-02 -6.404121e-02 -3.865884e-01
<VARIANCE> 25
 3.176462e+00 1.520045e+00 6.136908e+00 1.235347e+01 1.345816e+01 5.932772e+00 6.728685e+00 7.389582e+00 6.834175e+00 7.783949e+00 6.231150e+00 7.705241e+00 3.459545e-01 1.582826e-01 4.111289e-01 7.945222e-01 9.759877e-01 8.108543e-01 6.422479e-01 6.632529e-01 6.955389e-01 8.560991e-01 9.118181e-01 9.247279e-01 1.135380e-01
<GCONST> 6.000602e+01
~s "ST_ein_4_1"
<MEAN> 25
 -6.329570e+00 3.226225e+00 -1.134844e-01 -7.569087e-01 1.295823e+00 2.706638e+00 -1.758772e-01 -1.710325e+00 4.030778e+00 2.890066e+00 -2.150528e+00 2.391595e+00 -2.768102e-02 -3.073756e-02 3.050430e-02 5.207534e-02 2.506562e-02 -1.552039e-02 -4.487801e-02 -4.726501e-02 -3.700027e-02 1.196118e-02 5.836857e-02 1.917171e-02 -7.222439e-03
<VARIANCE> 25
 1.086717e+00 2.223698e+00 1.899562e+00 2.933587e+00 3.883290e+00 4.330296e+00 5.901889e+00 6.830261e+00 6.735149e+00 6.249862e+00 6.872680e+00 5.472155e+00 3.718439e-02 1.214554e-01 1.865557e-01 2.919415e-01 3.548808e-01 4.577031e-01 6.380106e-01 7.997273e-01 7.435210e-01 6.048036e-01 5.900290e-01 6.716458e-01 1.891393e-02
<GCONST> 4.593982e+01
~s "ST_a_2_1"
<MEAN> 25
 -6.154819e+00 3.959520e+00 -1.378197e+00 -1.959843e+00 4.948099e-01 2.726274e+00 -6.135378e-01 -1.543150e+00 3.974161e+00 3.210135e+00 -1.751705e+00 2.983839e+00 -2.340674e-02 -1.330024e-03 6.653451e-03 4.576219e-05 -1.818769e-03 -3.024308e-02 -7.688879e-02 -7.302531e-02 -4.472215e-02 -1.377753e-02 -6.423192e-04 5.566941e-03 -1.885843e-02
<VARIANCE> 25
 1.888054e+00 4.072296e+00 3.635607e+00 4.241367e+00 4.521074e+00 6.277410e+00 8.785652e+00 8.800410e+00 8.579449e+00 7.185476e+00 5.937608e+00 5.581938e+00 8.098173e-02 2.829313e-01 2.550151e-01 3.491002e-01 4.033939e-01 5.639127e-01 7.386864e-01 8.710051e-01 8.357429e-01 7.334493e-01 6.948984e-01 5.825981e-01 4.060446e-02
<GCONST> 5.332408e+01
~s "ST_a_3_1"
<MEAN> 25
 -6.451095e+00 4.506247e+00 -4.576345e-01 -1.348985e+00 5.352612e-01 2.079103e+00 -1.777296e+00 -3.232337e+00 2.145231e+00 3.005476e+00 -1.831894e+00 2.958426e+00 4.337266e+00 -2.026692e+00 -1.118212e+00 -1.733454e+00 -3.475511e+00 -2.253067e+00 1.258258e+00 1.673748e+00 -1.830574e+00 -1.279158e+00 1.122769e+00 -1.372789e+00 4.083433e+00
<VARIANCE> 25
 1.268204e+00 1.648506e+00 2.824151e+00 2.948760e+00 2.257282e+00 3.256142e+00 6.167626e+00 3.359861e+00 6.078663e+00 3.991021e+00 4.468540e+00 3.414318e+00 2.768965e+00 2.254447e+00 5.461988e-01 1.007491e+00 1.868373e+00 7.820439e-01 2.214089e+00 1.822835e+00 8.659556e-01 8.351705e-01 9.783058e-01 7.003978e-01 3.523256e+00
<GCONST> 6.330962e+01
~s "ST_a_4_1"
<MEAN> 25
 1.405284e+01 -7.080384e+00 -1.543913e+00 -2.375850e+00 -4.339989e+00 -6.064283e+00 1.723916e+00 2.475958e+00 -6.744172e+00 -2.879260e+00 5.092539e+00 -4.401434e+00 1.042345e+00 -7.203747e-01 4.718094e-02 -1.801487e-01 -3.777690e-01 -7.749164e-01 -1.650182e-02 2.973684e-01 -4.147314e-01 -4.948337e-03 7.224416e-01 -2.584518e-01 1.271197e+00
<VARIANCE> 25
 2.216541e+01 5.185770e+01 1.832966e+01 1.108674e+02 1.401960e+02 4.587048e+01 3.654236e+01 3.861461e+01 3.064460e+01 2.464438e+01 3.245031e+01 2.017477e+01 6.464871e+00 4.607874e+00 1.263926e+00 3.454481e+00 6.147371e+00 3.925163e+00 3.563172e+00 3.895145e+00 2.684502e+00 2.931348e+00 2.112834e+00 1.775615e+00 8.919760e+00
<GCONST> 1.059982e+02
~s "ST_lu_2_1"
<MEAN> 25
 -2.927379e+00 1.929358e+00 1.132687e-01 -2.367853e+00 -6.964477e-01 -1.638552e-01 -2.015393e+00 -1.536699e+00 3.310713e+00 3.430731e+00 7.036459e-01 1.732174e+00 8.672392e-01 2.917583e-01 4.661272e-01 1.138169e+00 1.359264e+00 7.257230e-01 -4.380595e-01 -9.761366e-01 -1.269367e+00 -5.871227e-01 -1.251627e-01 -8.155687e-01 5.897735e-01
<VARIANCE> 25
 6.400654e+01 3.114948e+01 2.337969e+00 5.857783e+00 1.508157e+01 3.589733e+01 6.182219e+00 6.577166e+00 3.290439e+01 8.005449e+00 3.311275e+01 9.012913e+00 3.747803e+00 6.364399e-01 5.600536e-01 1.570092e+00 2.582359e+00 2.406378e+00 1.421912e+00 1.906161e+00 2.736382e+00 1.027393e+00 6.556364e-01 1.509022e+00 1.798370e+00
<GCONST> 8.260797e+01
~s "ST_lu_3_1"
<MEAN> 25
 1.376560e+01 -4.020031e+00 2.716892e+00 5.621511e+00 5.747772e+00 -3.889224e+00 -8.078956e+00 -4.815756e+00 -8.927821e+00 -4.517845e+00 4.681291e+00 -5.074150e+00 1.141207e+00 8.470800e-01 7.997810e-03 2.655078e+00 3.385469e+00 2.689861e+00 -3.537666e-01 -5.665992e-01 -1.589996e-01 -1.540660e+00 -1.004892e+00 -7.285604e-01 6.154356e-02
<VARIANCE> 25
 2.030688e+01 6.628673e+01 6.249899e+00 2.519452e+01 5.816631e+01 1.189133e+02 3.484500e+01 1.780310e+01 3.014916e+01 2.051473e+01 3.876378e+01 1.029185e+01 5.280567e+00 1.612051e+00 7.501884e-01 5.598521e-01 1.365338e+00 4.160919e+00 2.738687e+00 2.191486e+00 8.476315e+00 2.566423e+00 3.950547e+00 1.543800e+00 5.919406e+00
<GCONST> 9.736853e+01
~s "ST_lu_4_1"
<MEAN> 25
 1.324466e+01 -1.148297e+00 2.325372e+00 1.045296e+01 1.178618e+01 5.127838e+00 -2.105520e+00 -2.902157e+00 -6.640634e+00 -4.875679e+00 2.421097e+00 -5.070349e+00 1.159488e-01 -6.067791e-02 -5.358960e-02 -2.960647e-01 -3.507967e-01 -1.975286e-01 2.647773e-01 1.694097e-01 -4.429644e-03 2.319888e-02 7.675386e-03 1.098214e-01 1.904659e-01
<VARIANCE> 25
 5.494797e+00 3.119627e+01 1.481867e+01 1.580635e+01 4.516930e+01 2.290644e+01 4.788968e+01 2.339011e+01 4.734929e+01 2.750949e+01 1.930489e+01 2.703409e+01 4.413319e-01 1.730276e+00 9.932882e-01 1.929850e+00 1.663450e+00 1.900336e+00 3.059680e+00 2.036009e+00 2.476129e+00 3.043946e+00 1.536497e+00 2.175285e+00 9.301034e-01
<GCONST> 9.045522e+01
~s "ST_ai_2_1"
<MEAN> 25
 -1.527679e+00 -1.095077e+01 -5.595424e+00 -4.369699e+00 -5.663603e-01 2.505109e+00 9.617524e+00 1.390002e+01 3.762340e+00 -6.461283e+00 1.017373e+00 6.847220e+00 -4.087556e-01 4.679327e-01 3.227782e-01 2.651804e-01 7.950426e-02 2.596282e-01 6.060677e-01 8.897897e-02 -3.168945e-01 1.426085e-01 7.000268e-02 5.441484e-02 -4.815313e-01
<VARIANCE> 25
 2.810335e+00 2.333672e+01 1.004260e+01 1.156808e+01 1.762762e+01 7.746785e+00 1.556993e+01 1.358287e+01 1.487325e+01 1.623443e+01 1.094087e+01 5.775314e+00 5.147318e-01 8.699037e-01 1.959223e+00 1.030812e+00 8.043448e-01 6.537530e-01 6.123208e-01 8.364033e-01 7.795686e-01 1.453489e+00 1.798514e+00 7.456297e-01 2.758597e-01
<GCONST> 7.250707e+01
~s "ST_ai_3_1"
<MEAN> 25
 -2.421697e+00 -2.747396e+00 -7.324364e+00 -5.717145e+00 -2.787094e+00 2.426494e+00 8.567499e+00 9.057834e+00 1.099637e+00 -6.042204e+00 -2.739234e+00 3.932688e+00 -1.615732e-01 1.356012e+00 3.460060e-01 4.781839e-02 -1.368230e-01 -1.535684e-01 -8.247357e-01 -1.448096e+00 -1.512555e-01 5.560478e-01 -3.467954e-01 -1.312068e-01 -7.317777e-01
<VARIANCE> 25
 3.898145e+00 1.089162e+01 5.359367e+00 2.447144e+00 3.536103e+00 5.332506e+00 1.099459e+01 1.353880e+01 1.680388e+01 1.886418e+01 4.583581e+00 7.255029e+00 2.966976e-01 5.559847e-01 1.003986e+00 1.018479e+00 5.567543e-01 8.225455e-01 1.585596e+00 8.677704e-01 1.501664e+00 9.320132e-01 1.386576e+00 1.170785e+00 8.285171e-02
<GCONST> 6.556040e+01
~s "ST_ai_4_1"
<MEAN> 25
 -1.769196e+00 2.884375e+00 -8.587825e+00 -9.766378e+00 -5.995611e+00 1.286276e+00 4.163085e+00 2.515094e+00 1.360244e+00 -1.621047e+00 -4.160076e+00 2.267026e+00 -3.636837e-01 3.662001e-01 4.889769e-01 7.222721e-02 1.523872e-01 1.963967e-01 -3.619478e-01 -5.382617e-01 7.870285e-02 3.924588e-01 1.600155e-01 -5.350340e-02 -3.336686e-01
<VARIANCE> 25
 2.417984e+00 2.474001e+00 5.391327e+00 4.493004e+00 5.068779e+00 3.824562e+00 3.829727e+00 4.489622e+00 7.892238e+00 9.111493e+00 5.181170e+00 6.006806e+00 1.789173e-01 1.609056e-01 6.753776e-01 8.381504e-01 1.004560e+00 5.454428e-01 6.467489e-01 2.911805e-01 1.271298e+00 1.088104e+00 6.944786e-01 7.074206e-01 7.370274e-02
<GCONST> 5.506347e+01
~s "ST_la_2_1"
<MEAN> 25
 1.426302e+01 -8.400265e+00 -3.573096e+00 -5.146755e+00 -9.994164e+00 -6.719330e+00 6.157817e+00 7.402058e+00 -5.206438e+00 -3.973527e+00 2.835735e+00 -3.400811e+00 -3.304183e-01 -2.655918e-02 -5.462568e-01 -4.242727e-01 -1.570937e-01 2.748310e-03 2.183896e-01 4.498465e-01 6.417587e-01 2.156343e-01 -1.541785e-01 1.528545e-01 -3.554927e-01
<VARIANCE> 25
 2.769125e+01 3.023848e+01 6.014945e+01 7.980159e+01 2.943812e+01 1.663413e+01 2.635957e+01 4.420176e+01 8.579824e+01 2.205132e+01 2.702668e+01 2.437152e+01 2.704749e+00 2.277578e+00 1.644147e+00 2.751690e+00 1.885879e+00 1.528093e+00 2.636686e+00 1.260908e+00 4.300431e+00 2.087090e+00 1.688677e+00 1.953932e+00 3.489743e+00
<GCONST> 9.866891e+01
~s "ST_la_3_1"
<MEAN> 25
 -1.613612e+00 1.455008e+00 -6.935697e+00 -7.661989e+00 -5.512101e+00 4.666590e-01 6.300393e+00 6.964623e+00 4.910516e+00 -7.942583e-01 -3.697974e+00 1.614408e+00 -9.145303e-01 8.324652e-01 1.082865e+00 5.524846e-01 8.734586e-01 8.741379e-01 -4.985547e-01 -1.036606e+00 -1.192039e-01 2.907057e-01 -2.563785e-01 -3.047864e-02 -8.143750e-01
<VARIANCE> 25
 7.498447e+00 1.140099e+01 1.432278e+01 1.113064e+01 1.147591e+01 1.506780e+01 1.087649e+01 1.751914e+01 1.117594e+01 1.298999e+01 9.260024e+00 7.449708e+00 4.588894e-01 7.724417e-01 5.256554e-01 1.266962e+00 1.002393e+00 1.417640e+00 1.461953e+00 1.343328e+00 1.222470e+00 1.325702e+00 9.046859e-01 6.877775e-01 3.867342e-01
<GCONST> 7.372242e+01
~s "ST_la_4_1"
<MEAN> 25
 -6.062870e+00 3.599203e+00 -2.765187e-01 -7.640663e-01 1.248354e+00 2.661631e+00 -5.811475e-01 -1.632095e+00 3.487278e+00 2.793845e+00 -1.578573e+00 2.098329e+00 -3.207785e-02 -1.099890e-02 4.503072e-02 5.948012e-02 4.785237e-02 -6.904602e-03 -5.401694e-02 -5.609197e-02 -3.040024e-02 2.811407e-02 5.028097e-02 2.580448e-02 -1.528026e-02
<VARIANCE> 25
 1.086717e+00 2.622723e+00 3.049512e+00 4.088166e+00 4.374322e+00 5.417242e+00 6.122001e+00 6.678116e+00 5.470770e+00 6.665200e+00 6.388357e+00 5.945972e+00 5.199504e-02 1.151145e-01 2.137139e-01 3.656600e-01 4.381014e-01 4.584384e-01 6.052092e-01 6.052712e-01 5.819751e-01 6.853725e-01 6.683037e-01 5.994551e-01 1.891393e-02
<GCONST> 4.754813e+01
~s "ST_t_2_1"
<MEAN> 25
 2.959737e+00 -1.848243e+00 4.555966e+00 4.364328e+00 5.844281e+00 -2.713403e+00 -4.308488e+00 -5.718443e-01 -2.463904e+00 -3.004425e+00 9.122744e-01 -3.409389e+00 -1.679404e-01 2.218343e-01 -1.544357e-01 -5.328773e-01 -4.464724e-02 3.833389e-01 2.871264e-01 3.602079e-02 4.407270e-01 2.925233e-01 -1.876898e-02 3.819301e-01 -1.491868e-01
<VARIANCE> 25
 4.729562e+01 3.767780e+01 2.656079e+01 3.655596e+01 1.690431e+01 2.496027e+01 3.168560e+01 1.677155e+01 4.500776e+01 3.440887e+01 1.830611e+01 2.730847e+01 6.008992e+00 5.155384e+00 2.415038e+00 2.847063e+00 1.742312e+00 2.994270e+00 3.528474e+00 2.674404e+00 4.849853e+00 3.828407e+00 2.352894e+00 2.153080e+00 1.125560e+01
<GCONST> 1.024133e+02
~s "ST_t_3_1"
<MEAN> 25
 1.424151e+01 -1.236230e+01 7.434167e+00 4.830813e+00 5.742134e+00 -6.386936e+00 -1.153859e+01 -4.009484e+00 -1.391780e+01 -9.130751e+00 4.760187e+00 -6.698052e+00 9.195687e-01 -3.145061e-01 -7.683650e-01 -3.267997e-01 -9.712939e-01 -2.847297e-03 6.874122e-01 -2.701131e-01 -1.122973e+00 -3.602168e-01 2.045402e-01 1.322461e-01 4.643738e-01
<VARIANCE> 25
 5.299622e+00 1.174654e+01 1.782270e+01 2.563087e+01 1.426876e+01 1.512885e+01 3.314221e+01 1.064974e+01 1.344025e+01 2.247128e+01 1.045319e+01 1.166882e+01 1.460150e+00 1.849566e+00 1.228076e+00 2.400094e+00 1.809049e+00 2.008683e+00 2.900808e+00 1.843638e+00 2.411941e+00 3.241189e+00 1.324108e+00 1.586419e+00 7.153506e-01
<GCONST> 8.546279e+01
~s "ST_t_4_1"
<MEAN> 25
 1.984809e+01 -6.840917e+00 -3.397099e+00 -8.669545e+00 -1.001934e+01 -6.270711e+00 4.720139e+00 5.201705e+00 -9.474260e+00 -7.764889e+00 4.823482e+00 -3.297410e+00 2.201618e-02 8.423194e-01 -3.987357e-01 -5.075716e-01 -1.268243e+00 5.655393e-02 5.872162e-01 7.488872e-01 6.687121e-01 -1.530701e-01 -6.300132e-01 -3.022099e-01 -5.864719e-01
<VARIANCE> 25
 2.609070e+00 1.441475e+01 1.105424e+01 2.046157e+01 2.071212e+01 1.780328e+01 1.988614e+01 2.980933e+01 1.167099e+01 2.648566e+01 1.902482e+01 2.660318e+01 2.534161e-01 1.059094e+00 5.929679e-01 8.766708e-01 1.853974e+00 1.235346e+00 1.271161e+00 1.818762e+00 1.863948e+00 1.434576e+00 1.372887e+00 1.949564e+00 3.398879e-01
<GCONST> 7.983714e+01
~s "ST_sil_2_1"
<MEAN> 25
 -2.437583e+01 -1.866780e+00 -9.334759e+00 3.070791e+00 -6.755499e-01 5.399538e+00 -1.140119e+01 -5.870631e+00 -2.222497e+00 3.533737e+00 9.388475e-01 2.673558e+00 1.587679e-02 -1.080682e-02 2.772076e-02 3.853579e-02 1.561321e-02 -2.596372e-02 -3.625257e-02 1.088595e-01 3.309228e-02 -4.247175e-02 -3.162324e-02 2.165654e-02 -5.345554e-04
<VARIANCE> 25
 3.494281e+01 3.815386e+00 1.221825e+01 4.553148e+00 2.865623e+00 4.161716e+00 1.628181e+01 5.978416e+00 7.064864e+00 5.952801e+00 4.337622e+00 4.026301e+00 3.194051e-02 5.648486e-02 1.412448e-01 3.165635e-01 3.147558e-01 2.079963e-01 4.394208e-01 5.126535e-01 6.457359e-01 7.886517e-01 5.059807e-01 4.775556e-01 1.891393e-02
<GCONST> 4.880973e+01
~s "silst"
<MEAN> 25
 -1.277509e+01 1.303326e+00 -5.162073e+00 7.391239e-01 -3.855921e-01 3.899550e+00 -4.765095e+00 -3.199709e+00 5.565767e-01 2.901827e+00 -8.104098e-01 2.212228e+00 3.932710e+00 1.050876e+00 1.713839e+00 -5.972237e-01 2.339479e-03 -6.759035e-01 2.109963e+00 3.785148e-01 1.405350e-01 -5.550098e-01 -3.626515e-01 -3.198403e-01 4.336813e+00
<VARIANCE> 25
 9.664595e+01 1.111752e+01 2.752896e+01 1.434673e+01 9.667157e+00 6.480541e+00 4.072427e+01 1.389385e+01 1.720053e+01 9.525457e+00 1.202732e+01 7.065180e+00 4.319145e+00 7.566537e-01 1.274250e+00 2.410644e+00 1.277709e+00 6.568017e-01 3.258605e+00 1.954250e+00 5.411804e+00 1.246889e+00 1.566647e+00 1.393993e+00 4.844616e+00
<GCONST> 8.717300e+01
~s "ST_sil_3_1"
<MEAN> 25
 -1.277509e+01 1.303326e+00 -5.162073e+00 7.391239e-01 -3.855921e-01 3.899550e+00 -4.765095e+00 -3.199709e+00 5.565767e-01 2.901827e+00 -8.104098e-01 2.212228e+00 3.932710e+00 1.050876e+00 1.713839e+00 -5.972237e-01 2.339479e-03 -6.759035e-01 2.109963e+00 3.785148e-01 1.405350e-01 -5.550098e-01 -3.626515e-01 -3.198403e-01 4.336813e+00
<VARIANCE> 25
 9.664595e+01 1.111752e+01 2.752896e+01 1.434673e+01 9.667157e+00 6.480541e+00 4.072427e+01 1.389385e+01 1.720053e+01 9.525457e+00 1.202732e+01 7.065180e+00 4.319145e+00 7.566537e-01 1.274250e+00 2.410644e+00 1.277709e+00 6.568017e-01 3.258605e+00 1.954250e+00 5.411804e+00 1.246889e+00 1.566647e+00 1.393993e+00 4.844616e+00
<GCONST> 8.717300e+01
~s "ST_sil_4_1"
<MEAN> 25
 -6.002900e+00 2.753011e+00 -9.167299e-01 -1.212645e+00 3.902621e-01 2.217580e+00 1.003666e-01 -1.372962e+00 2.867940e+00 2.139794e+00 -1.580353e+00 2.289730e+00 7.808608e-03 1.907980e-02 2.428100e-02 1.742992e-02 1.130432e-02 -3.733102e-03 2.356983e-03 2.686375e-02 4.912508e-02 1.453642e-02 1.036778e-02 -6.623353e-03 4.834533e-03
<VARIANCE> 25
 2.342831e+00 7.930998e+00 5.322478e+00 6.654288e+00 5.574696e+00 7.121891e+00 9.816634e+00 1.024136e+01 7.510459e+00 7.237680e+00 6.710467e+00 7.497458e+00 1.102460e-01 7.306597e-01 3.449120e-01 5.828547e-01 5.166728e-01 7.264017e-01 9.712378e-01 1.087134e+00 7.906385e-01 6.959696e-01 6.906128e-01 7.578222e-01 1.330430e-01
<GCONST> 6.033133e+01
~s "ST_m_2_1"
<MEAN> 25
 6.907218e+00 1.489936e+00 -2.103310e+00 -3.368496e+00 -3.798703e+00 -1.042503e+00 3.765369e+00 3.821223e+00 -7.360302e-01 -1.315556e+00 1.128011e+00 1.495200e+00 -1.081987e+00 5.410278e-01 -2.263289e-02 -7.717726e-02 -2.117102e-01 3.852963e-01 4.585328e-01 1.496835e-01 4.676168e-01 5.514212e-01 -1.278879e-01 1.567457e-01 -1.269933e+00
<VARIANCE> 25
 9.460173e+01 2.863446e+01 1.842859e+01 3.427781e+01 5.795420e+01 5.672440e+01 2.221566e+01 2.662659e+01 5.253454e+01 4.685562e+01 1.311862e+01 2.827954e+01 1.979216e+00 3.012604e+00 1.542650e+00 2.895274e+00 4.049955e+00 3.456087e+00 2.817195e+00 2.875348e+00 3.446723e+00 2.676553e+00 1.399985e+00 3.616928e+00 1.995167e+00
<GCONST> 1.010525e+02
~s "ST_m_3_1"
<MEAN> 25
 -5.141796e+00 3.681494e+00 4.623529e-01 -6.389307e-02 2.019076e+00 3.733767e+00 1.693545e+00 -7.256821e-01 3.319950e+00 3.392222e+00 -5.197011e-01 2.475280e+00 -4.893264e-02 -4.438885e-02 6.425233e-02 5.778946e-02 3.854670e-02 -1.884610e-02 -1.648242e-01 -2.108735e-01 -1.698487e-01 -9.715883e-02 -7.736040e-02 -1.563247e-01 -1.899000e-02
<VARIANCE> 25
 3.812391e+01 2.507496e+00 2.891987e+00 8.765384e+00 3.800439e+00 5.989257e+00 1.239873e+01 1.082106e+01 3.053797e+01 1.159050e+01 9.475764e+00 1.558074e+01 1.681534e-01 2.400151e-01 3.431627e-01 6.291434e-01 5.503696e-01 5.979711e-01 7.324456e-01 7.994258e-01 9.900439e-01 6.992304e-01 8.818521e-01 7.003006e-01 7.370098e-02
<GCONST> 6.278092e+01
~s "ST_m_4_1"
<MEAN> 25
 8.148450e+00 -6.563715e-02 3.790445e+00 6.274939e+00 -2.336871e-01 -2.008713e+00 3.862497e+00 -3.245457e-02 -1.010020e+01 -4.990042e+00 1.533358e+00 -4.577128e+00 9.708017e-01 -7.717716e-01 1.959915e-01 4.552891e-01 -4.452205e-01 -1.471301e+00 -1.171181e-01 7.304751e-01 -3.177348e-01 -5.291854e-01 -1.489596e-02 -3.536101e-01 1.166513e+00
<VARIANCE> 25
 7.402122e+01 2.047172e+01 1.912311e+01 4.029403e+01 2.244409e+01 3.260596e+01 2.503323e+01 1.723845e+01 1.087418e+02 5.153627e+01 1.940422e+01 5.265802e+01 3.168939e+00 2.921397e+00 2.950862e+00 4.854948e+00 1.603264e+00 5.556417e+00 3.141600e+00 2.140532e+00 7.051679e+00 3.348017e+00 1.441506e+00 3.566000e+00 2.120209e+00
<GCONST> 1.026715e+02
~s "ST_ch_2_1"
<MEAN> 25
 2.713590e-01 2.903001e+00 -4.524282e+00 -3.389240e+00 -3.331550e+00 -5.844311e-01 2.084635e+00 6.250455e-01 -1.475108e+00 5.118431e-01 4.053808e-01 3.389168e+00 -1.540156e+00 1.622913e+00 4.331633e-01 -5.488247e-01 7.864297e-01 1.554006e+00 4.562127e-01 -2.196431e-01 1.098248e+00 3.119116e-01 -4.980895e-01 1.127275e+00 -1.671474e+00
<VARIANCE> 25
 2.499193e+01 1.012930e+01 1.241213e+01 2.118273e+01 2.238298e+01 3.173083e+01 1.650517e+01 1.580108e+01 2.453991e+01 2.199250e+01 5.004290e+00 1.358729e+01 2.213763e+00 1.651591e+00 1.421318e+00 2.925601e+00 3.555976e+00 3.194977e+00 5.521978e-01 1.848396e+00 3.416027e+00 2.326901e+00 9.617106e-01 2.606742e+00 1.343238e+00
<GCONST> 8.815191e+01
~s "ST_ch_3_1"
<MEAN> 25
 -5.806050e+00 5.046925e+00 -1.616596e+00 -1.922798e+00 1.113271e+00 4.396549e+00 4.719136e-01 -1.454446e+00 3.923091e+00 3.972732e+00 -1.650194e+00 2.840108e+00 1.026648e-01 -6.032849e-02 -5.179392e-02 1.088637e-02 -5.635370e-02 -5.215641e-02 -3.379467e-02 -1.015199e-01 -1.235339e-01 -1.386096e-02 -3.550078e-02 -1.601332e-01 8.805534e-02
<VARIANCE> 25
 1.086717e+00 1.069483e+00 3.230421e+00 3.816589e+00 4.479993e+00 5.105900e+00 7.106041e+00 6.201631e+00 6.785175e+00 6.745544e+00 4.995311e+00 4.433140e+00 6.861460e-01 1.718466e-01 3.686380e-01 6.691558e-01 5.807227e-01 7.773122e-01 8.588003e-01 7.090936e-01 1.148381e+00 8.278181e-01 6.055655e-01 5.759796e-01 3.799312e-01
<GCONST> 5.554572e+01
~s "ST_ch_4_1"
<MEAN> 25
 1.313254e+01 -2.906297e+00 3.500063e+00 9.664225e+00 -3.940298e+00 -1.553974e+00 5.154584e+00 -1.517729e+00 -1.676407e+01 -1.032215e+01 2.050132e+00 -7.495366e+00 1.088694e+00 -7.171435e-01 1.732243e-01 5.177796e-03 -5.488681e-01 -4.880093e-01 8.979803e-02 2.205380e-01 -8.316350e-01 -7.175299e-01 2.517636e-01 -1.257126e-01 1.199071e+00
<VARIANCE> 25
 2.108794e+01 1.264827e+01 1.575122e+01 2.206788e+01 2.344681e+01 8.225266e+00 1.861940e+01 1.395580e+01 3.340793e+01 2.206264e+01 1.499108e+01 1.372664e+01 2.396676e+00 7.017485e-01 1.859901e+00 4.169535e+00 5.809277e-01 9.598669e-01 2.040850e+00 7.519680e-01 5.301018e+00 2.928880e+00 8.332012e-01 2.717699e+00 1.753961e+00
<GCONST> 8.666986e+01
~s "ST_eh_2_1"
<MEAN> 25
 4.821748e+00 5.745028e+00 1.031198e+00 4.160839e-01 -2.168474e-01 2.839933e+00 3.253697e+00 1.252386e+00 3.395466e-01 -7.085649e-01 -2.013546e+00 -2.226307e+00 1.138627e+00 1.300120e+00 9.433765e-01 1.219346e+00 1.072688e+00 7.785301e-01 2.656650e-01 -7.143128e-01 -3.925475e-01 3.387275e-01 -4.390684e-01 -1.414243e+00 4.796068e-01
<VARIANCE> 25
 8.733897e+01 4.890749e+01 3.113646e+01 2.570462e+01 4.985359e+01 4.381878e+01 2.829997e+01 1.983164e+01 2.402716e+01 4.058864e+01 7.474362e+00 4.203366e+01 4.275682e+00 2.796390e+00 2.843024e+00 1.680598e+00 3.563333e+00 5.137398e+00 3.070639e+00 3.094435e+00 5.955446e+00 1.992538e+00 1.555978e+00 6.079029e+00 3.100804e+00
<GCONST> 1.027000e+02
~s "ST_eh_3_1"
<MEAN> 25
 1.086944e+01 7.406574e+00 1.911518e+00 6.340801e+00 5.524029e+00 9.124324e+00 8.571187e+00 -5.641160e+00 -7.967249e+00 2.343961e+00 -5.330741e-02 -1.025210e+01 1.074423e+00 -4.281269e-01 -2.526929e-01 4.405290e-02 -1.169037e-01 -5.921476e-01 -2.617589e-01 2.724270e-02 -5.748088e-01 -2.090822e-01 4.322145e-01 -3.579144e-01 9.553794e-01
<VARIANCE> 25
 2.764835e+01 1.969221e+01 7.788748e+00 1.575306e+01 2.338139e+01 2.289227e+01 2.785388e+01 1.537992e+01 2.487005e+01 2.827131e+01 1.118925e+01 2.197670e+01 1.830121e+00 1.336871e+00 1.015358e+00 1.737082e+00 8.860247e-01 2.514542e+00 2.376784e+00 8.159406e-01 3.365031e+00 2.297196e+00 1.584018e+00 2.504799e+00 2.225426e+00
<GCONST> 8.860847e+01
~s "ST_eh_4_1"
<MEAN> 25
 1.446303e+01 -7.518067e+00 4.830337e+00 6.240522e+00 4.296566e+00 -8.840890e+00 -7.762115e+00 -1.424169e+00 -1.153537e+01 -7.366316e+00 4.537901e+00 -9.089795e+00 6.895928e-01 -1.806764e+00 1.308789e+00 6.856942e-01 3.010148e-01 -2.117621e+00 -1.789337e+00 3.385741e-01 -6.991692e-01 -1.210629e+00 4.518329e-01 -5.030097e-01 1.877540e+00
<VARIANCE> 25
 8.382629e+00 4.383712e+01 2.525282e+01 2.045514e+01 3.863200e+01 4.231852e+01 5.029648e+01 1.237952e+01 3.318796e+01 1.393037e+01 2.879637e+01 1.179305e+01 3.572599e+00 5.125311e+00 1.852797e+00 1.400193e+00 1.291009e+00 5.279006e+00 5.048261e+00 8.985645e-01 5.826029e+00 2.696478e+00 2.322623e+00 2.242374e+00 5.293541e+00
<GCONST> 9.726109e+01
~s "ST_p_2_1"
<MEAN> 25
 1.170043e+01 2.794074e+00 4.046601e+00 1.286870e+00 -7.842185e+00 -3.911422e+00 8.802265e+00 4.914820e+00 1.067908e+00 -1.411398e+00 -4.949700e+00 -2.966748e+00 -2.927849e+00 6.609550e-01 -2.155821e-01 1.978035e-01 3.807487e+00 3.493519e+00 3.404624e-01 7.836842e-01 2.039981e+00 9.532058e-01 3.329533e-01 -3.433513e-02 -2.445440e+00
<VARIANCE> 25
 1.901611e+01 3.903514e+01 2.278661e+01 4.023547e+01 4.288341e+01 7.179374e+01 1.997540e+01 1.656476e+01 2.268214e+01 1.544613e+01 6.606260e+00 1.331621e+01 7.167826e-01 1.506113e+00 1.679945e+00 2.603400e+00 1.515471e+00 5.477217e+00 3.516869e+00 7.243785e-01 5.379243e-01 9.931101e-01 2.417447e+00 2.973675e+00 2.523627e-01
<GCONST> 8.811983e+01
~s "ST_p_3_1"
<MEAN> 25
 4.583367e+00 -8.227658e+00 -7.958130e+00 -2.265300e+00 -2.431352e+00 -3.476057e+00 4.684594e+00 1.387683e+01 7.930173e+00 -1.789698e+00 -2.060152e+00 -1.770570e+00 -1.238866e+00 -4.086177e-01 -1.300720e+00 -3.054196e-01 -3.049037e-01 -7.101266e-01 -1.318737e+00 -4.858896e-01 -1.088477e-01 8.548484e-02 5.943657e-01 4.930876e-01 -1.171132e+00
<VARIANCE> 25
 3.635883e+00 6.055378e+01 3.245628e+01 1.133886e+01 2.352339e+01 1.944675e+01 1.486669e+01 4.451347e+01 1.851286e+01 2.483081e+01 1.350838e+01 4.823853e+00 1.376619e+00 9.814739e-01 1.482803e+00 1.325325e+00 3.101592e+00 7.045668e-01 1.988509e+00 4.048348e+00 1.867494e+00 1.081113e+00 4.910028e-01 1.154258e+00 6.732242e-01
<GCONST> 8.376047e+01
~s "ST_eu_2_1"
<MEAN> 25
 7.549663e+00 6.475568e-01 1.941371e+00 -2.085378e+00 -3.187933e+00 -5.460050e+00 -2.903786e+00 -4.987774e+00 -7.525778e+00 -3.071957e+00 4.582548e+00 -1.186474e+00 4.482902e+00 -2.488935e+00 8.198224e-01 -5.906713e-01 -1.158162e+00 -2.763811e+00 1.661345e-01 -4.564189e-01 -3.801144e+00 -2.091279e+00 2.514860e+00 -8.469834e-01 5.484301e+00
<VARIANCE> 25
 7.311279e+01 3.432773e+01 1.651936e+01 1.123239e+01 1.592770e+01 3.319818e+01 2.689460e+01 1.483441e+01 6.875969e+01 2.562157e+01 3.192638e+01 1.989942e+01 3.348650e+00 2.571620e+00 1.067645e+00 1.365171e+00 3.261495e+00 1.811458e+00 5.158273e+00 1.229395e+00 4.041331e+00 1.803113e+00 1.356767e+00 1.192304e+00 2.736036e+00
<GCONST> 9.481268e+01
~s "ST_p_4_1"
<MEAN> 25
 -3.875553e+00 3.028328e+00 -1.088211e-01 -1.497325e-02 1.909722e+00 1.287118e+00 7.253908e-01 2.061319e+00 4.618413e+00 2.162417e+00 -5.320961e-01 2.819938e+00 -1.888521e-01 -8.351325e-02 -7.858823e-02 -4.691068e-02 2.267046e-02 -2.355643e-02 -1.342870e-01 -7.788703e-02 -3.287208e-02 -9.457029e-02 -7.302158e-02 3.444970e-02 -1.342767e-01
<VARIANCE> 25
 1.364521e+01 9.478290e+00 9.065461e+00 8.605749e+00 1.303860e+01 1.232985e+01 6.871211e+00 1.671987e+01 8.450674e+00 1.123459e+01 6.643816e+00 8.832761e+00 1.776513e+00 7.705984e-01 6.380965e-01 6.076907e-01 8.041471e-01 1.038741e+00 9.672604e-01 1.727004e+00 9.970781e-01 9.368014e-01 6.746041e-01 1.145181e+00 1.172969e+00
<GCONST> 7.314859e+01
~s "ST_eu_3_1"
<MEAN> 25
 1.777573e+01 -9.249525e+00 2.467368e+00 -2.190136e+00 -2.892791e+00 -9.602391e+00 -2.220160e+00 -3.735467e+00 -1.656192e+01 -5.959771e+00 8.412089e+00 -2.894943e+00 1.753725e-01 1.169684e-01 -2.190152e-01 -2.355330e-01 -3.765920e-01 1.214773e-01 9.793947e-02 2.655531e-01 1.959151e-01 1.560863e-01 -2.475189e-01 -6.479683e-03 -8.539277e-02
<VARIANCE> 25
 1.211029e+00 7.306549e+00 7.054330e+00 8.167014e+00 1.341343e+01 6.636093e+00 9.207554e+00 1.019052e+01 9.578033e+00 1.014051e+01 5.573807e+00 6.605271e+00 1.229010e-01 1.472999e+00 5.250616e-01 8.133545e-01 1.332539e+00 4.795929e-01 1.247192e+00 9.759924e-01 1.405921e+00 7.746751e-01 3.902420e-01 4.168246e-01 4.637530e-01
<GCONST> 6.408298e+01
~s "ST_eu_4_1"
<MEAN> 25
 5.324238e+00 -3.907861e+00 5.508356e-01 -6.049637e+00 -7.335642e+00 -5.639431e+00 4.680660e+00 1.704320e+01 1.054064e+01 -3.333675e+00 -2.599047e+00 -2.973377e-01 -8.267673e-01 2.752461e-01 -2.205967e-01 1.913772e-02 2.234193e-01 2.042144e-01 7.739671e-02 3.596395e-01 8.884630e-01 3.228890e-01 -3.790029e-01 1.495287e-01 -8.432655e-01
<VARIANCE> 25
 4.548627e+01 1.969831e+01 2.359905e+01 1.501096e+01 2.124776e+01 1.303030e+01 1.642737e+01 7.046649e+01 5.905054e+01 2.462484e+01 1.663441e+01 1.991347e+01 2.077543e+00 2.009523e+00 1.499313e+00 1.905017e+00 2.390767e+00 1.465799e+00 1.790633e+00 5.870436e+00 4.584745e+00 2.062225e+00 1.979161e+00 1.753880e+00 4.899849e-01
<GCONST> 9.324021e+01
~h "a"
<BEGINHMM>
<NUMSTATES> 5
<STATE> 2
~s "ST_a_2_1"
<STATE> 3
~s "ST_a_3_1"
<STATE> 4
~s "ST_a_4_1"
~t "T_a"
<ENDHMM>
~h "i"
<BEGINHMM>
<NUMSTATES> 5
<STATE> 2
~s "ST_i_2_1"
<STATE> 3
~s "ST_i_3_1"
<STATE> 4
~s "ST_i_4_1"
~t "T_i"
<ENDHMM>
~h "l"
<BEGINHMM>
<NUMSTATES> 5
<STATE> 2
~s "ST_l_2_1"
<STATE> 3
~s "ST_l_3_1"
<STATE> 4
~s "ST_l_4_1"
~t "T_l"
<ENDHMM>
~h "m"
<BEGINHMM>
<NUMSTATES> 5
<STATE> 2
~s "ST_m_2_1"
<STATE> 3
~s "ST_m_3_1"
<STATE> 4
~s "ST_m_4_1"
~t "T_m"
<ENDHMM>
~h "o"
<BEGINHMM>
<NUMSTATES> 5
<STATE> 2
~s "ST_o_2_1"
<STATE> 3
~s "ST_o_3_1"
<STATE> 4
~s "ST_o_4_1"
~t "T_o"
<ENDHMM>
~h "p"
<BEGINHMM>
<NUMSTATES> 5
<STATE> 2
~s "ST_p_2_1"
<STATE> 3
~s "ST_p_3_1"
<STATE> 4
~s "ST_p_4_1"
~t "T_p"
<ENDHMM>
~h "r"
<BEGINHMM>
<NUMSTATES> 5
<STATE> 2
~s "ST_r_2_1"
<STATE> 3
~s "ST_r_3_1"
<STATE> 4
~s "ST_r_4_1"
~t "T_r"
<ENDHMM>
~h "t"
<BEGINHMM>
<NUMSTATES> 5
<STATE> 2
~s "ST_t_2_1"
<STATE> 3
~s "ST_t_3_1"
<STATE> 4
~s "ST_t_4_1"
~t "T_t"
<ENDHMM>
~h "ai"
<BEGINHMM>
<NUMSTATES> 5
<STATE> 2
~s "ST_ai_2_1"
<STATE> 3
~s "ST_ai_3_1"
<STATE> 4
~s "ST_ai_4_1"
~t "T_ai"
<ENDHMM>
~h "am"
<BEGINHMM>
<NUMSTATES> 5
<STATE> 2
~s "ST_am_2_1"
<STATE> 3
~s "ST_am_3_1"
<STATE> 4
~s "ST_am_4_1"
~t "T_am"
<ENDHMM>
~h "ch"
<BEGINHMM>
<NUMSTATES> 5
<STATE> 2
~s "ST_ch_2_1"
<STATE> 3
~s "ST_ch_3_1"
<STATE> 4
~s "ST_ch_4_1"
~t "T_ch"
<ENDHMM>
~h "eh"
<BEGINHMM>
<NUMSTATES> 5
<STATE> 2
~s "ST_eh_2_1"
<STATE> 3
~s "ST_eh_3_1"
<STATE> 4
~s "ST_eh_4_1"
~t "T_eh"
<ENDHMM>
~h "eu"
<BEGINHMM>
<NUMSTATES> 5
<STATE> 2
~s "ST_eu_2_1"
<STATE> 3
~s "ST_eu_3_1"
<STATE> 4
~s "ST_eu_4_1"
~t "T_eu"
<ENDHMM>
~h "ff"
<BEGINHMM>
<NUMSTATES> 5
<STATE> 2
~s "ST_ff_2_1"
<STATE> 3
~s "ST_ff_3_1"
<STATE> 4
~s "ST_ff_4_1"
~t "T_ff"
<ENDHMM>
~h "la"
<BEGINHMM>
<NUMSTATES> 5
<STATE> 2
~s "ST_la_2_1"
<STATE> 3
~s "ST_la_3_1"
<STATE> 4
~s "ST_la_4_1"
<TRANSP> 5
 0.000000e+00 1.000000e+00 0.000000e+00 0.000000e+00 0.000000e+00
 0.000000e+00 9.584386e-01 4.156139e-02 0.000000e+00 0.000000e+00
 0.000000e+00 0.000000e+00 8.904869e-01 1.095131e-01 0.000000e+00
 0.000000e+00 0.000000e+00 0.000000e+00 9.820129e-01 1.798713e-02
 0.000000e+00 0.000000e+00 0.000000e+00 0.000000e+00 0.000000e+00
<ENDHMM>
~h "lu"
<BEGINHMM>
<NUMSTATES> 5
<STATE> 2
~s "ST_lu_2_1"
<STATE> 3
~s "ST_lu_3_1"
<STATE> 4
~s "ST_lu_4_1"
~t "T_lu"
<ENDHMM>
~h "sp"
<BEGINHMM>
<NUMSTATES> 3
<STATE> 2
~s "ST_sil_3_1"
<TRANSP> 3
 0.000000e+00 1.459839e-01 8.540161e-01
 0.000000e+00 6.118957e-01 3.881043e-01
 0.000000e+00 0.000000e+00 0.000000e+00
<ENDHMM>
~h "t-ein"
<BEGINHMM>
<NUMSTATES> 5
<STATE> 2
~s "ST_ein_2_1"
<STATE> 3
~s "ST_ein_3_1"
<STATE> 4
~s "ST_ein_4_1"
~t "T_ein"
<ENDHMM>
~h "sil"
<BEGINHMM>
<NUMSTATES> 5
<STATE> 2
~s "ST_sil_2_1"
<STATE> 3
~s "ST_sil_3_1"
<STATE> 4
~s "ST_sil_4_1"
<TRANSP> 5
 0.000000e+00 1.000000e+00 0.000000e+00 0.000000e+00 0.000000e+00
 0.000000e+00 8.083866e-01 8.982073e-02 1.017927e-01 0.000000e+00
 0.000000e+00 0.000000e+00 7.929370e-01 2.070630e-01 0.000000e+00
 0.000000e+00 4.620301e-16 0.000000e+00 9.601933e-01 3.980670e-02
 0.000000e+00 0.000000e+00 0.000000e+00 0.000000e+00 0.000000e+00
<ENDHMM>
