~o
<STREAMINFO> 1 25
<VECSIZE> 25<NULLD><MFCC_D_N_Z_0><DIAGC>
~s "silst"
<MEAN> 25
 -1.216549e+01 1.002865e+00 -4.901290e+00 7.297626e-01 -6.810748e-01 3.414555e+00 -5.146025e+00 -3.441426e+00 -8.011305e-02 2.476518e+00 -4.018843e-01 1.938283e+00 4.168908e+00 9.513618e-01 1.681940e+00 -6.186153e-01 -1.533813e-01 -7.852904e-01 2.110336e+00 3.873256e-01 -2.127770e-02 -6.445120e-01 -2.419280e-01 -3.664073e-01 4.495611e+00
<VARIANCE> 25
 1.173009e+02 1.342452e+01 3.252076e+01 1.532099e+01 1.173451e+01 1.299444e+01 4.187573e+01 1.432520e+01 2.232794e+01 1.430859e+01 1.510238e+01 8.828402e+00 3.443782e+00 1.366003e+00 1.383453e+00 2.472533e+00 1.479752e+00 8.085839e-01 3.989242e+00 1.794570e+00 6.037253e+00 1.352307e+00 2.006879e+00 1.304902e+00 4.777238e+00
<GCONST> 9.115554e+01
~h "a"
<BEGINHMM>
<NUMSTATES> 5
<STATE> 2
<MEAN> 25
 -6.252889e+00 3.694077e+00 -1.200036e+00 -1.859816e+00 5.582951e-01 2.500924e+00 -6.618027e-01 -1.558340e+00 3.582198e+00 2.744683e+00 -1.941441e+00 2.595053e+00 -1.544981e-02 7.727783e-03 2.008696e-02 1.182096e-02 8.406090e-04 -1.528858e-02 -6.057863e-02 -4.837021e-02 -2.905915e-02 -1.019990e-02 1.058755e-02 7.609657e-03 -1.310390e-02
<VARIANCE> 25
 1.691896e+00 5.770380e+00 3.797467e+00 4.557286e+00 4.509594e+00 6.353963e+00 9.167122e+00 9.352404e+00 8.328845e+00 7.844655e+00 5.908414e+00 7.516406e+00 8.555102e-02 4.962154e-01 3.151984e-01 3.941901e-01 3.980327e-01 6.013924e-01 9.126039e-01 1.001554e+00 8.472009e-01 7.738608e-01 6.866577e-01 7.042124e-01 6.316226e-02
<GCONST> 5.618083e+01
<STATE> 3
<MEAN> 25
 -6.396188e+00 4.545709e+00 -4.475505e-01 -1.244615e+00 8.921784e-01 2.338893e+00 -1.579060e+00 -3.024345e+00 2.653520e+00 3.416420e+00 -1.587636e+00 3.099009e+00 4.316100e+00 -1.869799e+00 -1.004277e+00 -1.588201e+00 -3.494177e+00 -2.238496e+00 1.237399e+00 1.617899e+00 -2.001579e+00 -1.423061e+00 1.113871e+00 -1.388319e+00 4.003163e+00
<VARIANCE> 25
 1.086717e+00 1.689525e+00 3.080473e+00 3.766743e+00 4.039585e+00 3.406090e+00 6.642989e+00 3.162225e+00 4.839092e+00 3.437792e+00 4.223926e+00 2.995316e+00 2.646432e+00 2.523193e+00 7.392760e-01 1.330059e+00 1.872430e+00 6.241673e-01 2.321702e+00 1.950403e+00 1.049100e+00 8.043874e-01 8.794416e-01 7.315984e-01 3.494801e+00
<GCONST> 6.421040e+01
<STATE> 4
<MEAN> 25
 1.365063e+01 -6.679877e+00 -1.404360e+00 -1.816592e+00 -3.502255e+00 -5.339560e+00 1.367745e+00 1.893490e+00 -6.424879e+00 -3.359993e+00 4.495350e+00 -4.388150e+00 8.714281e-01 -6.293734e-01 2.560674e-02 -1.396400e-01 -3.612069e-01 -6.425919e-01 1.612899e-02 1.734696e-01 -3.502856e-01 -4.628688e-03 5.644512e-01 -2.073790e-01 1.067437e+00
<VARIANCE> 25
 2.505123e+01 5.574004e+01 1.999261e+01 1.203760e+02 1.509846e+02 4.455373e+01 3.653068e+01 3.793779e+01 3.211903e+01 2.461714e+01 3.052085e+01 2.200709e+01 5.939271e+00 4.520269e+00 1.312240e+00 3.396501e+00 6.237820e+00 3.940971e+00 3.292309e+00 3.396074e+00 3.120654e+00 3.174018e+00 2.002118e+00 1.892819e+00 8.138556e+00
<GCONST> 1.063280e+02
<TRANSP> 5
 0.000000e+00 1.000000e+00 0.000000e+00 0.000000e+00 0.000000e+00
 0.000000e+00 9.746390e-01 2.536099e-02 0.000000e+00 0.000000e+00
 0.000000e+00 0.000000e+00 4.500006e-01 5.499994e-01 0.000000e+00
 0.000000e+00 0.000000e+00 0.000000e+00 8.954170e-01 1.045830e-01
 0.000000e+00 0.000000e+00 0.000000e+00 0.000000e+00 0.000000e+00
<ENDHMM>
~h "i"
<BEGINHMM>
<NUMSTATES> 5
<STATE> 2
<MEAN> 25
 1.192184e+01 -8.908725e+00 1.319445e+01 1.120251e+01 7.613176e-02 -1.389843e+01 -2.535684e+00 2.748961e+00 -9.412894e+00 -7.518918e+00 1.210712e+00 -7.668968e+00 1.623116e-01 -3.767994e-01 -3.472718e-01 -1.125672e+00 -3.140984e-02 -3.686939e-01 -1.056939e+00 -6.606386e-01 -1.055178e+00 -1.287492e-02 1.196317e+00 5.678170e-01 3.770833e-01
<VARIANCE> 25
 1.135608e+01 2.666405e+01 2.121288e+01 2.612771e+01 1.716783e+01 2.095136e+01 4.139830e+01 2.897198e+01 2.872608e+01 1.111825e+01 2.281224e+01 1.857384e+01 5.879898e-01 2.157219e+00 4.446453e+00 1.105800e+00 1.797662e+00 1.881304e+00 2.871559e+00 1.588371e+00 9.096817e-01 7.206084e-01 6.364579e-01 9.500682e-01 9.867362e-01
<GCONST> 8.639558e+01
<STATE> 3
<MEAN> 25
 1.537687e+01 -6.887491e+00 1.194781e+00 5.385106e-01 -3.006713e+00 -1.312002e+01 -9.101931e+00 -2.032414e+00 -1.081871e+01 1.404039e+00 8.613257e+00 -6.531050e+00 -9.518819e-02 7.925076e-01 -1.023147e+00 -5.346097e-01 -3.196501e-01 9.054082e-01 4.161127e-01 1.406731e-01 1.191918e+00 9.026100e-01 -1.844754e-01 6.417365e-02 -7.837989e-01
<VARIANCE> 25
 1.380287e+01 2.299225e+01 1.530794e+01 1.435261e+01 1.938425e+01 1.866874e+01 1.102065e+01 7.236881e+00 3.363544e+01 3.777766e+01 1.265813e+01 1.156776e+01 4.312658e-01 1.129379e+00 9.292350e-01 6.733464e-01 1.732976e+00 1.274875e+00 1.292560e+00 9.976769e-01 1.454896e+00 1.229773e+00 9.576552e-01 8.602844e-01 3.819364e-01
<GCONST> 7.878760e+01
<STATE> 4
<MEAN> 25
 6.105620e+00 -5.878773e+00 -6.672297e+00 -3.261257e+00 -3.718106e-01 -5.475362e-01 -9.013273e-03 6.569158e+00 4.405703e+00 -2.096463e+00 -1.419142e+00 -1.489516e+00 -9.696383e-01 2.281166e-02 -7.622036e-01 -8.545286e-01 -1.085920e-01 7.100537e-01 1.248034e+00 8.253787e-01 3.819489e-01 -7.419506e-01 -6.640337e-01 8.518234e-01 -8.481524e-01
<VARIANCE> 25
 2.758908e+01 3.335673e+01 1.828775e+01 3.759171e+01 1.623905e+01 1.698142e+01 2.884727e+01 4.750758e+01 2.396754e+01 4.349573e+01 3.354154e+01 2.089874e+01 2.714147e+00 4.610141e+00 1.483130e+00 3.050829e+00 2.583197e+00 3.027176e+00 3.483799e+00 4.635668e+00 2.023934e+00 3.486404e+00 1.676589e+00 2.429574e+00 1.118244e+00
<GCONST> 9.799390e+01
<TRANSP> 5
 0.000000e+00 1.000000e+00 0.000000e+00 0.000000e+00 0.000000e+00
 0.000000e+00 8.279804e-01 1.720196e-01 0.000000e+00 0.000000e+00
 0.000000e+00 0.000000e+00 8.552363e-01 1.447637e-01 0.000000e+00
 0.000000e+00 0.000000e+00 0.000000e+00 8.392196e-01 1.607804e-01
 0.000000e+00 0.000000e+00 0.000000e+00 0.000000e+00 0.000000e+00
<ENDHMM>
~h "l"
<BEGINHMM>
<NUMSTATES> 5
<STATE> 2
<MEAN> 25
 -5.958081e+00 2.303364e+00 -3.225042e-01 -5.222861e-01 1.689695e+00 1.633142e+00 -5.126977e-01 -2.019287e-01 3.931300e+00 2.235027e+00 -1.682562e+00 1.272326e+00 -3.608610e-02 -3.338718e-02 -1.445908e-02 2.141957e-02 1.727778e-02 2.034536e-02 -1.587183e-02 -3.958657e-02 -4.859027e-02 -4.750093e-02 -2.893658e-02 -5.963635e-02 -2.641132e-02
<VARIANCE> 25
 1.086717e+00 1.991552e+00 1.797829e+00 4.744184e+00 3.201198e+00 3.678604e+00 7.171412e+00 8.292459e+00 5.435113e+00 6.424340e+00 3.471849e+00 4.569856e+00 7.382520e-02 1.559682e-01 1.695783e-01 2.982976e-01 2.898899e-01 4.142092e-01 6.706357e-01 7.394834e-01 6.002248e-01 7.053962e-01 4.057073e-01 5.882320e-01 2.106752e-02
<GCONST> 4.530968e+01
<STATE> 3
<MEAN> 25
 -6.341434e+00 2.876353e+00 4.493881e-01 7.634408e-01 1.254441e+00 6.436243e-01 -7.769166e-01 -8.862214e-01 2.512155e+00 2.554910e+00 -1.358304e+00 1.284231e+00 1.728860e+00 2.664322e-01 5.139696e-01 8.645639e-01 2.328639e-01 2.233558e-01 2.493667e-01 -8.361526e-01 -1.588534e+00 -1.001006e+00 3.197507e-02 -5.476387e-01 1.276934e+00
<VARIANCE> 25
 5.924518e+00 6.459630e+00 2.456243e+00 8.210252e+00 5.120088e+00 1.107258e+01 4.019145e+00 8.181082e+00 9.692350e+00 9.801657e+00 9.418176e+00 8.815977e+00 4.695078e+00 8.589452e-01 5.130599e-01 2.766988e+00 1.201737e+00 2.218593e+00 1.089137e+00 2.736239e+00 6.876753e+00 3.005644e+00 9.893806e-01 2.849810e+00 2.813012e+00
<GCONST> 7.801620e+01
<STATE> 4
<MEAN> 25
 1.503686e+01 -3.476947e+00 4.248891e+00 9.617238e+00 5.835623e+00 6.077108e+00 7.798341e-01 -7.785938e+00 -1.305142e+01 -6.497276e+00 3.300252e+00 -5.903455e+00 1.272680e+00 -9.252521e-01 6.879627e-02 5.752584e-01 -3.145207e-01 -2.147520e-01 4.481008e-01 4.471752e-02 -1.081667e+00 -4.931174e-01 2.827212e-01 -4.380127e-01 1.326046e+00
<VARIANCE> 25
 1.790420e+01 2.004988e+01 3.394421e+00 5.772414e+00 6.604379e+00 2.045753e+01 8.555652e+00 8.937843e+00 1.184244e+01 5.097144e+00 1.135340e+01 1.136574e+01 3.500982e+00 9.731519e-01 1.084089e+00 2.310750e+00 9.390501e-01 1.917668e+00 1.241141e+00 9.388393e-01 5.117438e+00 1.669922e+00 1.612012e+00 1.398578e+00 2.874679e+00
<GCONST> 7.990846e+01
<TRANSP> 5
 0.000000e+00 1.000000e+00 0.000000e+00 0.000000e+00 0.000000e+00
 0.000000e+00 9.646116e-01 3.538839e-02 0.000000e+00 0.000000e+00
 0.000000e+00 0.000000e+00 7.955796e-01 2.044205e-01 0.000000e+00
 0.000000e+00 0.000000e+00 0.000000e+00 8.924580e-01 1.075421e-01
 0.000000e+00 0.000000e+00 0.000000e+00 0.000000e+00 0.000000e+00
<ENDHMM>
~h "m"
<BEGINHMM>
<NUMSTATES> 5
<STATE> 2
<MEAN> 25
 8.454576e+00 2.631434e+00 -1.542227e+00 -2.875209e+00 -3.396266e+00 -4.960803e-01 5.040195e+00 4.776411e+00 -3.965008e-01 -1.448658e+00 1.474751e+00 2.427788e+00 -1.293385e+00 9.445214e-01 5.523718e-02 1.491447e-01 -1.414452e-02 7.335750e-01 5.889990e-01 1.544796e-01 5.446918e-01 7.634168e-01 -1.331727e-01 -1.269599e-02 -1.744116e+00
<VARIANCE> 25
 7.223752e+01 2.665111e+01 2.022247e+01 4.084059e+01 7.579314e+01 7.463404e+01 1.594653e+01 2.927029e+01 5.295456e+01 3.695694e+01 1.370342e+01 2.858980e+01 1.954800e+00 2.446353e+00 1.672490e+00 2.538764e+00 4.102550e+00 2.784338e+00 2.061599e+00 3.096450e+00 4.503947e+00 2.578364e+00 1.207292e+00 4.562409e+00 1.250555e+00
<GCONST> 1.002447e+02
<STATE> 3
<MEAN> 25
 -5.194781e+00 3.816469e+00 4.773439e-01 -1.206152e-01 1.912094e+00 3.708937e+00 2.088283e+00 7.969206e-02 4.012994e+00 3.713276e+00 4.932663e-02 3.246850e+00 5.488396e-04 -2.205948e-01 2.451529e-02 1.402721e-01 -7.103794e-02 -1.851647e-01 -1.005467e-01 -1.825701e-01 -3.884001e-01 -2.330793e-01 -1.204305e-01 -3.504128e-01 7.089360e-02
<VARIANCE> 25
 3.465608e+01 3.052116e+00 3.162865e+00 8.528822e+00 4.114984e+00 6.549815e+00 1.055869e+01 1.076390e+01 2.893597e+01 1.423621e+01 1.075272e+01 1.467032e+01 5.031791e-01 4.749376e-01 5.214630e-01 7.722222e-01 5.999507e-01 8.383847e-01 1.187296e+00 9.549909e-01 1.157182e+00 9.576200e-01 9.165035e-01 1.016294e+00 2.807606e-01
<GCONST> 6.887112e+01
<STATE> 4
<MEAN> 25
 9.379534e+00 -5.396571e-01 3.440803e+00 6.050839e+00 -5.808817e-01 -2.039508e+00 5.048362e+00 6.137441e-01 -1.053056e+01 -4.653461e+00 1.706590e+00 -5.534553e+00 8.449935e-01 -7.923097e-01 1.499898e-01 3.104972e-01 -4.295988e-01 -1.529535e+00 -2.741769e-01 7.662802e-01 1.183639e-01 -2.584427e-01 -8.333959e-02 -1.814573e-01 1.113634e+00
<VARIANCE> 25
 6.361931e+01 2.570536e+01 2.484603e+01 4.263226e+01 2.654545e+01 3.915299e+01 2.821804e+01 2.000320e+01 1.026705e+02 4.087282e+01 2.179646e+01 5.541307e+01 3.092280e+00 3.311995e+00 3.501854e+00 5.707446e+00 1.727556e+00 6.390817e+00 3.326018e+00 2.144468e+00 7.905894e+00 3.762738e+00 1.624286e+00 3.501952e+00 2.196322e+00
<GCONST> 1.046383e+02
<TRANSP> 5
 0.000000e+00 1.000000e+00 0.000000e+00 0.000000e+00 0.000000e+00
 0.000000e+00 7.649490e-01 2.350510e-01 0.000000e+00 0.000000e+00
 0.000000e+00 0.000000e+00 8.444248e-01 1.555752e-01 0.000000e+00
 0.000000e+00 0.000000e+00 0.000000e+00 8.217092e-01 1.782908e-01
 0.000000e+00 0.000000e+00 0.000000e+00 0.000000e+00 0.000000e+00
<ENDHMM>
~h "o"
<BEGINHMM>
<NUMSTATES> 5
<STATE> 2
<MEAN> 25
 1.628099e+01 1.953808e+00 4.334396e+00 2.102743e+00 -1.451707e+01 -1.562624e+01 -3.483227e+00 2.462370e+00 -2.531865e-01 -4.096064e+00 -3.171996e+00 -9.072150e+00 -5.637006e-01 6.240066e-01 1.684520e-02 -2.842001e-02 -4.995264e-02 -4.189564e-01 -3.523532e-01 -3.176619e-01 -3.835123e-02 4.847620e-01 -2.291603e-02 1.215817e-01 -7.031849e-01
<VARIANCE> 25
 9.368628e+00 1.924421e+01 1.009199e+01 9.094263e+00 6.810005e+00 1.820629e+01 8.614559e+00 6.137008e+00 9.320409e+00 1.058975e+01 7.433056e+00 1.001928e+01 6.903747e-01 7.179495e-01 7.774547e-01 9.067214e-01 5.849751e-01 1.190049e+00 3.656674e-01 4.242925e-01 9.673590e-01 1.204843e+00 4.878131e-01 5.534461e-01 6.445796e-01
<GCONST> 6.847889e+01
<STATE> 3
<MEAN> 25
 -2.551575e-01 9.102964e+00 2.239966e+00 -8.856908e-01 -1.958635e+00 -8.207961e-01 -7.794241e-01 -9.372222e-01 3.592147e+00 3.273991e+00 -2.634718e+00 -5.896378e-01 -2.248569e+00 -8.712933e-01 -4.543982e-01 1.813422e-01 2.284526e+00 2.736972e+00 8.088678e-01 2.117536e-01 1.168525e+00 1.065893e+00 7.667060e-01 1.964461e+00 -1.439070e+00
<VARIANCE> 25
 2.002097e+01 1.065072e+01 7.313178e+00 8.300020e+00 4.908875e+01 7.341004e+01 3.032505e+01 1.402877e+01 1.501430e+01 1.976719e+01 2.066477e+01 3.193504e+01 1.374737e+00 1.164904e+00 7.148878e-01 1.300344e+00 3.209898e+00 4.620508e+00 1.250461e+00 8.926519e-01 1.695041e+00 1.491666e+00 9.508658e-01 1.106610e+00 8.435149e-01
<GCONST> 8.585613e+01
<STATE> 4
<MEAN> 25
 -6.514327e+00 3.524139e+00 -7.504938e-01 -6.121419e-01 1.762597e+00 3.007714e+00 -3.565824e-01 -1.396277e+00 3.677515e+00 2.915211e+00 -1.784055e+00 3.314721e+00 -2.242292e-02 -2.527312e-02 -2.238011e-02 -1.972066e-02 3.781569e-03 1.759138e-02 2.465002e-02 1.381460e-02 4.196904e-03 -3.528878e-03 -3.715530e-03 -5.716901e-03 -8.580400e-03
<VARIANCE> 25
 1.086717e+00 1.562325e+00 2.390372e+00 2.748190e+00 4.459881e+00 4.483711e+00 7.255081e+00 6.170393e+00 6.543314e+00 6.178955e+00 5.487409e+00 6.538827e+00 5.436623e-02 1.596112e-01 2.106593e-01 3.256271e-01 4.121474e-01 5.063954e-01 8.012646e-01 6.464894e-01 6.862561e-01 6.753973e-01 6.558185e-01 7.264358e-01 1.891393e-02
<GCONST> 4.730608e+01
<TRANSP> 5
 0.000000e+00 1.000000e+00 0.000000e+00 0.000000e+00 0.000000e+00
 0.000000e+00 9.326867e-01 6.731333e-02 0.000000e+00 0.000000e+00
 0.000000e+00 0.000000e+00 8.209524e-01 1.790476e-01 0.000000e+00
 0.000000e+00 0.000000e+00 0.000000e+00 9.811301e-01 1.886985e-02
 0.000000e+00 0.000000e+00 0.000000e+00 0.000000e+00 0.000000e+00
<ENDHMM>
~h "p"
<BEGINHMM>
<NUMSTATES> 5
<STATE> 2
<MEAN> 25
 1.118162e+01 1.863406e+00 3.711913e+00 1.171304e+00 -6.896088e+00 -3.187878e+00 8.956507e+00 5.783492e+00 1.914304e+00 -1.764109e+00 -5.323969e+00 -3.143539e+00 -2.905098e+00 4.041194e-01 -3.925360e-01 2.815707e-01 3.749323e+00 3.295663e+00 3.202663e-01 1.007587e+00 2.062151e+00 9.925359e-01 4.227868e-01 -7.719462e-02 -2.394207e+00
<VARIANCE> 25
 1.892831e+01 4.734072e+01 2.509506e+01 3.933382e+01 4.925410e+01 6.505623e+01 1.704310e+01 2.737544e+01 3.121774e+01 1.644684e+01 6.735896e+00 1.261396e+01 7.074594e-01 1.639232e+00 1.694944e+00 2.605048e+00 1.570233e+00 6.249922e+00 3.413327e+00 1.197904e+00 5.073186e-01 9.346724e-01 2.253031e+00 2.936389e+00 3.023647e-01
<GCONST> 8.981318e+01
<STATE> 3
<MEAN> 25
 4.120361e+00 -6.985460e+00 -7.792540e+00 -2.466785e+00 -2.924716e+00 -3.449794e+00 4.436560e+00 1.269538e+01 7.177532e+00 -1.190032e+00 -1.200892e+00 -1.311789e+00 -1.293043e+00 -2.929658e-01 -1.171046e+00 -4.815632e-01 -5.293918e-01 -7.141792e-01 -1.433582e+00 -9.401993e-01 -2.811246e-01 -8.274326e-02 5.080196e-01 6.982196e-01 -1.222086e+00
<VARIANCE> 25
 4.338567e+00 7.788135e+01 3.578088e+01 1.157712e+01 2.014380e+01 2.055860e+01 1.495875e+01 5.117236e+01 1.682290e+01 2.370701e+01 1.030362e+01 5.316121e+00 1.551320e+00 7.868339e-01 1.532049e+00 1.091555e+00 2.529357e+00 7.193130e-01 2.045985e+00 2.464350e+00 1.474897e+00 1.088218e+00 5.590385e-01 9.671783e-01 7.608781e-01
<GCONST> 8.296935e+01
<STATE> 4
<MEAN> 25
 -5.224081e+00 3.383240e+00 -1.274547e-01 -5.460535e-01 1.390752e+00 1.188628e+00 -3.771748e-01 7.305182e-01 4.070130e+00 1.592227e+00 -1.328514e+00 2.291742e+00 -1.115524e-01 -5.504704e-02 -4.098992e-02 -3.120918e-03 2.587819e-02 -2.560945e-02 -8.063766e-02 -4.360230e-02 -9.978971e-03 -5.540419e-02 -6.933185e-02 4.110988e-03 -7.834854e-02
<VARIANCE> 25
 1.129609e+01 6.265069e+00 6.493433e+00 6.941318e+00 9.513393e+00 9.291940e+00 7.582262e+00 1.552804e+01 7.323797e+00 9.147643e+00 6.935833e+00 7.464397e+00 1.093632e+00 5.205900e-01 5.090325e-01 5.503293e-01 6.231558e-01 8.314880e-01 7.704186e-01 1.414823e+00 8.497524e-01 8.035162e-01 6.104906e-01 8.920243e-01 7.108694e-01
<GCONST> 6.767876e+01
<TRANSP> 5
 0.000000e+00 1.000000e+00 0.000000e+00 0.000000e+00 0.000000e+00
 0.000000e+00 7.455708e-01 2.544292e-01 0.000000e+00 0.000000e+00
 0.000000e+00 0.000000e+00 6.598663e-01 3.401337e-01 0.000000e+00
 0.000000e+00 0.000000e+00 0.000000e+00 9.745176e-01 2.548236e-02
 0.000000e+00 0.000000e+00 0.000000e+00 0.000000e+00 0.000000e+00
<ENDHMM>
~h "r"
<BEGINHMM>
<NUMSTATES> 5
<STATE> 2
<MEAN> 25
 -3.047627e+00 3.340848e+00 -3.892936e+00 -6.089136e+00 -3.534671e+00 1.037230e+00 2.737558e+00 3.297689e+00 4.885029e+00 1.236891e+00 -3.125625e+00 1.703457e+00 -8.063720e-01 2.535790e-01 1.073216e+00 9.892565e-01 8.596267e-01 7.067459e-01 -4.130205e-01 -1.052934e+00 -4.427690e-01 5.319713e-01 5.908565e-01 7.034662e-02 -5.503262e-01
<VARIANCE> 25
 3.634511e+00 2.674513e+00 8.565048e+00 6.110935e+00 9.308679e+00 1.240930e+01 8.849354e+00 1.688424e+01 1.682266e+01 6.689889e+00 5.899775e+00 5.218353e+00 2.356112e-01 6.460597e-01 4.918086e-01 1.485972e+00 5.977453e-01 6.973238e-01 1.540426e+00 7.776158e-01 1.180425e+00 5.127412e-01 1.086168e+00 5.957657e-01 7.508732e-02
<GCONST> 6.366843e+01
<STATE> 3
<MEAN> 25
 -5.609051e+00 2.392403e+00 -3.950070e-01 -3.613822e-01 -3.158225e-01 2.066820e+00 9.085725e-01 -1.107137e+00 2.319687e+00 2.587133e+00 -1.237544e-01 2.133968e+00 -1.436378e-01 1.863488e-02 1.840625e-01 2.881438e-01 1.883630e-01 4.311190e-02 -2.107020e-01 -2.958640e-01 -1.325187e-01 -4.783434e-02 7.235542e-02 -5.544251e-02 -9.328529e-02
<VARIANCE> 25
 1.086717e+00 8.679295e+00 4.262376e+00 2.339647e+01 3.402460e+00 1.041000e+01 1.093887e+01 7.906734e+00 1.035067e+01 5.580581e+00 7.284875e+00 6.067400e+00 7.157075e-02 6.757467e-01 3.145812e-01 1.465184e+00 4.962306e-01 1.158273e+00 6.995454e-01 5.911250e-01 1.090097e+00 6.619405e-01 6.079614e-01 7.737718e-01 7.624091e-02
<GCONST> 5.977116e+01
<STATE> 4
<MEAN> 25
 -6.449155e+00 4.001330e+00 -1.103498e-01 -6.485161e-01 1.275658e+00 2.963831e+00 -1.096078e+00 -2.546676e+00 3.368700e+00 2.982733e+00 -1.856953e+00 2.356459e+00 -5.384518e-03 -5.655038e-03 5.057744e-03 5.445872e-03 1.013806e-02 -4.720612e-03 -1.275589e-02 -2.944317e-03 6.860287e-03 7.463547e-03 -8.503368e-03 4.020059e-03 9.346921e-06
<VARIANCE> 25
 1.086717e+00 2.316170e+00 2.447842e+00 3.127505e+00 4.006329e+00 5.179295e+00 5.469882e+00 5.966240e+00 6.470829e+00 6.394268e+00 5.983050e+00 5.837867e+00 4.357554e-02 1.197057e-01 2.022625e-01 3.015272e-01 4.024383e-01 5.390307e-01 6.180462e-01 6.073727e-01 6.245541e-01 6.257257e-01 6.582638e-01 5.778411e-01 1.891393e-02
<GCONST> 4.626428e+01
<TRANSP> 5
 0.000000e+00 1.000000e+00 0.000000e+00 0.000000e+00 0.000000e+00
 0.000000e+00 7.255133e-01 2.744868e-01 0.000000e+00 0.000000e+00
 0.000000e+00 0.000000e+00 8.739150e-01 1.260850e-01 0.000000e+00
 0.000000e+00 0.000000e+00 0.000000e+00 9.850260e-01 1.497398e-02
 0.000000e+00 0.000000e+00 0.000000e+00 0.000000e+00 0.000000e+00
<ENDHMM>
~h "t"
<BEGINHMM>
<NUMSTATES> 5
<STATE> 2
<MEAN> 25
 4.129904e+00 -3.150587e+00 5.060820e+00 4.869229e+00 5.953703e+00 -3.964593e+00 -5.108632e+00 -6.110692e-01 -3.802943e+00 -3.665241e+00 1.534013e+00 -4.239508e+00 -2.308195e-01 2.114939e-01 -5.329778e-02 -5.341638e-01 -1.111863e-02 3.764331e-01 3.058170e-01 1.219225e-01 5.472417e-01 2.088510e-01 -1.023137e-01 3.468284e-01 -1.441483e-01
<VARIANCE> 25
 5.369828e+01 4.795228e+01 2.647355e+01 3.488007e+01 1.637789e+01 3.338363e+01 3.425111e+01 1.607969e+01 5.592028e+01 3.495089e+01 2.123972e+01 3.036928e+01 5.167449e+00 4.813895e+00 2.291592e+00 2.440526e+00 1.635667e+00 2.674400e+00 3.007850e+00 2.358149e+00 3.973010e+00 3.334578e+00 2.221823e+00 1.964701e+00 1.007842e+01
<GCONST> 1.020292e+02
<STATE> 3
<MEAN> 25
 1.414328e+01 -1.209299e+01 7.539136e+00 4.713497e+00 5.853484e+00 -5.822102e+00 -1.132111e+01 -3.989057e+00 -1.382832e+01 -9.652552e+00 4.455367e+00 -6.442566e+00 9.954125e-01 -2.402846e-01 -6.547310e-01 -2.165071e-01 -1.047849e+00 1.646745e-02 5.581667e-01 -3.102335e-01 -1.118515e+00 -5.980442e-01 4.286542e-02 5.391311e-03 4.753335e-01
<VARIANCE> 25
 5.125533e+00 1.246680e+01 1.462938e+01 2.352617e+01 1.345015e+01 1.749011e+01 3.409000e+01 8.547076e+00 1.585023e+01 2.418359e+01 9.415425e+00 1.208649e+01 1.627747e+00 1.922026e+00 1.249672e+00 2.630339e+00 2.162165e+00 2.083216e+00 3.589504e+00 2.115219e+00 3.760854e+00 3.828835e+00 1.505151e+00 1.712951e+00 8.319405e-01
<GCONST> 8.705697e+01
<STATE> 4
<MEAN> 25
 1.968808e+01 -5.885468e+00 -3.973930e+00 -9.204175e+00 -1.093811e+01 -6.714551e+00 4.972260e+00 5.478534e+00 -8.846628e+00 -7.063416e+00 4.616381e+00 -3.246329e+00 -1.693544e-01 8.968920e-01 -4.112747e-01 -4.690096e-01 -1.058089e+00 1.735719e-02 5.521315e-01 6.178859e-01 5.767026e-01 6.006648e-02 -5.189884e-01 -1.403469e-01 -7.534559e-01
<VARIANCE> 25
 2.730814e+00 2.082236e+01 1.096795e+01 1.981659e+01 2.053605e+01 1.586404e+01 1.861892e+01 2.623913e+01 9.710078e+00 2.431030e+01 2.063667e+01 2.776254e+01 7.243316e-01 1.329762e+00 7.521084e-01 8.861970e-01 1.530605e+00 1.108710e+00 1.182416e+00 1.820355e+00 1.635576e+00 1.351521e+00 1.283909e+00 1.848145e+00 8.454005e-01
<GCONST> 8.150315e+01
<TRANSP> 5
 0.000000e+00 1.000000e+00 0.000000e+00 0.000000e+00 0.000000e+00
 0.000000e+00 9.462546e-01 5.374547e-02 0.000000e+00 0.000000e+00
 0.000000e+00 0.000000e+00 8.757106e-01 1.242894e-01 0.000000e+00
 0.000000e+00 0.000000e+00 0.000000e+00 8.966135e-01 1.033865e-01
 0.000000e+00 0.000000e+00 0.000000e+00 0.000000e+00 0.000000e+00
<ENDHMM>
~h "ai"
<BEGINHMM>
<NUMSTATES> 5
<STATE> 2
<MEAN> 25
 -1.527017e+00 -1.094761e+01 -5.602882e+00 -4.374146e+00 -5.702301e-01 2.500468e+00 9.610677e+00 1.389918e+01 3.764613e+00 -6.461590e+00 1.013596e+00 6.843066e+00 -4.101548e-01 4.652537e-01 3.230731e-01 2.641341e-01 7.913864e-02 2.572998e-01 6.047903e-01 9.013948e-02 -3.165554e-01 1.392614e-01 6.999756e-02 5.674034e-02 -4.807553e-01
<VARIANCE> 25
 2.807390e+00 2.331594e+01 1.007766e+01 1.156819e+01 1.761760e+01 7.755740e+00 1.558921e+01 1.356574e+01 1.485973e+01 1.621569e+01 1.094048e+01 5.785114e+00 5.157239e-01 8.752261e-01 1.957059e+00 1.032897e+00 8.040606e-01 6.576223e-01 6.136587e-01 8.366500e-01 7.790289e-01 1.461512e+00 1.796397e+00 7.495392e-01 2.760701e-01
<GCONST> 7.253537e+01
<STATE> 3
<MEAN> 25
 -2.302387e+00 -3.296408e+00 -7.506533e+00 -5.701025e+00 -2.718527e+00 2.219223e+00 8.910019e+00 9.840775e+00 1.244962e+00 -6.324591e+00 -2.615202e+00 3.781829e+00 -1.635263e-01 1.403860e+00 3.595817e-01 1.541089e-01 -7.151801e-02 -1.783383e-01 -8.415871e-01 -1.489106e+00 -3.783666e-01 3.945924e-01 -3.943117e-01 -1.572820e-01 -7.644644e-01
<VARIANCE> 25
 4.075166e+00 1.046102e+01 5.309595e+00 2.772161e+00 4.016138e+00 4.561491e+00 1.025573e+01 1.032276e+01 1.692048e+01 2.065286e+01 4.629872e+00 7.518369e+00 3.339823e-01 6.060596e-01 1.078451e+00 1.060209e+00 5.452464e-01 9.334264e-01 1.814133e+00 9.076262e-01 1.238602e+00 8.742833e-01 1.527003e+00 1.265511e+00 8.396488e-02
<GCONST> 6.598593e+01
<STATE> 4
<MEAN> 25
 -1.933143e+00 2.625292e+00 -8.303892e+00 -9.299983e+00 -5.663571e+00 1.571846e+00 4.432466e+00 2.716935e+00 1.234761e+00 -1.925511e+00 -4.087245e+00 2.567496e+00 -3.393794e-01 4.466528e-01 4.649276e-01 -5.639582e-03 7.337137e-02 1.737267e-01 -4.049083e-01 -6.155521e-01 2.132463e-01 5.265841e-01 1.345223e-01 -4.554215e-02 -3.563493e-01
<VARIANCE> 25
 2.585630e+00 2.709367e+00 5.852460e+00 5.654047e+00 5.353534e+00 4.953474e+00 5.128319e+00 4.983074e+00 8.890880e+00 9.270654e+00 5.037978e+00 6.522193e+00 1.703797e-01 2.075778e-01 6.657528e-01 8.178308e-01 9.871766e-01 4.994738e-01 6.063021e-01 3.652690e-01 1.360936e+00 1.114135e+00 6.664354e-01 6.908702e-01 7.222765e-02
<GCONST> 5.666380e+01
<TRANSP> 5
 0.000000e+00 1.000000e+00 0.000000e+00 0.000000e+00 0.000000e+00
 0.000000e+00 8.533741e-01 1.466258e-01 0.000000e+00 0.000000e+00
 0.000000e+00 0.000000e+00 7.006215e-01 2.993785e-01 0.000000e+00
 0.000000e+00 0.000000e+00 0.000000e+00 7.857683e-01 2.142317e-01
 0.000000e+00 0.000000e+00 0.000000e+00 0.000000e+00 0.000000e+00
<ENDHMM>
~h "am"
<BEGINHMM>
<NUMSTATES> 5
<STATE> 2
<MEAN> 25
 1.797907e+01 -7.862451e+00 2.371490e+00 5.733262e+00 -1.429444e+00 -3.721285e+00 2.545506e+00 -2.519269e+00 -1.728992e+01 -7.771033e+00 1.532119e+00 -8.320818e+00 1.123579e+00 -1.652287e+00 2.346485e-01 -2.775193e+00 -1.799182e+00 -2.464528e+00 -9.452199e-01 1.564985e+00 -9.676232e-01 -5.424424e-01 6.711081e-01 -7.119453e-01 2.241149e+00
<VARIANCE> 25
 1.352295e+01 1.761929e+01 8.169080e+00 5.192772e+01 1.129804e+01 1.308490e+01 6.282783e+01 1.039688e+01 5.826199e+00 6.036734e+00 1.368728e+01 8.563058e+00 2.728146e+00 2.961074e-01 7.598723e-01 8.181242e+00 7.692720e-01 1.554366e+00 5.183491e+00 3.480594e-01 4.747688e+00 1.678487e+00 2.436730e+00 3.085427e+00 1.475997e+00
<GCONST> 8.413760e+01
<STATE> 3
<MEAN> 25
 1.427696e+01 -7.348403e+00 8.169263e+00 5.835610e+00 -6.561543e+00 -7.786281e+00 9.371415e+00 3.742682e+00 -2.015105e+01 -1.103770e+01 4.379280e+00 -4.960065e+00 1.372076e-01 -1.787826e-01 -2.128970e-01 -7.236634e-01 -6.316376e-01 -4.347242e-01 -5.403696e-02 5.818205e-01 9.557428e-01 -3.341383e-01 -1.767028e-01 7.023422e-01 2.846597e-01
<VARIANCE> 25
 1.294001e+01 9.145465e+00 1.946551e+01 7.348733e+01 7.842149e+00 1.996385e+00 4.894811e+01 3.140470e+00 1.635153e+01 5.730527e+00 3.955188e+00 4.853467e+00 8.757269e-02 1.046690e-01 6.790274e-01 9.303428e-01 7.464439e-01 8.789929e-01 5.577709e-01 1.223459e+00 2.551568e+00 2.762674e-01 9.226375e-01 5.591956e-01 9.337005e-02
<GCONST> 6.392939e+01
<STATE> 4
<MEAN> 25
 1.890834e+01 -5.344118e+00 4.920692e-01 -3.821744e+00 -1.455580e+01 -1.319534e+01 2.842520e+00 4.033395e+00 -3.051068e+00 -1.435540e+00 1.336440e+00 -3.385570e-01 -1.683106e-01 1.008398e+00 -5.866808e-02 2.462728e-01 -5.642868e-01 -1.728616e-01 4.635413e-01 -2.724183e-02 9.306712e-01 8.086597e-01 -5.889225e-01 1.627030e-01 -7.488932e-01
<VARIANCE> 25
 4.467350e+00 4.223309e+01 1.290524e+01 4.485616e+01 2.163935e+01 2.178343e+01 2.425990e+01 2.605226e+01 2.676010e+01 4.312087e+01 4.822511e+00 5.045784e+00 4.812204e-01 3.247248e+00 1.718634e+00 4.268252e+00 2.147547e+00 1.627927e+00 3.962078e+00 3.172407e+00 4.753631e+00 4.278850e+00 1.304234e+00 9.050319e-01 1.449098e+00
<GCONST> 9.016674e+01
<TRANSP> 5
 0.000000e+00 1.000000e+00 0.000000e+00 0.000000e+00 0.000000e+00
 0.000000e+00 6.800781e-01 3.199220e-01 0.000000e+00 0.000000e+00
 0.000000e+00 0.000000e+00 8.389870e-01 1.610131e-01 0.000000e+00
 0.000000e+00 0.000000e+00 0.000000e+00 9.031580e-01 9.684203e-02
 0.000000e+00 0.000000e+00 0.000000e+00 0.000000e+00 0.000000e+00
<ENDHMM>
~h "ch"
<BEGINHMM>
<NUMSTATES> 5
<STATE> 2
<MEAN> 25
 1.754323e-01 2.459561e+00 -4.333991e+00 -2.712094e+00 -3.101985e+00 -9.378971e-01 1.780446e+00 4.736285e-01 -1.306796e+00 1.016554e+00 6.477516e-01 3.204959e+00 -1.494144e+00 1.616583e+00 2.376245e-01 -8.286888e-01 5.904853e-01 1.495496e+00 4.949641e-01 -2.300783e-01 1.058692e+00 2.615103e-01 -4.891132e-01 1.274266e+00 -1.646939e+00
<VARIANCE> 25
 2.476283e+01 1.245913e+01 1.247648e+01 2.514438e+01 2.258020e+01 2.932839e+01 1.517103e+01 1.438994e+01 2.559468e+01 2.456781e+01 4.929346e+00 1.372680e+01 2.248329e+00 1.604194e+00 2.046080e+00 3.426403e+00 3.889401e+00 3.129911e+00 4.708869e-01 1.770965e+00 3.325531e+00 2.274499e+00 9.465753e-01 2.452224e+00 1.326778e+00
<GCONST> 8.866327e+01
<STATE> 3
<MEAN> 25
 -5.801301e+00 5.036291e+00 -1.635065e+00 -1.947051e+00 1.073384e+00 4.404281e+00 4.995528e-01 -1.411395e+00 3.933206e+00 3.933764e+00 -1.669348e+00 2.861585e+00 1.501372e-01 -7.747560e-02 -4.383018e-02 6.123861e-02 -4.893018e-02 -6.234396e-02 -3.467079e-02 -1.161862e-01 -1.737202e-01 -3.750913e-02 -3.077813e-02 -2.117572e-01 1.262678e-01
<VARIANCE> 25
 1.086717e+00 1.102998e+00 3.260608e+00 3.914964e+00 4.572425e+00 5.083264e+00 7.259323e+00 6.422690e+00 6.724467e+00 6.866417e+00 4.968622e+00 4.410122e+00 9.223530e-01 2.095564e-01 3.741111e-01 8.489887e-01 5.856814e-01 8.085223e-01 8.666164e-01 7.239175e-01 1.392318e+00 8.684499e-01 6.234933e-01 7.780377e-01 5.395270e-01
<GCONST> 5.742760e+01
<STATE> 4
<MEAN> 25
 1.383297e+01 -3.385279e+00 3.387828e+00 9.294708e+00 -4.189528e+00 -2.064746e+00 4.847440e+00 -1.474906e+00 -1.700532e+01 -1.049766e+01 2.298517e+00 -7.399898e+00 1.009888e+00 -7.602904e-01 2.907301e-02 -2.893116e-01 -6.066043e-01 -5.125561e-01 -3.015696e-02 2.407075e-01 -4.764248e-01 -4.638985e-01 3.019527e-01 5.824907e-02 1.168589e+00
<VARIANCE> 25
 1.370718e+01 1.273594e+01 1.579089e+01 2.608530e+01 2.447487e+01 1.085665e+01 2.164563e+01 1.394561e+01 2.355307e+01 1.817613e+01 1.488455e+01 1.286161e+01 2.022916e+00 7.503725e-01 2.208321e+00 4.447358e+00 6.084072e-01 9.675859e-01 2.244544e+00 7.351969e-01 6.159858e+00 3.727250e+00 8.826314e-01 2.371047e+00 1.557527e+00
<GCONST> 8.672463e+01
<TRANSP> 5
 0.000000e+00 1.000000e+00 0.000000e+00 0.000000e+00 0.000000e+00
 0.000000e+00 7.755880e-01 2.244121e-01 0.000000e+00 0.000000e+00
 0.000000e+00 0.000000e+00 9.635338e-01 3.646626e-02 0.000000e+00
 0.000000e+00 0.000000e+00 0.000000e+00 9.297840e-01 7.021599e-02
 0.000000e+00 0.000000e+00 0.000000e+00 0.000000e+00 0.000000e+00
<ENDHMM>
~h "eh"
<BEGINHMM>
<NUMSTATES> 5
<STATE> 2
<MEAN> 25
 4.219010e+00 6.122974e+00 9.568454e-01 2.110173e-01 -1.445640e-01 3.275880e+00 2.911293e+00 1.103834e+00 5.599743e-01 -8.104769e-01 -2.229983e+00 -1.060620e+00 1.028151e+00 1.420133e+00 9.852625e-01 1.190602e+00 1.150322e+00 7.801303e-01 7.491365e-02 -8.222126e-01 -2.291421e-01 4.057810e-01 -5.279171e-01 -1.284213e+00 3.570321e-01
<VARIANCE> 25
 9.293064e+01 4.812716e+01 3.205829e+01 2.369859e+01 4.163071e+01 3.365238e+01 2.187428e+01 1.364967e+01 2.463130e+01 4.188199e+01 6.405642e+00 3.248786e+01 4.190549e+00 2.985653e+00 3.183607e+00 1.684498e+00 4.160588e+00 5.587337e+00 2.886608e+00 3.189731e+00 5.468451e+00 1.902910e+00 1.560135e+00 6.320985e+00 3.046090e+00
<GCONST> 1.015237e+02
<STATE> 3
<MEAN> 25
 1.085139e+01 7.569813e+00 2.002171e+00 6.383214e+00 5.699628e+00 9.339098e+00 8.671149e+00 -5.746215e+00 -7.963147e+00 2.411255e+00 -7.805245e-02 -1.039052e+01 1.130555e+00 -3.810233e-01 -2.610066e-01 4.480512e-02 -1.291391e-01 -4.592558e-01 -1.244437e-01 -2.256448e-02 -6.338603e-01 -1.604640e-01 3.930581e-01 -4.696880e-01 9.717280e-01
<VARIANCE> 25
 2.679427e+01 1.825709e+01 7.560864e+00 1.569535e+01 2.158791e+01 1.849613e+01 2.641799e+01 1.444845e+01 2.438707e+01 2.730406e+01 1.116287e+01 2.098384e+01 1.984170e+00 1.175863e+00 9.201595e-01 1.513460e+00 8.724470e-01 2.279208e+00 2.457873e+00 9.456177e-01 3.498464e+00 2.149055e+00 1.468549e+00 2.870157e+00 2.137569e+00
<GCONST> 8.773260e+01
<STATE> 4
<MEAN> 25
 1.444968e+01 -4.812277e+00 2.550227e+00 5.514043e+00 3.860899e+00 -6.489623e+00 -5.993680e+00 -2.001289e+00 -1.105216e+01 -6.108740e+00 4.287295e+00 -8.347716e+00 1.239975e+00 -2.947785e+00 1.708712e+00 1.155544e+00 4.201941e-01 -3.430170e+00 -2.812682e+00 3.725830e-01 -1.509822e+00 -1.646005e+00 1.166342e+00 -8.208647e-01 2.979546e+00
<VARIANCE> 25
 1.424966e+01 4.116302e+01 2.275760e+01 2.396407e+01 3.173731e+01 5.593918e+01 6.177739e+01 1.263001e+01 3.108455e+01 1.687487e+01 2.629303e+01 1.417013e+01 4.937510e+00 3.550008e+00 2.152580e+00 1.770672e+00 1.745454e+00 3.511419e+00 4.809293e+00 9.782682e-01 7.025092e+00 2.835799e+00 2.297111e+00 3.270675e+00 4.941951e+00
<GCONST> 9.911668e+01
<TRANSP> 5
 0.000000e+00 1.000000e+00 0.000000e+00 0.000000e+00 0.000000e+00
 0.000000e+00 5.777863e-01 4.222138e-01 0.000000e+00 0.000000e+00
 0.000000e+00 0.000000e+00 8.040000e-01 1.960000e-01 0.000000e+00
 0.000000e+00 0.000000e+00 0.000000e+00 6.658508e-01 3.341492e-01
 0.000000e+00 0.000000e+00 0.000000e+00 0.000000e+00 0.000000e+00
<ENDHMM>
~h "eu"
<BEGINHMM>
<NUMSTATES> 5
<STATE> 2
<MEAN> 25
 7.209612e+00 -1.277602e-01 3.581306e-02 -2.828033e+00 -3.604646e+00 -4.937370e+00 -5.624416e-01 -3.281864e+00 -7.080426e+00 -1.278553e+00 4.048308e+00 -4.235354e-01 4.848609e+00 -2.792464e+00 3.670816e-01 -9.987077e-01 -1.749075e+00 -3.073360e+00 6.372311e-01 6.050934e-01 -3.545938e+00 -1.696155e+00 2.449491e+00 -1.087870e+00 5.671925e+00
<VARIANCE> 25
 9.137677e+01 4.156841e+01 1.458607e+01 1.766228e+01 2.334083e+01 3.608882e+01 1.859118e+01 3.623247e+01 5.613087e+01 2.073823e+01 2.893973e+01 1.881301e+01 3.456180e+00 2.157836e+00 1.220805e+00 1.337176e+00 2.577352e+00 1.676311e+00 2.189543e+00 4.087017e+00 3.741714e+00 1.892584e+00 1.185182e+00 1.247639e+00 2.598658e+00
<GCONST> 9.580683e+01
<STATE> 3
<MEAN> 25
 1.765318e+01 -9.252781e+00 1.606498e+00 -2.916537e+00 -3.046538e+00 -9.359627e+00 -1.050671e+00 -2.845090e+00 -1.726883e+01 -5.639645e+00 8.155166e+00 -3.116900e+00 1.673203e-01 8.822449e-02 -1.529246e-01 -1.138819e-01 -1.601253e-01 1.409313e-01 -8.358943e-02 1.925056e-01 5.531443e-03 1.607112e-01 -2.906551e-02 -5.929784e-02 -5.855423e-02
<VARIANCE> 25
 1.086717e+00 5.034596e+00 6.653041e+00 6.886349e+00 1.654681e+01 6.860080e+00 7.179229e+00 2.258010e+01 8.547604e+00 1.135741e+01 6.073990e+00 6.652401e+00 8.560751e-02 1.436768e+00 3.621541e-01 9.726963e-01 1.296747e+00 3.923452e-01 8.466574e-01 7.957628e-01 9.079268e-01 4.332447e-01 4.724511e-01 3.865952e-01 4.081390e-01
<GCONST> 6.182670e+01
<STATE> 4
<MEAN> 25
 9.751348e+00 -2.225591e+00 -2.386183e-01 -6.765436e-01 -2.649331e+00 -2.371589e+00 2.371135e+00 8.132243e+00 1.863657e+00 -3.643158e+00 1.307123e-01 -2.518286e+00 -6.168621e-01 2.746400e-01 -1.968175e-01 -5.450428e-02 7.432068e-02 1.931668e-01 8.447421e-02 1.797041e-01 6.885392e-01 1.154367e-01 -4.409067e-01 1.433308e-01 -6.725196e-01
<VARIANCE> 25
 5.354438e+01 1.548641e+01 2.002570e+01 7.225659e+01 9.172212e+01 4.760351e+01 6.821696e+01 1.305454e+02 1.321518e+02 2.361649e+01 3.048829e+01 2.260008e+01 1.654196e+00 1.497634e+00 1.143753e+00 2.039731e+00 2.811044e+00 2.783561e+00 3.253531e+00 3.725507e+00 3.746686e+00 2.070383e+00 2.195122e+00 1.477960e+00 9.599462e-01
<GCONST> 1.014931e+02
<TRANSP> 5
 0.000000e+00 1.000000e+00 0.000000e+00 0.000000e+00 0.000000e+00
 0.000000e+00 7.645316e-01 2.354683e-01 0.000000e+00 0.000000e+00
 0.000000e+00 0.000000e+00 9.234540e-01 7.654598e-02 0.000000e+00
 0.000000e+00 0.000000e+00 0.000000e+00 9.665529e-01 3.344712e-02
 0.000000e+00 0.000000e+00 0.000000e+00 0.000000e+00 0.000000e+00
<ENDHMM>
~h "ff"
<BEGINHMM>
<NUMSTATES> 5
<STATE> 2
<MEAN> 25
 1.582819e+01 -7.018265e+00 -4.928967e+00 -9.611873e+00 -1.348213e+01 -8.274564e+00 7.099995e+00 7.939659e+00 -5.161892e+00 -2.096290e+00 5.248416e+00 -3.969403e+00 3.658238e+00 -2.641257e+00 4.346367e-02 -1.602958e+00 -9.143085e-01 -2.032527e+00 4.185798e-01 1.485472e+00 -5.340347e-01 -1.067886e+00 1.576419e+00 -8.895603e-01 5.024243e+00
<VARIANCE> 25
 6.361107e+00 1.467334e+01 8.733762e+00 1.067038e+01 4.202812e+00 7.931550e+00 1.712822e+01 3.532578e+00 9.755304e+00 1.040429e+01 9.891727e+00 2.688875e+00 3.987490e+00 1.173050e+00 1.046723e+00 1.951446e+00 4.523361e+00 1.390393e+00 2.908077e+00 2.522736e+00 1.416331e+00 1.755774e+00 2.098826e+00 8.760968e-01 3.936604e+00
<GCONST> 7.950712e+01
<STATE> 3
<MEAN> 25
 6.863809e+00 -3.633882e+00 5.223626e+00 -1.804429e+00 4.485587e+00 -5.343640e+00 4.973579e+00 3.960357e+00 2.260138e+00 9.195059e-01 6.403296e+00 7.325139e-03 -3.973512e-01 -1.143595e-03 6.568307e-01 8.871195e-01 7.321092e-01 1.866923e-01 -1.047858e-01 -5.598785e-02 1.620227e-01 5.080907e-02 -4.607669e-02 1.312084e-01 -1.766136e-01
<VARIANCE> 25
 8.628135e+01 3.208477e+01 3.423500e+01 4.362714e+01 8.189343e+01 2.331536e+01 2.129739e+01 1.774705e+01 4.990091e+01 1.323001e+01 1.650401e+01 1.084581e+01 3.987610e+00 3.068272e+00 2.125446e+00 2.497379e+00 2.912807e+00 2.842156e+00 2.421188e+00 2.359677e+00 3.117276e+00 1.637155e+00 1.782687e+00 1.308737e+00 1.258705e+00
<GCONST> 9.708830e+01
<STATE> 4
<MEAN> 25
 4.859959e-01 -1.736924e+01 1.329000e+01 9.891436e+00 1.883571e+00 -9.303421e+00 -2.513276e+00 1.828944e+00 -6.941332e-02 -6.431897e+00 3.239153e+00 -1.976702e+00 -1.369834e-01 -6.446036e-02 -1.568040e-01 -8.643966e-02 -1.828059e-01 -5.863765e-02 -2.645213e-01 -1.750046e-01 1.768751e-02 2.010574e-02 -1.158889e-01 -7.010938e-02 -1.864899e-01
<VARIANCE> 25
 7.078702e+01 5.510368e+01 1.005211e+01 7.539918e+01 1.267863e+01 1.936299e+01 2.208245e+01 2.108582e+01 7.933447e+01 1.876805e+01 9.857127e+00 1.413291e+01 1.931013e+00 2.688838e+00 1.290616e+00 2.749683e+00 1.005904e+00 1.119704e+00 1.005469e+00 1.166498e+00 3.430497e+00 1.471368e+00 1.217899e+00 1.330417e+00 5.441414e-01
<GCONST> 8.942073e+01
<TRANSP> 5
 0.000000e+00 1.000000e+00 0.000000e+00 0.000000e+00 0.000000e+00
 0.000000e+00 6.196426e-01 3.803575e-01 0.000000e+00 0.000000e+00
 0.000000e+00 0.000000e+00 9.598439e-01 4.015601e-02 0.000000e+00
 0.000000e+00 0.000000e+00 0.000000e+00 9.754048e-01 2.459519e-02
 0.000000e+00 0.000000e+00 0.000000e+00 0.000000e+00 0.000000e+00
<ENDHMM>
~h "la"
<BEGINHMM>
<NUMSTATES> 5
<STATE> 2
<MEAN> 25
 1.427998e+01 -8.390491e+00 -3.501709e+00 -5.229189e+00 -1.007776e+01 -6.630668e+00 6.329680e+00 7.485918e+00 -5.200484e+00 -3.935203e+00 2.841724e+00 -3.488408e+00 -3.504241e-01 -5.121724e-03 -5.212026e-01 -3.651763e-01 -1.390511e-01 1.123668e-02 2.592494e-01 4.653071e-01 5.804768e-01 1.694368e-01 -1.730849e-01 1.242892e-01 -3.855016e-01
<VARIANCE> 25
 2.701531e+01 3.088308e+01 6.068108e+01 8.148808e+01 2.954166e+01 1.631022e+01 2.517620e+01 4.378539e+01 8.606377e+01 2.218688e+01 2.717109e+01 2.458592e+01 2.736813e+00 2.188814e+00 1.572946e+00 2.608812e+00 1.867186e+00 1.488412e+00 2.572842e+00 1.248700e+00 4.086675e+00 1.888374e+00 1.676424e+00 1.957171e+00 3.489914e+00
<GCONST> 9.829408e+01
<STATE> 3
<MEAN> 25
 -1.298720e+00 9.772300e-01 -7.679642e+00 -7.856777e+00 -5.907885e+00 -1.965591e-02 6.534232e+00 7.534170e+00 5.099755e+00 -9.273506e-01 -3.636835e+00 1.758814e+00 -1.020970e+00 9.852428e-01 1.205679e+00 5.592174e-01 9.742151e-01 1.031966e+00 -5.291969e-01 -1.170027e+00 -1.583953e-01 2.551133e-01 -2.991887e-01 3.298527e-02 -9.297114e-01
<VARIANCE> 25
 9.110999e+00 1.583836e+01 1.386063e+01 1.207534e+01 1.161216e+01 1.812399e+01 1.134251e+01 1.872385e+01 1.184571e+01 1.416854e+01 1.011961e+01 7.465590e+00 4.187978e-01 7.608825e-01 4.127497e-01 1.362339e+00 1.032933e+00 1.442904e+00 1.532075e+00 1.225796e+00 1.276398e+00 1.503774e+00 9.873832e-01 7.456624e-01 3.481769e-01
<GCONST> 7.479520e+01
<STATE> 4
<MEAN> 25
 -6.000649e+00 3.578653e+00 -3.174657e-01 -8.463208e-01 1.174200e+00 2.655470e+00 -4.735677e-01 -1.514651e+00 3.484886e+00 2.731000e+00 -1.620579e+00 2.054786e+00 -3.125143e-02 -8.108268e-03 4.740163e-02 6.508771e-02 5.006450e-02 -8.602937e-03 -5.344617e-02 -5.448268e-02 -2.267024e-02 3.133439e-02 4.399149e-02 1.768141e-02 -1.671693e-02
<VARIANCE> 25
 1.317285e+00 2.601080e+00 3.153125e+00 4.438643e+00 4.634429e+00 5.365597e+00 6.611605e+00 7.290790e+00 5.565836e+00 6.858080e+00 6.407263e+00 5.999231e+00 5.312242e-02 1.178529e-01 2.147792e-01 3.722623e-01 4.330143e-01 4.532455e-01 6.189889e-01 6.143234e-01 5.894383e-01 6.908976e-01 6.651512e-01 5.922233e-01 1.891393e-02
<GCONST> 4.820447e+01
<TRANSP> 5
 0.000000e+00 1.000000e+00 0.000000e+00 0.000000e+00 0.000000e+00
 0.000000e+00 9.572949e-01 4.270514e-02 0.000000e+00 0.000000e+00
 0.000000e+00 0.000000e+00 8.781144e-01 1.218856e-01 0.000000e+00
 0.000000e+00 0.000000e+00 0.000000e+00 9.825692e-01 1.743083e-02
 0.000000e+00 0.000000e+00 0.000000e+00 0.000000e+00 0.000000e+00
<ENDHMM>
~h "lu"
<BEGINHMM>
<NUMSTATES> 5
<STATE> 2
<MEAN> 25
 -3.184504e+00 2.164472e+00 9.775412e-02 -2.127720e+00 -8.165123e-01 1.835894e-01 -1.487898e+00 -1.657735e+00 3.327109e+00 3.148453e+00 1.460258e-01 1.755701e+00 1.015078e+00 2.184648e-01 4.447213e-01 1.138204e+00 1.287035e+00 6.739033e-01 -3.406790e-01 -9.170478e-01 -1.389163e+00 -6.503622e-01 -8.274561e-02 -9.236717e-01 7.184153e-01
<VARIANCE> 25
 5.537291e+01 2.988774e+01 2.808562e+00 8.225725e+00 1.628178e+01 2.800553e+01 6.354930e+00 5.970493e+00 3.318009e+01 1.169376e+01 2.227273e+01 8.858183e+00 4.105076e+00 6.407080e-01 5.024839e-01 1.567988e+00 2.754508e+00 2.587354e+00 1.145336e+00 1.656940e+00 2.977396e+00 1.506261e+00 6.673616e-01 1.423595e+00 2.076847e+00
<GCONST> 8.301610e+01
<STATE> 3
<MEAN> 25
 1.263478e+01 -3.716445e+00 2.560991e+00 4.281841e+00 4.360842e+00 -3.296566e+00 -5.179009e+00 -5.478896e+00 -1.068921e+01 -3.226382e+00 4.660295e+00 -5.466488e+00 1.793085e+00 4.106813e-01 2.108408e-01 2.599913e+00 3.148540e+00 1.811344e+00 -6.459154e-01 -7.706460e-01 -1.585186e+00 -2.030603e+00 -3.904819e-01 -1.146905e+00 1.042573e+00
<VARIANCE> 25
 2.199038e+01 9.221989e+01 5.630406e+00 2.693267e+01 6.874240e+01 1.423482e+02 2.276422e+01 1.931745e+01 2.323492e+01 1.716275e+01 4.336319e+01 8.278915e+00 5.569387e+00 2.029180e+00 7.855600e-01 9.278566e-01 2.530779e+00 3.639878e+00 1.739713e+00 1.545142e+00 6.382794e+00 1.231058e+00 3.833098e+00 1.344460e+00 5.543976e+00
<GCONST> 9.646164e+01
<STATE> 4
<MEAN> 25
 1.328883e+01 -1.445575e+00 2.310796e+00 9.872861e+00 1.090631e+01 4.101500e+00 -2.378383e+00 -2.474368e+00 -6.879668e+00 -5.241939e+00 2.501195e+00 -4.971097e+00 1.181284e-01 -4.466218e-02 -7.116074e-02 -2.622798e-01 -2.925787e-01 -1.062529e-01 2.765312e-01 2.287638e-01 1.197553e-01 4.138023e-02 7.753922e-03 1.808724e-01 1.579072e-01
<VARIANCE> 25
 5.884699e+00 3.219947e+01 1.468066e+01 2.129397e+01 5.562337e+01 3.000169e+01 3.951168e+01 2.403856e+01 4.461900e+01 3.067424e+01 1.898923e+01 2.513448e+01 4.390457e-01 1.817082e+00 9.819161e-01 2.164843e+00 2.064041e+00 2.422551e+00 2.855513e+00 2.071694e+00 2.496397e+00 2.926839e+00 1.589480e+00 2.166517e+00 1.059430e+00
<GCONST> 9.180031e+01
<TRANSP> 5
 0.000000e+00 1.000000e+00 0.000000e+00 0.000000e+00 0.000000e+00
 0.000000e+00 7.027274e-01 2.972727e-01 0.000000e+00 0.000000e+00
 0.000000e+00 0.000000e+00 6.503755e-01 3.496246e-01 0.000000e+00
 0.000000e+00 0.000000e+00 0.000000e+00 9.616523e-01 3.834773e-02
 0.000000e+00 0.000000e+00 0.000000e+00 0.000000e+00 0.000000e+00
<ENDHMM>
~h "sp"
<BEGINHMM>
<NUMSTATES> 3
<STATE> 2
~s "silst"
<TRANSP> 3
 0.000000e+00 1.519804e-01 8.480197e-01
 0.000000e+00 6.033453e-01 3.966547e-01
 0.000000e+00 0.000000e+00 0.000000e+00
<ENDHMM>
~h "ein"
<BEGINHMM>
<NUMSTATES> 5
<STATE> 2
<MEAN> 25
 7.159456e+00 3.438850e+00 -7.893073e+00 -1.098547e+01 -1.304569e+01 -4.140243e+00 1.016163e+01 9.266839e+00 -6.737425e-01 -2.084648e+00 -4.615840e-01 1.002494e+00 -2.483598e+00 1.933107e-01 1.491193e-03 9.685528e-02 1.089260e+00 9.653065e-01 -1.170889e-01 1.323023e-01 1.832821e+00 7.944437e-01 -7.741528e-01 4.865875e-01 -2.011714e+00
<VARIANCE> 25
 2.697277e+01 8.920466e+00 8.522635e+00 2.843386e+01 1.817684e+01 1.065756e+01 1.887409e+01 1.741765e+01 2.372534e+01 1.248924e+01 8.006937e+00 1.064093e+01 2.455752e+00 1.187518e+00 9.179048e-01 1.878256e+00 2.819654e+00 1.749814e+00 1.471555e+00 1.090723e+00 3.030518e+00 1.881524e+00 1.408308e+00 1.140588e+00 1.781292e+00
<GCONST> 8.459487e+01
<STATE> 3
<MEAN> 25
 -2.653044e+00 3.405075e+00 -5.326505e+00 -8.957543e+00 -5.790357e+00 1.340719e+00 5.437060e+00 5.065161e+00 5.252941e+00 2.210431e-01 -4.959481e+00 5.491860e-04 -8.516070e-01 1.418448e-02 9.075620e-01 1.324294e+00 1.500371e+00 6.700834e-01 -6.456022e-01 -7.319326e-01 7.882437e-02 2.382943e-01 -8.092189e-02 -1.817424e-01 -5.144851e-01
<VARIANCE> 25
 3.243102e+00 1.144215e+00 6.488634e+00 1.212339e+01 1.468832e+01 6.556159e+00 7.339603e+00 8.203378e+00 7.167091e+00 7.599743e+00 4.913509e+00 6.472322e+00 3.401396e-01 1.825973e-01 3.483550e-01 7.407170e-01 7.947439e-01 7.034564e-01 6.809782e-01 6.752744e-01 4.696971e-01 6.868520e-01 7.700796e-01 8.180087e-01 1.078930e-01
<GCONST> 5.843385e+01
<STATE> 4
<MEAN> 25
 -6.224127e+00 3.310944e+00 -2.697217e-01 -1.050723e+00 1.047526e+00 2.652401e+00 4.800061e-02 -1.410349e+00 4.118481e+00 2.846666e+00 -2.317879e+00 2.332241e+00 -3.402832e-02 -2.437338e-02 4.386299e-02 7.879175e-02 4.570431e-02 -1.114647e-02 -6.141210e-02 -7.016176e-02 -3.994469e-02 1.117646e-02 5.617104e-02 3.002808e-02 -1.418325e-02
<VARIANCE> 25
 1.086717e+00 2.273209e+00 2.218831e+00 4.220342e+00 4.737390e+00 4.342868e+00 6.583409e+00 7.820302e+00 6.794881e+00 6.337530e+00 7.496688e+00 5.686978e+00 4.037644e-02 1.216989e-01 1.967837e-01 3.056765e-01 3.631450e-01 4.820197e-01 6.324734e-01 7.849307e-01 7.706439e-01 6.572928e-01 6.259665e-01 6.940756e-01 1.891393e-02
<GCONST> 4.751754e+01
<TRANSP> 5
 0.000000e+00 1.000000e+00 0.000000e+00 0.000000e+00 0.000000e+00
 0.000000e+00 8.291658e-01 1.708342e-01 0.000000e+00 0.000000e+00
 0.000000e+00 0.000000e+00 8.398564e-01 1.601436e-01 0.000000e+00
 0.000000e+00 0.000000e+00 0.000000e+00 9.781539e-01 2.184611e-02
 0.000000e+00 0.000000e+00 0.000000e+00 0.000000e+00 0.000000e+00
<ENDHMM>
~h "sil"
<BEGINHMM>
<NUMSTATES> 5
<STATE> 2
<MEAN> 25
 -2.425659e+01 -1.818551e+00 -9.240664e+00 3.094792e+00 -6.263664e-01 5.382346e+00 -1.127719e+01 -5.749416e+00 -2.186795e+00 3.499365e+00 8.790920e-01 2.623593e+00 6.060854e-03 -1.469032e-02 2.193818e-02 1.144478e-02 1.677213e-02 6.914322e-04 -1.478254e-02 1.140751e-01 3.220551e-02 -2.159081e-02 -1.489491e-02 1.066552e-02 -3.969805e-03
<VARIANCE> 25
 3.708016e+01 4.180665e+00 1.353064e+01 4.236651e+00 2.921611e+00 4.250842e+00 1.853452e+01 6.951233e+00 7.586257e+00 6.041298e+00 4.621205e+00 4.168631e+00 3.194345e-02 6.395732e-02 1.411355e-01 3.363249e-01 3.333682e-01 2.425459e-01 4.149461e-01 5.207713e-01 6.324573e-01 7.443144e-01 5.016243e-01 4.932829e-01 1.891393e-02
<GCONST> 4.979419e+01
<STATE> 3
~s "silst"
<STATE> 4
<MEAN> 25
 -4.887526e+00 1.912991e+00 -6.841677e-01 -1.382788e+00 -6.951867e-03 1.582481e+00 3.239382e-01 -6.891296e-01 2.897054e+00 1.954127e+00 -1.116429e+00 2.316425e+00 -1.954897e-02 2.328049e-02 2.431729e-02 1.686555e-02 2.931147e-02 1.780083e-04 -2.604567e-03 1.214462e-02 5.750498e-02 2.366855e-02 -1.174800e-02 2.971640e-03 -7.646870e-03
<VARIANCE> 25
 2.187606e+01 1.577244e+01 8.055245e+00 9.029576e+00 8.511405e+00 1.587014e+01 1.057288e+01 2.795410e+01 2.157442e+01 1.286897e+01 1.057920e+01 8.355371e+00 2.548670e-01 8.738974e-01 4.455966e-01 7.522241e-01 7.087203e-01 7.884489e-01 1.061508e+00 1.422525e+00 1.017581e+00 8.662344e-01 7.583895e-01 8.244114e-01 2.486636e-01
<GCONST> 7.202804e+01
<TRANSP> 5
 0.000000e+00 1.000000e+00 0.000000e+00 0.000000e+00 0.000000e+00
 0.000000e+00 8.035778e-01 9.523781e-02 1.011844e-01 0.000000e+00
 0.000000e+00 0.000000e+00 7.748957e-01 2.251043e-01 0.000000e+00
 0.000000e+00 1.376382e-03 0.000000e+00 9.545812e-01 4.404240e-02
 0.000000e+00 0.000000e+00 0.000000e+00 0.000000e+00 0.000000e+00
<ENDHMM>
