~o
<STREAMINFO> 1 25
<VECSIZE> 25<NULLD><MFCC_D_N_Z_0><DIAGC>
~t "T_ein"
<TRANSP> 5
 0.000000e+00 1.000000e+00 0.000000e+00 0.000000e+00 0.000000e+00
 0.000000e+00 8.729106e-01 1.270894e-01 0.000000e+00 0.000000e+00
 0.000000e+00 0.000000e+00 8.902411e-01 1.097589e-01 0.000000e+00
 0.000000e+00 0.000000e+00 0.000000e+00 9.764614e-01 2.353860e-02
 0.000000e+00 0.000000e+00 0.000000e+00 0.000000e+00 0.000000e+00
~t "T_a"
<TRANSP> 5
 0.000000e+00 1.000000e+00 0.000000e+00 0.000000e+00 0.000000e+00
 0.000000e+00 9.590129e-01 4.098718e-02 0.000000e+00 0.000000e+00
 0.000000e+00 0.000000e+00 5.174422e-01 4.825578e-01 0.000000e+00
 0.000000e+00 0.000000e+00 0.000000e+00 9.089121e-01 9.108786e-02
 0.000000e+00 0.000000e+00 0.000000e+00 0.000000e+00 0.000000e+00
~t "T_i"
<TRANSP> 5
 0.000000e+00 1.000000e+00 0.000000e+00 0.000000e+00 0.000000e+00
 0.000000e+00 8.004346e-01 1.995654e-01 0.000000e+00 0.000000e+00
 0.000000e+00 0.000000e+00 8.675958e-01 1.324042e-01 0.000000e+00
 0.000000e+00 0.000000e+00 0.000000e+00 8.517073e-01 1.482927e-01
 0.000000e+00 0.000000e+00 0.000000e+00 0.000000e+00 0.000000e+00
~t "T_l"
<TRANSP> 5
 0.000000e+00 1.000000e+00 0.000000e+00 0.000000e+00 0.000000e+00
 0.000000e+00 9.641630e-01 3.583700e-02 0.000000e+00 0.000000e+00
 0.000000e+00 0.000000e+00 8.124067e-01 1.875933e-01 0.000000e+00
 0.000000e+00 0.000000e+00 0.000000e+00 8.888782e-01 1.111218e-01
 0.000000e+00 0.000000e+00 0.000000e+00 0.000000e+00 0.000000e+00
~t "T_m"
<TRANSP> 5
 0.000000e+00 1.000000e+00 0.000000e+00 0.000000e+00 0.000000e+00
 0.000000e+00 8.492635e-01 1.507365e-01 0.000000e+00 0.000000e+00
 0.000000e+00 0.000000e+00 8.861704e-01 1.138296e-01 0.000000e+00
 0.000000e+00 0.000000e+00 0.000000e+00 8.530348e-01 1.469653e-01
 0.000000e+00 0.000000e+00 0.000000e+00 0.000000e+00 0.000000e+00
~t "T_o"
<TRANSP> 5
 0.000000e+00 1.000000e+00 0.000000e+00 0.000000e+00 0.000000e+00
 0.000000e+00 9.279949e-01 7.200509e-02 0.000000e+00 0.000000e+00
 0.000000e+00 0.000000e+00 8.397827e-01 1.602173e-01 0.000000e+00
 0.000000e+00 0.000000e+00 0.000000e+00 9.811901e-01 1.880994e-02
 0.000000e+00 0.000000e+00 0.000000e+00 0.000000e+00 0.000000e+00
~t "T_p"
<TRANSP> 5
 0.000000e+00 1.000000e+00 0.000000e+00 0.000000e+00 0.000000e+00
 0.000000e+00 7.486109e-01 2.513891e-01 0.000000e+00 0.000000e+00
 0.000000e+00 0.000000e+00 6.717513e-01 3.282487e-01 0.000000e+00
 0.000000e+00 0.000000e+00 0.000000e+00 9.593968e-01 4.060322e-02
 0.000000e+00 0.000000e+00 0.000000e+00 0.000000e+00 0.000000e+00
~t "T_r"
<TRANSP> 5
 0.000000e+00 1.000000e+00 0.000000e+00 0.000000e+00 0.000000e+00
 0.000000e+00 7.144806e-01 2.855194e-01 0.000000e+00 0.000000e+00
 0.000000e+00 0.000000e+00 8.671306e-01 1.328694e-01 0.000000e+00
 0.000000e+00 0.000000e+00 0.000000e+00 9.847227e-01 1.527725e-02
 0.000000e+00 0.000000e+00 0.000000e+00 0.000000e+00 0.000000e+00
~t "T_t"
<TRANSP> 5
 0.000000e+00 1.000000e+00 0.000000e+00 0.000000e+00 0.000000e+00
 0.000000e+00 9.261875e-01 7.381252e-02 0.000000e+00 0.000000e+00
 0.000000e+00 0.000000e+00 8.651848e-01 1.348152e-01 0.000000e+00
 0.000000e+00 0.000000e+00 0.000000e+00 8.838727e-01 1.161272e-01
 0.000000e+00 0.000000e+00 0.000000e+00 0.000000e+00 0.000000e+00
~t "T_ai"
<TRANSP> 5
 0.000000e+00 1.000000e+00 0.000000e+00 0.000000e+00 0.000000e+00
 0.000000e+00 8.536582e-01 1.463418e-01 0.000000e+00 0.000000e+00
 0.000000e+00 0.000000e+00 7.611938e-01 2.388063e-01 0.000000e+00
 0.000000e+00 0.000000e+00 0.000000e+00 7.378594e-01 2.621406e-01
 0.000000e+00 0.000000e+00 0.000000e+00 0.000000e+00 0.000000e+00
~t "T_am"
<TRANSP> 5
 0.000000e+00 1.000000e+00 0.000000e+00 0.000000e+00 0.000000e+00
 0.000000e+00 7.000753e-01 2.999246e-01 0.000000e+00 0.000000e+00
 0.000000e+00 0.000000e+00 8.125032e-01 1.874968e-01 0.000000e+00
 0.000000e+00 0.000000e+00 0.000000e+00 9.064368e-01 9.356326e-02
 0.000000e+00 0.000000e+00 0.000000e+00 0.000000e+00 0.000000e+00
~t "T_ch"
<TRANSP> 5
 0.000000e+00 1.000000e+00 0.000000e+00 0.000000e+00 0.000000e+00
 0.000000e+00 7.877223e-01 2.122777e-01 0.000000e+00 0.000000e+00
 0.000000e+00 0.000000e+00 9.613999e-01 3.860009e-02 0.000000e+00
 0.000000e+00 0.000000e+00 0.000000e+00 9.310856e-01 6.891432e-02
 0.000000e+00 0.000000e+00 0.000000e+00 0.000000e+00 0.000000e+00
~t "T_eh"
<TRANSP> 5
 0.000000e+00 1.000000e+00 0.000000e+00 0.000000e+00 0.000000e+00
 0.000000e+00 6.361888e-01 3.638112e-01 0.000000e+00 0.000000e+00
 0.000000e+00 0.000000e+00 8.130105e-01 1.869895e-01 0.000000e+00
 0.000000e+00 0.000000e+00 0.000000e+00 8.451364e-01 1.548636e-01
 0.000000e+00 0.000000e+00 0.000000e+00 0.000000e+00 0.000000e+00
~t "T_eu"
<TRANSP> 5
 0.000000e+00 1.000000e+00 0.000000e+00 0.000000e+00 0.000000e+00
 0.000000e+00 7.775571e-01 2.224429e-01 0.000000e+00 0.000000e+00
 0.000000e+00 0.000000e+00 9.428656e-01 5.713434e-02 0.000000e+00
 0.000000e+00 0.000000e+00 0.000000e+00 9.575378e-01 4.246226e-02
 0.000000e+00 0.000000e+00 0.000000e+00 0.000000e+00 0.000000e+00
~t "T_ff"
<TRANSP> 5
 0.000000e+00 1.000000e+00 0.000000e+00 0.000000e+00 0.000000e+00
 0.000000e+00 8.352963e-01 1.647037e-01 0.000000e+00 0.000000e+00
 0.000000e+00 0.000000e+00 9.532688e-01 4.673122e-02 0.000000e+00
 0.000000e+00 0.000000e+00 0.000000e+00 9.742085e-01 2.579151e-02
 0.000000e+00 0.000000e+00 0.000000e+00 0.000000e+00 0.000000e+00
~t "T_lu"
<TRANSP> 5
 0.000000e+00 1.000000e+00 0.000000e+00 0.000000e+00 0.000000e+00
 0.000000e+00 7.027052e-01 2.972948e-01 0.000000e+00 0.000000e+00
 0.000000e+00 0.000000e+00 7.307727e-01 2.692272e-01 0.000000e+00
 0.000000e+00 0.000000e+00 0.000000e+00 9.618499e-01 3.815008e-02
 0.000000e+00 0.000000e+00 0.000000e+00 0.000000e+00 0.000000e+00
~s "ST_ff_2_1"
<MEAN> 25
 1.742670e+01 -7.715038e+00 -3.271965e+00 -1.109064e+01 -1.050854e+01 -8.999205e+00 4.308390e+00 6.466411e+00 -5.081471e+00 -2.334918e+00 7.004760e+00 -2.988929e+00 2.310201e-01 5.945512e-01 1.110580e+00 1.828155e-01 1.098534e+00 -2.305740e-01 -9.550306e-01 -8.377560e-01 -1.953475e-01 2.915023e-01 3.582021e-01 1.870118e-01 4.628226e-01
<VARIANCE> 25
 2.004683e+00 1.308433e+01 6.753621e+00 3.201915e+00 1.075717e+01 3.903123e+00 1.422180e+01 7.791300e+00 5.591804e+00 8.199623e+00 1.429046e+01 5.163563e+00 8.708829e-01 2.354717e+00 1.187436e+00 1.432747e+00 7.686742e-01 6.717177e-01 9.959246e-01 9.641215e-01 6.188847e-01 9.480679e-01 6.374131e-01 8.916733e-01 2.552129e+00
<GCONST> 6.924612e+01
~s "ST_ff_3_1"
<MEAN> 25
 4.502332e+00 -3.138143e+00 7.571043e+00 1.529239e+00 7.761306e+00 -4.567854e+00 5.043444e+00 3.656954e+00 3.716214e+00 1.475196e+00 6.259197e+00 4.901946e-01 -3.448897e-01 -2.624970e-01 5.332302e-01 1.199648e+00 5.624618e-01 1.944209e-01 8.867038e-02 1.690256e-01 5.009102e-02 -1.782117e-01 -1.384095e-01 -1.502277e-02 -1.800550e-01
<VARIANCE> 25
 6.941913e+01 3.301810e+01 2.151529e+01 3.887209e+01 3.762400e+01 2.284010e+01 2.225174e+01 1.893356e+01 4.565522e+01 1.228849e+01 1.560924e+01 9.978828e+00 5.026153e+00 2.999458e+00 2.369947e+00 3.026818e+00 3.437811e+00 3.283780e+00 2.473325e+00 2.444902e+00 4.600565e+00 2.100300e+00 2.037828e+00 1.510841e+00 1.331648e+00
<GCONST> 9.717690e+01
~s "ST_ff_4_1"
<MEAN> 25
 1.852315e-01 -1.771522e+01 1.341446e+01 9.694505e+00 1.790255e+00 -9.422060e+00 -2.588505e+00 1.684338e+00 -1.711247e-02 -6.703625e+00 3.167066e+00 -1.972573e+00 -2.107421e-01 -1.291996e-01 -1.726559e-01 -2.413226e-01 -1.725876e-01 -6.633688e-02 -2.725585e-01 -1.879921e-01 1.663209e-01 1.015914e-01 -9.526251e-02 -6.674745e-03 -1.522501e-01
<VARIANCE> 25
 7.079010e+01 5.457217e+01 9.441955e+00 7.707972e+01 1.244183e+01 1.977036e+01 2.119220e+01 2.047919e+01 8.138653e+01 1.753121e+01 9.668221e+00 1.454034e+01 1.761055e+00 2.452873e+00 1.142502e+00 2.268855e+00 9.460767e-01 1.108924e+00 9.909812e-01 1.117933e+00 2.913390e+00 1.276258e+00 1.219163e+00 1.264365e+00 4.766293e-01
<GCONST> 8.815446e+01
~s "ST_i_2_1"
<MEAN> 25
 1.088220e+01 -8.160680e+00 1.374577e+01 1.254479e+01 -5.337238e-01 -1.325338e+01 -1.256172e+00 3.528033e+00 -7.565608e+00 -7.066885e+00 1.037281e-01 -8.082820e+00 1.847451e-01 -2.551463e-01 -2.351923e-01 -9.775589e-01 -3.088395e-02 -3.547467e-01 -1.062867e+00 -6.767722e-01 -1.286023e+00 -1.762759e-01 1.138819e+00 6.877406e-01 3.324135e-01
<VARIANCE> 25
 1.346435e+01 2.480238e+01 2.232540e+01 1.857922e+01 1.457021e+01 2.158899e+01 3.816024e+01 2.922998e+01 2.476096e+01 1.301483e+01 1.939709e+01 1.940619e+01 7.440337e-01 3.480255e+00 5.145419e+00 1.511182e+00 2.118524e+00 2.260344e+00 3.185952e+00 1.898860e+00 7.935560e-01 6.930167e-01 8.626780e-01 1.016271e+00 1.377780e+00
<GCONST> 8.821955e+01
~s "ST_i_3_1"
<MEAN> 25
 1.537210e+01 -8.094637e+00 2.414912e+00 1.184484e+00 -2.199850e+00 -1.388389e+01 -9.329693e+00 -2.094936e+00 -1.197576e+01 1.450510e-02 8.435399e+00 -6.314108e+00 1.898120e-02 6.871170e-01 -1.055166e+00 -6.648532e-01 -4.071912e-01 6.618903e-01 2.018077e-01 3.612962e-02 9.776561e-01 9.442959e-01 4.275380e-02 -2.089607e-02 -6.385233e-01
<VARIANCE> 25
 1.298772e+01 2.572700e+01 2.060335e+01 1.531621e+01 2.346157e+01 1.589662e+01 9.699154e+00 6.320734e+00 3.025857e+01 4.529145e+01 1.178292e+01 1.233169e+01 3.738710e-01 1.196320e+00 8.933313e-01 6.242485e-01 1.352899e+00 1.202564e+00 1.353900e+00 8.898317e-01 1.627786e+00 9.546778e-01 9.549113e-01 7.767097e-01 4.384561e-01
<GCONST> 7.835381e+01
~s "ST_i_4_1"
<MEAN> 25
 6.478796e+00 -5.631877e+00 -6.282017e+00 -2.973279e+00 -5.433519e-01 -9.469489e-01 -4.830264e-01 6.062788e+00 3.913971e+00 -1.777841e+00 -9.912997e-01 -1.684932e+00 -9.398506e-01 1.025283e-01 -8.116782e-01 -8.463014e-01 -2.784876e-02 8.227342e-01 1.225519e+00 8.136384e-01 4.310630e-01 -7.160729e-01 -7.013676e-01 8.242575e-01 -8.812635e-01
<VARIANCE> 25
 3.065204e+01 3.292043e+01 1.913699e+01 3.736864e+01 1.645316e+01 1.853482e+01 3.016921e+01 4.755429e+01 2.522481e+01 4.302921e+01 3.474058e+01 1.978123e+01 2.549024e+00 4.428030e+00 1.548381e+00 3.151007e+00 2.796724e+00 3.006554e+00 3.343603e+00 4.351733e+00 1.973260e+00 3.346104e+00 1.630320e+00 2.256046e+00 1.087476e+00
<GCONST> 9.803657e+01
~s "ST_l_2_1"
<MEAN> 25
 -5.967241e+00 2.277138e+00 -3.576315e-01 -5.450400e-01 1.687970e+00 1.634394e+00 -5.094523e-01 -1.651071e-01 3.945276e+00 2.227163e+00 -1.725794e+00 1.205718e+00 -2.892119e-02 -1.943059e-02 -7.475196e-03 1.519443e-02 1.691411e-02 2.508179e-02 -1.306560e-02 -2.176907e-02 -3.574624e-02 -3.480385e-02 -7.228415e-03 -2.565387e-02 -2.394693e-02
<VARIANCE> 25
 1.086717e+00 1.963058e+00 1.744551e+00 4.784570e+00 3.229839e+00 3.729269e+00 7.260445e+00 8.273508e+00 5.465363e+00 6.420397e+00 3.239679e+00 4.272015e+00 6.971224e-02 1.412543e-01 1.644595e-01 2.888627e-01 2.909581e-01 4.095494e-01 6.709446e-01 7.248276e-01 5.948259e-01 6.498582e-01 3.400714e-01 5.234722e-01 1.920540e-02
<GCONST> 4.445155e+01
~s "ST_l_3_1"
<MEAN> 25
 -5.833097e+00 3.289682e+00 6.970943e-01 1.048390e+00 1.650678e+00 9.387909e-01 -8.838888e-01 -1.033784e+00 2.214159e+00 2.048445e+00 -1.588273e+00 9.949191e-01 1.900588e+00 1.187819e-01 5.552405e-01 1.128846e+00 3.512029e-01 8.790617e-02 2.449636e-01 -8.849187e-01 -1.773955e+00 -9.487679e-01 1.234826e-01 -7.531738e-01 1.453445e+00
<VARIANCE> 25
 9.812007e+00 8.381635e+00 3.024860e+00 9.000158e+00 6.773308e+00 1.132829e+01 3.815833e+00 8.081206e+00 1.005186e+01 1.209839e+01 9.252794e+00 1.030147e+01 5.187615e+00 1.031211e+00 5.208020e-01 3.540891e+00 1.443576e+00 2.240511e+00 1.019355e+00 2.575166e+00 6.990450e+00 2.921959e+00 1.013207e+00 3.201930e+00 3.302832e+00
<GCONST> 8.060408e+01
~s "ST_l_4_1"
<MEAN> 25
 1.544713e+01 -3.914865e+00 4.251862e+00 9.737821e+00 5.782590e+00 6.103627e+00 8.745594e-01 -7.910696e+00 -1.341727e+01 -6.554920e+00 3.559931e+00 -5.936445e+00 1.129274e+00 -9.050527e-01 2.328641e-02 4.211673e-01 -4.146715e-01 -1.738232e-01 4.675334e-01 1.092409e-01 -9.466394e-01 -4.684778e-01 2.453453e-01 -3.242973e-01 1.207851e+00
<VARIANCE> 25
 1.328642e+01 1.477829e+01 3.507381e+00 5.514110e+00 6.739005e+00 2.111698e+01 8.565998e+00 8.752859e+00 8.089751e+00 5.164073e+00 9.641813e+00 1.171014e+01 2.980249e+00 9.928913e-01 1.056147e+00 1.652696e+00 6.594760e-01 1.929506e+00 1.270823e+00 8.414207e-01 4.722684e+00 1.706731e+00 1.622467e+00 1.043867e+00 2.537396e+00
<GCONST> 7.741790e+01
~s "ST_o_2_1"
<MEAN> 25
 1.668060e+01 1.582877e+00 4.455075e+00 2.337874e+00 -1.449749e+01 -1.551444e+01 -3.332322e+00 2.691124e+00 -1.179224e-01 -4.132617e+00 -2.983006e+00 -9.069034e+00 -4.430017e-01 5.923851e-01 5.281951e-02 6.439758e-02 -1.128802e-01 -5.721808e-01 -3.453598e-01 -2.428611e-01 -1.149501e-01 4.514588e-01 3.787327e-02 4.880163e-02 -5.990326e-01
<VARIANCE> 25
 5.786624e+00 1.769342e+01 1.014528e+01 8.087273e+00 6.605830e+00 1.845468e+01 8.626752e+00 5.285368e+00 9.303189e+00 1.096787e+01 6.945428e+00 1.072458e+01 4.613238e-01 7.351699e-01 7.365144e-01 7.492204e-01 5.246571e-01 7.071557e-01 3.680134e-01 3.583674e-01 7.969126e-01 1.175590e+00 4.181694e-01 5.019895e-01 4.998474e-01
<GCONST> 6.552904e+01
~s "ST_o_3_1"
<MEAN> 25
 1.353957e+00 9.091838e+00 2.428247e+00 -1.003230e+00 -4.072176e+00 -3.499980e+00 -1.586531e+00 -9.809116e-01 2.622952e+00 2.214999e+00 -3.237962e+00 -2.129541e+00 -2.353298e+00 -5.975462e-01 -4.550140e-01 -6.845044e-02 2.181590e+00 2.757723e+00 6.649379e-01 -8.097278e-03 1.235357e+00 1.098274e+00 5.745111e-01 1.900723e+00 -1.614512e+00
<VARIANCE> 25
 3.127637e+01 9.687787e+00 7.260741e+00 9.021404e+00 6.339898e+01 9.910757e+01 2.986760e+01 1.317572e+01 1.837021e+01 2.072247e+01 1.798851e+01 3.477533e+01 1.140202e+00 1.518757e+00 8.095177e-01 1.635045e+00 2.951242e+00 3.961998e+00 1.320316e+00 1.131495e+00 1.605851e+00 1.394259e+00 1.243013e+00 1.026796e+00 7.908858e-01
<GCONST> 8.744936e+01
~s "ST_o_4_1"
<MEAN> 25
 -6.509857e+00 3.528355e+00 -7.474325e-01 -6.039993e-01 1.776277e+00 3.014533e+00 -3.549688e-01 -1.392544e+00 3.684978e+00 2.933425e+00 -1.764427e+00 3.331028e+00 -2.429574e-02 -2.881472e-02 -2.497002e-02 -1.910063e-02 3.221124e-03 1.871570e-02 2.366896e-02 1.224977e-02 -3.970301e-04 -6.451362e-03 -6.808545e-03 -3.596623e-03 -8.921769e-03
<VARIANCE> 25
 1.086717e+00 1.563151e+00 2.384284e+00 2.751799e+00 4.495222e+00 4.515242e+00 7.320058e+00 6.200066e+00 6.540817e+00 6.327974e+00 5.653618e+00 6.603636e+00 5.539684e-02 1.624970e-01 2.113918e-01 3.252689e-01 4.148227e-01 5.121110e-01 8.014694e-01 6.469610e-01 6.955250e-01 6.779165e-01 6.543728e-01 7.247154e-01 1.891393e-02
<GCONST> 4.746745e+01
~s "ST_r_2_1"
<MEAN> 25
 -3.261007e+00 3.387404e+00 -3.902356e+00 -5.925815e+00 -3.290995e+00 1.198358e+00 2.667607e+00 3.395847e+00 5.449382e+00 1.750125e+00 -2.947806e+00 1.902028e+00 -7.959223e-01 2.136436e-01 1.085734e+00 1.064044e+00 9.103855e-01 6.788035e-01 -5.890387e-01 -1.233300e+00 -6.826748e-01 4.165048e-01 5.790325e-01 1.453303e-01 -5.335586e-01
<VARIANCE> 25
 4.045491e+00 2.815781e+00 8.304130e+00 6.163376e+00 1.009632e+01 1.274472e+01 8.895914e+00 1.684293e+01 1.476929e+01 6.397509e+00 5.313786e+00 5.074017e+00 2.427851e-01 6.614613e-01 5.066805e-01 1.692929e+00 8.854845e-01 8.218154e-01 1.440553e+00 5.872773e-01 1.006803e+00 5.319046e-01 1.077935e+00 5.481946e-01 7.543647e-02
<GCONST> 6.382240e+01
~s "ST_r_3_1"
<MEAN> 25
 -5.616642e+00 2.326644e+00 -3.028271e-01 -1.089454e-01 -3.487753e-01 1.916550e+00 6.705613e-01 -1.300598e+00 2.108337e+00 2.724292e+00 8.882567e-02 2.176107e+00 -1.251001e-01 1.403356e-02 1.591798e-01 2.293310e-01 1.569326e-01 5.850322e-02 -1.772761e-01 -3.080820e-01 -1.685764e-01 -9.599717e-02 1.047747e-02 -1.031462e-01 -8.115042e-02
<VARIANCE> 25
 1.086717e+00 9.035970e+00 4.285475e+00 2.359574e+01 3.459914e+00 1.038696e+01 1.061461e+01 7.671468e+00 1.004619e+01 5.476356e+00 6.784252e+00 6.179991e+00 6.705918e-02 7.091641e-01 3.240704e-01 1.475589e+00 4.511043e-01 1.176110e+00 6.859334e-01 6.160871e-01 1.074159e+00 7.135674e-01 6.388091e-01 7.308434e-01 7.699052e-02
<GCONST> 5.970220e+01
~s "ST_r_4_1"
<MEAN> 25
 -6.435308e+00 4.026518e+00 -1.246405e-01 -6.787131e-01 1.247259e+00 2.937567e+00 -1.119344e+00 -2.555006e+00 3.361789e+00 2.948012e+00 -1.897896e+00 2.354568e+00 -6.458815e-03 -7.316119e-03 6.013358e-05 3.644249e-03 8.471170e-03 -3.707750e-03 -1.387929e-02 -1.550955e-02 -4.770276e-03 2.999295e-03 -3.460252e-03 8.916631e-03 -9.882216e-04
<VARIANCE> 25
 1.086717e+00 2.312706e+00 2.425273e+00 3.049047e+00 3.873876e+00 5.155015e+00 5.511720e+00 5.781240e+00 6.592565e+00 6.475575e+00 5.865056e+00 5.879756e+00 4.403539e-02 1.204161e-01 1.983669e-01 2.963135e-01 3.872951e-01 5.298838e-01 6.260761e-01 6.020222e-01 6.410955e-01 6.426145e-01 6.518850e-01 6.043887e-01 1.891393e-02
<GCONST> 4.620050e+01
~s "ST_am_2_1"
<MEAN> 25
 1.811597e+01 -8.082232e+00 2.439038e+00 4.962032e+00 -1.823896e+00 -3.788979e+00 2.202718e+00 -2.433158e+00 -1.719107e+01 -7.863424e+00 1.907697e+00 -8.183706e+00 1.046994e+00 -1.584551e+00 2.009678e-01 -2.761527e+00 -1.838443e+00 -2.368641e+00 -8.484981e-01 1.581219e+00 -8.896234e-01 -5.644003e-01 7.630992e-01 -5.146521e-01 2.151175e+00
<VARIANCE> 25
 1.295775e+01 1.724045e+01 7.726407e+00 5.756023e+01 1.291401e+01 1.232419e+01 6.065188e+01 9.853089e+00 5.607711e+00 5.786665e+00 1.494075e+01 8.309478e+00 2.645608e+00 3.463929e-01 7.293249e-01 7.672519e+00 7.438545e-01 1.594859e+00 4.999359e+00 3.301766e-01 4.542127e+00 1.580691e+00 2.410439e+00 3.474074e+00 1.505197e+00
<GCONST> 8.402944e+01
~s "ST_am_3_1"
<MEAN> 25
 1.313926e+01 -6.757736e+00 9.517994e+00 8.246481e+00 -5.874661e+00 -7.808405e+00 1.135010e+01 4.110993e+00 -2.145656e+01 -1.129533e+01 3.950543e+00 -5.370430e+00 1.051591e-01 -2.011749e-01 -2.465899e-02 -7.379141e-01 -6.033216e-01 -1.918594e-01 -4.670931e-02 4.070741e-01 5.530672e-01 -3.742482e-01 -4.937599e-02 5.766976e-01 3.036962e-01
<VARIANCE> 25
 5.824441e+00 8.088575e+00 8.728482e+00 4.416433e+01 5.230093e+00 1.655305e+00 2.927106e+01 2.171458e+00 5.540745e+00 6.079992e+00 3.019544e+00 3.726540e+00 8.100434e-02 9.872290e-02 4.587536e-01 8.731869e-01 7.103493e-01 5.567959e-01 6.077088e-01 1.190207e+00 1.252062e+00 2.754939e-01 4.533655e-01 4.826878e-01 8.442836e-02
<GCONST> 5.595137e+01
~s "ST_am_4_1"
<MEAN> 25
 1.912999e+01 -5.994054e+00 4.340146e-01 -4.289318e+00 -1.443632e+01 -1.282155e+01 2.579813e+00 3.883005e+00 -3.645087e+00 -1.964255e+00 1.756866e+00 -4.131644e-01 -8.570199e-02 8.944773e-01 -2.051234e-01 2.357628e-01 -6.384370e-01 -3.444935e-01 4.599795e-01 7.472564e-02 1.132464e+00 7.894138e-01 -6.507136e-01 2.538390e-01 -6.672853e-01
<VARIANCE> 25
 4.584721e+00 3.894315e+01 1.278010e+01 4.471241e+01 2.132338e+01 2.212584e+01 2.499352e+01 2.533403e+01 2.970177e+01 4.553064e+01 6.282951e+00 4.943271e+00 4.212373e-01 3.056615e+00 1.746392e+00 4.136541e+00 1.795043e+00 1.737728e+00 3.802240e+00 3.226027e+00 5.323938e+00 4.144667e+00 1.358606e+00 9.040280e-01 1.379684e+00
<GCONST> 9.022873e+01
~s "ST_ein_2_1"
<MEAN> 25
 9.591781e+00 2.673640e+00 -7.861395e+00 -1.155580e+01 -1.385919e+01 -4.512642e+00 9.193313e+00 8.338607e+00 -2.072665e+00 -3.102057e+00 -9.571416e-02 4.758742e-01 -2.327200e+00 6.463903e-01 -5.657037e-02 2.379015e-02 6.479151e-01 6.431691e-01 1.056801e-01 -2.486327e-02 1.532331e+00 8.361650e-01 -7.858060e-01 5.148824e-01 -2.133655e+00
<VARIANCE> 25
 4.161827e+01 1.083561e+01 7.530276e+00 2.491852e+01 1.842068e+01 1.103588e+01 2.046615e+01 1.818051e+01 2.612832e+01 2.286864e+01 8.657756e+00 1.509098e+01 2.164546e+00 1.658628e+00 9.585019e-01 1.558096e+00 2.990316e+00 1.684867e+00 1.442529e+00 1.128660e+00 2.732004e+00 1.717988e+00 1.130267e+00 1.197969e+00 1.656407e+00
<GCONST> 8.592964e+01
~s "ST_ein_3_1"
<MEAN> 25
 -3.352521e+00 3.756805e+00 -4.365929e+00 -7.682868e+00 -4.596540e+00 1.584730e+00 4.734202e+00 4.279597e+00 5.362267e+00 7.908332e-01 -4.987694e+00 4.557042e-01 -6.342121e-01 1.072073e-02 7.097234e-01 1.052447e+00 1.129043e+00 4.388214e-01 -5.213112e-01 -6.049018e-01 3.860527e-02 2.109528e-01 -2.070985e-02 -5.360646e-02 -3.840929e-01
<VARIANCE> 25
 3.146215e+00 1.528473e+00 6.140768e+00 1.246436e+01 1.343232e+01 5.904902e+00 6.677982e+00 7.321203e+00 6.789227e+00 7.762958e+00 6.268211e+00 7.655734e+00 3.428304e-01 1.580720e-01 4.112764e-01 7.878454e-01 9.706450e-01 8.112849e-01 6.365610e-01 6.646183e-01 6.930734e-01 8.537983e-01 9.089472e-01 9.246911e-01 1.125321e-01
<GCONST> 5.992963e+01
~s "ST_ein_4_1"
<MEAN> 25
 -6.331100e+00 3.226898e+00 -1.122678e-01 -7.546142e-01 1.298278e+00 2.707788e+00 -1.814262e-01 -1.718023e+00 4.027989e+00 2.891679e+00 -2.144896e+00 2.395636e+00 -2.712969e-02 -3.061680e-02 2.977253e-02 5.076388e-02 2.373538e-02 -1.554839e-02 -4.398300e-02 -4.587492e-02 -3.676181e-02 1.142102e-02 5.770919e-02 1.804459e-02 -6.929799e-03
<VARIANCE> 25
 1.086717e+00 2.224709e+00 1.900656e+00 2.935115e+00 3.884525e+00 4.328673e+00 5.891259e+00 6.802324e+00 6.739480e+00 6.252071e+00 6.849471e+00 5.469078e+00 3.703163e-02 1.214110e-01 1.860036e-01 2.912056e-01 3.540192e-01 4.575071e-01 6.379409e-01 7.988536e-01 7.441829e-01 6.051900e-01 5.903565e-01 6.706495e-01 1.891393e-02
<GCONST> 4.591903e+01
~s "ST_a_2_1"
<MEAN> 25
 -6.289160e+00 3.811521e+00 -1.248411e+00 -2.127656e+00 2.791917e-01 2.573514e+00 -4.709767e-01 -1.435177e+00 4.258002e+00 3.293421e+00 -1.728290e+00 3.161909e+00 -2.738452e-02 -6.844590e-03 2.625610e-03 3.038801e-03 5.328342e-03 -1.731805e-02 -8.658211e-02 -9.112829e-02 -4.751052e-02 -5.847594e-03 1.067968e-02 7.598483e-03 -2.154707e-02
<VARIANCE> 25
 1.901597e+00 3.761532e+00 3.711518e+00 3.793016e+00 4.566609e+00 6.236627e+00 9.001571e+00 8.871097e+00 8.315161e+00 7.282528e+00 6.216201e+00 5.451061e+00 8.310062e-02 2.174438e-01 2.473117e-01 3.244919e-01 4.493532e-01 5.574384e-01 7.307823e-01 8.361638e-01 8.231003e-01 6.872476e-01 7.098719e-01 5.978242e-01 3.221675e-02
<GCONST> 5.263980e+01
~s "ST_a_3_1"
<MEAN> 25
 -5.974356e+00 4.461600e+00 -7.390112e-01 -1.321962e+00 5.844672e-01 1.970524e+00 -2.035439e+00 -3.562072e+00 1.981900e+00 2.945491e+00 -1.639117e+00 3.051792e+00 4.544921e+00 -2.114801e+00 -1.136709e+00 -1.849481e+00 -3.507705e+00 -2.416377e+00 1.332659e+00 1.753821e+00 -1.837616e+00 -1.235762e+00 1.138137e+00 -1.461361e+00 4.336066e+00
<VARIANCE> 25
 3.624665e+00 2.983284e+00 4.259623e+00 3.004041e+00 3.402060e+00 4.828773e+00 6.852742e+00 5.056790e+00 5.921812e+00 3.782922e+00 4.930177e+00 3.259377e+00 3.064587e+00 2.214465e+00 5.387589e-01 1.127966e+00 1.733433e+00 1.046737e+00 2.112107e+00 1.788027e+00 8.876445e-01 7.929119e-01 9.100695e-01 7.622964e-01 3.994168e+00
<GCONST> 6.711665e+01
~s "ST_a_4_1"
<MEAN> 25
 1.435584e+01 -7.250075e+00 -1.687671e+00 -2.707601e+00 -4.759220e+00 -6.295930e+00 1.972214e+00 2.836463e+00 -6.814150e+00 -2.908417e+00 5.179887e+00 -4.524640e+00 1.067919e+00 -7.660096e-01 7.390831e-02 -2.047721e-01 -3.822260e-01 -7.719497e-01 -2.054906e-02 3.152283e-01 -4.305713e-01 -5.875760e-02 7.580662e-01 -2.637025e-01 1.339152e+00
<VARIANCE> 25
 1.878414e+01 4.890639e+01 1.896326e+01 1.108770e+02 1.392684e+02 4.450572e+01 3.633451e+01 3.748330e+01 2.962916e+01 2.427404e+01 3.200722e+01 1.869849e+01 6.226908e+00 4.624869e+00 1.212526e+00 3.426188e+00 6.031984e+00 3.738779e+00 3.538699e+00 3.855325e+00 2.632680e+00 3.000991e+00 2.201948e+00 1.710251e+00 8.957120e+00
<GCONST> 1.054409e+02
~s "ST_lu_2_1"
<MEAN> 25
 -2.934486e+00 1.933859e+00 1.283306e-01 -2.352285e+00 -6.400816e-01 -1.847336e-01 -2.054230e+00 -1.549186e+00 3.279984e+00 3.409435e+00 7.089844e-01 1.737331e+00 8.669815e-01 2.977478e-01 4.665618e-01 1.140170e+00 1.370390e+00 7.233721e-01 -4.383693e-01 -9.716083e-01 -1.275122e+00 -6.031018e-01 -1.299566e-01 -8.189767e-01 5.868829e-01
<VARIANCE> 25
 6.365474e+01 3.104139e+01 2.365997e+00 5.729930e+00 1.421529e+01 3.613262e+01 6.467490e+00 6.462197e+00 3.367351e+01 8.147988e+00 3.327911e+01 8.963371e+00 3.748630e+00 6.372918e-01 5.623401e-01 1.571239e+00 2.616748e+00 2.415982e+00 1.421118e+00 1.906561e+00 2.753899e+00 1.043548e+00 6.490530e-01 1.511398e+00 1.801517e+00
<GCONST> 8.264236e+01
~s "ST_lu_3_1"
<MEAN> 25
 1.374386e+01 -3.919991e+00 2.728227e+00 5.832797e+00 5.949219e+00 -3.739684e+00 -8.057977e+00 -4.838071e+00 -8.866923e+00 -4.580151e+00 4.569727e+00 -5.114517e+00 1.140027e+00 8.504704e-01 -6.794932e-03 2.657215e+00 3.375059e+00 2.726169e+00 -3.050108e-01 -5.451003e-01 -1.197694e-01 -1.503640e+00 -1.010692e+00 -7.219402e-01 4.848204e-02
<VARIANCE> 25
 2.030439e+01 6.551242e+01 6.286099e+00 2.458320e+01 5.744680e+01 1.191878e+02 3.490932e+01 1.754761e+01 3.040766e+01 2.048524e+01 3.802313e+01 1.056543e+01 5.287025e+00 1.628155e+00 7.438505e-01 5.595548e-01 1.361548e+00 4.014965e+00 2.750085e+00 2.214056e+00 8.413611e+00 2.676343e+00 3.940294e+00 1.546813e+00 5.951882e+00
<GCONST> 9.734657e+01
~s "ST_lu_4_1"
<MEAN> 25
 1.324386e+01 -1.131573e+00 2.378457e+00 1.057935e+01 1.191368e+01 5.272984e+00 -1.992147e+00 -2.945388e+00 -6.665731e+00 -4.768747e+00 2.501931e+00 -5.038556e+00 1.022271e-01 -2.610650e-02 -3.625719e-02 -2.365228e-01 -3.190158e-01 -1.360412e-01 3.377933e-01 1.211978e-01 -3.212919e-02 4.921246e-02 -2.918121e-02 7.027961e-02 1.567302e-01
<VARIANCE> 25
 5.500138e+00 3.111920e+01 1.468407e+01 1.405108e+01 4.321791e+01 2.235257e+01 4.955146e+01 2.329388e+01 4.808557e+01 2.787562e+01 1.918109e+01 2.741706e+01 4.380968e-01 1.758657e+00 9.838499e-01 1.684096e+00 1.545914e+00 1.868195e+00 3.070717e+00 1.945346e+00 2.453572e+00 2.940612e+00 1.531380e+00 2.173978e+00 9.233885e-01
<GCONST> 9.000053e+01
~s "ST_ai_2_1"
<MEAN> 25
 -1.524318e+00 -1.094602e+01 -5.614073e+00 -4.375802e+00 -5.728421e-01 2.494645e+00 9.601964e+00 1.389955e+01 3.768883e+00 -6.462263e+00 1.007881e+00 6.837904e+00 -4.120167e-01 4.604602e-01 3.233900e-01 2.650565e-01 7.974889e-02 2.538213e-01 6.045083e-01 9.271228e-02 -3.171778e-01 1.350458e-01 6.995890e-02 5.955806e-02 -4.795749e-01
<VARIANCE> 25
 2.808396e+00 2.328384e+01 1.012431e+01 1.157421e+01 1.759847e+01 7.761062e+00 1.560358e+01 1.354210e+01 1.484157e+01 1.618606e+01 1.093694e+01 5.792979e+00 5.167382e-01 8.862803e-01 1.953589e+00 1.040498e+00 8.048345e-01 6.627547e-01 6.162962e-01 8.394030e-01 7.792122e-01 1.469475e+00 1.793421e+00 7.535555e-01 2.763557e-01
<GCONST> 7.258303e+01
~s "ST_ai_3_1"
<MEAN> 25
 -2.275066e+00 -2.501972e+00 -7.520271e+00 -5.870974e+00 -2.856818e+00 2.344632e+00 8.444133e+00 8.725774e+00 6.979347e-01 -6.083158e+00 -3.007240e+00 3.913959e+00 -1.488180e-01 1.326324e+00 2.881151e-01 -7.976758e-02 -2.074686e-01 -2.179690e-01 -8.863192e-01 -1.386655e+00 -1.221901e-01 5.968983e-01 -2.418541e-01 -1.041456e-01 -7.022905e-01
<VARIANCE> 25
 3.901795e+00 1.087904e+01 5.469143e+00 2.690033e+00 3.368742e+00 5.226856e+00 1.038272e+01 1.417888e+01 1.763816e+01 1.771752e+01 5.171367e+00 6.886631e+00 2.769730e-01 5.325580e-01 9.860955e-01 1.150726e+00 5.792937e-01 8.192590e-01 1.533737e+00 8.537422e-01 1.480166e+00 8.913167e-01 1.435101e+00 1.125663e+00 9.196636e-02
<GCONST> 6.566860e+01
~s "ST_ai_4_1"
<MEAN> 25
 -1.879157e+00 3.071209e+00 -8.471852e+00 -9.922996e+00 -6.174792e+00 1.287149e+00 3.942044e+00 2.349711e+00 1.824003e+00 -1.217205e+00 -3.981599e+00 2.153062e+00 -3.941524e-01 3.188786e-01 5.646419e-01 2.146803e-01 2.539129e-01 2.956886e-01 -2.571232e-01 -5.320801e-01 6.562249e-02 3.347003e-01 8.524301e-02 -7.733170e-02 -3.338490e-01
<VARIANCE> 25
 2.436723e+00 2.178221e+00 5.640598e+00 4.389446e+00 5.012378e+00 3.927874e+00 3.486989e+00 4.220341e+00 5.628541e+00 7.439031e+00 5.143813e+00 6.137789e+00 1.808991e-01 1.367859e-01 6.392999e-01 6.330659e-01 9.483311e-01 4.527319e-01 5.326397e-01 3.116475e-01 1.285024e+00 1.122867e+00 6.635477e-01 7.220090e-01 7.493602e-02
<GCONST> 5.347576e+01
~s "ST_la_2_1"
<MEAN> 25
 1.418113e+01 -8.377484e+00 -3.630684e+00 -5.123214e+00 -9.956031e+00 -6.717819e+00 6.144596e+00 7.437737e+00 -5.133272e+00 -3.986635e+00 2.788272e+00 -3.357660e+00 -3.380230e-01 -1.409315e-02 -5.371387e-01 -4.272447e-01 -1.463660e-01 1.806376e-02 2.140494e-01 4.348405e-01 6.404204e-01 2.137513e-01 -1.639581e-01 1.524474e-01 -3.632054e-01
<VARIANCE> 25
 2.845049e+01 3.015336e+01 6.033736e+01 7.946230e+01 2.957739e+01 1.648492e+01 2.642833e+01 4.413728e+01 8.686252e+01 2.209645e+01 2.724593e+01 2.447504e+01 2.708015e+00 2.289439e+00 1.665586e+00 2.759921e+00 1.908984e+00 1.565702e+00 2.632701e+00 1.278778e+00 4.276681e+00 2.101240e+00 1.700640e+00 1.942815e+00 3.479799e+00
<GCONST> 9.878667e+01
~s "ST_la_3_1"
<MEAN> 25
 -1.798868e+00 1.776791e+00 -6.554639e+00 -7.595715e+00 -5.302152e+00 7.662621e-01 6.184478e+00 6.698564e+00 4.903908e+00 -5.761827e-01 -3.677805e+00 1.545286e+00 -8.658389e-01 7.640454e-01 1.025259e+00 5.439723e-01 8.121861e-01 7.783521e-01 -5.166320e-01 -9.957463e-01 -1.079724e-01 3.074418e-01 -2.034759e-01 -3.544091e-02 -7.628408e-01
<VARIANCE> 25
 7.008698e+00 1.004715e+01 1.447153e+01 1.053182e+01 1.159867e+01 1.397818e+01 1.067397e+01 1.668583e+01 1.042001e+01 1.292327e+01 8.845826e+00 7.331482e+00 4.357487e-01 7.639277e-01 5.805355e-01 1.241779e+00 1.002501e+00 1.413656e+00 1.406659e+00 1.374600e+00 1.225742e+00 1.276888e+00 8.643041e-01 6.699397e-01 3.739650e-01
<GCONST> 7.307238e+01
~s "ST_la_4_1"
<MEAN> 25
 -6.080413e+00 3.592902e+00 -2.617289e-01 -7.309691e-01 1.267378e+00 2.648718e+00 -6.247299e-01 -1.685269e+00 3.458857e+00 2.784680e+00 -1.573068e+00 2.106351e+00 -2.959489e-02 -1.004613e-02 4.444332e-02 5.885182e-02 4.835232e-02 -3.431497e-03 -5.006959e-02 -5.676138e-02 -3.376060e-02 2.486348e-02 4.818149e-02 2.866498e-02 -1.401952e-02
<VARIANCE> 25
 1.086717e+00 2.626589e+00 3.043868e+00 3.938315e+00 4.298352e+00 5.415297e+00 5.952438e+00 6.398779e+00 5.396410e+00 6.615133e+00 6.343130e+00 5.910737e+00 5.112017e-02 1.156942e-01 2.122008e-01 3.617424e-01 4.354370e-01 4.570189e-01 6.045713e-01 5.990298e-01 5.758013e-01 6.838938e-01 6.650282e-01 6.012290e-01 1.891393e-02
<GCONST> 4.732222e+01
~s "ST_t_2_1"
<MEAN> 25
 7.413956e-01 -2.368678e-01 3.260159e+00 3.422832e+00 5.225929e+00 -1.130589e+00 -2.440472e+00 -3.780056e-01 -3.470032e-01 -8.460896e-01 4.588986e-01 -1.695576e+00 9.559174e-02 -3.245348e-01 -2.648432e-01 -7.288222e-01 -2.563403e-01 -1.066476e-02 2.302080e-01 8.158535e-03 1.722164e-01 2.146859e-01 1.370642e-01 4.009617e-01 3.302964e-01
<VARIANCE> 25
 3.113114e+01 2.885806e+01 2.229304e+01 4.049005e+01 1.760501e+01 1.420730e+01 1.803521e+01 1.914539e+01 2.496056e+01 1.672930e+01 1.947174e+01 1.596596e+01 7.367080e+00 4.268412e+00 2.921412e+00 3.109335e+00 2.018417e+00 2.870866e+00 3.909656e+00 3.205236e+00 5.497681e+00 3.865266e+00 2.677633e+00 2.337967e+00 1.237698e+01
<GCONST> 1.000394e+02
~s "ST_t_3_1"
<MEAN> 25
 1.415860e+01 -1.271562e+01 7.662487e+00 5.145465e+00 6.084414e+00 -6.101576e+00 -1.181251e+01 -4.230181e+00 -1.404603e+01 -9.583786e+00 4.476255e+00 -6.641776e+00 8.057627e-01 -3.248044e-01 -6.687056e-01 -2.884213e-01 -9.578272e-01 1.000772e-01 6.370450e-01 -2.404140e-01 -9.587919e-01 -5.168143e-01 6.412373e-02 1.273523e-01 4.097428e-01
<VARIANCE> 25
 5.172983e+00 7.172316e+00 1.613297e+01 2.209995e+01 1.195737e+01 1.731939e+01 3.245374e+01 7.791452e+00 1.356779e+01 2.251242e+01 8.752864e+00 1.227366e+01 1.004818e+00 1.865391e+00 1.140976e+00 2.508504e+00 1.979869e+00 1.971825e+00 3.193269e+00 1.641910e+00 2.499502e+00 3.731847e+00 1.349776e+00 1.604668e+00 7.122526e-01
<GCONST> 8.406693e+01
~s "ST_t_4_1"
<MEAN> 25
 1.994250e+01 -6.973891e+00 -3.527610e+00 -8.657475e+00 -1.003724e+01 -6.458613e+00 4.888903e+00 5.322312e+00 -9.443794e+00 -7.476399e+00 5.076649e+00 -3.339408e+00 5.446386e-02 7.644787e-01 -4.323593e-01 -5.269496e-01 -1.196160e+00 5.551323e-02 5.758438e-01 7.519332e-01 5.979525e-01 -1.201319e-01 -5.561613e-01 -2.835498e-01 -5.297334e-01
<VARIANCE> 25
 2.247635e+00 1.379408e+01 9.743207e+00 1.940041e+01 1.809138e+01 1.656741e+01 1.862630e+01 2.958931e+01 1.105598e+01 2.561599e+01 1.988754e+01 2.611055e+01 2.172884e-01 1.075605e+00 6.272559e-01 9.435660e-01 1.666339e+00 1.204255e+00 1.250900e+00 1.791000e+00 1.786443e+00 1.224329e+00 1.501774e+00 1.894777e+00 3.108832e-01
<GCONST> 7.872140e+01
~s "ST_sil_2_1"
<MEAN> 25
 -2.437399e+01 -1.865417e+00 -9.336407e+00 3.071895e+00 -6.742843e-01 5.400130e+00 -1.140200e+01 -5.874684e+00 -2.223407e+00 3.531742e+00 9.380808e-01 2.673097e+00 1.578500e-02 -1.097691e-02 2.791525e-02 3.870697e-02 1.555789e-02 -2.578176e-02 -3.584215e-02 1.087365e-01 3.174567e-02 -4.381525e-02 -3.196260e-02 2.142477e-02 -5.266542e-04
<VARIANCE> 25
 3.499932e+01 3.826115e+00 1.218559e+01 4.538488e+00 2.867639e+00 4.154433e+00 1.626315e+01 5.947302e+00 7.056455e+00 5.958917e+00 4.340178e+00 4.027771e+00 3.200231e-02 5.656753e-02 1.416269e-01 3.167089e-01 3.145677e-01 2.080993e-01 4.401995e-01 5.119504e-01 6.458884e-01 7.889853e-01 5.068150e-01 4.778570e-01 1.891393e-02
<GCONST> 4.881142e+01
~s "silst"
<MEAN> 25
 -1.277509e+01 1.303326e+00 -5.162073e+00 7.391239e-01 -3.855921e-01 3.899550e+00 -4.765095e+00 -3.199709e+00 5.565767e-01 2.901827e+00 -8.104098e-01 2.212228e+00 3.932710e+00 1.050876e+00 1.713839e+00 -5.972237e-01 2.339479e-03 -6.759035e-01 2.109963e+00 3.785148e-01 1.405350e-01 -5.550098e-01 -3.626515e-01 -3.198403e-01 4.336813e+00
<VARIANCE> 25
 9.664595e+01 1.111752e+01 2.752896e+01 1.434673e+01 9.667157e+00 6.480541e+00 4.072427e+01 1.389385e+01 1.720053e+01 9.525457e+00 1.202732e+01 7.065180e+00 4.319145e+00 7.566537e-01 1.274250e+00 2.410644e+00 1.277709e+00 6.568017e-01 3.258605e+00 1.954250e+00 5.411804e+00 1.246889e+00 1.566647e+00 1.393993e+00 4.844616e+00
<GCONST> 8.717300e+01
~s "ST_sil_3_1"
<MEAN> 25
 -1.271406e+01 1.316396e+00 -5.150677e+00 7.175357e-01 -3.884959e-01 3.881716e+00 -4.722603e+00 -3.184370e+00 5.794723e-01 2.889848e+00 -8.286713e-01 2.208502e+00 3.901489e+00 1.047817e+00 1.710546e+00 -5.933037e-01 8.485921e-03 -6.734720e-01 2.088047e+00 3.692834e-01 1.416446e-01 -5.523592e-01 -3.624373e-01 -3.199724e-01 4.308741e+00
<VARIANCE> 25
 9.639642e+01 1.110416e+01 2.748749e+01 1.437568e+01 9.607748e+00 6.518882e+00 4.073426e+01 1.386152e+01 1.720223e+01 9.483230e+00 1.198025e+01 7.024189e+00 4.407944e+00 7.560818e-01 1.277181e+00 2.396481e+00 1.276734e+00 6.529013e-01 3.311366e+00 1.981955e+00 5.373432e+00 1.245986e+00 1.556367e+00 1.384615e+00 4.905330e+00
<GCONST> 8.718400e+01
~s "ST_sil_4_1"
<MEAN> 25
 -5.976952e+00 2.849011e+00 -9.852085e-01 -1.200245e+00 4.549062e-01 2.274997e+00 2.022641e-02 -1.413763e+00 2.841298e+00 2.172103e+00 -1.594229e+00 2.273508e+00 6.564085e-03 1.613282e-02 2.171866e-02 1.622556e-02 1.139444e-02 -3.213660e-03 5.572117e-03 3.030670e-02 4.665332e-02 1.522855e-02 1.245070e-02 -2.804359e-03 3.640080e-03
<VARIANCE> 25
 2.256155e+00 8.007904e+00 5.252515e+00 6.587708e+00 5.557488e+00 7.099102e+00 9.854280e+00 1.018828e+01 7.493079e+00 7.222968e+00 6.605523e+00 7.373106e+00 1.034183e-01 7.241088e-01 3.386135e-01 5.763709e-01 4.957312e-01 7.095294e-01 9.529907e-01 1.085529e+00 7.975034e-01 7.137666e-01 6.813411e-01 7.432355e-01 1.293448e-01
<GCONST> 6.002037e+01
~s "ST_m_2_1"
<MEAN> 25
 7.377113e+00 1.487158e+00 -2.099887e+00 -3.367576e+00 -3.834486e+00 -1.250854e+00 3.412194e+00 3.768351e+00 -1.056272e+00 -1.814124e+00 9.320874e-01 1.199885e+00 -1.046066e+00 4.317003e-01 -6.503943e-02 -2.424439e-01 -3.048538e-01 2.051387e-01 2.408917e-01 2.681541e-01 5.466153e-01 4.944934e-01 -1.175654e-02 2.516119e-01 -1.166134e+00
<VARIANCE> 25
 9.196059e+01 2.957252e+01 1.796996e+01 3.359106e+01 5.720805e+01 5.519804e+01 2.298999e+01 2.685251e+01 5.143779e+01 4.689323e+01 1.324720e+01 3.047394e+01 2.066890e+00 3.039437e+00 1.584312e+00 3.627214e+00 4.358581e+00 3.698694e+00 2.838819e+00 3.090510e+00 3.466895e+00 3.014248e+00 1.415793e+00 3.611209e+00 2.287947e+00
<GCONST> 1.018742e+02
~s "ST_m_3_1"
<MEAN> 25
 -6.010477e+00 3.655732e+00 3.271781e-01 -4.184241e-01 1.973427e+00 3.728563e+00 1.431452e+00 -6.259360e-01 4.205502e+00 3.951759e+00 -5.721392e-01 2.921325e+00 -5.911985e-02 -1.432367e-02 8.476903e-02 5.880231e-02 2.531708e-02 -1.690193e-02 -1.506277e-01 -2.356535e-01 -2.077090e-01 -8.914842e-02 -7.579757e-02 -1.342067e-01 -3.266661e-02
<VARIANCE> 25
 1.968077e+01 2.347430e+00 3.325193e+00 7.391115e+00 3.938176e+00 5.768618e+00 1.019641e+01 1.081308e+01 1.772271e+01 7.900497e+00 9.279814e+00 1.142410e+01 1.666106e-01 2.316497e-01 3.393962e-01 6.122952e-01 5.366388e-01 6.002567e-01 7.418711e-01 8.122925e-01 9.079182e-01 6.783042e-01 8.940234e-01 6.874976e-01 7.050703e-02
<GCONST> 6.032440e+01
~s "ST_m_4_1"
<MEAN> 25
 8.592702e+00 1.701850e-01 3.763080e+00 6.318893e+00 -6.795608e-02 -1.709655e+00 4.059132e+00 -2.096405e-01 -1.053020e+01 -5.129242e+00 1.639797e+00 -4.779962e+00 9.121647e-01 -7.845181e-01 1.489714e-01 4.156313e-01 -4.063410e-01 -1.461862e+00 -1.950935e-01 7.347216e-01 -2.405448e-01 -5.733647e-01 -7.348853e-02 -3.340680e-01 1.120318e+00
<VARIANCE> 25
 7.281827e+01 2.112830e+01 1.764107e+01 3.668674e+01 2.216430e+01 3.318945e+01 2.513058e+01 1.636307e+01 1.035644e+02 4.886491e+01 1.819888e+01 5.081668e+01 3.036319e+00 2.795368e+00 2.822630e+00 4.679777e+00 1.463671e+00 5.273754e+00 2.876064e+00 1.935434e+00 6.987560e+00 3.279884e+00 1.484628e+00 3.390530e+00 2.084366e+00
<GCONST> 1.016993e+02
~s "ST_ch_2_1"
<MEAN> 25
 -2.797780e-01 2.892001e+00 -4.182677e+00 -2.840968e+00 -2.721404e+00 -2.554092e-01 2.131395e+00 6.521081e-01 -8.136175e-01 1.114285e+00 5.453200e-01 3.521034e+00 -1.593566e+00 1.495536e+00 4.270920e-01 -5.426607e-01 7.195032e-01 1.474331e+00 4.748027e-01 -1.671282e-01 1.158281e+00 3.445007e-01 -4.236428e-01 1.204003e+00 -1.649907e+00
<VARIANCE> 25
 2.502558e+01 1.011454e+01 1.234089e+01 2.357194e+01 2.316255e+01 3.097342e+01 1.545930e+01 1.459861e+01 2.597324e+01 2.494728e+01 5.070026e+00 1.250009e+01 2.029246e+00 1.802696e+00 1.251163e+00 2.786159e+00 3.253705e+00 2.995636e+00 5.421304e-01 1.720070e+00 3.170633e+00 2.212962e+00 1.016826e+00 2.773893e+00 1.233093e+00
<GCONST> 8.771896e+01
~s "ST_ch_3_1"
<MEAN> 25
 -5.818284e+00 5.045576e+00 -1.626326e+00 -1.966005e+00 1.092274e+00 4.355761e+00 3.982407e-01 -1.465331e+00 3.985475e+00 3.940914e+00 -1.775432e+00 2.800928e+00 3.975192e-03 -3.236505e-02 -4.119346e-02 -5.830285e-02 -6.751776e-02 -9.895852e-03 -3.055630e-02 -7.904498e-02 -6.161139e-02 2.295319e-02 -3.684509e-02 -1.167076e-01 8.517729e-03
<VARIANCE> 25
 1.086717e+00 1.067355e+00 3.267950e+00 3.830442e+00 4.535534e+00 5.139343e+00 6.968894e+00 6.344946e+00 6.641866e+00 6.764543e+00 4.725308e+00 4.488276e+00 1.516089e-01 1.383248e-01 3.687822e-01 5.093903e-01 5.099198e-01 7.088671e-01 8.721069e-01 6.969203e-01 8.917835e-01 7.332639e-01 6.000260e-01 4.222016e-01 7.462732e-02
<GCONST> 5.097459e+01
~s "ST_ch_4_1"
<MEAN> 25
 1.209181e+01 -2.453982e+00 3.240009e+00 9.110798e+00 -3.640967e+00 -1.138508e+00 4.953272e+00 -1.588512e+00 -1.571201e+01 -9.473736e+00 2.019189e+00 -6.918235e+00 1.246918e+00 -7.208287e-01 1.572106e-01 1.379509e-01 -5.069626e-01 -5.468607e-01 8.496307e-02 1.651154e-01 -9.668229e-01 -7.906247e-01 2.366009e-01 -2.315422e-01 1.302180e+00
<VARIANCE> 25
 3.808816e+01 1.538297e+01 1.621105e+01 2.678589e+01 2.359726e+01 1.014742e+01 1.868448e+01 1.297514e+01 4.972248e+01 3.304869e+01 1.433310e+01 1.931248e+01 2.774998e+00 6.916854e-01 1.720430e+00 4.207918e+00 7.455853e-01 9.953645e-01 1.937968e+00 7.874728e-01 5.170102e+00 2.775451e+00 8.370808e-01 2.815259e+00 1.890720e+00
<GCONST> 8.930444e+01
~s "ST_eh_2_1"
<MEAN> 25
 4.365432e+00 5.275354e+00 6.549742e-01 -2.182770e-01 -1.000014e+00 2.289500e+00 2.950997e+00 1.799447e+00 4.553302e-01 -8.772958e-01 -1.931867e+00 -1.692982e+00 1.140025e+00 1.295303e+00 1.021927e+00 1.222289e+00 1.093983e+00 6.302567e-01 1.355915e-01 -5.456434e-01 -3.599578e-01 3.396947e-01 -3.743656e-01 -1.406609e+00 5.038304e-01
<VARIANCE> 25
 9.184991e+01 4.984288e+01 3.173196e+01 2.499569e+01 4.739526e+01 4.393214e+01 2.563298e+01 1.653226e+01 2.429862e+01 4.304491e+01 8.256642e+00 3.833334e+01 4.251678e+00 3.078199e+00 2.862567e+00 2.264991e+00 3.751575e+00 6.027831e+00 3.512912e+00 3.346780e+00 5.817194e+00 2.062679e+00 1.689819e+00 5.839196e+00 3.400033e+00
<GCONST> 1.034741e+02
~s "ST_eh_3_1"
<MEAN> 25
 1.126964e+01 7.398251e+00 1.784687e+00 6.426270e+00 5.757610e+00 9.212890e+00 8.684392e+00 -5.635842e+00 -8.203822e+00 2.151360e+00 -7.793250e-02 -1.038178e+01 1.151366e+00 -5.505040e-01 -2.642031e-01 5.226038e-02 -1.220585e-01 -6.616202e-01 -3.521865e-01 2.970197e-02 -7.091702e-01 -3.090204e-01 5.014677e-01 -3.851413e-01 1.076632e+00
<VARIANCE> 25
 2.274473e+01 1.885895e+01 8.155744e+00 1.340246e+01 1.999555e+01 2.187891e+01 2.819507e+01 1.391026e+01 2.131665e+01 2.682360e+01 1.117901e+01 1.945328e+01 2.075145e+00 1.658579e+00 9.651056e-01 1.552290e+00 8.536717e-01 2.983092e+00 3.446948e+00 9.823256e-01 3.822799e+00 2.545196e+00 1.718443e+00 2.916202e+00 2.433394e+00
<GCONST> 8.905683e+01
~s "ST_eh_4_1"
<MEAN> 25
 1.386409e+01 -8.471321e+00 6.965783e+00 6.988819e+00 6.012004e+00 -9.761278e+00 -1.009165e+01 -1.495111e+00 -1.211108e+01 -9.108247e+00 4.684146e+00 -9.604671e+00 7.010874e-02 -2.988572e-01 9.982426e-01 5.341268e-01 4.331891e-01 -6.483692e-01 -8.285695e-01 2.669261e-01 3.157738e-02 -5.730267e-01 4.018809e-02 -3.149128e-01 5.258551e-01
<VARIANCE> 25
 5.662848e+00 3.035984e+01 2.223619e+01 1.734778e+01 2.389102e+01 2.179438e+01 2.576784e+01 1.048628e+01 2.714418e+01 1.490771e+01 1.922528e+01 1.206370e+01 3.131951e+00 8.402328e+00 1.665825e+00 1.111645e+00 1.070332e+00 7.193154e+00 4.802753e+00 9.308373e-01 5.342930e+00 3.120798e+00 1.846086e+00 1.986358e+00 7.491630e+00
<GCONST> 9.390497e+01
~s "ST_p_2_1"
<MEAN> 25
 1.191682e+01 2.902147e+00 3.836187e+00 1.234643e+00 -8.036039e+00 -4.421028e+00 8.442880e+00 4.942039e+00 1.024967e+00 -1.381522e+00 -4.800185e+00 -2.837303e+00 -2.874739e+00 7.609463e-01 -1.439883e-01 1.891185e-01 3.756721e+00 3.404177e+00 2.800488e-01 7.481954e-01 2.013921e+00 9.158167e-01 2.631721e-01 -6.751840e-02 -2.427780e+00
<VARIANCE> 25
 1.929108e+01 3.772828e+01 2.285587e+01 3.864797e+01 4.196038e+01 7.474931e+01 2.212568e+01 1.590036e+01 2.178411e+01 1.483440e+01 6.842460e+00 1.314895e+01 7.516739e-01 1.671229e+00 1.728387e+00 2.495801e+00 1.511532e+00 5.430761e+00 3.454931e+00 7.224337e-01 5.310712e-01 9.842416e-01 2.427820e+00 2.875539e+00 2.491204e-01
<GCONST> 8.812669e+01
~s "ST_p_3_1"
<MEAN> 25
 4.570620e+00 -8.257937e+00 -8.032883e+00 -2.301482e+00 -2.485156e+00 -3.541270e+00 4.642550e+00 1.388182e+01 7.930680e+00 -1.858724e+00 -2.073776e+00 -1.753120e+00 -1.224423e+00 -3.940622e-01 -1.286127e+00 -3.065493e-01 -3.029795e-01 -7.085303e-01 -1.273344e+00 -4.618345e-01 -1.081368e-01 8.288340e-02 5.874724e-01 4.964289e-01 -1.163880e+00
<VARIANCE> 25
 3.594247e+00 5.959031e+01 3.230922e+01 1.128000e+01 2.339442e+01 1.942879e+01 1.486418e+01 4.393716e+01 1.835058e+01 2.476734e+01 1.333512e+01 4.786793e+00 1.368081e+00 9.830477e-01 1.476343e+00 1.311278e+00 3.060526e+00 6.961034e-01 2.101885e+00 4.025392e+00 1.842315e+00 1.066118e+00 4.873583e-01 1.139998e+00 6.661360e-01
<GCONST> 8.361827e+01
~s "ST_eu_2_1"
<MEAN> 25
 6.912474e+00 7.983682e-01 1.903334e+00 -1.937891e+00 -2.951264e+00 -4.985547e+00 -2.769877e+00 -4.959970e+00 -7.216042e+00 -2.883115e+00 4.416361e+00 -1.075157e+00 4.370990e+00 -2.291244e+00 7.892105e-01 -6.010559e-01 -1.186483e+00 -2.780128e+00 3.215788e-02 -5.066307e-01 -3.579801e+00 -2.021230e+00 2.329268e+00 -8.249187e-01 5.271287e+00
<VARIANCE> 25
 7.804762e+01 3.321408e+01 1.578341e+01 1.115946e+01 1.634181e+01 3.627939e+01 2.601875e+01 1.416808e+01 6.755247e+01 2.516324e+01 3.105215e+01 1.923520e+01 3.466198e+00 3.259036e+00 1.037511e+00 1.305408e+00 3.126599e+00 1.733840e+00 5.300170e+00 1.224419e+00 4.883207e+00 1.821339e+00 2.015567e+00 1.154881e+00 3.564088e+00
<GCONST> 9.569347e+01
~s "ST_p_4_1"
<MEAN> 25
 -3.905127e+00 3.018260e+00 -1.006568e-01 -1.285501e-02 1.948107e+00 1.302361e+00 7.297422e-01 2.041198e+00 4.625216e+00 2.153251e+00 -5.597813e-01 2.799976e+00 -1.568256e-01 -8.873230e-02 -7.963758e-02 -4.072256e-02 2.409302e-02 -3.939753e-02 -1.595841e-01 -9.588700e-02 -6.094056e-02 -9.018125e-02 -7.009605e-02 -2.632998e-03 -1.087528e-01
<VARIANCE> 25
 1.352736e+01 9.410839e+00 9.014442e+00 8.505167e+00 1.307953e+01 1.231828e+01 6.793988e+00 1.659000e+01 8.354997e+00 1.108348e+01 6.626202e+00 8.759715e+00 1.838826e+00 7.651441e-01 6.309787e-01 6.044874e-01 7.951252e-01 1.048826e+00 1.015896e+00 1.730895e+00 1.045882e+00 9.272727e-01 6.672695e-01 1.251917e+00 1.212303e+00
<GCONST> 7.327188e+01
~s "ST_eu_3_1"
<MEAN> 25
 1.777577e+01 -9.249367e+00 2.467284e+00 -2.190282e+00 -2.893049e+00 -9.602403e+00 -2.220040e+00 -3.735381e+00 -1.656167e+01 -5.959729e+00 8.411933e+00 -2.894966e+00 1.753529e-01 1.170084e-01 -2.190037e-01 -2.355482e-01 -3.766215e-01 1.214517e-01 9.795296e-02 2.656418e-01 1.960189e-01 1.560839e-01 -2.475819e-01 -6.510026e-03 -8.542009e-02
<VARIANCE> 25
 1.211048e+00 7.307234e+00 7.054400e+00 8.167512e+00 1.341537e+01 6.636188e+00 9.207881e+00 1.019060e+01 9.579461e+00 1.014027e+01 5.574300e+00 6.605152e+00 1.229149e-01 1.473005e+00 5.250590e-01 8.133344e-01 1.332562e+00 4.796018e-01 1.247186e+00 9.762298e-01 1.406204e+00 7.746574e-01 3.903605e-01 4.168611e-01 4.637588e-01
<GCONST> 6.408452e+01
~s "ST_eu_4_1"
<MEAN> 25
 5.296535e+00 -3.875911e+00 5.037090e-01 -6.060654e+00 -7.332335e+00 -5.624092e+00 4.677119e+00 1.699935e+01 1.053522e+01 -3.302504e+00 -2.596286e+00 -3.045969e-01 -8.260806e-01 2.793261e-01 -2.188165e-01 1.137687e-02 2.199677e-01 2.057805e-01 6.904557e-02 3.467569e-01 8.790233e-01 3.209712e-01 -3.815207e-01 1.470151e-01 -8.434178e-01
<VARIANCE> 25
 4.536258e+01 1.976883e+01 2.386095e+01 1.497864e+01 2.116769e+01 1.300220e+01 1.635968e+01 7.040333e+01 5.881829e+01 2.467473e+01 1.658620e+01 1.986342e+01 2.068318e+00 2.003952e+00 1.494082e+00 1.925842e+00 2.394004e+00 1.466202e+00 1.810348e+00 5.865436e+00 4.573701e+00 2.056179e+00 1.979141e+00 1.748389e+00 4.880605e-01
<GCONST> 9.323113e+01
~h "a"
<BEGINHMM>
<NUMSTATES> 5
<STATE> 2
~s "ST_a_2_1"
<STATE> 3
~s "ST_a_3_1"
<STATE> 4
~s "ST_a_4_1"
~t "T_a"
<ENDHMM>
~h "i"
<BEGINHMM>
<NUMSTATES> 5
<STATE> 2
~s "ST_i_2_1"
<STATE> 3
~s "ST_i_3_1"
<STATE> 4
~s "ST_i_4_1"
~t "T_i"
<ENDHMM>
~h "l"
<BEGINHMM>
<NUMSTATES> 5
<STATE> 2
~s "ST_l_2_1"
<STATE> 3
~s "ST_l_3_1"
<STATE> 4
~s "ST_l_4_1"
~t "T_l"
<ENDHMM>
~h "m"
<BEGINHMM>
<NUMSTATES> 5
<STATE> 2
~s "ST_m_2_1"
<STATE> 3
~s "ST_m_3_1"
<STATE> 4
~s "ST_m_4_1"
~t "T_m"
<ENDHMM>
~h "o"
<BEGINHMM>
<NUMSTATES> 5
<STATE> 2
~s "ST_o_2_1"
<STATE> 3
~s "ST_o_3_1"
<STATE> 4
~s "ST_o_4_1"
~t "T_o"
<ENDHMM>
~h "p"
<BEGINHMM>
<NUMSTATES> 5
<STATE> 2
~s "ST_p_2_1"
<STATE> 3
~s "ST_p_3_1"
<STATE> 4
~s "ST_p_4_1"
~t "T_p"
<ENDHMM>
~h "r"
<BEGINHMM>
<NUMSTATES> 5
<STATE> 2
~s "ST_r_2_1"
<STATE> 3
~s "ST_r_3_1"
<STATE> 4
~s "ST_r_4_1"
~t "T_r"
<ENDHMM>
~h "t"
<BEGINHMM>
<NUMSTATES> 5
<STATE> 2
~s "ST_t_2_1"
<STATE> 3
~s "ST_t_3_1"
<STATE> 4
~s "ST_t_4_1"
~t "T_t"
<ENDHMM>
~h "ai"
<BEGINHMM>
<NUMSTATES> 5
<STATE> 2
~s "ST_ai_2_1"
<STATE> 3
~s "ST_ai_3_1"
<STATE> 4
~s "ST_ai_4_1"
~t "T_ai"
<ENDHMM>
~h "am"
<BEGINHMM>
<NUMSTATES> 5
<STATE> 2
~s "ST_am_2_1"
<STATE> 3
~s "ST_am_3_1"
<STATE> 4
~s "ST_am_4_1"
~t "T_am"
<ENDHMM>
~h "ch"
<BEGINHMM>
<NUMSTATES> 5
<STATE> 2
~s "ST_ch_2_1"
<STATE> 3
~s "ST_ch_3_1"
<STATE> 4
~s "ST_ch_4_1"
~t "T_ch"
<ENDHMM>
~h "eh"
<BEGINHMM>
<NUMSTATES> 5
<STATE> 2
~s "ST_eh_2_1"
<STATE> 3
~s "ST_eh_3_1"
<STATE> 4
~s "ST_eh_4_1"
~t "T_eh"
<ENDHMM>
~h "eu"
<BEGINHMM>
<NUMSTATES> 5
<STATE> 2
~s "ST_eu_2_1"
<STATE> 3
~s "ST_eu_3_1"
<STATE> 4
~s "ST_eu_4_1"
~t "T_eu"
<ENDHMM>
~h "ff"
<BEGINHMM>
<NUMSTATES> 5
<STATE> 2
~s "ST_ff_2_1"
<STATE> 3
~s "ST_ff_3_1"
<STATE> 4
~s "ST_ff_4_1"
~t "T_ff"
<ENDHMM>
~h "la"
<BEGINHMM>
<NUMSTATES> 5
<STATE> 2
~s "ST_la_2_1"
<STATE> 3
~s "ST_la_3_1"
<STATE> 4
~s "ST_la_4_1"
<TRANSP> 5
 0.000000e+00 1.000000e+00 0.000000e+00 0.000000e+00 0.000000e+00
 0.000000e+00 9.588000e-01 4.120007e-02 0.000000e+00 0.000000e+00
 0.000000e+00 0.000000e+00 8.939720e-01 1.060280e-01 0.000000e+00
 0.000000e+00 0.000000e+00 0.000000e+00 9.817998e-01 1.820024e-02
 0.000000e+00 0.000000e+00 0.000000e+00 0.000000e+00 0.000000e+00
<ENDHMM>
~h "lu"
<BEGINHMM>
<NUMSTATES> 5
<STATE> 2
~s "ST_lu_2_1"
<STATE> 3
~s "ST_lu_3_1"
<STATE> 4
~s "ST_lu_4_1"
~t "T_lu"
<ENDHMM>
~h "sp"
<BEGINHMM>
<NUMSTATES> 3
<STATE> 2
~s "ST_sil_3_1"
<TRANSP> 3
 0.000000e+00 1.518671e-01 8.481329e-01
 0.000000e+00 6.022598e-01 3.977402e-01
 0.000000e+00 0.000000e+00 0.000000e+00
<ENDHMM>
~h "t-ein"
<BEGINHMM>
<NUMSTATES> 5
<STATE> 2
~s "ST_ein_2_1"
<STATE> 3
~s "ST_ein_3_1"
<STATE> 4
~s "ST_ein_4_1"
~t "T_ein"
<ENDHMM>
~h "sil"
<BEGINHMM>
<NUMSTATES> 5
<STATE> 2
~s "ST_sil_2_1"
<STATE> 3
~s "ST_sil_3_1"
<STATE> 4
~s "ST_sil_4_1"
<TRANSP> 5
 0.000000e+00 1.000000e+00 0.000000e+00 0.000000e+00 0.000000e+00
 0.000000e+00 8.083878e-01 8.982088e-02 1.017914e-01 0.000000e+00
 0.000000e+00 0.000000e+00 7.941597e-01 2.058404e-01 0.000000e+00
 0.000000e+00 1.672722e-19 0.000000e+00 9.624062e-01 3.759381e-02
 0.000000e+00 0.000000e+00 0.000000e+00 0.000000e+00 0.000000e+00
<ENDHMM>
