~o
<STREAMINFO> 1 25
<VECSIZE> 25<NULLD><MFCC_D_N_Z_0><DIAGC>
~h "a"
<BEGINHMM>
<NUMSTATES> 5
<STATE> 2
<MEAN> 25
 -6.137975e+00 4.625135e+00 -7.729472e-01 -1.667310e+00 1.080201e+00 3.405622e+00 -2.144512e-01 -1.827708e+00 4.035155e+00 3.431403e+00 -1.731893e+00 2.886762e+00 1.148796e-02 1.890628e-02 -1.872468e-02 -2.267188e-02 9.373039e-03 1.570559e-02 -8.092095e-02 -1.036749e-01 -5.689718e-02 1.508144e-02 4.243829e-03 1.355629e-02 -1.220524e-03
<VARIANCE> 25
 1.249694e+00 1.796217e+00 2.635384e+00 3.156102e+00 3.475503e+00 5.901232e+00 7.791386e+00 8.192744e+00 5.903273e+00 6.345310e+00 5.828505e+00 3.779741e+00 1.292881e-01 1.464565e-01 2.793902e-01 3.467562e-01 4.782267e-01 6.864266e-01 8.082039e-01 8.592622e-01 6.531270e-01 6.710225e-01 8.343132e-01 4.830221e-01 5.438108e-02
<GCONST> 5.034161e+01
<STATE> 3
<MEAN> 25
 -5.726525e+00 4.204036e+00 -1.270994e+00 -1.757030e+00 5.105519e-01 2.405353e+00 -1.259865e+00 -2.566061e+00 2.831371e+00 3.641472e+00 -6.694911e-01 3.526729e+00 3.860700e+00 -1.716951e+00 -9.941046e-01 -9.631213e-01 -2.116261e+00 -1.729500e+00 9.750615e-01 9.399372e-01 -2.118857e+00 -1.306709e+00 8.730199e-01 -1.446359e+00 3.601091e+00
<VARIANCE> 25
 2.303308e+00 3.371811e+00 9.314452e+00 8.603517e+00 6.124218e+00 6.575760e+00 9.672588e+00 4.273578e+00 8.123452e+00 4.533583e+00 3.749268e+00 1.399407e+00 3.545923e+00 2.537742e+00 7.501992e-01 3.805253e+00 5.197783e+00 1.601830e+00 1.636091e+00 1.645904e+00 1.398562e+00 8.191565e-01 7.262261e-01 1.154586e+00 4.407315e+00
<GCONST> 7.286083e+01
<STATE> 4
<MEAN> 25
 8.072958e+00 -8.662382e+00 4.167471e+00 3.028575e+00 5.070738e-01 -5.361053e+00 -7.051191e-01 1.276682e+00 -3.751393e+00 -3.302972e+00 3.448746e+00 -3.440429e+00 3.355159e-01 -3.142521e-01 2.008241e-02 5.361182e-02 -1.824102e-01 -2.497014e-01 3.510059e-02 4.859195e-02 -1.102804e-01 -4.485994e-02 1.098205e-01 -1.288008e-01 4.238223e-01
<VARIANCE> 25
 8.451986e+01 9.155754e+01 6.138170e+01 1.286542e+02 1.081605e+02 3.674526e+01 4.347889e+01 2.958016e+01 6.965578e+01 3.414178e+01 2.335988e+01 2.595401e+01 4.752523e+00 3.791840e+00 1.519708e+00 3.619868e+00 4.586833e+00 2.979494e+00 2.309373e+00 2.385023e+00 3.755668e+00 2.684247e+00 1.635877e+00 1.819861e+00 5.314901e+00
<GCONST> 1.074933e+02
<TRANSP> 5
 0.000000e+00 1.000000e+00 0.000000e+00 0.000000e+00 0.000000e+00
 0.000000e+00 9.326001e-01 6.739986e-02 0.000000e+00 0.000000e+00
 0.000000e+00 0.000000e+00 4.116292e-01 5.883708e-01 0.000000e+00
 0.000000e+00 0.000000e+00 0.000000e+00 9.261699e-01 7.383015e-02
 0.000000e+00 0.000000e+00 0.000000e+00 0.000000e+00 0.000000e+00
<ENDHMM>
~h "i"
<BEGINHMM>
<NUMSTATES> 5
<STATE> 2
<MEAN> 25
 1.272402e+01 -7.039448e+00 1.036121e+01 9.952173e+00 -4.417402e-01 -1.314328e+01 -2.347502e+00 3.986652e+00 -1.092369e+01 -7.295960e+00 2.542312e+00 -7.861208e+00 1.438163e-01 -4.245791e-01 -2.042421e-01 -7.583278e-01 -4.172114e-01 -7.694190e-01 -6.842017e-01 -2.611920e-01 -6.169410e-01 2.797101e-01 8.774931e-01 3.311207e-01 4.076233e-01
<VARIANCE> 25
 7.340223e+00 1.878158e+01 3.237548e+01 3.305493e+01 2.284080e+01 2.256065e+01 4.744669e+01 1.937595e+01 4.681326e+01 1.837937e+01 3.544527e+01 1.744078e+01 5.604745e-01 1.516221e+00 4.716135e+00 2.026545e+00 1.900851e+00 3.411718e+00 2.685632e+00 2.298288e+00 1.957247e+00 1.344003e+00 1.194644e+00 9.666275e-01 6.557916e-01
<GCONST> 9.057469e+01
<STATE> 3
<MEAN> 25
 1.479485e+01 -5.848261e+00 -3.827147e-01 1.163857e-01 -4.520205e+00 -1.260404e+01 -7.213761e+00 -1.618309e+00 -9.757220e+00 2.963529e+00 8.522099e+00 -6.900380e+00 -1.577589e-01 6.175868e-01 -1.015604e+00 -6.552982e-01 -2.731193e-01 9.520993e-01 5.171428e-01 1.054115e-01 1.522938e+00 8.013904e-01 -5.111846e-01 1.872942e-01 -6.223695e-01
<VARIANCE> 25
 1.772679e+01 1.503999e+01 1.630017e+01 2.127176e+01 2.051038e+01 2.261070e+01 2.356160e+01 1.093241e+01 4.821962e+01 3.677056e+01 1.420918e+01 1.962033e+01 5.827715e-01 1.319864e+00 1.067137e+00 9.359857e-01 1.563780e+00 1.650757e+00 1.257195e+00 1.142957e+00 1.955933e+00 1.647257e+00 9.894199e-01 1.204980e+00 5.402884e-01
<GCONST> 8.396027e+01
<STATE> 4
<MEAN> 25
 7.652251e+00 -7.931007e+00 -7.074090e+00 -3.899412e+00 -2.723819e+00 -2.619362e+00 2.798756e+00 8.889385e+00 4.591333e+00 -3.050323e+00 -2.084649e+00 -8.677501e-01 -8.138930e-01 -1.800579e-01 -5.303372e-01 -3.190592e-01 3.338460e-02 5.516437e-01 8.376136e-01 1.044278e+00 3.979192e-01 -8.531829e-01 -7.083886e-01 6.059843e-01 -8.724126e-01
<VARIANCE> 25
 3.243589e+01 4.339224e+01 2.133044e+01 3.472208e+01 3.080767e+01 3.208672e+01 4.455618e+01 5.920542e+01 3.260001e+01 4.129796e+01 3.479143e+01 2.166966e+01 2.535979e+00 4.220292e+00 1.447557e+00 2.623734e+00 2.391644e+00 3.512491e+00 3.427039e+00 4.070100e+00 2.184957e+00 2.867568e+00 1.364711e+00 2.247710e+00 1.570537e+00
<GCONST> 1.002843e+02
<TRANSP> 5
 0.000000e+00 1.000000e+00 0.000000e+00 0.000000e+00 0.000000e+00
 0.000000e+00 8.604097e-01 1.395903e-01 0.000000e+00 0.000000e+00
 0.000000e+00 0.000000e+00 8.057650e-01 1.942350e-01 0.000000e+00
 0.000000e+00 0.000000e+00 0.000000e+00 8.479587e-01 1.520413e-01
 0.000000e+00 0.000000e+00 0.000000e+00 0.000000e+00 0.000000e+00
<ENDHMM>
~h "l"
<BEGINHMM>
<NUMSTATES> 5
<STATE> 2
<MEAN> 25
 -6.058510e+00 3.549854e+00 4.449284e-01 -9.474024e-01 1.701130e+00 2.557573e+00 -4.597069e-01 -8.190821e-01 4.594788e+00 3.820400e+00 -1.564392e+00 2.090482e+00 5.503492e-01 -9.338063e-02 -5.976203e-02 2.780207e-01 2.938629e-01 7.562583e-02 -4.114664e-01 -8.221434e-01 -8.663960e-01 -7.565742e-01 -5.449187e-01 -7.442929e-01 4.064603e-01
<VARIANCE> 25
 1.872266e+00 1.949493e+00 1.868323e+00 3.636278e+00 4.059484e+00 3.405687e+00 7.567824e+00 6.466370e+00 4.946536e+00 8.172224e+00 6.019238e+00 5.642526e+00 2.929278e+00 3.663406e-01 3.044044e-01 1.052714e+00 8.270283e-01 7.253553e-01 9.035257e-01 1.382021e+00 1.848726e+00 1.359826e+00 1.052763e+00 2.151288e+00 1.496383e+00
<GCONST> 6.368540e+01
<STATE> 3
<MEAN> 25
 -5.658851e+00 3.465436e+00 -3.346101e-01 -1.759866e+00 9.530184e-01 1.827776e+00 -2.424903e+00 -2.676171e+00 3.621165e+00 3.083903e+00 -1.054281e+00 1.526571e+00 6.290258e-01 -6.477357e-02 2.204222e-01 5.321676e-01 1.999410e-01 2.644823e-02 2.018383e-01 -1.666950e-01 -6.582332e-01 -2.968523e-01 3.658966e-01 -2.405639e-01 5.296481e-01
<VARIANCE> 25
 9.535031e+00 2.951194e+00 3.044659e+00 7.896482e+00 4.796648e+00 3.253686e+00 6.677103e+00 7.182837e+00 9.138297e+00 6.822380e+00 4.678734e+00 6.330345e+00 3.323470e+00 2.419569e-01 3.991590e-01 1.612691e+00 5.031872e-01 7.567472e-01 9.694533e-01 1.525323e+00 3.732358e+00 1.269635e+00 5.398844e-01 1.186067e+00 2.203291e+00
<GCONST> 6.727021e+01
<STATE> 4
<MEAN> 25
 1.527209e+01 -3.935793e+00 4.161604e+00 9.521935e+00 5.778529e+00 6.173217e+00 7.338427e-01 -7.880428e+00 -1.298687e+01 -6.328618e+00 3.583689e+00 -5.858438e+00 1.059131e+00 -8.666019e-01 3.124346e-02 3.873734e-01 -4.216568e-01 -1.373201e-01 4.424009e-01 9.082292e-02 -8.827913e-01 -4.465347e-01 2.458939e-01 -2.540213e-01 1.140138e+00
<VARIANCE> 25
 2.011009e+01 1.458091e+01 3.637741e+00 7.526131e+00 6.663524e+00 2.087692e+01 8.814096e+00 9.390086e+00 1.651289e+01 7.434791e+00 9.499219e+00 1.208170e+01 2.544137e+00 9.798274e-01 1.032264e+00 1.518423e+00 6.296525e-01 1.854945e+00 1.110069e+00 8.067650e-01 4.193652e+00 1.512627e+00 1.572891e+00 8.697093e-01 2.186357e+00
<GCONST> 7.819291e+01
<TRANSP> 5
 0.000000e+00 1.000000e+00 0.000000e+00 0.000000e+00 0.000000e+00
 0.000000e+00 8.406665e-01 1.593335e-01 0.000000e+00 0.000000e+00
 0.000000e+00 0.000000e+00 8.603390e-01 1.396610e-01 0.000000e+00
 0.000000e+00 0.000000e+00 0.000000e+00 8.873739e-01 1.126261e-01
 0.000000e+00 0.000000e+00 0.000000e+00 0.000000e+00 0.000000e+00
<ENDHMM>
~h "m"
<BEGINHMM>
<NUMSTATES> 5
<STATE> 2
<MEAN> 25
 3.271261e+00 4.234047e+00 1.123118e-02 1.085471e-01 5.102361e-01 3.031008e+00 4.930182e+00 4.341317e+00 2.270423e+00 1.763636e+00 2.739151e+00 3.042444e+00 -8.160205e-01 1.411269e-01 2.716740e-02 1.319230e-01 -2.515551e-02 3.789661e-01 6.069872e-01 3.974900e-01 1.008983e-01 1.381270e-01 -2.360350e-01 -2.618417e-01 -8.885442e-01
<VARIANCE> 25
 7.693775e+01 1.085131e+01 1.606474e+01 3.143692e+01 3.030818e+01 2.634943e+01 2.065920e+01 3.175149e+01 6.915501e+01 3.926055e+01 1.168443e+01 3.700987e+01 3.099195e+00 2.210493e+00 1.442063e+00 1.894063e+00 4.197650e+00 3.659590e+00 2.862437e+00 3.551191e+00 3.410642e+00 3.133639e+00 1.286972e+00 4.862778e+00 2.584055e+00
<GCONST> 9.917613e+01
<STATE> 3
<MEAN> 25
 -2.485626e+00 3.053735e+00 8.908241e-01 1.466662e+00 1.253970e+00 2.659045e+00 2.971467e+00 1.330746e+00 1.302717e+00 1.986928e+00 9.962218e-01 1.677480e+00 3.013868e-01 -2.802211e-01 4.205238e-02 1.504776e-01 -2.433838e-01 -3.093315e-01 6.786226e-02 -1.797296e-01 -8.189611e-01 -4.777455e-01 -1.555194e-01 -5.776873e-01 3.209040e-01
<VARIANCE> 25
 6.337212e+01 1.289202e+01 6.303853e+00 1.380209e+01 8.825653e+00 1.249510e+01 1.920839e+01 1.208208e+01 5.705309e+01 2.796511e+01 1.174155e+01 2.567417e+01 1.802095e+00 1.819682e+00 7.771436e-01 1.061615e+00 1.099177e+00 1.339961e+00 1.131215e+00 1.380098e+00 2.184144e+00 1.074171e+00 9.448221e-01 1.539838e+00 1.653270e+00
<GCONST> 8.391054e+01
<STATE> 4
<MEAN> 25
 1.232155e+01 -3.820192e+00 2.891558e+00 1.882212e+00 -4.868761e+00 -3.978397e+00 5.171743e+00 1.493518e+00 -1.219635e+01 -4.259306e+00 4.705150e+00 -5.572733e+00 5.823402e-01 -6.247182e-01 -1.141869e-01 -4.915089e-01 -3.240081e-01 -7.040184e-01 -2.735729e-01 5.582719e-01 7.267280e-01 2.548341e-01 1.910107e-02 -4.182816e-03 1.156296e+00
<VARIANCE> 25
 4.337201e+01 4.825443e+01 3.537723e+01 6.704430e+01 3.857385e+01 4.328341e+01 2.658727e+01 2.488528e+01 1.016458e+02 2.935019e+01 2.313454e+01 5.600849e+01 3.976148e+00 4.212564e+00 2.985573e+00 4.295653e+00 1.845104e+00 5.436532e+00 3.473255e+00 2.129711e+00 8.065659e+00 3.334819e+00 1.994363e+00 3.772620e+00 3.521277e+00
<GCONST> 1.066928e+02
<TRANSP> 5
 0.000000e+00 1.000000e+00 0.000000e+00 0.000000e+00 0.000000e+00
 0.000000e+00 5.815141e-01 4.184859e-01 0.000000e+00 0.000000e+00
 0.000000e+00 0.000000e+00 7.660830e-01 2.339169e-01 0.000000e+00
 0.000000e+00 0.000000e+00 0.000000e+00 8.114352e-01 1.885648e-01
 0.000000e+00 0.000000e+00 0.000000e+00 0.000000e+00 0.000000e+00
<ENDHMM>
~h "o"
<BEGINHMM>
<NUMSTATES> 5
<STATE> 2
<MEAN> 25
 1.524074e+01 3.059786e+00 4.292850e+00 1.531981e+00 -1.426004e+01 -1.471877e+01 -4.074190e+00 2.117479e+00 -1.303875e+00 -4.295774e+00 -2.761943e+00 -9.589993e+00 -8.394868e-01 6.044533e-01 -4.248348e-02 -5.912559e-02 2.204315e-01 -1.373056e-01 -2.809296e-01 -3.556611e-01 2.147846e-01 6.322610e-01 -3.314081e-02 3.464829e-01 -9.027680e-01
<VARIANCE> 25
 2.827468e+01 1.943024e+01 1.269334e+01 1.158613e+01 1.336467e+01 3.160812e+01 7.592859e+00 1.065977e+01 8.031425e+00 1.216746e+01 9.130030e+00 1.049515e+01 1.356714e+00 6.876844e-01 6.917963e-01 1.106411e+00 1.362306e+00 2.638835e+00 3.580372e-01 5.269513e-01 1.463992e+00 9.789245e-01 4.556907e-01 9.957302e-01 9.729270e-01
<GCONST> 7.564819e+01
<STATE> 3
<MEAN> 25
 7.241023e-01 1.055197e+01 1.974730e+00 -7.879231e-01 3.017293e-01 2.494277e+00 9.054076e-01 1.953110e-01 4.992482e+00 3.589658e+00 -2.034081e+00 1.066048e+00 -1.921516e+00 -8.445004e-01 -6.487018e-02 4.313602e-01 1.833652e+00 1.915360e+00 6.238616e-01 3.445142e-01 7.020830e-01 5.296349e-01 8.642019e-01 1.556348e+00 -1.136208e+00
<VARIANCE> 25
 2.939181e+01 1.862255e+01 4.553463e+00 9.329716e+00 1.797006e+01 2.718407e+01 2.465523e+01 1.439283e+01 1.008296e+01 1.957685e+01 1.274267e+01 1.230005e+01 1.427396e+00 1.028710e+00 6.698852e-01 1.210716e+00 3.050769e+00 5.072961e+00 6.813496e-01 6.406466e-01 1.385640e+00 1.974776e+00 1.073888e+00 1.542104e+00 6.470252e-01
<GCONST> 8.156468e+01
<STATE> 4
<MEAN> 25
 -6.297389e+00 3.814855e+00 -2.700362e-01 -3.752309e-01 2.063817e+00 3.848839e+00 9.689837e-01 -3.893480e-01 4.875032e+00 3.714988e+00 -9.666480e-01 4.448844e+00 -1.037855e-01 -1.270652e-01 -8.193618e-02 -6.261920e-03 -6.317498e-03 1.629165e-02 -5.410983e-02 -9.905048e-02 -6.107342e-02 -2.329650e-02 -5.247615e-02 -2.084526e-02 -5.209152e-02
<VARIANCE> 25
 2.083667e+00 3.247432e+00 2.632061e+00 2.566163e+00 3.835912e+00 5.620215e+00 7.860214e+00 6.860415e+00 6.012386e+00 7.868423e+00 7.214664e+00 6.620899e+00 8.578432e-02 1.260423e-01 2.482679e-01 3.340108e-01 4.248331e-01 4.156297e-01 6.475762e-01 6.311749e-01 7.051449e-01 7.845024e-01 7.008187e-01 7.902297e-01 2.162984e-02
<GCONST> 4.988821e+01
<TRANSP> 5
 0.000000e+00 1.000000e+00 0.000000e+00 0.000000e+00 0.000000e+00
 0.000000e+00 9.111546e-01 8.884545e-02 0.000000e+00 0.000000e+00
 0.000000e+00 0.000000e+00 7.246009e-01 2.753992e-01 0.000000e+00
 0.000000e+00 0.000000e+00 0.000000e+00 9.500524e-01 4.994757e-02
 0.000000e+00 0.000000e+00 0.000000e+00 0.000000e+00 0.000000e+00
<ENDHMM>
~h "p"
<BEGINHMM>
<NUMSTATES> 5
<STATE> 2
<MEAN> 25
 9.300840e+00 7.278997e-01 2.314925e+00 -5.960540e-01 -3.871214e+00 1.822979e-01 9.567025e+00 7.771477e+00 4.639646e+00 -1.758310e+00 -5.114131e+00 -2.130925e+00 -2.842961e+00 7.812753e-02 -1.012780e+00 2.986926e-01 3.421180e+00 2.328841e+00 -4.497952e-01 1.078012e+00 1.986822e+00 1.355896e+00 9.422076e-01 1.275905e-01 -2.417358e+00
<VARIANCE> 25
 1.339009e+01 5.978870e+01 2.758580e+01 3.407311e+01 3.363701e+01 3.684035e+01 2.038058e+01 2.730325e+01 1.881395e+01 2.158239e+01 8.854456e+00 1.256170e+01 8.373255e-01 1.833342e+00 1.068980e+00 3.410997e+00 1.791251e+00 6.145502e+00 2.891362e+00 1.771154e+00 5.824695e-01 6.085832e-01 1.786179e+00 3.610969e+00 4.002734e-01
<GCONST> 8.930557e+01
<STATE> 3
<MEAN> 25
 4.130336e+00 -5.707871e+00 -7.152430e+00 -2.754854e+00 -2.889685e+00 -2.791913e+00 5.300317e+00 1.262753e+01 7.007883e+00 -7.422421e-01 -7.267289e-01 -1.413839e+00 -1.475473e+00 -4.893893e-01 -1.330548e+00 -6.478611e-01 -6.068357e-01 -5.860062e-01 -1.475939e+00 -1.153553e+00 -4.396611e-01 -1.606210e-01 6.251323e-01 8.111006e-01 -1.285176e+00
<VARIANCE> 25
 5.486045e+00 9.432628e+01 4.428616e+01 1.185095e+01 2.061395e+01 1.952106e+01 1.242164e+01 5.696084e+01 1.747434e+01 2.695129e+01 8.152514e+00 7.226274e+00 1.813203e+00 4.032600e-01 1.234899e+00 1.025580e+00 2.889184e+00 1.868370e+00 2.208973e+00 2.053860e+00 1.415910e+00 1.086011e+00 5.467124e-01 9.190341e-01 8.269393e-01
<GCONST> 8.392250e+01
<STATE> 4
<MEAN> 25
 -3.919806e+00 2.962012e+00 -8.685949e-02 7.320380e-02 1.956300e+00 1.272408e+00 6.953270e-01 2.041713e+00 4.638816e+00 2.219186e+00 -6.077474e-01 2.782741e+00 -1.469596e-01 -7.538473e-02 -6.729824e-02 -3.376797e-02 3.073901e-02 -1.276097e-02 -1.470964e-01 -8.740744e-02 -4.212761e-02 -8.068731e-02 -7.276902e-02 -2.943892e-03 -1.012924e-01
<VARIANCE> 25
 1.363055e+01 9.901105e+00 8.563434e+00 8.346757e+00 1.309700e+01 1.272560e+01 6.874257e+00 1.657133e+01 8.489352e+00 1.037770e+01 6.827468e+00 8.949773e+00 1.774104e+00 7.908172e-01 6.466360e-01 6.095354e-01 8.085630e-01 1.035440e+00 9.410917e-01 1.709950e+00 1.043311e+00 9.356866e-01 6.751043e-01 1.199352e+00 1.171607e+00
<GCONST> 7.319261e+01
<TRANSP> 5
 0.000000e+00 1.000000e+00 0.000000e+00 0.000000e+00 0.000000e+00
 0.000000e+00 6.513871e-01 3.486129e-01 0.000000e+00 0.000000e+00
 0.000000e+00 0.000000e+00 6.187821e-01 3.812179e-01 0.000000e+00
 0.000000e+00 0.000000e+00 0.000000e+00 9.588253e-01 4.117465e-02
 0.000000e+00 0.000000e+00 0.000000e+00 0.000000e+00 0.000000e+00
<ENDHMM>
~h "r"
<BEGINHMM>
<NUMSTATES> 5
<STATE> 2
<MEAN> 25
 -2.640182e+00 2.834024e+00 -4.329319e+00 -5.815881e+00 -3.764817e+00 4.929147e-01 3.227775e+00 4.118504e+00 5.085489e+00 1.435575e+00 -2.272187e+00 1.925139e+00 -7.489344e-01 2.915593e-01 8.528793e-01 6.072631e-01 6.659223e-01 5.443213e-01 -5.789163e-01 -1.253990e+00 -6.964738e-01 3.807714e-01 3.992839e-01 -8.464479e-02 -5.418714e-01
<VARIANCE> 25
 5.309154e+00 4.027692e+00 8.695130e+00 8.503863e+00 1.010261e+01 1.160334e+01 1.168543e+01 1.877815e+01 1.677868e+01 8.293652e+00 9.776530e+00 7.559725e+00 1.953777e-01 8.879452e-01 7.310395e-01 1.846292e+00 6.510553e-01 7.138015e-01 1.535361e+00 8.024496e-01 1.359673e+00 7.861735e-01 1.261770e+00 5.409766e-01 8.934617e-02
<GCONST> 6.796655e+01
<STATE> 3
<MEAN> 25
 -4.392981e+00 2.205428e+00 -1.771655e+00 -2.591223e+00 -1.107152e+00 2.156270e+00 2.561930e+00 1.720646e+00 3.394023e+00 1.647884e+00 -1.824132e+00 1.444248e+00 -1.878399e-01 4.346642e-02 2.632125e-01 4.147700e-01 2.869558e-01 1.953454e-02 -2.739730e-01 -2.737809e-01 8.468169e-02 1.733420e-01 6.986177e-02 -7.652920e-02 -1.287793e-01
<VARIANCE> 25
 2.153169e+00 4.301540e+00 3.502235e+00 1.017668e+01 5.253021e+00 5.734126e+00 9.552189e+00 8.546183e+00 5.633741e+00 7.140366e+00 7.269198e+00 7.581137e+00 8.979950e-02 3.451612e-01 4.108690e-01 6.938616e-01 5.463172e-01 5.092588e-01 6.948363e-01 7.040283e-01 6.979219e-01 5.160390e-01 5.327413e-01 6.856390e-01 4.070709e-02
<GCONST> 5.530473e+01
<STATE> 4
<MEAN> 25
 -6.186618e+00 3.803524e+00 -1.624604e-01 -7.391468e-01 1.020892e+00 2.709409e+00 -1.071769e+00 -2.310694e+00 3.271784e+00 2.886830e+00 -1.668826e+00 2.258327e+00 -9.105310e-03 -5.490277e-04 1.313876e-02 1.344705e-02 1.600382e-02 7.395871e-03 -1.840638e-02 -1.533033e-02 -2.534915e-03 -8.029342e-04 8.984897e-04 5.105176e-03 -3.967356e-03
<VARIANCE> 25
 1.086717e+00 2.258115e+00 2.399935e+00 3.254329e+00 4.026323e+00 4.957929e+00 5.592062e+00 6.136652e+00 6.075197e+00 6.699597e+00 6.288756e+00 5.834609e+00 4.600745e-02 1.118620e-01 2.113047e-01 3.249736e-01 4.075904e-01 5.076181e-01 6.023398e-01 5.953878e-01 5.858451e-01 6.542991e-01 6.696007e-01 6.058791e-01 1.891393e-02
<GCONST> 4.636054e+01
<TRANSP> 5
 0.000000e+00 1.000000e+00 0.000000e+00 0.000000e+00 0.000000e+00
 0.000000e+00 7.090518e-01 2.909482e-01 0.000000e+00 0.000000e+00
 0.000000e+00 0.000000e+00 8.279282e-01 1.720718e-01 0.000000e+00
 0.000000e+00 0.000000e+00 0.000000e+00 9.874707e-01 1.252935e-02
 0.000000e+00 0.000000e+00 0.000000e+00 0.000000e+00 0.000000e+00
<ENDHMM>
~h "t"
<BEGINHMM>
<NUMSTATES> 5
<STATE> 2
<MEAN> 25
 7.353470e+00 -3.511991e+00 4.644392e+00 5.855507e+00 6.713313e+00 -2.815308e+00 -5.687366e+00 -1.446210e+00 -6.064095e+00 -5.386808e+00 2.122720e+00 -5.131902e+00 -2.547081e-01 -3.263225e-01 1.573995e-01 -1.131617e-01 -3.734520e-02 -1.496519e-01 -1.944370e-01 1.752029e-01 3.091133e-01 -1.648731e-01 -5.745351e-02 2.338961e-01 5.715454e-02
<VARIANCE> 25
 5.981904e+01 4.806972e+01 2.431504e+01 2.386821e+01 1.739769e+01 4.278948e+01 5.332841e+01 1.237065e+01 5.182714e+01 3.329581e+01 2.573497e+01 2.727174e+01 3.360778e+00 5.744861e+00 2.375274e+00 2.612628e+00 1.741348e+00 3.999995e+00 5.505938e+00 1.965656e+00 3.911426e+00 3.962876e+00 2.165498e+00 1.837123e+00 7.774175e+00
<GCONST> 1.026671e+02
<STATE> 3
<MEAN> 25
 1.315448e+01 -1.103253e+01 5.507208e+00 2.341340e+00 4.127283e+00 -5.731264e+00 -8.205577e+00 -2.443063e+00 -1.174454e+01 -8.078434e+00 4.692510e+00 -5.281205e+00 1.306553e+00 -8.471949e-02 -6.603858e-01 -6.672867e-01 -1.094756e+00 -2.390985e-01 7.328237e-01 -5.488425e-02 -9.323621e-01 -4.761605e-01 1.923515e-01 -2.521978e-02 8.482662e-01
<VARIANCE> 25
 2.851847e+01 2.353115e+01 1.900972e+01 3.843977e+01 2.307443e+01 1.791059e+01 5.084028e+01 2.299959e+01 5.412186e+01 3.061730e+01 1.096833e+01 2.095333e+01 2.672060e+00 2.394001e+00 1.540580e+00 2.627974e+00 2.848984e+00 2.374839e+00 2.481584e+00 3.030268e+00 4.196042e+00 3.012030e+00 2.046839e+00 2.103849e+00 2.939788e+00
<GCONST> 9.724702e+01
<STATE> 4
<MEAN> 25
 1.805400e+01 -3.876336e+00 -4.319249e+00 -9.489389e+00 -1.136497e+01 -6.493632e+00 5.693372e+00 6.125709e+00 -8.464195e+00 -6.528394e+00 3.986787e+00 -3.964430e+00 -5.716127e-01 9.993511e-01 -2.820613e-01 -3.657213e-01 -5.934481e-01 2.111944e-01 5.124617e-01 4.868932e-01 7.608342e-01 4.028746e-01 -4.576068e-01 6.726652e-02 -1.041892e+00
<VARIANCE> 25
 1.931403e+01 3.715648e+01 1.507865e+01 2.296662e+01 2.182783e+01 1.887206e+01 2.388741e+01 2.360028e+01 1.406172e+01 2.150588e+01 2.510121e+01 2.686956e+01 1.450176e+00 1.150366e+00 8.968008e-01 1.211708e+00 1.835515e+00 1.140968e+00 1.173911e+00 1.920875e+00 1.755027e+00 1.430996e+00 1.182930e+00 2.323071e+00 1.153634e+00
<GCONST> 8.717323e+01
<TRANSP> 5
 0.000000e+00 1.000000e+00 0.000000e+00 0.000000e+00 0.000000e+00
 0.000000e+00 9.443380e-01 5.566207e-02 0.000000e+00 0.000000e+00
 0.000000e+00 0.000000e+00 8.637749e-01 1.362251e-01 0.000000e+00
 0.000000e+00 0.000000e+00 0.000000e+00 8.907923e-01 1.092077e-01
 0.000000e+00 0.000000e+00 0.000000e+00 0.000000e+00 0.000000e+00
<ENDHMM>
~h "ai"
<BEGINHMM>
<NUMSTATES> 5
<STATE> 2
<MEAN> 25
 -1.293850e+00 -1.113796e+01 -5.967452e+00 -4.374600e+00 -7.512449e-01 2.039396e+00 9.454262e+00 1.412422e+01 3.634193e+00 -7.004203e+00 5.959382e-01 6.587390e+00 -3.703206e-01 5.901182e-01 3.146833e-01 7.178299e-02 1.112587e-01 3.504010e-01 4.840064e-01 -6.361496e-02 -3.793682e-01 1.178613e-02 1.783496e-02 1.471393e-01 -4.849059e-01
<VARIANCE> 25
 3.555978e+00 1.814732e+01 1.162406e+01 1.140097e+01 1.715164e+01 9.631827e+00 1.559151e+01 1.083880e+01 1.396449e+01 1.466983e+01 1.457568e+01 7.993198e+00 4.335878e-01 9.768052e-01 1.810014e+00 8.291213e-01 7.987375e-01 7.720513e-01 7.815249e-01 9.472066e-01 6.350393e-01 1.605834e+00 1.784584e+00 8.411089e-01 2.264549e-01
<GCONST> 7.302129e+01
<STATE> 3
<MEAN> 25
 -1.113189e+00 -4.363465e+00 -7.965382e+00 -5.544056e+00 -2.836755e+00 1.420871e+00 8.757839e+00 1.127337e+01 2.006675e+00 -7.206843e+00 -2.977452e+00 3.940396e+00 -2.370580e-01 1.544022e+00 2.045821e-01 -4.508818e-01 -4.528105e-01 -2.441145e-01 -8.902096e-01 -1.615540e+00 -5.842540e-01 4.517211e-01 -1.597054e-01 -6.751649e-02 -8.383654e-01
<VARIANCE> 25
 5.540884e+00 1.121158e+01 9.049694e+00 3.027374e+00 6.285659e+00 6.616726e+00 1.378352e+01 1.052678e+01 1.901470e+01 2.021533e+01 8.082119e+00 8.818456e+00 2.668765e-01 8.041429e-01 7.795041e-01 8.819662e-01 5.376869e-01 6.509945e-01 2.097973e+00 1.508792e+00 1.026618e+00 1.422737e+00 2.006819e+00 1.615454e+00 7.279859e-02
<GCONST> 6.943374e+01
<STATE> 4
<MEAN> 25
 -1.718349e+00 1.522316e+00 -8.121667e+00 -8.716670e+00 -5.135113e+00 1.553467e+00 5.436737e+00 4.452877e+00 1.213962e+00 -3.198097e+00 -3.989508e+00 3.045072e+00 -2.980525e-01 6.606707e-01 5.212938e-01 4.825641e-02 1.034761e-01 3.769113e-01 -2.770872e-01 -7.126532e-01 1.653448e-01 6.212648e-01 7.536959e-02 2.236520e-02 -4.092935e-01
<VARIANCE> 25
 3.633132e+00 7.251781e+00 4.921424e+00 5.793692e+00 5.737076e+00 6.932026e+00 9.236592e+00 1.054881e+01 8.338533e+00 9.958424e+00 6.041313e+00 6.393208e+00 1.865708e-01 3.339873e-01 7.142558e-01 7.475113e-01 7.474629e-01 6.992518e-01 8.535300e-01 6.369752e-01 1.186167e+00 9.186347e-01 6.554725e-01 5.798718e-01 6.729180e-02
<GCONST> 6.066255e+01
<TRANSP> 5
 0.000000e+00 1.000000e+00 0.000000e+00 0.000000e+00 0.000000e+00
 0.000000e+00 8.505755e-01 1.494245e-01 0.000000e+00 0.000000e+00
 0.000000e+00 0.000000e+00 6.246023e-01 3.753977e-01 0.000000e+00
 0.000000e+00 0.000000e+00 0.000000e+00 8.464268e-01 1.535732e-01
 0.000000e+00 0.000000e+00 0.000000e+00 0.000000e+00 0.000000e+00
<ENDHMM>
~h "am"
<BEGINHMM>
<NUMSTATES> 5
<STATE> 2
<MEAN> 25
 1.610196e+01 -6.388537e+00 3.062999e+00 7.653124e+00 -1.097769e+00 -3.317638e+00 4.066981e+00 -2.346778e+00 -1.731354e+01 -7.974312e+00 1.287127e+00 -7.419965e+00 1.489927e+00 -1.609007e+00 3.225966e-01 -1.911168e+00 -1.534232e+00 -2.325332e+00 -4.462476e-01 1.371581e+00 -1.584867e+00 -7.700626e-01 4.020917e-01 -1.084154e+00 2.368189e+00
<VARIANCE> 25
 3.269943e+01 2.321871e+01 1.056627e+01 4.068080e+01 9.418746e+00 1.472069e+01 5.546382e+01 1.168664e+01 9.674826e+00 6.405307e+00 1.145365e+01 1.672221e+01 3.904040e+00 3.251736e-01 9.290556e-01 1.043091e+01 7.833065e-01 1.669451e+00 6.643616e+00 3.994773e-01 7.432012e+00 2.876710e+00 2.006125e+00 2.295460e+00 2.068384e+00
<GCONST> 8.850097e+01
<STATE> 3
<MEAN> 25
 1.653132e+01 -8.828199e+00 4.577090e+00 -1.241483e-02 -7.169103e+00 -9.447621e+00 4.270862e+00 4.887245e+00 -1.483508e+01 -9.195333e+00 4.292004e+00 -4.658982e+00 7.730849e-02 3.578488e-01 -2.726533e-01 -6.517234e-01 -1.006351e+00 -9.582848e-01 2.698843e-01 1.031749e+00 1.569739e+00 2.262767e-01 -1.408346e-01 8.862555e-01 -8.840309e-02
<VARIANCE> 25
 1.762425e+01 1.250516e+01 3.137598e+01 1.034092e+02 1.119087e+01 1.262236e+01 6.857249e+01 1.900863e+01 7.238727e+01 7.683212e+00 5.116358e+00 7.650410e+00 6.858525e-02 1.578642e+00 7.409195e-01 2.662113e+00 1.584599e+00 8.953366e-01 7.044051e-01 2.154450e+00 3.584328e+00 1.287167e+00 1.325360e+00 5.808545e-01 1.096627e+00
<GCONST> 8.212143e+01
<STATE> 4
<MEAN> 25
 1.758983e+01 -3.919458e+00 2.891949e+00 -1.853567e-01 -1.420028e+01 -1.215219e+01 5.538558e+00 2.985415e+00 -5.957996e+00 -2.409891e+00 7.649628e-01 -1.007502e+00 -3.965705e-01 7.222145e-01 8.647296e-02 1.130031e-01 5.087051e-02 5.774887e-01 4.087382e-01 -1.275835e-01 7.378320e-01 4.101710e-01 -6.002386e-01 3.335509e-02 -6.621674e-01
<VARIANCE> 25
 8.984969e+00 3.913121e+01 2.548164e+01 5.680061e+01 2.512257e+01 2.456370e+01 2.818352e+01 1.619596e+01 6.567944e+01 5.310918e+01 9.579180e+00 7.478524e+00 1.126407e+00 2.673916e+00 1.664526e+00 3.637172e+00 3.591847e+00 3.717039e+00 4.053297e+00 2.167095e+00 3.627386e+00 3.871208e+00 1.246161e+00 8.893198e-01 1.424356e+00
<GCONST> 9.483059e+01
<TRANSP> 5
 0.000000e+00 1.000000e+00 0.000000e+00 0.000000e+00 0.000000e+00
 0.000000e+00 7.005488e-01 2.994513e-01 0.000000e+00 0.000000e+00
 0.000000e+00 0.000000e+00 8.412994e-01 1.587007e-01 0.000000e+00
 0.000000e+00 0.000000e+00 0.000000e+00 9.121875e-01 8.781251e-02
 0.000000e+00 0.000000e+00 0.000000e+00 0.000000e+00 0.000000e+00
<ENDHMM>
~h "ch"
<BEGINHMM>
<NUMSTATES> 5
<STATE> 2
<MEAN> 25
 4.339340e+00 1.047235e+00 -2.447652e+00 -9.174957e-01 -2.901835e+00 -2.051350e+00 1.175649e+00 1.127945e+00 -4.208413e+00 -1.577443e-01 9.195039e-01 7.968905e-01 -2.429020e+00 1.748360e+00 -6.336923e-02 -1.110883e+00 4.849639e-01 2.137469e+00 4.925575e-01 -1.125284e+00 1.918711e+00 1.019765e+00 -7.224317e-01 2.163519e+00 -2.042465e+00
<VARIANCE> 25
 2.909589e+01 3.654342e+01 2.813534e+01 7.079639e+01 4.242613e+01 3.875010e+01 1.289434e+01 2.153715e+01 2.144833e+01 2.204964e+01 4.546833e+00 2.772559e+01 2.727570e+00 1.063617e+00 2.332947e+00 3.383369e+00 4.694654e+00 3.967673e+00 2.916636e-01 1.076566e+00 5.567804e+00 2.291516e+00 1.721541e+00 2.349001e+00 3.558427e+00
<GCONST> 9.465011e+01
<STATE> 3
<MEAN> 25
 -5.501048e+00 4.883809e+00 -2.000382e+00 -1.854994e+00 7.728705e-01 4.235634e+00 9.313722e-01 -1.337935e+00 3.390763e+00 3.957434e+00 -1.459128e+00 2.773783e+00 3.621602e-02 -1.728237e-01 -1.219057e-01 -4.853624e-02 -1.625887e-01 -5.999169e-02 3.483817e-04 -1.131035e-01 -6.007272e-02 -5.323891e-02 -1.166770e-01 -3.008921e-01 6.142801e-02
<VARIANCE> 25
 4.818729e+00 6.290501e+00 5.124399e+00 7.659418e+00 9.260555e+00 7.506509e+00 6.677924e+00 6.983513e+00 8.555650e+00 5.714077e+00 4.809898e+00 6.818985e+00 1.619343e+00 3.568381e-01 8.616415e-01 1.242200e+00 5.832673e-01 8.475963e-01 7.084117e-01 8.395618e-01 2.233860e+00 8.144596e-01 5.502046e-01 9.824922e-01 9.142743e-01
<GCONST> 6.668143e+01
<STATE> 4
<MEAN> 25
 1.500056e+01 -7.187534e+00 -1.776596e+00 -1.276242e+00 -8.990751e+00 -4.813165e+00 5.716888e+00 5.357829e+00 -9.231884e+00 -6.677808e+00 1.506032e+00 -4.510637e+00 2.201362e-01 -1.669181e-01 -2.938958e-01 -1.954425e-01 -2.463556e-01 -1.773068e-01 2.162529e-01 5.170305e-01 1.465700e-01 -9.055041e-02 -1.609675e-02 1.742576e-02 6.346978e-02
<VARIANCE> 25
 1.972466e+01 2.716779e+01 3.264559e+01 1.120556e+02 3.849652e+01 1.714960e+01 2.401974e+01 7.305934e+01 7.555165e+01 2.324439e+01 2.691331e+01 2.213226e+01 2.366924e+00 1.756654e+00 1.641011e+00 3.027128e+00 1.384491e+00 9.382599e-01 1.925632e+00 9.997942e-01 3.638880e+00 2.560892e+00 1.140021e+00 1.856387e+00 2.819785e+00
<GCONST> 9.622170e+01
<TRANSP> 5
 0.000000e+00 1.000000e+00 0.000000e+00 0.000000e+00 0.000000e+00
 0.000000e+00 6.875503e-01 3.124497e-01 0.000000e+00 0.000000e+00
 0.000000e+00 0.000000e+00 9.228907e-01 7.710926e-02 0.000000e+00
 0.000000e+00 0.000000e+00 0.000000e+00 9.615157e-01 3.848428e-02
 0.000000e+00 0.000000e+00 0.000000e+00 0.000000e+00 0.000000e+00
<ENDHMM>
~h "eh"
<BEGINHMM>
<NUMSTATES> 5
<STATE> 2
<MEAN> 25
 2.927221e+00 5.107131e+00 8.874899e-01 4.786042e-01 1.109563e+00 4.254029e+00 2.609087e+00 -3.896015e-01 -2.612452e-01 -3.842205e-01 -2.071622e+00 -2.403105e+00 1.559213e+00 6.360176e-01 6.224139e-01 1.058883e+00 1.113056e+00 6.197674e-01 -2.431804e-01 -1.170246e+00 -9.751424e-01 1.735735e-01 -1.988470e-01 -1.640187e+00 1.039153e+00
<VARIANCE> 25
 8.779292e+01 4.799553e+01 1.386325e+01 2.184452e+01 3.336836e+01 2.455683e+01 2.067637e+01 1.586247e+01 3.297645e+01 3.619807e+01 1.580000e+01 3.546435e+01 3.720227e+00 2.359009e+00 2.755732e+00 1.661582e+00 3.862335e+00 4.541778e+00 3.466743e+00 2.341152e+00 6.088675e+00 2.120393e+00 1.747040e+00 6.240955e+00 3.080331e+00
<GCONST> 1.006451e+02
<STATE> 3
<MEAN> 25
 1.044573e+01 7.200772e+00 1.275720e+00 5.063774e+00 4.693531e+00 8.129018e+00 5.880056e+00 -6.191856e+00 -6.538821e+00 3.034439e+00 -3.440955e-01 -1.010173e+01 9.675755e-01 -2.902438e-01 9.117123e-02 2.394545e-01 1.056673e-01 -2.922104e-01 -2.187890e-01 -1.139908e-01 -6.136979e-01 1.792446e-02 4.369555e-01 -5.627427e-01 8.880719e-01
<VARIANCE> 25
 4.088262e+01 2.869890e+01 8.161423e+00 1.765039e+01 2.570842e+01 2.887447e+01 3.276527e+01 1.781805e+01 2.226305e+01 2.946338e+01 1.221216e+01 3.592904e+01 2.856332e+00 1.339493e+00 1.246912e+00 9.577501e-01 1.190933e+00 2.067080e+00 2.006543e+00 9.642079e-01 4.475577e+00 1.981450e+00 1.343472e+00 2.418095e+00 3.398399e+00
<GCONST> 9.119826e+01
<STATE> 4
<MEAN> 25
 1.196229e+01 9.516748e-01 2.027695e+00 6.040279e+00 5.585046e+00 4.376103e+00 3.178092e+00 -2.656929e+00 -9.515644e+00 -2.916917e+00 3.012672e+00 -7.197104e+00 7.664491e-01 -3.120916e-01 1.958394e-01 1.657575e-01 1.085262e-01 -8.129624e-01 -4.049025e-01 1.905718e-01 -5.326705e-01 -5.179836e-01 2.550531e-01 -2.718763e-01 8.601702e-01
<VARIANCE> 25
 2.680741e+01 4.536312e+01 1.206150e+01 3.206111e+01 5.014559e+01 6.781248e+01 1.192613e+02 1.508225e+01 3.510842e+01 2.979748e+01 2.764576e+01 3.416277e+01 3.767052e+00 3.220731e+00 1.600480e+00 1.357727e+00 1.951803e+00 3.815675e+00 4.136957e+00 9.757305e-01 5.314785e+00 3.755363e+00 2.441933e+00 2.328056e+00 5.862504e+00
<GCONST> 1.016133e+02
<TRANSP> 5
 0.000000e+00 1.000000e+00 0.000000e+00 0.000000e+00 0.000000e+00
 0.000000e+00 4.413244e-01 5.586755e-01 0.000000e+00 0.000000e+00
 0.000000e+00 0.000000e+00 7.017983e-01 2.982017e-01 0.000000e+00
 0.000000e+00 0.000000e+00 0.000000e+00 6.178145e-01 3.821854e-01
 0.000000e+00 0.000000e+00 0.000000e+00 0.000000e+00 0.000000e+00
<ENDHMM>
~h "eu"
<BEGINHMM>
<NUMSTATES> 5
<STATE> 2
<MEAN> 25
 3.674200e+00 1.943143e+00 1.159144e-01 -1.391163e+00 -1.203711e+00 -2.319885e+00 -1.645205e+00 -4.391788e+00 -4.544640e+00 -2.378905e-01 2.435275e+00 3.822753e-01 4.642732e+00 -2.121083e+00 3.035189e-01 -8.340286e-01 -1.710579e+00 -2.842143e+00 3.983335e-01 1.121756e-01 -3.400370e+00 -1.501656e+00 2.130050e+00 -9.584621e-01 5.095616e+00
<VARIANCE> 25
 9.971178e+01 2.351751e+01 1.158785e+01 8.802364e+00 1.455408e+01 3.321111e+01 1.165488e+01 1.551280e+01 7.675174e+01 2.199691e+01 2.833666e+01 1.904038e+01 3.549150e+00 3.687966e+00 1.194902e+00 1.276280e+00 2.041434e+00 1.947780e+00 1.990382e+00 2.877535e+00 4.089954e+00 2.134475e+00 1.753263e+00 1.283136e+00 4.468815e+00
<GCONST> 9.402634e+01
<STATE> 3
<MEAN> 25
 1.747242e+01 -9.352640e+00 2.021156e+00 -2.432744e+00 -2.445781e+00 -9.335369e+00 -1.005433e+00 -3.587148e+00 -1.752230e+01 -6.336223e+00 7.979660e+00 -3.101742e+00 3.005832e-01 -3.032026e-01 -1.490010e-01 -1.360196e-01 1.909356e-02 9.696960e-03 -9.856596e-02 1.549607e-01 -2.767738e-01 3.379231e-02 -1.809788e-02 -9.446323e-02 2.782506e-01
<VARIANCE> 25
 1.329865e+00 4.481569e+00 7.402598e+00 6.807291e+00 1.523556e+01 5.400581e+00 7.553427e+00 1.295700e+01 7.516113e+00 1.036586e+01 5.604340e+00 6.788253e+00 8.837425e-01 1.887490e+00 3.937266e-01 9.333900e-01 9.615788e-01 7.410446e-01 7.241350e-01 1.075283e+00 5.380199e-01 4.852855e-01 5.908368e-01 4.200051e-01 1.638116e+00
<GCONST> 6.531842e+01
<STATE> 4
<MEAN> 25
 1.053736e+01 -2.851697e+00 -1.662652e-01 -1.143537e+00 -2.994176e+00 -3.096755e+00 2.097073e+00 7.478061e+00 2.785017e-01 -3.534917e+00 9.295413e-01 -2.549607e+00 -5.371579e-01 2.874326e-01 -1.710640e-01 -1.859896e-02 -3.710866e-03 2.042178e-01 1.438434e-01 2.746736e-01 6.918831e-01 1.484990e-01 -3.132520e-01 1.483941e-01 -6.288900e-01
<VARIANCE> 25
 5.465817e+01 1.927767e+01 1.783000e+01 6.865845e+01 8.701548e+01 4.973737e+01 6.339121e+01 1.275897e+02 1.463726e+02 2.280981e+01 3.498921e+01 2.137564e+01 1.661947e+00 1.475509e+00 1.090737e+00 2.022149e+00 2.949174e+00 2.661194e+00 3.099047e+00 3.491717e+00 3.607218e+00 1.947729e+00 2.199602e+00 1.393042e+00 1.018212e+00
<GCONST> 1.013358e+02
<TRANSP> 5
 0.000000e+00 1.000000e+00 0.000000e+00 0.000000e+00 0.000000e+00
 0.000000e+00 7.716869e-01 2.283131e-01 0.000000e+00 0.000000e+00
 0.000000e+00 0.000000e+00 9.055596e-01 9.444045e-02 0.000000e+00
 0.000000e+00 0.000000e+00 0.000000e+00 9.694644e-01 3.053564e-02
 0.000000e+00 0.000000e+00 0.000000e+00 0.000000e+00 0.000000e+00
<ENDHMM>
~h "ff"
<BEGINHMM>
<NUMSTATES> 5
<STATE> 2
<MEAN> 25
 9.333051e+00 -2.640591e+00 -4.638131e+00 -3.527497e+00 -7.359871e+00 -4.762613e+00 5.232022e+00 3.785104e+00 -4.744222e+00 1.790571e-02 2.851692e+00 -3.656576e+00 3.961055e+00 -2.285360e+00 8.061025e-01 4.580641e-01 -8.142979e-01 -3.198534e+00 -1.056790e-04 1.531656e+00 -2.101293e+00 -1.938325e+00 2.217901e+00 -1.936773e+00 4.759281e+00
<VARIANCE> 25
 6.795364e+01 1.932737e+01 1.188391e+01 5.124877e+01 6.699112e+01 2.281814e+01 3.703674e+01 1.720422e+01 2.087876e+01 1.516723e+01 2.673392e+01 1.586155e+01 4.373225e+00 2.424629e+00 2.506856e+00 1.185603e+01 5.337145e+00 1.216175e+00 6.205666e+00 2.783876e+00 4.347966e+00 2.070254e+00 2.040043e+00 2.077904e+00 6.327379e+00
<GCONST> 1.010954e+02
<STATE> 3
<MEAN> 25
 7.982035e+00 -2.176784e+00 3.899108e+00 -2.410173e+00 3.824749e+00 -4.933725e+00 5.083496e+00 4.738535e+00 1.216547e+00 1.957619e-01 7.143672e+00 -1.021880e+00 -3.901553e-01 1.141786e-01 7.256815e-01 7.052550e-01 9.456385e-01 1.673478e-01 -1.158399e-01 -1.290572e-02 1.928486e-01 -2.449334e-03 -6.109130e-02 6.889407e-02 1.263773e-02
<VARIANCE> 25
 8.588223e+01 2.664221e+01 2.827127e+01 4.042716e+01 8.496665e+01 2.192035e+01 3.187894e+01 1.972215e+01 6.072297e+01 1.668026e+01 2.004976e+01 1.329837e+01 4.729872e+00 2.911541e+00 1.780237e+00 2.193783e+00 2.471300e+00 2.441065e+00 3.599076e+00 2.660887e+00 3.686417e+00 1.909711e+00 2.655600e+00 1.386740e+00 2.049237e+00
<GCONST> 9.921769e+01
<STATE> 4
<MEAN> 25
 1.149054e+00 -1.573280e+01 1.315175e+01 9.191559e+00 2.926528e+00 -8.609383e+00 -1.255024e+00 1.861714e+00 4.311110e-01 -6.020849e+00 3.362022e+00 -1.181555e+00 -3.358147e-02 -1.559101e-01 -9.862318e-02 6.652118e-02 -2.718541e-01 -1.055734e-01 -2.183505e-01 -1.037565e-01 -7.711590e-02 -7.355803e-03 -3.432230e-02 -4.972971e-02 -1.399489e-01
<VARIANCE> 25
 7.041080e+01 6.063651e+01 1.445946e+01 6.249540e+01 1.996604e+01 2.525455e+01 1.379622e+01 2.355445e+01 7.413438e+01 2.128672e+01 9.911978e+00 1.382928e+01 2.149385e+00 3.290781e+00 1.692800e+00 2.778527e+00 1.088236e+00 1.689991e+00 1.154622e+00 1.450509e+00 2.907092e+00 1.522184e+00 1.327072e+00 1.572189e+00 8.105487e-01
<GCONST> 9.204613e+01
<TRANSP> 5
 0.000000e+00 1.000000e+00 0.000000e+00 0.000000e+00 0.000000e+00
 0.000000e+00 5.294631e-01 4.705370e-01 0.000000e+00 0.000000e+00
 0.000000e+00 0.000000e+00 9.277000e-01 7.230002e-02 0.000000e+00
 0.000000e+00 0.000000e+00 0.000000e+00 9.631037e-01 3.689635e-02
 0.000000e+00 0.000000e+00 0.000000e+00 0.000000e+00 0.000000e+00
<ENDHMM>
~h "la"
<BEGINHMM>
<NUMSTATES> 5
<STATE> 2
<MEAN> 25
 1.262517e+01 -6.609897e+00 -2.858413e+00 -3.574633e+00 -8.701446e+00 -5.490086e+00 6.149032e+00 5.647722e+00 -5.183895e+00 -3.688649e+00 2.688932e+00 -3.581297e+00 -1.304289e-01 2.198832e-02 -4.174005e-01 -3.285378e-01 -1.983263e-01 -7.697210e-02 1.591672e-01 2.720212e-01 3.246682e-01 1.149212e-01 -7.170373e-02 4.316396e-02 -2.564249e-01
<VARIANCE> 25
 4.563033e+01 3.965071e+01 6.919072e+01 9.455872e+01 3.844336e+01 1.939811e+01 2.711786e+01 3.968529e+01 7.948542e+01 2.750982e+01 2.024384e+01 2.179712e+01 3.551522e+00 2.247890e+00 1.771562e+00 3.178593e+00 1.891282e+00 1.393991e+00 3.238402e+00 1.099812e+00 5.085311e+00 1.892963e+00 1.686921e+00 2.196538e+00 3.901122e+00
<GCONST> 1.005898e+02
<STATE> 3
<MEAN> 25
 -6.585118e-01 2.862077e-01 -8.694580e+00 -8.516961e+00 -6.927269e+00 -8.865361e-01 7.026616e+00 8.309556e+00 5.207592e+00 -6.927591e-01 -2.953197e+00 1.677645e+00 -1.172317e+00 1.062354e+00 1.158698e+00 4.079259e-01 9.654000e-01 1.218066e+00 -3.314421e-01 -1.018809e+00 -2.930167e-02 1.567930e-01 -5.076016e-01 2.393593e-02 -1.082746e+00
<VARIANCE> 25
 8.575383e+00 1.662889e+01 1.251417e+01 1.305608e+01 9.127687e+00 2.126545e+01 1.252928e+01 1.533926e+01 1.470524e+01 1.278617e+01 1.168788e+01 8.405336e+00 4.944601e-01 7.942620e-01 5.840136e-01 1.317640e+00 1.285822e+00 1.632211e+00 1.591943e+00 1.200532e+00 1.403646e+00 1.423396e+00 8.608619e-01 8.285342e-01 3.979234e-01
<GCONST> 7.597908e+01
<STATE> 4
<MEAN> 25
 -6.287618e+00 3.870510e+00 -5.220728e-01 -1.089047e+00 1.318137e+00 2.917590e+00 -3.222019e-01 -1.493797e+00 3.768136e+00 2.891134e+00 -1.832473e+00 2.277467e+00 -4.916588e-02 3.091358e-03 8.660953e-02 1.167960e-01 8.831142e-02 -1.382025e-02 -1.132813e-01 -1.227386e-01 -5.420056e-02 3.977343e-02 6.237310e-02 2.896214e-02 -2.922020e-02
<VARIANCE> 25
 1.133347e+00 2.751603e+00 3.466566e+00 4.991209e+00 4.738212e+00 5.780183e+00 6.598604e+00 7.583403e+00 6.058428e+00 6.688225e+00 6.358097e+00 5.889932e+00 7.115905e-02 1.291054e-01 2.501187e-01 4.479498e-01 4.730774e-01 4.950673e-01 6.472476e-01 7.128168e-01 6.596828e-01 7.485213e-01 6.841067e-01 6.024013e-01 2.418034e-02
<GCONST> 5.006451e+01
<TRANSP> 5
 0.000000e+00 1.000000e+00 0.000000e+00 0.000000e+00 0.000000e+00
 0.000000e+00 9.355073e-01 6.449264e-02 0.000000e+00 0.000000e+00
 0.000000e+00 0.000000e+00 8.436908e-01 1.563093e-01 0.000000e+00
 0.000000e+00 0.000000e+00 0.000000e+00 9.780331e-01 2.196689e-02
 0.000000e+00 0.000000e+00 0.000000e+00 0.000000e+00 0.000000e+00
<ENDHMM>
~h "lu"
<BEGINHMM>
<NUMSTATES> 5
<STATE> 2
<MEAN> 25
 -3.413138e+00 2.030388e+00 -3.728590e-01 -1.816912e+00 -6.746728e-01 6.975092e-01 -1.140708e+00 -1.755227e+00 3.672313e+00 2.562381e+00 -1.094204e+00 1.523927e+00 1.217390e+00 3.862130e-01 2.685379e-01 1.005381e+00 1.072037e+00 3.616062e-01 -1.821869e-01 -7.609145e-01 -1.184204e+00 -7.289969e-01 -9.948242e-02 -8.954437e-01 8.002290e-01
<VARIANCE> 25
 4.597945e+01 3.157779e+01 5.505269e+00 2.124300e+01 2.610453e+01 2.068096e+01 1.455079e+01 6.138524e+00 2.468983e+01 1.116959e+01 1.010696e+01 7.609565e+00 3.857255e+00 1.654182e+00 5.608618e-01 1.536667e+00 2.457588e+00 2.603756e+00 1.117073e+00 1.977960e+00 2.921203e+00 1.801035e+00 1.022874e+00 1.311976e+00 2.202318e+00
<GCONST> 8.583260e+01
<STATE> 3
<MEAN> 25
 1.051381e+01 -1.307218e+00 1.178986e+00 2.362948e+00 2.455951e+00 -1.104215e+00 -1.127444e+00 -5.319968e+00 -6.161889e+00 -1.381614e+00 2.695405e+00 -4.506844e+00 2.577772e+00 -1.373583e-01 8.240858e-01 2.032493e+00 1.676404e+00 5.781615e-01 -1.944954e-01 -7.923353e-01 -2.941210e+00 -1.239374e+00 1.153527e+00 -1.221064e+00 2.175375e+00
<VARIANCE> 25
 3.604692e+01 1.037580e+02 1.130477e+01 5.550733e+01 1.118001e+02 1.415676e+02 2.330089e+01 3.059056e+01 3.195059e+01 1.767502e+01 4.922016e+01 1.379230e+01 5.279060e+00 2.551461e+00 1.800375e+00 1.348963e+00 4.351382e+00 3.851681e+00 3.057051e+00 2.293245e+00 5.201159e+00 3.385384e+00 1.908823e+00 2.314590e+00 4.135877e+00
<GCONST> 1.037389e+02
<STATE> 4
<MEAN> 25
 1.342354e+01 -1.689442e+00 2.485595e+00 8.923432e+00 8.734945e+00 1.710111e+00 -2.167522e+00 -2.160585e+00 -6.672237e+00 -4.559108e+00 1.943797e+00 -4.672169e+00 5.579885e-02 1.059085e-01 -3.840443e-02 -1.003234e-01 -1.935842e-01 -2.003333e-02 3.024778e-01 3.238563e-01 1.565025e-01 9.416176e-03 2.220273e-02 2.065399e-01 -1.982050e-02
<VARIANCE> 25
 8.249977e+00 3.668157e+01 1.658945e+01 3.504151e+01 9.954890e+01 6.146754e+01 3.073628e+01 3.388944e+01 5.686692e+01 2.617375e+01 1.673929e+01 2.933798e+01 6.478283e-01 2.157986e+00 9.384727e-01 2.261240e+00 2.708003e+00 3.023441e+00 2.284957e+00 2.329418e+00 2.893348e+00 2.838688e+00 1.779847e+00 2.558090e+00 1.599878e+00
<GCONST> 9.614802e+01
<TRANSP> 5
 0.000000e+00 1.000000e+00 0.000000e+00 0.000000e+00 0.000000e+00
 0.000000e+00 6.893489e-01 3.106511e-01 0.000000e+00 0.000000e+00
 0.000000e+00 0.000000e+00 6.145580e-01 3.854419e-01 0.000000e+00
 0.000000e+00 0.000000e+00 0.000000e+00 9.493990e-01 5.060104e-02
 0.000000e+00 0.000000e+00 0.000000e+00 0.000000e+00 0.000000e+00
<ENDHMM>
~h "ein"
<BEGINHMM>
<NUMSTATES> 5
<STATE> 2
<MEAN> 25
 5.290090e+00 4.061554e+00 -7.101821e+00 -9.832317e+00 -1.069893e+01 -2.732816e+00 9.048763e+00 8.709949e+00 1.686381e+00 -6.641941e-01 -5.314741e-01 1.630829e+00 -2.455261e+00 -3.865425e-01 -1.293004e-01 1.067890e-01 1.044020e+00 8.105061e-01 -5.196419e-01 -1.057923e-02 1.790691e+00 4.027282e-01 -9.212517e-01 5.390088e-01 -1.749724e+00
<VARIANCE> 25
 1.833251e+01 9.432140e+00 8.765408e+00 4.104824e+01 1.737252e+01 5.958865e+00 2.552515e+01 2.619113e+01 1.678206e+01 1.217937e+01 9.338291e+00 7.684106e+00 2.622991e+00 8.919865e-01 7.311140e-01 1.587319e+00 3.083133e+00 2.180921e+00 8.898942e-01 9.119820e-01 3.879655e+00 1.348871e+00 1.351681e+00 7.470660e-01 1.647326e+00
<GCONST> 8.258316e+01
<STATE> 3
<MEAN> 25
 -1.123226e+00 2.606320e+00 -7.157861e+00 -1.068893e+01 -8.533628e+00 -1.489944e-01 6.948586e+00 6.890782e+00 4.542971e+00 -4.673917e-01 -4.349433e+00 3.727617e-01 -9.102961e-01 -1.469356e-02 6.591876e-01 9.271352e-01 1.276675e+00 7.892774e-01 -4.190018e-01 -5.327353e-01 2.745884e-01 3.530294e-02 -4.713168e-01 -3.770292e-01 -5.949357e-01
<VARIANCE> 25
 6.011092e+00 1.925601e+00 8.702256e+00 1.117819e+01 1.510115e+01 6.490007e+00 1.353922e+01 1.380010e+01 1.112553e+01 9.020201e+00 5.353014e+00 5.976485e+00 3.960278e-01 2.502724e-01 4.088412e-01 1.353740e+00 1.211150e+00 4.327480e-01 7.955825e-01 5.744391e-01 3.933758e-01 4.014954e-01 4.771888e-01 6.766692e-01 1.073960e-01
<GCONST> 6.132351e+01
<STATE> 4
<MEAN> 25
 -6.212157e+00 3.385853e+00 -4.567673e-01 -1.342734e+00 8.969749e-01 2.661509e+00 2.179995e-01 -1.230481e+00 4.259209e+00 2.532127e+00 -2.692182e+00 2.444237e+00 -5.345275e-02 -4.652865e-03 8.773611e-02 1.446775e-01 1.039561e-01 -3.047250e-03 -8.963571e-02 -1.383315e-01 -7.789765e-02 2.672890e-02 8.583748e-02 6.350111e-02 -2.782254e-02
<VARIANCE> 25
 1.086717e+00 2.342598e+00 3.059569e+00 6.572055e+00 6.358577e+00 4.670711e+00 7.531602e+00 8.043433e+00 6.340217e+00 6.459561e+00 7.476651e+00 5.654340e+00 5.777619e-02 1.280846e-01 2.351620e-01 3.653895e-01 4.499239e-01 4.971391e-01 6.262257e-01 6.326999e-01 6.656261e-01 6.605574e-01 6.061215e-01 6.706825e-01 2.063407e-02
<GCONST> 4.944769e+01
<TRANSP> 5
 0.000000e+00 1.000000e+00 0.000000e+00 0.000000e+00 0.000000e+00
 0.000000e+00 7.077450e-01 2.922550e-01 0.000000e+00 0.000000e+00
 0.000000e+00 0.000000e+00 7.720761e-01 2.279239e-01 0.000000e+00
 0.000000e+00 0.000000e+00 0.000000e+00 9.763880e-01 2.361193e-02
 0.000000e+00 0.000000e+00 0.000000e+00 0.000000e+00 0.000000e+00
<ENDHMM>
~h "sil"
<BEGINHMM>
<NUMSTATES> 5
<STATE> 2
<MEAN> 25
 -2.434241e+01 -1.807465e+00 -9.353778e+00 3.053686e+00 -6.747971e-01 5.393661e+00 -1.147640e+01 -5.907227e+00 -2.133497e+00 3.531331e+00 9.272191e-01 2.720846e+00 9.122681e-03 -1.321669e-02 2.999042e-02 1.429569e-02 1.888659e-02 -1.563208e-02 -2.020186e-02 1.139554e-01 7.491906e-03 -4.620923e-02 -4.133631e-02 -3.117320e-03 -2.293408e-03
<VARIANCE> 25
 3.604822e+01 4.384116e+00 1.201243e+01 4.593043e+00 2.826643e+00 4.183674e+00 1.490808e+01 6.095257e+00 7.677791e+00 5.966783e+00 4.095818e+00 4.152300e+00 3.138634e-02 5.414476e-02 1.423359e-01 3.155006e-01 3.192639e-01 2.252975e-01 4.268984e-01 5.258965e-01 6.412452e-01 7.593516e-01 5.177497e-01 5.220162e-01 1.891393e-02
<GCONST> 4.905574e+01
<STATE> 3
<MEAN> 25
 -1.345331e+01 1.206277e+00 -5.622191e+00 2.616293e-01 -4.611858e-01 4.036974e+00 -5.273737e+00 -3.326756e+00 5.065045e-01 3.092220e+00 -5.404266e-01 2.520214e+00 3.461169e+00 9.886643e-01 1.410661e+00 -9.294848e-01 1.371585e-01 -5.684476e-01 2.052827e+00 6.074471e-01 8.930933e-01 -2.928635e-01 -5.238195e-01 2.330741e-02 3.977187e+00
<VARIANCE> 25
 9.014713e+01 9.677600e+00 2.356142e+01 1.358306e+01 9.112576e+00 5.304481e+00 3.543388e+01 1.308760e+01 1.526924e+01 9.231664e+00 1.153418e+01 5.801227e+00 6.057973e+00 6.483195e-01 1.526166e+00 1.125594e+00 8.926480e-01 6.759186e-01 3.123422e+00 1.662575e+00 1.001485e+00 8.121724e-01 9.791154e-01 6.685879e-01 7.111136e+00
<GCONST> 8.203854e+01
<STATE> 4
<MEAN> 25
 -2.635174e+00 1.132024e+00 1.295732e-01 -3.311470e-01 6.740961e-01 7.464416e-01 -2.970290e-01 -7.611383e-01 1.641404e+00 9.890665e-01 -7.000368e-01 1.104743e+00 1.386908e-03 3.148553e-03 1.163772e-02 5.734064e-03 6.453532e-03 2.749316e-03 6.449142e-03 1.414588e-02 2.339779e-02 1.487084e-02 8.390875e-03 -2.253277e-03 4.988672e-03
<VARIANCE> 25
 6.044461e+01 3.144182e+01 1.618700e+01 2.416049e+01 2.234962e+01 2.871258e+01 1.787815e+01 1.899307e+01 3.221436e+01 2.136188e+01 1.340088e+01 1.617067e+01 7.430087e-01 1.044407e+00 6.529551e-01 1.098113e+00 1.012201e+00 1.255542e+00 1.312100e+00 1.246630e+00 1.413812e+00 1.164549e+00 8.553271e-01 9.340602e-01 8.555794e-01
<GCONST> 8.393374e+01
<TRANSP> 5
 0.000000e+00 1.000000e+00 0.000000e+00 0.000000e+00 0.000000e+00
 0.000000e+00 8.083912e-01 1.916088e-01 0.000000e+00 0.000000e+00
 0.000000e+00 0.000000e+00 6.318992e-01 3.681009e-01 0.000000e+00
 0.000000e+00 0.000000e+00 0.000000e+00 9.827363e-01 1.726366e-02
 0.000000e+00 0.000000e+00 0.000000e+00 0.000000e+00 0.000000e+00
<ENDHMM>
~h "sp"
<BEGINHMM>
<NUMSTATES> 3
<STATE> 2
<MEAN> 25
 -1.345331e+01 1.206277e+00 -5.622191e+00 2.616293e-01 -4.611858e-01 4.036974e+00 -5.273737e+00 -3.326756e+00 5.065045e-01 3.092220e+00 -5.404266e-01 2.520214e+00 3.461169e+00 9.886643e-01 1.410661e+00 -9.294848e-01 1.371585e-01 -5.684476e-01 2.052827e+00 6.074471e-01 8.930933e-01 -2.928635e-01 -5.238195e-01 2.330741e-02 3.977187e+00
<VARIANCE> 25
 9.014713e+01 9.677600e+00 2.356142e+01 1.358306e+01 9.112576e+00 5.304481e+00 3.543388e+01 1.308760e+01 1.526924e+01 9.231664e+00 1.153418e+01 5.801227e+00 6.057973e+00 6.483195e-01 1.526166e+00 1.125594e+00 8.926480e-01 6.759186e-01 3.123422e+00 1.662575e+00 1.001485e+00 8.121724e-01 9.791154e-01 6.685879e-01 7.111136e+00
<GCONST> 8.203854e+01
<TRANSP> 3
 0.0 1.0 0.0
 0.0 0.9 0.1
 0.0 0.0 0.0
<ENDHMM>
