~o
<STREAMINFO> 1 25
<VECSIZE> 25<NULLD><MFCC_D_N_Z_0><DIAGC>
~s "silst"
<MEAN> 25
 -1.289192e+01 1.229564e+00 -5.199829e+00 9.693385e-01 -4.706095e-01 3.960917e+00 -4.796919e+00 -3.272568e+00 2.120984e-01 2.814502e+00 -6.721568e-01 2.185093e+00 4.135503e+00 1.054232e+00 1.735067e+00 -5.910022e-01 -9.443783e-02 -6.825965e-01 2.230505e+00 4.280005e-01 5.273704e-02 -6.142395e-01 -3.507164e-01 -3.547044e-01 4.468441e+00
<VARIANCE> 25
 1.039700e+02 1.142166e+01 3.010771e+01 1.512688e+01 9.984687e+00 6.212050e+00 4.606252e+01 1.416334e+01 1.955286e+01 1.108901e+01 1.230439e+01 7.497974e+00 3.707998e+00 8.396651e-01 1.315952e+00 2.576315e+00 1.240281e+00 6.542761e-01 3.032357e+00 1.789979e+00 5.904824e+00 1.292811e+00 1.595008e+00 1.442134e+00 4.691087e+00
<GCONST> 8.791024e+01
~h "a"
<BEGINHMM>
<NUMSTATES> 5
<STATE> 2
<MEAN> 25
 -6.273121e+00 3.680072e+00 -1.188256e+00 -1.835880e+00 5.585105e-01 2.487978e+00 -6.777645e-01 -1.569392e+00 3.561333e+00 2.731281e+00 -1.944677e+00 2.582862e+00 -1.569328e-02 3.797143e-03 1.406480e-02 6.067651e-03 -1.668712e-03 -1.252041e-02 -5.916810e-02 -4.718656e-02 -2.571557e-02 -3.879351e-03 1.609190e-02 1.173435e-02 -1.353654e-02
<VARIANCE> 25
 1.671659e+00 5.818321e+00 3.764884e+00 4.528560e+00 4.513315e+00 6.333320e+00 9.114672e+00 9.398533e+00 8.475107e+00 7.830038e+00 5.887956e+00 7.554577e+00 8.168072e-02 4.988587e-01 3.122709e-01 3.929277e-01 4.035277e-01 5.998250e-01 9.165117e-01 1.006818e+00 8.487493e-01 7.673577e-01 6.800299e-01 7.021843e-01 6.209589e-02
<GCONST> 5.610691e+01
<STATE> 3
<MEAN> 25
 -6.451092e+00 4.506248e+00 -4.576167e-01 -1.348971e+00 5.352669e-01 2.079081e+00 -1.777296e+00 -3.232355e+00 2.145209e+00 3.005472e+00 -1.831885e+00 2.958408e+00 4.337267e+00 -2.026684e+00 -1.118209e+00 -1.733470e+00 -3.475515e+00 -2.253058e+00 1.258264e+00 1.673744e+00 -1.830566e+00 -1.279158e+00 1.122757e+00 -1.372785e+00 4.083435e+00
<VARIANCE> 25
 1.086717e+00 1.648510e+00 2.824128e+00 2.948764e+00 2.257287e+00 3.256125e+00 6.167644e+00 3.359790e+00 6.078758e+00 3.991080e+00 4.468527e+00 3.414354e+00 2.768953e+00 2.254458e+00 5.461972e-01 1.007475e+00 1.868376e+00 7.820362e-01 2.214077e+00 1.822851e+00 8.659444e-01 8.351721e-01 9.783084e-01 7.003835e-01 3.523252e+00
<GCONST> 6.315513e+01
<STATE> 4
<MEAN> 25
 1.403845e+01 -7.199839e+00 -1.518263e+00 -2.225379e+00 -4.116269e+00 -6.091800e+00 1.511162e+00 2.333312e+00 -6.735897e+00 -2.955852e+00 5.154634e+00 -4.406373e+00 9.057784e-01 -6.402701e-01 6.500971e-02 -1.137512e-01 -3.106904e-01 -7.069857e-01 -7.719295e-02 2.127023e-01 -3.890119e-01 4.046436e-02 6.874348e-01 -2.235654e-01 1.111773e+00
<VARIANCE> 25
 2.244337e+01 5.250013e+01 1.856253e+01 1.123494e+02 1.420165e+02 4.700262e+01 3.502048e+01 3.890697e+01 3.136383e+01 2.492696e+01 3.307236e+01 2.059101e+01 5.895354e+00 4.480650e+00 1.285732e+00 3.345327e+00 6.123049e+00 3.824373e+00 3.502809e+00 3.703083e+00 2.722416e+00 2.894560e+00 2.048514e+00 1.761138e+00 8.127198e+00
<GCONST> 1.057616e+02
<TRANSP> 5
 0.000000e+00 1.000000e+00 0.000000e+00 0.000000e+00 0.000000e+00
 0.000000e+00 9.745551e-01 2.544487e-02 0.000000e+00 0.000000e+00
 0.000000e+00 0.000000e+00 4.761898e-01 5.238103e-01 0.000000e+00
 0.000000e+00 0.000000e+00 0.000000e+00 9.041837e-01 9.581633e-02
 0.000000e+00 0.000000e+00 0.000000e+00 0.000000e+00 0.000000e+00
<ENDHMM>
~h "i"
<BEGINHMM>
<NUMSTATES> 5
<STATE> 2
<MEAN> 25
 1.180345e+01 -8.790606e+00 1.337587e+01 1.141773e+01 7.726438e-03 -1.381050e+01 -2.336287e+00 2.853504e+00 -9.244840e+00 -7.460328e+00 1.057296e+00 -7.779278e+00 1.688865e-01 -3.853645e-01 -3.581470e-01 -1.139073e+00 -1.485281e-03 -3.551438e-01 -1.083006e+00 -6.941113e-01 -1.091803e+00 -3.409357e-02 1.203077e+00 6.081405e-01 3.858571e-01
<VARIANCE> 25
 1.131272e+01 2.618575e+01 2.113064e+01 2.436380e+01 1.715980e+01 2.121055e+01 4.035394e+01 2.869460e+01 2.824185e+01 1.118377e+01 2.155770e+01 1.857918e+01 5.977390e-01 2.232562e+00 4.472713e+00 1.083317e+00 1.754022e+00 1.859580e+00 2.924992e+00 1.572968e+00 8.855323e-01 7.058771e-01 6.492361e-01 9.357060e-01 1.019617e+00
<GCONST> 8.620763e+01
<STATE> 3
<MEAN> 25
 1.538578e+01 -7.112625e+00 1.406386e+00 6.064531e-01 -2.873590e+00 -1.328107e+01 -9.164510e+00 -2.050008e+00 -1.101782e+01 1.123937e+00 8.613997e+00 -6.479951e+00 -8.156020e-02 7.747126e-01 -1.022602e+00 -5.610852e-01 -3.340568e-01 8.688384e-01 3.788738e-01 1.219054e-01 1.163804e+00 9.157436e-01 -1.373634e-01 4.568438e-02 -7.584729e-01
<VARIANCE> 25
 1.355800e+01 2.380870e+01 1.630379e+01 1.433486e+01 2.012170e+01 1.816963e+01 1.076453e+01 7.135525e+00 3.292682e+01 3.965174e+01 1.236959e+01 1.165956e+01 4.232167e-01 1.122341e+00 9.299293e-01 6.706145e-01 1.661804e+00 1.269387e+00 1.301299e+00 9.784590e-01 1.474714e+00 1.183411e+00 9.742510e-01 8.527468e-01 3.949833e-01
<GCONST> 7.878068e+01
<STATE> 4
<MEAN> 25
 6.139575e+00 -5.837387e+00 -6.623446e+00 -3.212265e+00 -3.760558e-01 -5.879200e-01 -5.127688e-02 6.499816e+00 4.354865e+00 -2.032428e+00 -1.349743e+00 -1.511270e+00 -9.669257e-01 2.806975e-02 -7.690461e-01 -8.552362e-01 -9.611138e-02 7.239100e-01 1.245117e+00 8.223687e-01 3.838950e-01 -7.435574e-01 -6.734070e-01 8.534493e-01 -8.498595e-01
<VARIANCE> 25
 2.797724e+01 3.326545e+01 1.834753e+01 3.751139e+01 1.609444e+01 1.704858e+01 2.883123e+01 4.753114e+01 2.396673e+01 4.363858e+01 3.375183e+01 2.075802e+01 2.689236e+00 4.566920e+00 1.493117e+00 3.072025e+00 2.621741e+00 3.021500e+00 3.457756e+00 4.597413e+00 2.011774e+00 3.452284e+00 1.668856e+00 2.410521e+00 1.108278e+00
<GCONST> 9.795879e+01
<TRANSP> 5
 0.000000e+00 1.000000e+00 0.000000e+00 0.000000e+00 0.000000e+00
 0.000000e+00 8.211945e-01 1.788055e-01 0.000000e+00 0.000000e+00
 0.000000e+00 0.000000e+00 8.579262e-01 1.420738e-01 0.000000e+00
 0.000000e+00 0.000000e+00 0.000000e+00 8.409609e-01 1.590392e-01
 0.000000e+00 0.000000e+00 0.000000e+00 0.000000e+00 0.000000e+00
<ENDHMM>
~h "l"
<BEGINHMM>
<NUMSTATES> 5
<STATE> 2
<MEAN> 25
 -5.969149e+00 2.287357e+00 -3.518279e-01 -5.424647e-01 1.687231e+00 1.627315e+00 -5.157411e-01 -1.726876e-01 3.943649e+00 2.229148e+00 -1.718523e+00 1.214447e+00 -2.989719e-02 -2.260128e-02 -1.055645e-02 1.418706e-02 1.880400e-02 2.654021e-02 -1.269431e-02 -2.328702e-02 -3.987920e-02 -4.174791e-02 -1.298863e-02 -2.849834e-02 -2.448298e-02
<VARIANCE> 25
 1.086717e+00 1.981262e+00 1.749022e+00 4.769322e+00 3.220235e+00 3.730302e+00 7.247678e+00 8.264051e+00 5.451376e+00 6.432846e+00 3.278918e+00 4.317044e+00 7.030072e-02 1.433557e-01 1.663811e-01 2.896174e-01 2.910668e-01 4.096533e-01 6.697826e-01 7.264781e-01 5.968086e-01 6.639571e-01 3.515737e-01 5.353760e-01 1.943423e-02
<GCONST> 4.460738e+01
<STATE> 3
<MEAN> 25
 -6.103644e+00 3.086230e+00 5.849280e-01 8.925800e-01 1.464837e+00 7.991255e-01 -8.443201e-01 -9.408252e-01 2.352645e+00 2.270679e+00 -1.492705e+00 1.177310e+00 1.787679e+00 1.742646e-01 5.282470e-01 9.988453e-01 2.787423e-01 1.393558e-01 2.557673e-01 -8.539327e-01 -1.668790e+00 -9.444762e-01 8.201392e-02 -6.538517e-01 1.347258e+00
<VARIANCE> 25
 7.740978e+00 7.335876e+00 2.731281e+00 8.500051e+00 5.907030e+00 1.109030e+01 3.896117e+00 8.054004e+00 9.783484e+00 1.096288e+01 9.281171e+00 9.495716e+00 4.914526e+00 9.713235e-01 5.127906e-01 3.118148e+00 1.311977e+00 2.234571e+00 1.048013e+00 2.628473e+00 6.855764e+00 3.006085e+00 9.932632e-01 2.994754e+00 3.029495e+00
<GCONST> 7.925903e+01
<STATE> 4
<MEAN> 25
 1.522003e+01 -3.672310e+00 4.250244e+00 9.671049e+00 5.812152e+00 6.088981e+00 8.221578e-01 -7.841713e+00 -1.321480e+01 -6.522955e+00 3.416104e+00 -5.918204e+00 1.208659e+00 -9.162281e-01 4.850029e-02 5.065271e-01 -3.592252e-01 -1.964113e-01 4.568110e-01 7.345901e-02 -1.021357e+00 -4.820935e-01 2.660580e-01 -3.871827e-01 1.273267e+00
<VARIANCE> 25
 1.588381e+01 1.774255e+01 3.444941e+00 5.660852e+00 6.664471e+00 2.075295e+01 8.561919e+00 8.859322e+00 1.019993e+01 5.127988e+00 1.060518e+01 1.152024e+01 3.273612e+00 9.821103e-01 1.072137e+00 2.022624e+00 8.166972e-01 1.923359e+00 1.254476e+00 8.962727e-01 4.945801e+00 1.686543e+00 1.617080e+00 1.243369e+00 2.727607e+00
<GCONST> 7.891328e+01
<TRANSP> 5
 0.000000e+00 1.000000e+00 0.000000e+00 0.000000e+00 0.000000e+00
 0.000000e+00 9.643154e-01 3.568460e-02 0.000000e+00 0.000000e+00
 0.000000e+00 0.000000e+00 8.060997e-01 1.939003e-01 0.000000e+00
 0.000000e+00 0.000000e+00 0.000000e+00 8.908556e-01 1.091444e-01
 0.000000e+00 0.000000e+00 0.000000e+00 0.000000e+00 0.000000e+00
<ENDHMM>
~h "m"
<BEGINHMM>
<NUMSTATES> 5
<STATE> 2
<MEAN> 25
 8.601621e+00 1.999181e+00 -2.320249e+00 -3.861458e+00 -4.197280e+00 -9.827154e-01 4.514113e+00 4.374874e+00 -1.093567e+00 -2.238568e+00 1.044999e+00 2.029206e+00 -1.376501e+00 8.542619e-01 6.576949e-02 6.388711e-02 -3.707189e-02 6.327871e-01 5.765424e-01 1.532485e-01 6.259829e-01 7.946301e-01 -1.310884e-01 1.232667e-01 -1.702428e+00
<VARIANCE> 25
 7.352602e+01 2.755450e+01 2.192439e+01 3.858589e+01 7.030404e+01 6.776356e+01 1.599751e+01 2.679604e+01 4.880444e+01 3.819758e+01 1.438173e+01 2.680797e+01 2.092525e+00 2.287886e+00 1.773424e+00 2.627627e+00 4.018064e+00 3.030430e+00 1.872359e+00 2.771352e+00 3.954414e+00 2.430603e+00 1.316362e+00 4.230297e+00 1.438948e+00
<GCONST> 9.991106e+01
<STATE> 3
<MEAN> 25
 -5.784554e+00 3.755079e+00 4.017687e-01 -2.752386e-01 2.030275e+00 3.748615e+00 1.605277e+00 -4.363508e-01 4.148266e+00 3.883179e+00 -4.032470e-01 3.051533e+00 -7.718143e-02 -9.392975e-02 8.008131e-02 1.416970e-01 3.514108e-02 -1.015230e-01 -1.914277e-01 -2.453368e-01 -2.412613e-01 -1.283934e-01 -8.862960e-02 -1.691369e-01 -2.037162e-02
<VARIANCE> 25
 2.018462e+01 2.335840e+00 3.303451e+00 7.589475e+00 3.940874e+00 5.681507e+00 1.061129e+01 1.126074e+01 1.776254e+01 8.635379e+00 1.018114e+01 1.173027e+01 2.341245e-01 2.847509e-01 3.853217e-01 6.997098e-01 5.858913e-01 7.683654e-01 9.406452e-01 8.224299e-01 9.534532e-01 8.215240e-01 8.990389e-01 7.022438e-01 1.208978e-01
<GCONST> 6.283890e+01
<STATE> 4
<MEAN> 25
 9.069806e+00 -1.510681e-01 3.620013e+00 6.337108e+00 -2.657788e-01 -2.028169e+00 4.119488e+00 8.206803e-02 -1.071209e+01 -5.348679e+00 1.677674e+00 -4.905874e+00 9.360880e-01 -7.244617e-01 1.506263e-01 3.430765e-01 -4.249682e-01 -1.371627e+00 -1.815391e-01 6.974216e-01 -1.768260e-01 -4.590816e-01 -4.503908e-02 -3.172103e-01 1.121737e+00
<VARIANCE> 25
 6.817561e+01 2.207461e+01 2.005825e+01 3.913833e+01 2.292374e+01 3.476736e+01 2.662583e+01 1.849163e+01 9.902245e+01 4.738347e+01 1.901464e+01 5.042710e+01 3.080922e+00 2.856272e+00 3.020794e+00 4.910285e+00 1.631446e+00 5.535129e+00 2.919383e+00 1.923390e+00 7.257511e+00 3.435123e+00 1.461121e+00 3.344347e+00 2.094660e+00
<GCONST> 1.024682e+02
<TRANSP> 5
 0.000000e+00 1.000000e+00 0.000000e+00 0.000000e+00 0.000000e+00
 0.000000e+00 8.018245e-01 1.981755e-01 0.000000e+00 0.000000e+00
 0.000000e+00 0.000000e+00 8.814707e-01 1.185293e-01 0.000000e+00
 0.000000e+00 0.000000e+00 0.000000e+00 8.546788e-01 1.453212e-01
 0.000000e+00 0.000000e+00 0.000000e+00 0.000000e+00 0.000000e+00
<ENDHMM>
~h "o"
<BEGINHMM>
<NUMSTATES> 5
<STATE> 2
<MEAN> 25
 1.653566e+01 1.763892e+00 4.389434e+00 2.258086e+00 -1.451806e+01 -1.557412e+01 -3.369946e+00 2.600952e+00 -2.186112e-01 -4.119095e+00 -3.067706e+00 -9.100617e+00 -5.216959e-01 6.222558e-01 1.861925e-02 5.375000e-03 -7.249872e-02 -4.870604e-01 -3.404312e-01 -2.911284e-01 -5.748985e-02 4.722649e-01 4.569702e-04 1.009608e-01 -6.717359e-01
<VARIANCE> 25
 6.767225e+00 1.825674e+01 1.008957e+01 8.205769e+00 6.510822e+00 1.840463e+01 8.500489e+00 5.336481e+00 9.466090e+00 1.092229e+01 7.033555e+00 1.028695e+01 6.268802e-01 7.319641e-01 7.488673e-01 8.646431e-01 5.654405e-01 1.032421e+00 3.599556e-01 4.041179e-01 8.820159e-01 1.201551e+00 4.605380e-01 5.429511e-01 6.119933e-01
<GCONST> 6.720196e+01
<STATE> 3
<MEAN> 25
 2.984801e-01 9.246975e+00 2.313528e+00 -1.161193e+00 -2.966961e+00 -2.070704e+00 -1.265941e+00 -1.090858e+00 3.166001e+00 2.677485e+00 -3.132881e+00 -1.364377e+00 -2.312593e+00 -7.721097e-01 -4.226927e-01 9.136619e-02 2.286556e+00 2.796563e+00 7.423254e-01 1.359109e-01 1.226054e+00 1.127174e+00 7.115970e-01 1.956776e+00 -1.521254e+00
<VARIANCE> 25
 2.100329e+01 1.004298e+01 7.219141e+00 8.712374e+00 5.574329e+01 8.513007e+01 3.125076e+01 1.412776e+01 1.609101e+01 2.047538e+01 1.953451e+01 3.201055e+01 1.240961e+00 1.283646e+00 8.232064e-01 1.443869e+00 3.027951e+00 4.263861e+00 1.347586e+00 9.899426e-01 1.653648e+00 1.372079e+00 1.059779e+00 1.070608e+00 7.818127e-01
<GCONST> 8.641491e+01
<STATE> 4
<MEAN> 25
 -6.510192e+00 3.528162e+00 -7.480527e-01 -6.055841e-01 1.773919e+00 3.015228e+00 -3.536598e-01 -1.392027e+00 3.683770e+00 2.930470e+00 -1.768108e+00 3.327384e+00 -2.393811e-02 -2.840682e-02 -2.456531e-02 -1.926716e-02 3.045257e-03 1.825203e-02 2.383320e-02 1.272417e-02 -3.763661e-05 -5.861599e-03 -5.977063e-03 -3.754795e-03 -8.745838e-03
<VARIANCE> 25
 1.086717e+00 1.562706e+00 2.384421e+00 2.752898e+00 4.493725e+00 4.513635e+00 7.307969e+00 6.198221e+00 6.540739e+00 6.317396e+00 5.645616e+00 6.605329e+00 5.517762e-02 1.622019e-01 2.113180e-01 3.253664e-01 4.143316e-01 5.111552e-01 8.012360e-01 6.468087e-01 6.945759e-01 6.791046e-01 6.572433e-01 7.249569e-01 1.891393e-02
<GCONST> 4.745783e+01
<TRANSP> 5
 0.000000e+00 1.000000e+00 0.000000e+00 0.000000e+00 0.000000e+00
 0.000000e+00 9.311723e-01 6.882773e-02 0.000000e+00 0.000000e+00
 0.000000e+00 0.000000e+00 8.255554e-01 1.744446e-01 0.000000e+00
 0.000000e+00 0.000000e+00 0.000000e+00 9.811921e-01 1.880790e-02
 0.000000e+00 0.000000e+00 0.000000e+00 0.000000e+00 0.000000e+00
<ENDHMM>
~h "p"
<BEGINHMM>
<NUMSTATES> 5
<STATE> 2
<MEAN> 25
 1.150139e+01 2.631159e+00 4.166743e+00 1.311385e+00 -7.623269e+00 -3.483990e+00 9.074057e+00 4.972591e+00 1.172716e+00 -1.465583e+00 -5.089019e+00 -3.073164e+00 -2.963183e+00 5.671117e-01 -2.826061e-01 2.118132e-01 3.838017e+00 3.539277e+00 3.820394e-01 8.285603e-01 2.060447e+00 9.827251e-01 3.900170e-01 -1.433799e-02 -2.453367e+00
<VARIANCE> 25
 1.876328e+01 4.076688e+01 2.290341e+01 4.131720e+01 4.411749e+01 6.875327e+01 1.800689e+01 1.805844e+01 2.412325e+01 1.598491e+01 6.423417e+00 1.336142e+01 6.890084e-01 1.389942e+00 1.640670e+00 2.680914e+00 1.522253e+00 5.574254e+00 3.547112e+00 7.688018e-01 5.392349e-01 9.938901e-01 2.391062e+00 3.039418e+00 2.591686e-01
<GCONST> 8.823712e+01
<STATE> 3
<MEAN> 25
 4.285685e+00 -7.125830e+00 -7.454420e+00 -2.373533e+00 -2.397705e+00 -3.130183e+00 4.581450e+00 1.307152e+01 7.621665e+00 -1.562340e+00 -1.741082e+00 -1.493232e+00 -1.346271e+00 -4.179862e-01 -1.226006e+00 -3.468438e-01 -3.203629e-01 -7.108622e-01 -1.387482e+00 -5.976080e-01 -1.068239e-01 -2.251960e-03 5.251139e-01 5.672379e-01 -1.243576e+00
<VARIANCE> 25
 4.498286e+00 7.347549e+01 3.433915e+01 1.079506e+01 2.190881e+01 2.012486e+01 1.406028e+01 4.999884e+01 1.821106e+01 2.370527e+01 1.342674e+01 5.457054e+00 1.466044e+00 9.128512e-01 1.459447e+00 1.237060e+00 2.867267e+00 6.624404e-01 1.919612e+00 3.773448e+00 1.728260e+00 1.100272e+00 5.251507e-01 1.120889e+00 7.093010e-01
<GCONST> 8.394211e+01
<STATE> 4
<MEAN> 25
 -5.182598e+00 3.381960e+00 -1.142890e-01 -5.220268e-01 1.411169e+00 1.191502e+00 -3.522186e-01 7.654925e-01 4.089354e+00 1.607315e+00 -1.275441e+00 2.314359e+00 -1.132633e-01 -6.053451e-02 -4.832755e-02 -3.446477e-03 2.192864e-02 -1.984677e-02 -7.481574e-02 -4.823784e-02 -2.157447e-02 -6.395218e-02 -8.080062e-02 -6.098122e-03 -7.869541e-02
<VARIANCE> 25
 1.134036e+01 6.332619e+00 6.557768e+00 7.004333e+00 9.595299e+00 9.399042e+00 7.626748e+00 1.567467e+01 7.369928e+00 9.252077e+00 6.849082e+00 7.472038e+00 1.106698e+00 5.257638e-01 5.133044e-01 5.454528e-01 6.238123e-01 8.406410e-01 7.785603e-01 1.431760e+00 8.551788e-01 8.083746e-01 6.090872e-01 8.929870e-01 7.204528e-01
<GCONST> 6.783383e+01
<TRANSP> 5
 0.000000e+00 1.000000e+00 0.000000e+00 0.000000e+00 0.000000e+00
 0.000000e+00 7.305719e-01 2.694282e-01 0.000000e+00 0.000000e+00
 0.000000e+00 0.000000e+00 6.868070e-01 3.131930e-01 0.000000e+00
 0.000000e+00 0.000000e+00 0.000000e+00 9.740909e-01 2.590916e-02
 0.000000e+00 0.000000e+00 0.000000e+00 0.000000e+00 0.000000e+00
<ENDHMM>
~h "r"
<BEGINHMM>
<NUMSTATES> 5
<STATE> 2
<MEAN> 25
 -3.154840e+00 3.326287e+00 -3.949258e+00 -5.923873e+00 -3.389395e+00 1.058561e+00 2.715193e+00 3.584494e+00 5.516889e+00 1.670436e+00 -2.919326e+00 1.888880e+00 -8.042437e-01 2.276877e-01 1.087278e+00 1.036857e+00 9.202191e-01 7.300428e-01 -5.696063e-01 -1.251181e+00 -6.865292e-01 4.312634e-01 5.732481e-01 1.270376e-01 -5.435632e-01
<VARIANCE> 25
 3.932233e+00 2.843620e+00 8.638346e+00 6.347354e+00 1.010966e+01 1.275268e+01 8.909810e+00 1.662730e+01 1.555062e+01 6.321220e+00 5.408666e+00 5.053504e+00 2.481500e-01 6.905242e-01 5.207388e-01 1.756769e+00 9.018258e-01 7.594861e-01 1.481419e+00 5.941199e-01 1.023243e+00 5.466567e-01 1.109843e+00 5.430378e-01 7.714054e-02
<GCONST> 6.411037e+01
<STATE> 3
<MEAN> 25
 -5.624142e+00 2.353595e+00 -3.537723e-01 -2.047199e-01 -3.510426e-01 1.953243e+00 6.970845e-01 -1.280745e+00 2.164969e+00 2.747808e+00 2.108186e-02 2.188821e+00 -1.290198e-01 1.493252e-02 1.713224e-01 2.519473e-01 1.650135e-01 4.610072e-02 -1.912225e-01 -3.137864e-01 -1.715550e-01 -9.082133e-02 3.068871e-02 -8.022691e-02 -8.348112e-02
<VARIANCE> 25
 1.086717e+00 8.969031e+00 4.350346e+00 2.375116e+01 3.418700e+00 1.040667e+01 1.046057e+01 7.586012e+00 1.015009e+01 5.437183e+00 7.009309e+00 6.170249e+00 6.829761e-02 7.008781e-01 3.257845e-01 1.477476e+00 4.524638e-01 1.169771e+00 6.873830e-01 6.100198e-01 1.063200e+00 6.983855e-01 6.144766e-01 7.505995e-01 7.654451e-02
<GCONST> 5.966780e+01
<STATE> 4
<MEAN> 25
 -6.437724e+00 4.015627e+00 -1.118278e-01 -6.634577e-01 1.233749e+00 2.925427e+00 -1.112680e+00 -2.546605e+00 3.375673e+00 2.950035e+00 -1.887879e+00 2.349607e+00 -5.946548e-03 -4.340976e-03 3.776547e-03 2.820959e-03 5.093897e-03 -3.738370e-03 -1.220567e-02 -7.379767e-03 -8.709780e-04 8.744369e-04 -4.676871e-03 6.997311e-03 -8.283406e-04
<VARIANCE> 25
 1.086717e+00 2.322767e+00 2.446899e+00 3.082281e+00 3.869413e+00 5.150621e+00 5.483140e+00 5.796394e+00 6.590705e+00 6.454234e+00 5.869347e+00 5.857051e+00 4.390219e-02 1.220412e-01 1.996909e-01 2.957169e-01 3.843813e-01 5.292433e-01 6.293804e-01 6.071086e-01 6.420580e-01 6.387053e-01 6.501328e-01 5.983855e-01 1.891393e-02
<GCONST> 4.621590e+01
<TRANSP> 5
 0.000000e+00 1.000000e+00 0.000000e+00 0.000000e+00 0.000000e+00
 0.000000e+00 7.076017e-01 2.923983e-01 0.000000e+00 0.000000e+00
 0.000000e+00 0.000000e+00 8.689361e-01 1.310640e-01 0.000000e+00
 0.000000e+00 0.000000e+00 0.000000e+00 9.848754e-01 1.512462e-02
 0.000000e+00 0.000000e+00 0.000000e+00 0.000000e+00 0.000000e+00
<ENDHMM>
~h "t"
<BEGINHMM>
<NUMSTATES> 5
<STATE> 2
<MEAN> 25
 3.782902e+00 -2.731576e+00 4.925424e+00 4.684815e+00 5.859380e+00 -3.603562e+00 -4.815321e+00 -5.731406e-01 -3.353148e+00 -3.479805e+00 1.306547e+00 -3.974444e+00 -2.036504e-01 2.795928e-01 -1.082466e-01 -5.555624e-01 -4.093484e-02 3.935475e-01 3.343031e-01 8.978479e-02 5.226055e-01 2.640146e-01 -6.694238e-02 3.518337e-01 -1.738233e-01
<VARIANCE> 25
 5.212747e+01 4.510530e+01 2.677781e+01 3.585872e+01 1.657610e+01 3.119849e+01 3.309129e+01 1.627627e+01 5.214563e+01 3.495803e+01 2.001300e+01 2.963038e+01 5.507444e+00 4.891239e+00 2.313818e+00 2.488731e+00 1.668136e+00 2.791848e+00 3.064521e+00 2.475891e+00 4.255947e+00 3.335542e+00 2.276594e+00 2.045430e+00 1.041347e+01
<GCONST> 1.021509e+02
<STATE> 3
<MEAN> 25
 1.413415e+01 -1.225442e+01 7.600036e+00 4.879935e+00 5.957984e+00 -5.850614e+00 -1.148013e+01 -4.066533e+00 -1.392627e+01 -9.712996e+00 4.439448e+00 -6.515577e+00 9.366030e-01 -2.664856e-01 -6.357731e-01 -2.260220e-01 -1.034510e+00 4.569548e-02 5.733883e-01 -2.900439e-01 -1.070888e+00 -6.021231e-01 2.913947e-02 3.855162e-02 4.516961e-01
<VARIANCE> 25
 5.135892e+00 1.111103e+01 1.467016e+01 2.266249e+01 1.285832e+01 1.764261e+01 3.341069e+01 8.305844e+00 1.542752e+01 2.410831e+01 9.447075e+00 1.201645e+01 1.431735e+00 1.873750e+00 1.249262e+00 2.666427e+00 2.154747e+00 2.003196e+00 3.584260e+00 2.015868e+00 3.519155e+00 3.904533e+00 1.476413e+00 1.651912e+00 7.832387e-01
<GCONST> 8.639619e+01
<STATE> 4
<MEAN> 25
 1.984559e+01 -6.376071e+00 -3.845467e+00 -9.064072e+00 -1.057731e+01 -6.677856e+00 4.903017e+00 5.457451e+00 -8.995457e+00 -7.121290e+00 4.850058e+00 -3.305928e+00 -4.727692e-02 8.201622e-01 -4.288729e-01 -4.805117e-01 -1.119924e+00 2.407350e-02 5.548033e-01 6.573365e-01 5.342031e-01 -3.374680e-02 -5.233611e-01 -1.928652e-01 -6.343623e-01
<VARIANCE> 25
 2.334442e+00 1.740571e+01 1.056973e+01 1.941984e+01 1.908898e+01 1.564651e+01 1.852517e+01 2.756585e+01 9.402175e+00 2.347697e+01 2.034241e+01 2.713060e+01 4.344751e-01 1.294536e+00 7.152490e-01 8.994523e-01 1.494090e+00 1.150730e+00 1.210473e+00 1.800972e+00 1.639804e+00 1.198665e+00 1.334948e+00 1.797101e+00 5.732558e-01
<GCONST> 7.992030e+01
<TRANSP> 5
 0.000000e+00 1.000000e+00 0.000000e+00 0.000000e+00 0.000000e+00
 0.000000e+00 9.443203e-01 5.567975e-02 0.000000e+00 0.000000e+00
 0.000000e+00 0.000000e+00 8.730094e-01 1.269905e-01 0.000000e+00
 0.000000e+00 0.000000e+00 0.000000e+00 8.912972e-01 1.087029e-01
 0.000000e+00 0.000000e+00 0.000000e+00 0.000000e+00 0.000000e+00
<ENDHMM>
~h "ai"
<BEGINHMM>
<NUMSTATES> 5
<STATE> 2
<MEAN> 25
 -1.526914e+00 -1.094814e+01 -5.602412e+00 -4.373456e+00 -5.697649e-01 2.500896e+00 9.611271e+00 1.389930e+01 3.764473e+00 -6.461628e+00 1.013876e+00 6.843451e+00 -4.100609e-01 4.653367e-01 3.230255e-01 2.644491e-01 7.928853e-02 2.574511e-01 6.050341e-01 9.015976e-02 -3.166825e-01 1.395545e-01 6.998069e-02 5.654594e-02 -4.808156e-01
<VARIANCE> 25
 2.808038e+00 2.331702e+01 1.007522e+01 1.156841e+01 1.761786e+01 7.754462e+00 1.558680e+01 1.356691e+01 1.486061e+01 1.621685e+01 1.094013e+01 5.783822e+00 5.156277e-01 8.752501e-01 1.957207e+00 1.033299e+00 8.042061e-01 6.573298e-01 6.136497e-01 8.368188e-01 7.791728e-01 1.460646e+00 1.796530e+00 7.490639e-01 2.760442e-01
<GCONST> 7.253425e+01
<STATE> 3
<MEAN> 25
 -2.307648e+00 -3.153564e+00 -7.502992e+00 -5.719262e+00 -2.745364e+00 2.187820e+00 8.709415e+00 9.636680e+00 1.266714e+00 -6.167312e+00 -2.573543e+00 3.889274e+00 -1.743791e-01 1.407809e+00 3.829435e-01 1.405668e-01 -7.063034e-02 -1.706533e-01 -8.508980e-01 -1.504505e+00 -3.219746e-01 4.481420e-01 -3.891900e-01 -1.619278e-01 -7.617990e-01
<VARIANCE> 25
 3.978652e+00 1.062069e+01 5.236736e+00 2.690310e+00 3.895894e+00 4.736517e+00 1.137044e+01 1.115123e+01 1.663563e+01 2.078253e+01 4.654881e+00 7.700522e+00 3.286400e-01 5.932129e-01 1.074244e+00 1.032326e+00 5.401312e-01 9.020588e-01 1.757667e+00 9.029625e-01 1.288346e+00 9.220391e-01 1.479396e+00 1.231598e+00 8.226935e-02
<GCONST> 6.600439e+01
<STATE> 4
<MEAN> 25
 -1.915681e+00 2.681483e+00 -8.333290e+00 -9.391539e+00 -5.731057e+00 1.574280e+00 4.457522e+00 2.672323e+00 1.212234e+00 -1.927350e+00 -4.159582e+00 2.451375e+00 -3.356995e-01 4.169871e-01 4.486316e-01 -6.055897e-04 7.541760e-02 1.774586e-01 -3.845596e-01 -5.786768e-01 1.873869e-01 4.892325e-01 1.458724e-01 -3.791916e-02 -3.471224e-01
<VARIANCE> 25
 2.607518e+00 2.670703e+00 5.893478e+00 5.509271e+00 5.336280e+00 4.835828e+00 4.909899e+00 4.967172e+00 8.872164e+00 9.355739e+00 4.870247e+00 6.102789e+00 1.719892e-01 1.745644e-01 6.597219e-01 8.354118e-01 1.003242e+00 5.115381e-01 6.018988e-01 3.100670e-01 1.365537e+00 1.091915e+00 6.755509e-01 6.997294e-01 7.020133e-02
<GCONST> 5.616995e+01
<TRANSP> 5
 0.000000e+00 1.000000e+00 0.000000e+00 0.000000e+00 0.000000e+00
 0.000000e+00 8.533649e-01 1.466350e-01 0.000000e+00 0.000000e+00
 0.000000e+00 0.000000e+00 7.115391e-01 2.884609e-01 0.000000e+00
 0.000000e+00 0.000000e+00 0.000000e+00 7.794895e-01 2.205105e-01
 0.000000e+00 0.000000e+00 0.000000e+00 0.000000e+00 0.000000e+00
<ENDHMM>
~h "am"
<BEGINHMM>
<NUMSTATES> 5
<STATE> 2
<MEAN> 25
 1.811348e+01 -8.078595e+00 2.437972e+00 4.976296e+00 -1.816556e+00 -3.786143e+00 2.208316e+00 -2.435496e+00 -1.719202e+01 -7.861754e+00 1.901893e+00 -8.185653e+00 1.048184e+00 -1.585591e+00 2.013470e-01 -2.761578e+00 -1.837564e+00 -2.370164e+00 -8.501409e-01 1.580952e+00 -8.909231e-01 -5.640194e-01 7.613149e-01 -5.181941e-01 2.152478e+00
<VARIANCE> 25
 1.296565e+01 1.724461e+01 7.732928e+00 5.746868e+01 1.288804e+01 1.234948e+01 6.068496e+01 9.864056e+00 5.613726e+00 5.790048e+00 1.492499e+01 8.313593e+00 2.646553e+00 3.455973e-01 7.299278e-01 7.679883e+00 7.444022e-01 1.594164e+00 5.001736e+00 3.304817e-01 4.544751e+00 1.582119e+00 2.410810e+00 3.467547e+00 1.504738e+00
<GCONST> 8.403333e+01
<STATE> 3
<MEAN> 25
 1.364380e+01 -7.039881e+00 8.986650e+00 7.193531e+00 -6.264590e+00 -7.773408e+00 1.049630e+01 3.946290e+00 -2.098504e+01 -1.124616e+01 4.207140e+00 -5.155762e+00 1.368743e-01 -1.768061e-01 -1.486841e-01 -7.168406e-01 -5.990075e-01 -3.120051e-01 -4.406672e-02 4.753682e-01 7.378157e-01 -3.492756e-01 -1.408970e-01 6.275807e-01 2.858095e-01
<VARIANCE> 25
 9.460874e+00 8.851318e+00 1.264377e+01 5.887275e+01 7.313262e+00 1.586233e+00 3.892498e+01 2.473496e+00 8.718165e+00 5.757975e+00 3.878204e+00 4.238076e+00 9.238916e-02 1.025562e-01 6.749698e-01 8.315136e-01 6.707258e-01 7.504038e-01 5.720571e-01 1.191819e+00 1.721183e+00 2.693679e-01 5.671171e-01 4.952218e-01 8.480298e-02
<GCONST> 5.990871e+01
<STATE> 4
<MEAN> 25
 1.899169e+01 -5.511461e+00 3.889184e-01 -4.012254e+00 -1.444615e+01 -1.308682e+01 2.687320e+00 4.007457e+00 -3.230308e+00 -1.659309e+00 1.467019e+00 -3.566146e-01 -1.515169e-01 9.744339e-01 -9.851272e-02 2.481072e-01 -5.546051e-01 -2.394695e-01 4.321382e-01 2.462842e-02 1.059892e+00 7.931719e-01 -6.384801e-01 1.876515e-01 -7.251010e-01
<VARIANCE> 25
 4.539749e+00 4.149483e+01 1.288513e+01 4.456040e+01 2.140322e+01 2.147070e+01 2.432220e+01 2.531864e+01 2.690000e+01 4.338991e+01 5.161430e+00 4.915338e+00 4.695807e-01 3.175371e+00 1.707078e+00 4.145235e+00 2.080726e+00 1.703040e+00 3.879242e+00 3.170608e+00 5.140323e+00 4.160605e+00 1.347374e+00 8.935395e-01 1.418588e+00
<GCONST> 9.011636e+01
<TRANSP> 5
 0.000000e+00 1.000000e+00 0.000000e+00 0.000000e+00 0.000000e+00
 0.000000e+00 6.997930e-01 3.002070e-01 0.000000e+00 0.000000e+00
 0.000000e+00 0.000000e+00 8.237545e-01 1.762455e-01 0.000000e+00
 0.000000e+00 0.000000e+00 0.000000e+00 9.060118e-01 9.398814e-02
 0.000000e+00 0.000000e+00 0.000000e+00 0.000000e+00 0.000000e+00
<ENDHMM>
~h "ch"
<BEGINHMM>
<NUMSTATES> 5
<STATE> 2
<MEAN> 25
 8.268120e-02 2.540985e+00 -4.364763e+00 -2.875385e+00 -3.106477e+00 -7.422576e-01 1.946057e+00 6.197085e-01 -1.193756e+00 9.023201e-01 5.536918e-01 3.281855e+00 -1.482517e+00 1.587965e+00 2.834730e-01 -7.464116e-01 6.380754e-01 1.502051e+00 4.586465e-01 -2.496198e-01 1.038699e+00 2.528592e-01 -5.062743e-01 1.204316e+00 -1.626994e+00
<VARIANCE> 25
 2.460388e+01 1.179911e+01 1.236203e+01 2.467215e+01 2.218123e+01 2.987528e+01 1.590710e+01 1.502742e+01 2.559314e+01 2.438784e+01 5.103424e+00 1.344250e+01 2.200058e+00 1.605556e+00 1.895531e+00 3.367136e+00 3.763387e+00 3.062721e+00 5.262754e-01 1.779985e+00 3.290881e+00 2.244974e+00 9.499323e-01 2.549281e+00 1.315881e+00
<GCONST> 8.862943e+01
<STATE> 3
<MEAN> 25
 -5.816206e+00 5.036862e+00 -1.618827e+00 -1.926042e+00 1.095967e+00 4.403717e+00 4.726001e-01 -1.436981e+00 3.937675e+00 3.971364e+00 -1.655985e+00 2.853618e+00 1.380849e-01 -6.984597e-02 -4.527598e-02 4.286722e-02 -5.406259e-02 -6.202917e-02 -3.770854e-02 -1.119240e-01 -1.576852e-01 -2.880956e-02 -2.489853e-02 -1.966368e-01 1.164045e-01
<VARIANCE> 25
 1.086717e+00 1.075118e+00 3.205900e+00 3.809211e+00 4.512650e+00 5.086290e+00 7.053261e+00 6.188462e+00 6.766045e+00 6.698187e+00 4.965558e+00 4.420468e+00 8.546597e-01 1.842799e-01 3.708841e-01 7.957695e-01 5.769488e-01 7.849928e-01 8.549070e-01 7.198831e-01 1.319281e+00 8.561952e-01 6.197154e-01 7.419369e-01 4.881026e-01
<GCONST> 5.669850e+01
<STATE> 4
<MEAN> 25
 1.354479e+01 -3.155218e+00 3.465799e+00 9.566713e+00 -4.036482e+00 -1.843786e+00 5.065717e+00 -1.569276e+00 -1.696971e+01 -1.047905e+01 2.108763e+00 -7.485475e+00 1.031565e+00 -7.448865e-01 9.349997e-02 -1.699242e-01 -5.793957e-01 -5.167814e-01 2.119400e-02 2.450991e-01 -6.352960e-01 -5.904979e-01 2.705454e-01 6.560609e-05 1.178113e+00
<VARIANCE> 25
 1.508969e+01 1.265317e+01 1.570609e+01 2.239729e+01 2.399590e+01 9.547108e+00 1.912640e+01 1.392230e+01 2.645584e+01 1.906838e+01 1.478385e+01 1.275195e+01 2.148721e+00 7.436309e-01 2.030245e+00 4.307317e+00 5.827786e-01 1.002870e+00 2.235267e+00 7.159671e-01 5.685153e+00 3.262586e+00 8.541755e-01 2.447029e+00 1.635045e+00
<GCONST> 8.626283e+01
<TRANSP> 5
 0.000000e+00 1.000000e+00 0.000000e+00 0.000000e+00 0.000000e+00
 0.000000e+00 7.803956e-01 2.196044e-01 0.000000e+00 0.000000e+00
 0.000000e+00 0.000000e+00 9.632269e-01 3.677311e-02 0.000000e+00
 0.000000e+00 0.000000e+00 0.000000e+00 9.284952e-01 7.150477e-02
 0.000000e+00 0.000000e+00 0.000000e+00 0.000000e+00 0.000000e+00
<ENDHMM>
~h "eh"
<BEGINHMM>
<NUMSTATES> 5
<STATE> 2
<MEAN> 25
 4.751043e+00 6.103351e+00 9.765723e-01 6.147881e-02 -3.707970e-01 2.970408e+00 2.884728e+00 1.304387e+00 5.385762e-01 -8.384675e-01 -2.094225e+00 -1.249593e+00 1.013823e+00 1.384883e+00 9.711394e-01 1.157125e+00 1.075202e+00 7.550751e-01 1.330074e-01 -6.872174e-01 -1.760504e-01 4.229785e-01 -5.227935e-01 -1.313100e+00 3.590679e-01
<VARIANCE> 25
 9.229060e+01 4.869938e+01 3.291647e+01 2.461001e+01 4.446297e+01 3.927783e+01 2.475236e+01 1.471873e+01 2.481965e+01 4.379544e+01 7.009103e+00 3.509589e+01 4.198741e+00 3.001882e+00 3.164549e+00 1.661169e+00 4.273750e+00 5.539186e+00 2.997603e+00 3.363386e+00 5.464578e+00 1.933948e+00 1.566548e+00 6.234766e+00 3.013129e+00
<GCONST> 1.023230e+02
<STATE> 3
<MEAN> 25
 1.085806e+01 7.564492e+00 1.977361e+00 6.352413e+00 5.706354e+00 9.367192e+00 8.699477e+00 -5.710575e+00 -7.954763e+00 2.386525e+00 -1.096732e-01 -1.039298e+01 1.130960e+00 -3.871340e-01 -2.612003e-01 4.902550e-02 -1.223714e-01 -4.710824e-01 -1.434568e-01 -2.468243e-02 -6.297748e-01 -1.696465e-01 3.891234e-01 -4.723382e-01 9.751824e-01
<VARIANCE> 25
 2.698624e+01 1.814196e+01 7.601688e+00 1.573877e+01 2.142074e+01 1.806099e+01 2.619488e+01 1.446039e+01 2.456457e+01 2.730175e+01 1.120519e+01 2.075618e+01 1.956770e+00 1.200423e+00 9.160929e-01 1.511078e+00 8.924690e-01 2.329806e+00 2.589246e+00 9.558288e-01 3.461475e+00 2.151347e+00 1.460051e+00 2.893029e+00 2.098761e+00
<GCONST> 8.778481e+01
<STATE> 4
<MEAN> 25
 1.428483e+01 -6.084748e+00 3.446395e+00 5.876481e+00 4.404206e+00 -7.485164e+00 -7.017591e+00 -1.911136e+00 -1.160867e+01 -6.450034e+00 4.792198e+00 -8.583706e+00 1.058256e+00 -2.680623e+00 1.616971e+00 1.022405e+00 4.287670e-01 -2.963891e+00 -2.447694e+00 3.925422e-01 -1.274919e+00 -1.571720e+00 8.921192e-01 -7.515815e-01 2.680284e+00
<VARIANCE> 25
 1.308209e+01 4.382484e+01 2.415790e+01 2.222943e+01 3.021450e+01 5.073992e+01 5.587188e+01 1.212819e+01 3.009859e+01 1.628888e+01 2.544498e+01 1.362007e+01 4.533600e+00 3.528830e+00 1.979539e+00 1.768077e+00 1.623407e+00 4.249523e+00 4.870790e+00 9.323307e-01 6.735489e+00 2.572126e+00 2.511876e+00 2.938688e+00 4.871023e+00
<GCONST> 9.838522e+01
<TRANSP> 5
 0.000000e+00 1.000000e+00 0.000000e+00 0.000000e+00 0.000000e+00
 0.000000e+00 5.786991e-01 4.213009e-01 0.000000e+00 0.000000e+00
 0.000000e+00 0.000000e+00 8.055438e-01 1.944562e-01 0.000000e+00
 0.000000e+00 0.000000e+00 0.000000e+00 7.149543e-01 2.850457e-01
 0.000000e+00 0.000000e+00 0.000000e+00 0.000000e+00 0.000000e+00
<ENDHMM>
~h "eu"
<BEGINHMM>
<NUMSTATES> 5
<STATE> 2
<MEAN> 25
 7.721533e+00 6.012690e-01 1.952378e+00 -2.127633e+00 -3.253492e+00 -5.587091e+00 -2.937168e+00 -4.994004e+00 -7.607059e+00 -3.122873e+00 4.634245e+00 -1.215199e+00 4.508515e+00 -2.540572e+00 8.276480e-01 -5.893513e-01 -1.150903e+00 -2.759198e+00 1.990383e-01 -4.419159e-01 -3.855810e+00 -2.108774e+00 2.561740e+00 -8.493603e-01 5.536425e+00
<VARIANCE> 25
 7.167934e+01 3.457609e+01 1.671915e+01 1.122878e+01 1.578604e+01 3.232671e+01 2.714068e+01 1.502536e+01 6.911924e+01 2.573906e+01 3.207639e+01 2.008312e+01 3.318304e+00 2.386010e+00 1.076376e+00 1.380486e+00 3.298435e+00 1.833429e+00 5.123661e+00 1.228078e+00 3.824119e+00 1.799985e+00 1.183732e+00 1.197083e+00 2.523477e+00
<GCONST> 9.450232e+01
<STATE> 3
<MEAN> 25
 1.776510e+01 -9.426566e+00 2.544101e+00 -2.057237e+00 -2.757705e+00 -9.651100e+00 -2.235145e+00 -3.861109e+00 -1.669721e+01 -5.997057e+00 8.480243e+00 -2.935193e+00 1.820169e-01 8.110890e-02 -2.188500e-01 -2.300531e-01 -3.114136e-01 1.206089e-01 4.140849e-02 2.357854e-01 1.065791e-01 1.573669e-01 -2.085758e-01 -5.774576e-03 -6.198952e-02
<VARIANCE> 25
 1.235287e+00 6.280567e+00 7.048806e+00 7.775758e+00 1.308815e+01 6.654535e+00 9.402119e+00 9.848607e+00 9.094646e+00 1.025462e+01 5.545053e+00 6.658760e+00 1.219431e-01 1.463485e+00 5.364721e-01 8.310784e-01 1.206042e+00 4.922422e-01 1.157589e+00 9.595769e-01 1.163456e+00 7.954256e-01 3.369668e-01 4.078766e-01 4.570330e-01
<GCONST> 6.334655e+01
<STATE> 4
<MEAN> 25
 5.573981e+00 -3.871768e+00 5.090776e-01 -6.075696e+00 -7.342836e+00 -5.675851e+00 4.550933e+00 1.667464e+01 1.006505e+01 -3.342795e+00 -2.411740e+00 -3.333437e-01 -8.102977e-01 2.991419e-01 -2.204794e-01 3.890600e-03 1.611257e-01 2.025824e-01 1.090710e-01 3.701897e-01 9.311353e-01 3.157436e-01 -4.078519e-01 1.430228e-01 -8.440927e-01
<VARIANCE> 25
 4.778198e+01 1.944884e+01 2.324710e+01 1.470272e+01 2.079469e+01 1.292336e+01 1.690735e+01 7.451379e+01 6.791684e+01 2.427778e+01 1.779023e+01 1.956817e+01 2.043538e+00 1.990257e+00 1.467718e+00 1.891805e+00 2.520945e+00 1.437231e+00 1.861837e+00 5.776465e+00 4.601005e+00 2.017602e+00 1.976437e+00 1.730975e+00 4.795244e-01
<GCONST> 9.341854e+01
<TRANSP> 5
 0.000000e+00 1.000000e+00 0.000000e+00 0.000000e+00 0.000000e+00
 0.000000e+00 7.637565e-01 2.362436e-01 0.000000e+00 0.000000e+00
 0.000000e+00 0.000000e+00 9.412022e-01 5.879776e-02 0.000000e+00
 0.000000e+00 0.000000e+00 0.000000e+00 9.583235e-01 4.167647e-02
 0.000000e+00 0.000000e+00 0.000000e+00 0.000000e+00 0.000000e+00
<ENDHMM>
~h "ff"
<BEGINHMM>
<NUMSTATES> 5
<STATE> 2
<MEAN> 25
 1.617799e+01 -7.874165e+00 -4.874825e+00 -1.019663e+01 -1.341072e+01 -8.324650e+00 6.517673e+00 7.910988e+00 -5.039726e+00 -2.013037e+00 5.055184e+00 -3.692213e+00 3.020031e+00 -2.150729e+00 1.473443e-01 -1.306780e+00 -6.081344e-01 -1.684080e+00 3.357587e-01 1.096620e+00 -3.424802e-01 -8.635264e-01 1.250961e+00 -6.584110e-01 4.205288e+00
<VARIANCE> 25
 5.691538e+00 1.497813e+01 7.134684e+00 1.089296e+01 3.719887e+00 6.470611e+00 1.606653e+01 2.947424e+00 8.302735e+00 8.834481e+00 1.077610e+01 3.344792e+00 4.877647e+00 2.075319e+00 9.211227e-01 2.054505e+00 4.137017e+00 1.639306e+00 2.438311e+00 2.658486e+00 1.320473e+00 1.636629e+00 2.162428e+00 9.792786e-01 5.913294e+00
<GCONST> 7.969830e+01
<STATE> 3
<MEAN> 25
 6.605143e+00 -3.563367e+00 5.648324e+00 -1.168356e+00 4.996547e+00 -5.272296e+00 4.930539e+00 3.934709e+00 2.336210e+00 9.361652e-01 6.471381e+00 4.077277e-02 -3.970868e-01 -4.664784e-03 6.893152e-01 9.824755e-01 7.187592e-01 1.799592e-01 -1.213637e-01 -3.806121e-02 9.111730e-02 1.670908e-02 -5.120536e-02 9.830836e-02 -2.150736e-01
<VARIANCE> 25
 8.424030e+01 3.153385e+01 3.296778e+01 4.650597e+01 7.414458e+01 2.321324e+01 2.154560e+01 1.806626e+01 5.064214e+01 1.358325e+01 1.620032e+01 1.079262e+01 4.116438e+00 3.098324e+00 2.246898e+00 2.702004e+00 2.977690e+00 2.891401e+00 2.451050e+00 2.425794e+00 3.382419e+00 1.756581e+00 1.805232e+00 1.358735e+00 1.240066e+00
<GCONST> 9.745857e+01
<STATE> 4
<MEAN> 25
 3.867080e-01 -1.747168e+01 1.329582e+01 9.829376e+00 1.818390e+00 -9.348791e+00 -2.573518e+00 1.754252e+00 -3.732134e-02 -6.498672e+00 3.189423e+00 -1.982144e+00 -1.472752e-01 -6.054262e-02 -1.862396e-01 -1.422619e-01 -1.850900e-01 -5.037548e-02 -2.580976e-01 -1.808882e-01 5.524592e-02 4.224305e-02 -1.133487e-01 -5.480925e-02 -1.801289e-01
<VARIANCE> 25
 7.059445e+01 5.498576e+01 1.014285e+01 7.583382e+01 1.240339e+01 1.942320e+01 2.203548e+01 2.070966e+01 7.951432e+01 1.843022e+01 9.741867e+00 1.423691e+01 1.880541e+00 2.701654e+00 1.194813e+00 2.535353e+00 9.833853e-01 1.110700e+00 1.002853e+00 1.141657e+00 3.323826e+00 1.416983e+00 1.221541e+00 1.321540e+00 5.434198e-01
<GCONST> 8.906217e+01
<TRANSP> 5
 0.000000e+00 1.000000e+00 0.000000e+00 0.000000e+00 0.000000e+00
 0.000000e+00 6.950396e-01 3.049604e-01 0.000000e+00 0.000000e+00
 0.000000e+00 0.000000e+00 9.596604e-01 4.033965e-02 0.000000e+00
 0.000000e+00 0.000000e+00 0.000000e+00 9.750749e-01 2.492506e-02
 0.000000e+00 0.000000e+00 0.000000e+00 0.000000e+00 0.000000e+00
<ENDHMM>
~h "la"
<BEGINHMM>
<NUMSTATES> 5
<STATE> 2
<MEAN> 25
 1.429135e+01 -8.447152e+00 -3.576761e+00 -5.244482e+00 -1.007458e+01 -6.708715e+00 6.215995e+00 7.486197e+00 -5.175153e+00 -3.939538e+00 2.856512e+00 -3.455178e+00 -3.540274e-01 -7.077873e-03 -5.426379e-01 -3.990174e-01 -1.422655e-01 1.174014e-02 2.387369e-01 4.594093e-01 6.242080e-01 1.996232e-01 -1.711335e-01 1.445804e-01 -3.866009e-01
<VARIANCE> 25
 2.741608e+01 3.015259e+01 6.017944e+01 8.032578e+01 2.931603e+01 1.599745e+01 2.565757e+01 4.382590e+01 8.586757e+01 2.214065e+01 2.719966e+01 2.451356e+01 2.669289e+00 2.220784e+00 1.573733e+00 2.636450e+00 1.869249e+00 1.497756e+00 2.579462e+00 1.258465e+00 4.094929e+00 1.970755e+00 1.670802e+00 1.932495e+00 3.435206e+00
<GCONST> 9.827992e+01
<STATE> 3
<MEAN> 25
 -1.384144e+00 1.140709e+00 -7.589455e+00 -7.932906e+00 -5.879141e+00 1.083910e-01 6.536455e+00 7.446123e+00 5.105031e+00 -8.857840e-01 -3.667665e+00 1.785393e+00 -1.025474e+00 9.690868e-01 1.210286e+00 5.722163e-01 9.788850e-01 1.027289e+00 -5.351338e-01 -1.172648e+00 -1.561218e-01 2.779032e-01 -2.907051e-01 2.200405e-02 -9.246323e-01
<VARIANCE> 25
 8.742489e+00 1.405212e+01 1.358174e+01 1.164194e+01 1.170366e+01 1.719034e+01 1.122693e+01 1.817591e+01 1.178256e+01 1.413195e+01 1.009421e+01 7.400782e+00 4.185591e-01 7.553252e-01 4.146514e-01 1.361161e+00 1.028436e+00 1.430049e+00 1.532208e+00 1.234568e+00 1.286106e+00 1.466109e+00 9.907104e-01 7.403938e-01 3.513969e-01
<GCONST> 7.445066e+01
<STATE> 4
<MEAN> 25
 -5.996419e+00 3.579490e+00 -3.167070e-01 -8.430842e-01 1.172088e+00 2.651481e+00 -4.803566e-01 -1.523305e+00 3.476564e+00 2.724144e+00 -1.622206e+00 2.053470e+00 -3.200990e-02 -8.684261e-03 4.775553e-02 6.571482e-02 5.011412e-02 -8.491366e-03 -5.277092e-02 -5.342585e-02 -2.217943e-02 3.266803e-02 4.595657e-02 1.828966e-02 -1.679754e-02
<VARIANCE> 25
 1.302985e+00 2.603940e+00 3.156581e+00 4.430098e+00 4.629021e+00 5.350207e+00 6.597720e+00 7.275540e+00 5.533907e+00 6.835271e+00 6.407500e+00 6.000510e+00 5.281326e-02 1.174748e-01 2.149370e-01 3.717359e-01 4.325001e-01 4.533281e-01 6.192548e-01 6.125591e-01 5.884292e-01 6.888239e-01 6.643602e-01 5.910804e-01 1.891393e-02
<GCONST> 4.815572e+01
<TRANSP> 5
 0.000000e+00 1.000000e+00 0.000000e+00 0.000000e+00 0.000000e+00
 0.000000e+00 9.576799e-01 4.232014e-02 0.000000e+00 0.000000e+00
 0.000000e+00 0.000000e+00 8.768960e-01 1.231039e-01 0.000000e+00
 0.000000e+00 0.000000e+00 0.000000e+00 9.825049e-01 1.749511e-02
 0.000000e+00 0.000000e+00 0.000000e+00 0.000000e+00 0.000000e+00
<ENDHMM>
~h "lu"
<BEGINHMM>
<NUMSTATES> 5
<STATE> 2
<MEAN> 25
 -2.926271e+00 1.934682e+00 1.156882e-01 -2.372660e+00 -7.011796e-01 -1.583556e-01 -2.007223e+00 -1.537266e+00 3.318360e+00 3.432566e+00 6.891406e-01 1.743077e+00 8.687973e-01 2.902482e-01 4.676730e-01 1.136706e+00 1.350062e+00 7.311406e-01 -4.357738e-01 -9.746451e-01 -1.268363e+00 -5.836021e-01 -1.268605e-01 -8.183453e-01 5.895401e-01
<VARIANCE> 25
 6.396911e+01 3.097858e+01 2.336615e+00 5.918086e+00 1.521898e+01 3.579869e+01 6.059687e+00 6.597335e+00 3.274676e+01 7.971962e+00 3.277951e+01 8.899409e+00 3.744313e+00 6.404091e-01 5.622144e-01 1.570486e+00 2.568708e+00 2.392325e+00 1.413327e+00 1.907425e+00 2.742784e+00 1.035497e+00 6.536167e-01 1.508964e+00 1.797895e+00
<GCONST> 8.256876e+01
<STATE> 3
<MEAN> 25
 1.347892e+01 -3.906593e+00 2.890745e+00 4.843621e+00 4.861677e+00 -4.230520e+00 -7.525956e+00 -5.227528e+00 -9.908156e+00 -4.053496e+00 4.890218e+00 -5.038562e+00 1.378028e+00 6.951658e-01 6.972559e-02 2.643887e+00 3.369483e+00 2.467611e+00 -6.034895e-01 -8.082781e-01 -4.837123e-01 -1.914640e+00 -1.010757e+00 -8.154345e-01 4.191099e-01
<VARIANCE> 25
 2.192943e+01 7.386206e+01 5.556033e+00 2.152750e+01 5.958633e+01 1.304341e+02 3.513366e+01 1.772998e+01 2.396705e+01 2.073927e+01 4.282755e+01 9.955825e+00 5.390297e+00 1.765230e+00 7.077038e-01 7.268184e-01 1.742663e+00 4.263783e+00 2.157119e+00 1.925061e+00 8.790311e+00 1.489003e+00 4.419442e+00 1.574525e+00 5.859429e+00
<GCONST> 9.707510e+01
<STATE> 4
<MEAN> 25
 1.339167e+01 -1.122919e+00 2.213533e+00 1.012494e+01 1.136010e+01 4.847219e+00 -2.142868e+00 -2.770466e+00 -6.658888e+00 -4.971416e+00 2.378465e+00 -5.104836e+00 1.054095e-01 -4.410150e-02 -8.094956e-02 -3.023681e-01 -3.469025e-01 -1.390702e-01 3.095139e-01 2.080064e-01 3.842122e-02 4.081301e-02 4.847697e-04 1.317326e-01 1.552658e-01
<VARIANCE> 25
 5.879964e+00 3.102167e+01 1.478229e+01 2.011428e+01 5.010994e+01 2.486115e+01 4.974606e+01 2.351149e+01 4.664675e+01 2.768801e+01 1.876987e+01 2.621385e+01 4.399479e-01 1.825213e+00 9.880514e-01 2.144231e+00 1.972916e+00 2.331161e+00 3.218548e+00 2.037675e+00 2.457246e+00 3.005795e+00 1.538990e+00 2.151768e+00 1.023258e+00
<GCONST> 9.156007e+01
<TRANSP> 5
 0.000000e+00 1.000000e+00 0.000000e+00 0.000000e+00 0.000000e+00
 0.000000e+00 7.027161e-01 2.972839e-01 0.000000e+00 0.000000e+00
 0.000000e+00 0.000000e+00 7.001181e-01 2.998820e-01 0.000000e+00
 0.000000e+00 0.000000e+00 0.000000e+00 9.638317e-01 3.616837e-02
 0.000000e+00 0.000000e+00 0.000000e+00 0.000000e+00 0.000000e+00
<ENDHMM>
~h "sp"
<BEGINHMM>
<NUMSTATES> 3
<STATE> 2
~s "silst"
<TRANSP> 3
 0.000000e+00 1.486673e-01 8.513327e-01
 0.000000e+00 6.279753e-01 3.720247e-01
 0.000000e+00 0.000000e+00 0.000000e+00
<ENDHMM>
~h "ein"
<BEGINHMM>
<NUMSTATES> 5
<STATE> 2
<MEAN> 25
 8.242002e+00 3.235384e+00 -7.863495e+00 -1.122978e+01 -1.356987e+01 -4.375437e+00 9.840569e+00 8.786245e+00 -1.449855e+00 -2.562298e+00 -2.913254e-01 8.530016e-01 -2.475166e+00 4.182237e-01 -4.148531e-02 3.441997e-02 9.289653e-01 8.188000e-01 -9.636208e-03 7.076518e-02 1.750497e+00 8.947268e-01 -7.584792e-01 5.322636e-01 -2.122940e+00
<VARIANCE> 25
 3.367081e+01 8.731284e+00 7.860620e+00 2.657632e+01 1.936753e+01 1.155709e+01 1.860060e+01 1.804632e+01 2.666897e+01 1.808431e+01 8.148938e+00 1.219286e+01 2.293292e+00 1.452697e+00 9.838219e-01 1.741294e+00 2.782246e+00 1.720596e+00 1.448817e+00 1.163198e+00 2.792600e+00 1.892401e+00 1.267254e+00 1.243368e+00 1.823178e+00
<GCONST> 8.552633e+01
<STATE> 3
<MEAN> 25
 -2.808832e+00 3.525307e+00 -5.062430e+00 -8.612176e+00 -5.447838e+00 1.407688e+00 5.229676e+00 4.809403e+00 5.189795e+00 3.829381e-01 -4.814913e+00 2.463535e-01 -8.062205e-01 2.698297e-03 8.618252e-01 1.264603e+00 1.409609e+00 6.000479e-01 -6.174093e-01 -7.135509e-01 3.062989e-02 2.020202e-01 -8.973345e-02 -1.665344e-01 -4.856580e-01
<VARIANCE> 25
 3.144746e+00 1.273225e+00 6.272511e+00 1.239565e+01 1.445807e+01 6.611399e+00 6.929579e+00 7.895362e+00 7.194887e+00 7.968073e+00 5.172328e+00 7.281137e+00 3.427232e-01 1.771289e-01 3.680712e-01 7.676445e-01 8.651816e-01 7.746985e-01 6.687762e-01 6.697008e-01 5.114054e-01 7.696090e-01 7.667935e-01 8.128505e-01 1.111662e-01
<GCONST> 5.905640e+01
<STATE> 4
<MEAN> 25
 -6.248643e+00 3.294291e+00 -2.400355e-01 -9.986636e-01 1.090936e+00 2.661648e+00 3.913887e-03 -1.460948e+00 4.118964e+00 2.855459e+00 -2.311354e+00 2.322047e+00 -3.140492e-02 -2.364200e-02 4.137811e-02 7.379462e-02 4.296423e-02 -8.925196e-03 -5.716059e-02 -6.373229e-02 -3.464524e-02 1.419155e-02 5.947613e-02 2.999848e-02 -1.237512e-02
<VARIANCE> 25
 1.086717e+00 2.257185e+00 2.167319e+00 4.004192e+00 4.581999e+00 4.312284e+00 6.428754e+00 7.687403e+00 6.798207e+00 6.291115e+00 7.527810e+00 5.669608e+00 3.958607e-02 1.219024e-01 1.954819e-01 3.016923e-01 3.629112e-01 4.766353e-01 6.319998e-01 7.851206e-01 7.690770e-01 6.449013e-01 6.250705e-01 6.948395e-01 1.891393e-02
<GCONST> 4.727564e+01
<TRANSP> 5
 0.000000e+00 1.000000e+00 0.000000e+00 0.000000e+00 0.000000e+00
 0.000000e+00 8.509196e-01 1.490804e-01 0.000000e+00 0.000000e+00
 0.000000e+00 0.000000e+00 8.517945e-01 1.482054e-01 0.000000e+00
 0.000000e+00 0.000000e+00 0.000000e+00 9.778663e-01 2.213375e-02
 0.000000e+00 0.000000e+00 0.000000e+00 0.000000e+00 0.000000e+00
<ENDHMM>
~h "sil"
<BEGINHMM>
<NUMSTATES> 5
<STATE> 2
<MEAN> 25
 -2.437299e+01 -1.851556e+00 -9.312323e+00 3.090872e+00 -6.622810e-01 5.398904e+00 -1.134989e+01 -5.788277e+00 -2.208946e+00 3.495519e+00 8.791227e-01 2.642047e+00 7.352774e-03 -1.891900e-02 2.094595e-02 1.233018e-02 1.583114e-02 -2.830971e-03 -1.206348e-02 1.181363e-01 2.711533e-02 -1.965361e-02 -1.174279e-02 1.832378e-02 -1.513188e-03
<VARIANCE> 25
 3.507728e+01 4.018010e+00 1.280453e+01 4.360537e+00 2.857766e+00 4.215424e+00 1.770541e+01 6.782379e+00 7.363675e+00 6.083684e+00 4.677556e+00 4.077472e+00 3.221552e-02 5.911947e-02 1.416537e-01 3.412949e-01 3.347401e-01 2.395292e-01 4.153676e-01 5.208362e-01 6.299391e-01 7.514868e-01 4.975107e-01 4.876718e-01 1.891393e-02
<GCONST> 4.946586e+01
<STATE> 3
~s "silst"
<STATE> 4
<MEAN> 25
 -5.865942e+00 2.515864e+00 -1.065832e+00 -1.203453e+00 2.500946e-01 2.293242e+00 4.232547e-01 -1.285070e+00 2.983267e+00 2.454167e+00 -1.310335e+00 2.482307e+00 1.161800e-02 1.266849e-02 3.193255e-02 1.826742e-02 1.952254e-02 -2.249853e-02 -5.753344e-03 1.570526e-02 5.121224e-02 1.154335e-02 4.289455e-03 -1.253084e-02 2.397630e-02
<VARIANCE> 25
 2.547491e+00 8.730463e+00 5.656940e+00 7.257449e+00 6.220333e+00 7.852500e+00 9.847937e+00 1.089238e+01 8.073954e+00 7.568427e+00 6.926908e+00 7.127358e+00 1.207802e-01 8.100154e-01 3.473809e-01 6.406290e-01 6.008704e-01 7.768291e-01 9.980496e-01 1.153442e+00 8.110759e-01 7.213907e-01 7.353596e-01 7.729806e-01 1.870196e-01
<GCONST> 6.211409e+01
<TRANSP> 5
 0.000000e+00 1.000000e+00 0.000000e+00 0.000000e+00 0.000000e+00
 0.000000e+00 8.083874e-01 8.982024e-02 1.017924e-01 0.000000e+00
 0.000000e+00 0.000000e+00 7.781671e-01 2.218328e-01 0.000000e+00
 0.000000e+00 1.143572e-08 0.000000e+00 9.513798e-01 4.862016e-02
 0.000000e+00 0.000000e+00 0.000000e+00 0.000000e+00 0.000000e+00
<ENDHMM>
