~o
<STREAMINFO> 1 25
<VECSIZE> 25<NULLD><MFCC_D_N_Z_0><DIAGC>
~s "silst"
<MEAN> 25
 -1.352677e+01 7.730249e-01 -5.827338e+00 6.636032e-01 -8.099607e-01 3.910051e+00 -5.359873e+00 -3.178576e+00 1.285613e-01 2.838337e+00 -4.476281e-01 2.286024e+00 4.254063e+00 1.138507e+00 1.686620e+00 -8.267711e-01 -7.567787e-02 -7.508171e-01 2.041845e+00 4.718073e-01 4.438759e-01 -4.890020e-01 -4.571044e-01 -1.972718e-01 4.566660e+00
<VARIANCE> 25
 1.043460e+02 1.028216e+01 2.780904e+01 1.631643e+01 1.155597e+01 9.721614e+00 4.376666e+01 1.434412e+01 1.900024e+01 1.254499e+01 1.227230e+01 7.431408e+00 3.304433e+00 9.962335e-01 1.152846e+00 1.726461e+00 1.262461e+00 8.342109e-01 4.190671e+00 1.848347e+00 3.615484e+00 1.013898e+00 1.392208e+00 7.966633e-01 5.173445e+00
<GCONST> 8.721806e+01
~h "a"
<BEGINHMM>
<NUMSTATES> 5
<STATE> 2
<MEAN> 25
 -6.117098e+00 3.831089e+00 -1.304615e+00 -1.974438e+00 5.432917e-01 2.623962e+00 -6.210407e-01 -1.638849e+00 3.782879e+00 2.973840e+00 -1.905294e+00 2.765841e+00 -1.958608e-02 1.312840e-02 2.534578e-02 1.348053e-02 1.043329e-02 -1.037945e-02 -6.851210e-02 -6.155293e-02 -3.468078e-02 -9.516263e-03 1.215586e-02 1.438134e-02 -1.695708e-02
<VARIANCE> 25
 1.622710e+00 4.753427e+00 3.889063e+00 4.544916e+00 4.390502e+00 5.875247e+00 9.127859e+00 8.775235e+00 8.182029e+00 7.406112e+00 5.898808e+00 6.721877e+00 8.598722e-02 4.283730e-01 3.139057e-01 3.900426e-01 3.963238e-01 5.980193e-01 8.936655e-01 9.221634e-01 8.491019e-01 7.541783e-01 6.761904e-01 6.314973e-01 5.690150e-02
<GCONST> 5.508221e+01
<STATE> 3
<MEAN> 25
 -6.369346e+00 4.551060e+00 -4.639930e-01 -1.263432e+00 8.409690e-01 2.270210e+00 -1.611028e+00 -3.037796e+00 2.617779e+00 3.345670e+00 -1.629188e+00 3.087960e+00 4.290580e+00 -1.872067e+00 -1.012815e+00 -1.600924e+00 -3.469228e+00 -2.212342e+00 1.236791e+00 1.617170e+00 -1.974732e+00 -1.401274e+00 1.096044e+00 -1.374204e+00 3.986150e+00
<VARIANCE> 25
 1.114500e+00 1.719553e+00 3.195577e+00 3.672532e+00 3.709417e+00 3.363088e+00 6.551250e+00 3.148649e+00 4.771844e+00 3.439894e+00 4.404859e+00 2.988161e+00 2.774794e+00 2.541055e+00 7.215251e-01 1.309722e+00 2.002726e+00 7.139834e-01 2.321931e+00 1.980846e+00 1.006351e+00 8.039871e-01 9.049217e-01 7.415775e-01 3.625258e+00
<GCONST> 6.444326e+01
<STATE> 4
<MEAN> 25
 1.355102e+01 -6.533783e+00 -1.365511e+00 -1.777719e+00 -3.471047e+00 -5.136209e+00 1.217998e+00 2.030465e+00 -6.418092e+00 -3.373890e+00 4.524825e+00 -4.351679e+00 8.598737e-01 -6.102791e-01 7.309208e-03 -1.636300e-01 -3.792816e-01 -6.022692e-01 3.731690e-02 1.771421e-01 -3.228904e-01 -1.269605e-02 5.296547e-01 -1.901077e-01 1.041226e+00
<VARIANCE> 25
 2.658470e+01 5.577357e+01 2.008925e+01 1.211542e+02 1.522029e+02 4.278231e+01 3.660884e+01 3.740418e+01 3.340963e+01 2.533872e+01 3.093857e+01 2.292330e+01 6.033445e+00 4.576949e+00 1.286708e+00 3.358270e+00 6.255765e+00 4.062166e+00 3.270302e+00 3.428361e+00 3.061231e+00 3.176771e+00 1.960582e+00 1.887100e+00 8.265731e+00
<GCONST> 1.064837e+02
<TRANSP> 5
 0.000000e+00 1.000000e+00 0.000000e+00 0.000000e+00 0.000000e+00
 0.000000e+00 9.715769e-01 2.842302e-02 0.000000e+00 0.000000e+00
 0.000000e+00 0.000000e+00 4.513399e-01 5.486601e-01 0.000000e+00
 0.000000e+00 0.000000e+00 0.000000e+00 8.945414e-01 1.054586e-01
 0.000000e+00 0.000000e+00 0.000000e+00 0.000000e+00 0.000000e+00
<ENDHMM>
~h "i"
<BEGINHMM>
<NUMSTATES> 5
<STATE> 2
<MEAN> 25
 1.206028e+01 -8.919215e+00 1.293866e+01 1.109489e+01 1.878565e-01 -1.397353e+01 -2.675389e+00 2.734987e+00 -9.513197e+00 -7.514682e+00 1.283092e+00 -7.597322e+00 1.445997e-01 -3.828240e-01 -2.912993e-01 -1.055041e+00 -1.057284e-01 -4.219671e-01 -1.002889e+00 -5.924768e-01 -1.010884e+00 3.505565e-03 1.175084e+00 5.141618e-01 3.678443e-01
<VARIANCE> 25
 1.124079e+01 2.683428e+01 2.149634e+01 2.894810e+01 1.739799e+01 2.061907e+01 4.253029e+01 2.882291e+01 2.974197e+01 1.105040e+01 2.489047e+01 1.851460e+01 5.944740e-01 2.088158e+00 4.582935e+00 1.337860e+00 1.945704e+00 2.120062e+00 2.852291e+00 1.694154e+00 9.205930e-01 7.401885e-01 6.324491e-01 9.674723e-01 9.486258e-01
<GCONST> 8.710600e+01
<STATE> 3
<MEAN> 25
 1.536775e+01 -6.682505e+00 9.777042e-01 4.829914e-01 -3.158633e+00 -1.293737e+01 -9.017323e+00 -2.050268e+00 -1.056319e+01 1.693053e+00 8.592628e+00 -6.572195e+00 -1.169443e-01 8.092073e-01 -1.018351e+00 -5.105301e-01 -2.931672e-01 9.372738e-01 4.551521e-01 1.594795e-01 1.226959e+00 8.801656e-01 -2.369273e-01 9.010928e-02 -8.086678e-01
<VARIANCE> 25
 1.411695e+01 2.245821e+01 1.431709e+01 1.429260e+01 1.832739e+01 1.923579e+01 1.119859e+01 7.364705e+00 3.441560e+01 3.633005e+01 1.292960e+01 1.149298e+01 4.433182e-01 1.138858e+00 9.329454e-01 6.878694e-01 1.807384e+00 1.292312e+00 1.278637e+00 1.016122e+00 1.436998e+00 1.292513e+00 9.389654e-01 8.762672e-01 3.751426e-01
<GCONST> 7.886395e+01
<STATE> 4
<MEAN> 25
 6.046889e+00 -5.921893e+00 -6.720490e+00 -3.301472e+00 -3.641424e-01 -5.070145e-01 4.142033e-02 6.642704e+00 4.446270e+00 -2.167474e+00 -1.497715e+00 -1.465124e+00 -9.671944e-01 1.824579e-02 -7.635486e-01 -8.637171e-01 -1.300164e-01 6.950616e-01 1.252672e+00 8.272035e-01 3.771344e-01 -7.354917e-01 -6.536388e-01 8.492637e-01 -8.445276e-01
<VARIANCE> 25
 2.733260e+01 3.348113e+01 1.816618e+01 3.777441e+01 1.639952e+01 1.695913e+01 2.884171e+01 4.725138e+01 2.401366e+01 4.307167e+01 3.325802e+01 2.103230e+01 2.740821e+00 4.653025e+00 1.491933e+00 3.052763e+00 2.544751e+00 3.026904e+00 3.510103e+00 4.677033e+00 2.027370e+00 3.516498e+00 1.681549e+00 2.442011e+00 1.126383e+00
<GCONST> 9.803193e+01
<TRANSP> 5
 0.000000e+00 1.000000e+00 0.000000e+00 0.000000e+00 0.000000e+00
 0.000000e+00 8.365149e-01 1.634852e-01 0.000000e+00 0.000000e+00
 0.000000e+00 0.000000e+00 8.524805e-01 1.475196e-01 0.000000e+00
 0.000000e+00 0.000000e+00 0.000000e+00 8.374336e-01 1.625664e-01
 0.000000e+00 0.000000e+00 0.000000e+00 0.000000e+00 0.000000e+00
<ENDHMM>
~h "l"
<BEGINHMM>
<NUMSTATES> 5
<STATE> 2
<MEAN> 25
 -5.945884e+00 2.300337e+00 -2.764324e-01 -4.699310e-01 1.730716e+00 1.668157e+00 -5.209224e-01 -2.408497e-01 3.953277e+00 2.251351e+00 -1.696586e+00 1.290048e+00 -1.979667e-02 -3.222781e-02 -1.060295e-02 2.980679e-02 7.062042e-03 9.664252e-03 -2.465200e-02 -6.033862e-02 -5.294541e-02 -2.990300e-02 -2.496643e-02 -7.540262e-02 -1.383392e-02
<VARIANCE> 25
 1.086717e+00 1.967726e+00 1.855605e+00 4.754224e+00 3.281518e+00 3.632661e+00 7.094067e+00 8.229499e+00 5.488652e+00 6.413105e+00 3.514565e+00 4.523123e+00 1.048477e-01 1.672703e-01 1.666846e-01 3.095953e-01 2.867700e-01 4.182710e-01 6.764298e-01 7.517160e-01 5.941465e-01 6.962959e-01 4.126936e-01 5.977619e-01 3.314584e-02
<GCONST> 4.626300e+01
<STATE> 3
<MEAN> 25
 -6.414237e+00 2.826264e+00 2.710182e-01 6.327138e-01 8.749840e-01 3.713241e-01 -6.374989e-01 -8.049402e-01 2.314748e+00 2.659035e+00 -1.124789e+00 1.173191e+00 1.773703e+00 3.376113e-01 5.640056e-01 8.698798e-01 2.768465e-01 2.869147e-01 3.078361e-01 -8.154304e-01 -1.642060e+00 -1.142767e+00 1.513246e-02 -5.667698e-01 1.309467e+00
<VARIANCE> 25
 6.001626e+00 6.791348e+00 2.413328e+00 8.815662e+00 4.253949e+00 1.162945e+01 4.319064e+00 8.889175e+00 9.408927e+00 9.930785e+00 1.003185e+01 9.302334e+00 5.029529e+00 8.062651e-01 5.362353e-01 2.866893e+00 1.260634e+00 2.359116e+00 1.108333e+00 3.039180e+00 7.545262e+00 3.073322e+00 1.078810e+00 3.012480e+00 3.007190e+00
<GCONST> 7.889241e+01
<STATE> 4
<MEAN> 25
 1.499293e+01 -3.430036e+00 4.248577e+00 9.604280e+00 5.841238e+00 6.074381e+00 7.697396e-01 -7.772603e+00 -1.301225e+01 -6.491169e+00 3.272420e+00 -5.899824e+00 1.288047e+00 -9.274096e-01 7.366866e-02 5.917591e-01 -3.037853e-01 -2.191691e-01 4.460196e-01 3.783096e-02 -1.096149e+00 -4.957654e-01 2.867033e-01 -4.502265e-01 1.338712e+00
<VARIANCE> 25
 1.837940e+01 2.059257e+01 3.382274e+00 5.798272e+00 6.589849e+00 2.038638e+01 8.553610e+00 8.955799e+00 1.222885e+01 5.089511e+00 1.152914e+01 1.132841e+01 3.554346e+00 9.709753e-01 1.086851e+00 2.378526e+00 9.678266e-01 1.916225e+00 1.237925e+00 9.488223e-01 5.157584e+00 1.665912e+00 1.610721e+00 1.435057e+00 2.909154e+00
<GCONST> 8.012506e+01
<TRANSP> 5
 0.000000e+00 1.000000e+00 0.000000e+00 0.000000e+00 0.000000e+00
 0.000000e+00 9.649406e-01 3.505939e-02 0.000000e+00 0.000000e+00
 0.000000e+00 0.000000e+00 7.709985e-01 2.290015e-01 0.000000e+00
 0.000000e+00 0.000000e+00 0.000000e+00 8.928432e-01 1.071569e-01
 0.000000e+00 0.000000e+00 0.000000e+00 0.000000e+00 0.000000e+00
<ENDHMM>
~h "m"
<BEGINHMM>
<NUMSTATES> 5
<STATE> 2
<MEAN> 25
 7.789537e+00 3.393569e+00 -1.675906e+00 -2.777655e+00 -3.159008e+00 5.113518e-02 5.339477e+00 4.775113e+00 -1.724278e-01 -1.135883e+00 1.412452e+00 2.649807e+00 -1.362015e+00 9.147835e-01 8.513732e-02 2.213115e-01 1.047183e-01 8.300192e-01 5.584875e-01 8.792894e-02 5.122449e-01 7.665140e-01 -1.294828e-01 -5.683981e-02 -1.783165e+00
<VARIANCE> 25
 7.295379e+01 1.859019e+01 2.054480e+01 3.977342e+01 7.202373e+01 7.131945e+01 1.527538e+01 3.076364e+01 5.243029e+01 3.648013e+01 1.477053e+01 2.852687e+01 1.955362e+00 2.442312e+00 1.701683e+00 2.552781e+00 4.048603e+00 2.748130e+00 2.165225e+00 2.927159e+00 4.571481e+00 2.746917e+00 1.271961e+00 4.686199e+00 1.287290e+00
<GCONST> 1.000179e+02
<STATE> 3
<MEAN> 25
 -4.464013e+00 3.544595e+00 7.311620e-01 3.619564e-01 1.721965e+00 3.497284e+00 2.251791e+00 2.276826e-02 3.038732e+00 3.300146e+00 3.988861e-01 2.737404e+00 7.608481e-02 -3.124116e-01 7.762454e-03 1.677436e-01 -9.596838e-02 -2.229059e-01 -3.708110e-02 -1.001827e-01 -4.696674e-01 -3.009805e-01 -1.347798e-01 -4.671726e-01 1.572834e-01
<VARIANCE> 25
 4.940372e+01 5.890884e+00 3.764618e+00 1.044536e+01 5.462484e+00 7.835299e+00 1.210902e+01 1.122121e+01 4.140454e+01 1.744999e+01 1.089749e+01 1.825710e+01 6.620285e-01 8.658898e-01 5.212277e-01 7.792683e-01 6.189722e-01 9.457872e-01 1.245274e+00 1.130674e+00 1.436286e+00 9.542426e-01 8.744508e-01 1.226562e+00 4.686541e-01
<GCONST> 7.381298e+01
<STATE> 4
<MEAN> 25
 1.028916e+01 -9.056437e-01 3.323322e+00 5.849065e+00 -7.618921e-01 -2.479794e+00 5.138283e+00 6.976261e-01 -1.109295e+01 -5.015532e+00 1.813075e+00 -5.764848e+00 8.422987e-01 -8.258741e-01 8.124234e-02 2.215659e-01 -4.503008e-01 -1.566760e+00 -3.493034e-01 8.045858e-01 3.142483e-01 -1.440048e-01 -3.730749e-02 -4.226636e-02 1.151967e+00
<VARIANCE> 25
 5.142733e+01 2.620858e+01 2.778548e+01 4.541551e+01 2.868311e+01 4.178509e+01 2.905207e+01 2.098812e+01 1.029044e+02 4.011670e+01 2.242254e+01 5.818018e+01 3.199358e+00 3.225274e+00 3.770617e+00 6.273653e+00 1.697096e+00 6.604762e+00 3.490795e+00 2.099999e+00 8.519978e+00 4.166849e+00 1.737083e+00 3.478286e+00 2.254574e+00
<GCONST> 1.053823e+02
<TRANSP> 5
 0.000000e+00 1.000000e+00 0.000000e+00 0.000000e+00 0.000000e+00
 0.000000e+00 7.519814e-01 2.480186e-01 0.000000e+00 0.000000e+00
 0.000000e+00 0.000000e+00 8.518780e-01 1.481220e-01 0.000000e+00
 0.000000e+00 0.000000e+00 0.000000e+00 8.028461e-01 1.971539e-01
 0.000000e+00 0.000000e+00 0.000000e+00 0.000000e+00 0.000000e+00
<ENDHMM>
~h "o"
<BEGINHMM>
<NUMSTATES> 5
<STATE> 2
<MEAN> 25
 1.595733e+01 2.230635e+00 4.391899e+00 2.074929e+00 -1.447228e+01 -1.562930e+01 -3.545018e+00 2.308650e+00 -2.589711e-01 -3.865170e+00 -3.230857e+00 -9.144509e+00 -6.584125e-01 6.461807e-01 2.434795e-02 -6.459303e-02 4.401539e-02 -2.706078e-01 -3.473766e-01 -2.991648e-01 7.936959e-02 5.772765e-01 -3.757859e-03 1.813157e-01 -7.768216e-01
<VARIANCE> 25
 1.210023e+01 2.102208e+01 1.054811e+01 8.605575e+00 8.477184e+00 2.032988e+01 8.483095e+00 6.539770e+00 9.430463e+00 1.174409e+01 7.519948e+00 8.134727e+00 9.297711e-01 7.262090e-01 8.195474e-01 9.303238e-01 8.487385e-01 1.883980e+00 3.680532e-01 4.645288e-01 1.206495e+00 1.267253e+00 4.794327e-01 6.566936e-01 7.634582e-01
<GCONST> 7.101868e+01
<STATE> 3
<MEAN> 25
 -6.520928e-02 9.728473e+00 2.111608e+00 -8.919258e-01 -3.550345e-01 1.506178e+00 2.454180e-01 -1.872963e-01 4.361107e+00 3.493953e+00 -2.329833e+00 6.687518e-01 -1.984153e+00 -9.120607e-01 -4.255674e-01 1.734652e-01 1.883425e+00 2.232575e+00 8.323087e-01 2.590590e-01 8.846015e-01 7.614818e-01 7.056718e-01 1.760701e+00 -1.204773e+00
<VARIANCE> 25
 2.334031e+01 1.490286e+01 5.450501e+00 8.746430e+00 3.235604e+01 4.680402e+01 3.011167e+01 1.737873e+01 1.299751e+01 1.972555e+01 1.876406e+01 2.506353e+01 1.492946e+00 8.757505e-01 7.412970e-01 1.205069e+00 3.872762e+00 5.109488e+00 1.174724e+00 8.140621e-01 1.508527e+00 1.614648e+00 9.611924e-01 1.358905e+00 7.947984e-01
<GCONST> 8.496929e+01
<STATE> 4
<MEAN> 25
 -6.510782e+00 3.532187e+00 -7.493847e-01 -6.155735e-01 1.760560e+00 3.022014e+00 -3.385533e-01 -1.394070e+00 3.693713e+00 2.946455e+00 -1.756073e+00 3.331063e+00 -2.212514e-02 -2.714153e-02 -2.279521e-02 -1.807832e-02 9.643426e-04 1.313640e-02 1.842408e-02 8.196838e-03 -5.201995e-05 -8.424339e-03 -6.551501e-03 -7.656653e-03 -8.520244e-03
<VARIANCE> 25
 1.086717e+00 1.586928e+00 2.388240e+00 2.760294e+00 4.447544e+00 4.524057e+00 7.272032e+00 6.092447e+00 6.622143e+00 6.364168e+00 5.649078e+00 6.614301e+00 5.361351e-02 1.606763e-01 2.111448e-01 3.246745e-01 4.118337e-01 5.020162e-01 7.976014e-01 6.492168e-01 6.938290e-01 6.762326e-01 6.572523e-01 7.257035e-01 1.891393e-02
<GCONST> 4.739870e+01
<TRANSP> 5
 0.000000e+00 1.000000e+00 0.000000e+00 0.000000e+00 0.000000e+00
 0.000000e+00 9.349505e-01 6.504956e-02 0.000000e+00 0.000000e+00
 0.000000e+00 0.000000e+00 8.279022e-01 1.720978e-01 0.000000e+00
 0.000000e+00 0.000000e+00 0.000000e+00 9.811704e-01 1.882964e-02
 0.000000e+00 0.000000e+00 0.000000e+00 0.000000e+00 0.000000e+00
<ENDHMM>
~h "p"
<BEGINHMM>
<NUMSTATES> 5
<STATE> 2
<MEAN> 25
 1.092474e+01 1.688019e+00 3.510438e+00 1.011638e+00 -6.438680e+00 -2.817059e+00 9.026736e+00 6.176350e+00 2.342645e+00 -1.812470e+00 -5.373433e+00 -3.091068e+00 -2.904388e+00 3.459379e-01 -4.612286e-01 2.850075e-01 3.717631e+00 3.213826e+00 2.736484e-01 1.052709e+00 2.066258e+00 1.036608e+00 4.826730e-01 -6.087355e-02 -2.391784e+00
<VARIANCE> 25
 1.799308e+01 4.991205e+01 2.584063e+01 3.898431e+01 4.825144e+01 6.161874e+01 1.671543e+01 2.868238e+01 3.105293e+01 1.687367e+01 6.944958e+00 1.246777e+01 7.179776e-01 1.720873e+00 1.669824e+00 2.633222e+00 1.611679e+00 6.532696e+00 3.411687e+00 1.327191e+00 5.098534e-01 8.624067e-01 2.148348e+00 2.926932e+00 3.120334e-01
<GCONST> 8.996407e+01
<STATE> 3
<MEAN> 25
 4.157679e+00 -7.256259e+00 -8.061008e+00 -2.499475e+00 -3.114048e+00 -3.633572e+00 4.476084e+00 1.284839e+01 7.121092e+00 -1.120364e+00 -1.073026e+00 -1.339536e+00 -1.247089e+00 -2.611164e-01 -1.194110e+00 -5.266098e-01 -6.128610e-01 -7.229307e-01 -1.438143e+00 -1.038642e+00 -3.576396e-01 -8.875828e-02 5.321752e-01 7.266776e-01 -1.194233e+00
<VARIANCE> 25
 4.086199e+00 7.626890e+01 3.585035e+01 1.205016e+01 2.005000e+01 2.035405e+01 1.536070e+01 5.058239e+01 1.662033e+01 2.433121e+01 9.191123e+00 5.152925e+00 1.557030e+00 7.320201e-01 1.550689e+00 1.065221e+00 2.473402e+00 7.555897e-01 2.128181e+00 2.063776e+00 1.412228e+00 1.090479e+00 5.619804e-01 9.299297e-01 7.738318e-01
<GCONST> 8.254865e+01
<STATE> 4
<MEAN> 25
 -5.299335e+00 3.405080e+00 -1.182851e-01 -5.640627e-01 1.357437e+00 1.168306e+00 -4.525253e-01 6.605346e-01 4.074871e+00 1.597359e+00 -1.396822e+00 2.250725e+00 -1.133299e-01 -5.219757e-02 -2.684767e-02 -1.020453e-02 2.169563e-02 -3.186398e-02 -9.047268e-02 -4.220034e-02 1.193044e-03 -4.303030e-02 -4.428963e-02 8.531320e-03 -7.586206e-02
<VARIANCE> 25
 1.117957e+01 6.167191e+00 6.340019e+00 6.800168e+00 9.320616e+00 9.078546e+00 7.613047e+00 1.516475e+01 7.239863e+00 8.886572e+00 7.001256e+00 7.371964e+00 1.071312e+00 5.094174e-01 4.982644e-01 5.569056e-01 6.200244e-01 8.081781e-01 7.595429e-01 1.377299e+00 8.445013e-01 7.900758e-01 6.126167e-01 8.911684e-01 6.973741e-01
<GCONST> 6.733521e+01
<TRANSP> 5
 0.000000e+00 1.000000e+00 0.000000e+00 0.000000e+00 0.000000e+00
 0.000000e+00 7.437352e-01 2.562648e-01 0.000000e+00 0.000000e+00
 0.000000e+00 0.000000e+00 6.397918e-01 3.602082e-01 0.000000e+00
 0.000000e+00 0.000000e+00 0.000000e+00 9.754207e-01 2.457932e-02
 0.000000e+00 0.000000e+00 0.000000e+00 0.000000e+00 0.000000e+00
<ENDHMM>
~h "r"
<BEGINHMM>
<NUMSTATES> 5
<STATE> 2
<MEAN> 25
 -2.858011e+00 3.273309e+00 -4.031253e+00 -6.168988e+00 -3.755082e+00 7.574757e-01 2.677732e+00 3.506707e+00 4.997032e+00 1.291731e+00 -3.002577e+00 1.608863e+00 -8.135153e-01 2.712644e-01 1.050339e+00 9.027193e-01 7.949687e-01 6.879374e-01 -4.686041e-01 -1.124948e+00 -5.080149e-01 5.088418e-01 5.666778e-01 7.424445e-02 -5.633416e-01
<VARIANCE> 25
 3.975442e+00 2.699684e+00 8.847292e+00 6.076282e+00 9.587972e+00 1.216583e+01 8.938304e+00 1.794287e+01 1.717443e+01 6.746196e+00 6.099844e+00 5.971189e+00 2.375224e-01 6.669211e-01 5.459003e-01 1.748443e+00 7.012377e-01 7.261680e-01 1.672667e+00 7.498978e-01 1.109404e+00 5.462416e-01 1.202350e+00 6.023737e-01 7.420488e-02
<GCONST> 6.472715e+01
<STATE> 3
<MEAN> 25
 -5.594996e+00 2.400465e+00 -4.346294e-01 -4.580274e-01 -3.289902e-01 2.121741e+00 1.016988e+00 -1.025414e+00 2.349429e+00 2.539943e+00 -1.957521e-01 2.105031e+00 -1.487169e-01 1.829056e-02 1.944804e-01 3.110735e-01 2.053490e-01 4.691777e-02 -2.162773e-01 -2.920026e-01 -1.090445e-01 -2.807907e-02 8.696826e-02 -5.400692e-02 -9.632615e-02
<VARIANCE> 25
 1.086717e+00 8.620111e+00 4.291186e+00 2.383532e+01 3.420618e+00 1.052492e+01 1.103817e+01 7.854865e+00 1.025555e+01 5.634273e+00 7.544377e+00 6.029448e+00 7.308749e-02 6.699151e-01 3.145274e-01 1.460598e+00 5.144594e-01 1.147303e+00 7.014663e-01 5.970038e-01 1.099841e+00 6.537071e-01 5.790653e-01 7.723122e-01 7.649278e-02
<GCONST> 5.983474e+01
<STATE> 4
<MEAN> 25
 -6.448661e+00 4.001942e+00 -1.101930e-01 -6.497545e-01 1.269654e+00 2.962649e+00 -1.097869e+00 -2.548104e+00 3.369338e+00 2.981898e+00 -1.854914e+00 2.357058e+00 -5.671856e-03 -5.372658e-03 5.763056e-03 4.912741e-03 9.950096e-03 -4.753471e-03 -1.309300e-02 -1.628677e-03 6.942915e-03 6.375378e-03 -9.371405e-03 3.022248e-03 -9.754032e-05
<VARIANCE> 25
 1.086717e+00 2.315661e+00 2.450027e+00 3.130046e+00 4.005864e+00 5.175405e+00 5.466523e+00 5.973678e+00 6.474241e+00 6.392241e+00 5.985955e+00 5.834491e+00 4.364930e-02 1.199028e-01 2.030154e-01 3.027054e-01 4.017562e-01 5.397584e-01 6.176221e-01 6.075981e-01 6.251072e-01 6.263444e-01 6.606849e-01 5.770963e-01 1.891393e-02
<GCONST> 4.628018e+01
<TRANSP> 5
 0.000000e+00 1.000000e+00 0.000000e+00 0.000000e+00 0.000000e+00
 0.000000e+00 7.190481e-01 2.809519e-01 0.000000e+00 0.000000e+00
 0.000000e+00 0.000000e+00 8.750530e-01 1.249470e-01 0.000000e+00
 0.000000e+00 0.000000e+00 0.000000e+00 9.850544e-01 1.494564e-02
 0.000000e+00 0.000000e+00 0.000000e+00 0.000000e+00 0.000000e+00
<ENDHMM>
~h "t"
<BEGINHMM>
<NUMSTATES> 5
<STATE> 2
<MEAN> 25
 4.510814e+00 -3.421490e+00 5.107573e+00 5.105908e+00 6.014432e+00 -4.219839e+00 -5.371514e+00 -7.021843e-01 -4.188468e+00 -3.844777e+00 1.714684e+00 -4.444809e+00 -2.874178e-01 9.470604e-02 5.136851e-02 -4.855225e-01 1.464136e-02 3.451870e-01 2.522458e-01 1.690826e-01 5.588011e-01 1.473884e-01 -1.011131e-01 3.435273e-01 -1.048180e-01
<VARIANCE> 25
 5.604093e+01 4.899028e+01 2.601503e+01 3.339405e+01 1.609059e+01 3.459387e+01 3.507561e+01 1.586929e+01 5.772791e+01 3.483386e+01 2.209721e+01 3.006125e+01 4.771271e+00 4.911712e+00 2.542236e+00 2.441523e+00 1.610830e+00 2.628303e+00 3.099292e+00 2.244228e+00 3.754662e+00 3.434630e+00 2.181470e+00 1.882882e+00 9.836632e+00
<GCONST> 1.019989e+02
<STATE> 3
<MEAN> 25
 1.416570e+01 -1.190093e+01 7.197484e+00 4.085933e+00 5.415329e+00 -5.928170e+00 -1.075404e+01 -3.770584e+00 -1.346627e+01 -9.422742e+00 4.538652e+00 -6.151688e+00 1.080372e+00 -1.819912e-01 -6.913534e-01 -2.711093e-01 -1.125544e+00 -4.673278e-02 6.060789e-01 -2.711311e-01 -1.069366e+00 -5.689759e-01 1.966287e-02 -2.490480e-02 5.201508e-01
<VARIANCE> 25
 7.456337e+00 1.357771e+01 1.701902e+01 2.877923e+01 1.671547e+01 1.721859e+01 3.756519e+01 1.034371e+01 1.954786e+01 2.633863e+01 9.690664e+00 1.353389e+01 1.928153e+00 2.049112e+00 1.232375e+00 2.538082e+00 2.255679e+00 2.270624e+00 3.365346e+00 2.322833e+00 4.130538e+00 3.537636e+00 1.608155e+00 1.815834e+00 9.933904e-01
<GCONST> 8.945447e+01
<STATE> 4
<MEAN> 25
 1.953511e+01 -5.316934e+00 -4.100506e+00 -9.407394e+00 -1.148266e+01 -6.738142e+00 5.357147e+00 5.781242e+00 -8.701532e+00 -6.907012e+00 4.406878e+00 -3.281446e+00 -3.096624e-01 9.745381e-01 -3.449062e-01 -4.339528e-01 -9.206721e-01 4.720318e-02 4.880848e-01 5.654361e-01 5.948200e-01 1.332871e-01 -4.932491e-01 -9.917870e-02 -8.781349e-01
<VARIANCE> 25
 3.369503e+00 2.444160e+01 1.133135e+01 2.006529e+01 2.126849e+01 1.590721e+01 2.039130e+01 2.396618e+01 9.525093e+00 2.286695e+01 2.069912e+01 2.768470e+01 9.542081e-01 1.237706e+00 7.388971e-01 9.607639e-01 1.534858e+00 1.049243e+00 1.199448e+00 1.803350e+00 1.607344e+00 1.421818e+00 1.193960e+00 1.860540e+00 1.000646e+00
<GCONST> 8.223197e+01
<TRANSP> 5
 0.000000e+00 1.000000e+00 0.000000e+00 0.000000e+00 0.000000e+00
 0.000000e+00 9.478242e-01 5.217569e-02 0.000000e+00 0.000000e+00
 0.000000e+00 0.000000e+00 8.825065e-01 1.174935e-01 0.000000e+00
 0.000000e+00 0.000000e+00 0.000000e+00 8.979047e-01 1.020953e-01
 0.000000e+00 0.000000e+00 0.000000e+00 0.000000e+00 0.000000e+00
<ENDHMM>
~h "ai"
<BEGINHMM>
<NUMSTATES> 5
<STATE> 2
<MEAN> 25
 -1.527300e+00 -1.094303e+01 -5.609961e+00 -4.381080e+00 -5.756332e-01 2.495302e+00 9.603620e+00 1.389808e+01 3.767004e+00 -6.461103e+00 1.009532e+00 6.837488e+00 -4.115915e-01 4.632215e-01 3.236917e-01 2.611142e-01 7.783772e-02 2.549201e-01 6.023555e-01 9.078348e-02 -3.154671e-01 1.353182e-01 7.039644e-02 5.959773e-02 -4.798195e-01
<VARIANCE> 25
 2.801826e+00 2.329867e+01 1.011150e+01 1.157175e+01 1.761248e+01 7.768880e+00 1.561435e+01 1.355012e+01 1.484836e+01 1.619701e+01 1.094299e+01 5.801003e+00 5.168461e-01 8.773694e-01 1.955077e+00 1.030157e+00 8.024743e-01 6.618763e-01 6.143409e-01 8.353433e-01 7.776577e-01 1.472162e+00 1.794233e+00 7.548147e-01 2.764909e-01
<GCONST> 7.255704e+01
<STATE> 3
<MEAN> 25
 -2.299342e+00 -3.421472e+00 -7.506081e+00 -5.690962e+00 -2.695336e+00 2.249811e+00 9.086102e+00 1.001270e+01 1.212956e+00 -6.490553e+00 -2.687455e+00 3.651757e+00 -1.527776e-01 1.390640e+00 3.251449e-01 1.568698e-01 -8.253513e-02 -1.974523e-01 -8.319499e-01 -1.468328e+00 -4.263638e-01 3.418085e-01 -3.973877e-01 -1.522650e-01 -7.662593e-01
<VARIANCE> 25
 4.184596e+00 1.036849e+01 5.400449e+00 2.837003e+00 4.136101e+00 4.329090e+00 8.912026e+00 9.759147e+00 1.737983e+01 2.038924e+01 4.607660e+00 7.257730e+00 3.375893e-01 6.203294e-01 1.078213e+00 1.096993e+00 5.578059e-01 9.438452e-01 1.867660e+00 9.143106e-01 1.214595e+00 8.214006e-01 1.579948e+00 1.304521e+00 8.592733e-02
<GCONST> 6.594182e+01
<STATE> 4
<MEAN> 25
 -1.953758e+00 2.563377e+00 -8.267550e+00 -9.197726e+00 -5.583835e+00 1.577290e+00 4.433079e+00 2.784082e+00 1.276892e+00 -1.907679e+00 -4.005910e+00 2.686848e+00 -3.436611e-01 4.794734e-01 4.913841e-01 -5.493127e-04 8.124068e-02 1.792795e-01 -4.248376e-01 -6.536168e-01 2.280377e-01 5.584179e-01 1.211166e-01 -5.637864e-02 -3.650033e-01
<VARIANCE> 25
 2.557386e+00 2.795789e+00 5.821940e+00 5.875210e+00 5.435410e+00 5.124047e+00 5.582694e+00 5.085549e+00 8.811166e+00 9.180323e+00 5.215669e+00 6.911091e+00 1.696830e-01 2.447225e-01 6.731278e-01 7.965949e-01 9.642630e-01 4.979531e-01 6.143324e-01 4.158048e-01 1.338335e+00 1.128494e+00 6.548197e-01 6.810677e-01 7.387162e-02
<GCONST> 5.719354e+01
<TRANSP> 5
 0.000000e+00 1.000000e+00 0.000000e+00 0.000000e+00 0.000000e+00
 0.000000e+00 8.535373e-01 1.464627e-01 0.000000e+00 0.000000e+00
 0.000000e+00 0.000000e+00 6.897952e-01 3.102048e-01 0.000000e+00
 0.000000e+00 0.000000e+00 0.000000e+00 7.920888e-01 2.079112e-01
 0.000000e+00 0.000000e+00 0.000000e+00 0.000000e+00 0.000000e+00
<ENDHMM>
~h "am"
<BEGINHMM>
<NUMSTATES> 5
<STATE> 2
<MEAN> 25
 1.791008e+01 -7.751467e+00 2.337365e+00 6.121853e+00 -1.230744e+00 -3.688024e+00 2.718663e+00 -2.562264e+00 -1.734017e+01 -7.724449e+00 1.342243e+00 -8.390192e+00 1.162287e+00 -1.686520e+00 2.517600e-01 -2.782161e+00 -1.779500e+00 -2.512936e+00 -9.940484e-01 1.556788e+00 -1.006990e+00 -5.313919e-01 6.248337e-01 -8.114049e-01 2.286660e+00
<VARIANCE> 25
 1.379520e+01 1.777549e+01 8.389661e+00 4.863867e+01 1.036551e+01 1.345921e+01 6.383966e+01 1.066535e+01 5.927934e+00 6.156976e+00 1.294571e+01 8.676785e+00 2.765637e+00 2.672591e-01 7.743827e-01 8.438468e+00 7.809042e-01 1.526989e+00 5.269860e+00 3.568980e-01 4.847408e+00 1.727585e+00 2.443726e+00 2.860150e+00 1.455154e+00
<GCONST> 8.406789e+01
<STATE> 3
<MEAN> 25
 1.482817e+01 -7.853709e+00 7.308049e+00 4.348994e+00 -6.704540e+00 -8.211079e+00 8.189764e+00 3.959662e+00 -1.884452e+01 -1.085285e+01 4.354556e+00 -4.765496e+00 1.315494e-01 -9.966631e-02 -2.404465e-01 -7.531668e-01 -7.283177e-01 -5.658565e-01 -2.410089e-02 8.229093e-01 1.226954e+00 -2.775574e-01 -2.185428e-01 7.534361e-01 2.274809e-01
<VARIANCE> 25
 1.515843e+01 1.082325e+01 2.527275e+01 8.731042e+01 7.414786e+00 4.350422e+00 5.700785e+01 4.296354e+00 3.288977e+01 5.341701e+00 4.101368e+00 5.450187e+00 7.784205e-02 2.377098e-01 6.398312e-01 9.485601e-01 9.508713e-01 9.490191e-01 5.494698e-01 1.863969e+00 3.256172e+00 3.323719e-01 1.009270e+00 5.592727e-01 1.474320e-01
<GCONST> 6.902158e+01
<STATE> 4
<MEAN> 25
 1.882645e+01 -4.869845e+00 6.973315e-01 -3.328881e+00 -1.492384e+01 -1.318478e+01 3.209051e+00 3.797179e+00 -3.056376e+00 -1.055556e+00 1.158143e+00 -2.939640e-01 -2.022817e-01 1.014068e+00 -1.900109e-02 3.059416e-01 -4.678618e-01 -3.463355e-02 4.863151e-01 -2.034702e-01 7.447059e-01 8.091968e-01 -5.708770e-01 1.002780e-01 -7.689596e-01
<VARIANCE> 25
 4.313369e+00 4.102017e+01 1.365106e+01 4.597586e+01 2.043321e+01 2.296603e+01 2.394478e+01 2.678400e+01 2.874501e+01 4.204998e+01 5.019854e+00 5.076045e+00 5.391974e-01 3.352784e+00 1.787987e+00 4.359728e+00 2.262747e+00 1.681470e+00 4.121715e+00 2.538891e+00 4.231773e+00 4.465646e+00 1.341085e+00 9.233902e-01 1.515136e+00
<GCONST> 9.041282e+01
<TRANSP> 5
 0.000000e+00 1.000000e+00 0.000000e+00 0.000000e+00 0.000000e+00
 0.000000e+00 6.699577e-01 3.300423e-01 0.000000e+00 0.000000e+00
 0.000000e+00 0.000000e+00 8.535180e-01 1.464820e-01 0.000000e+00
 0.000000e+00 0.000000e+00 0.000000e+00 8.989860e-01 1.010140e-01
 0.000000e+00 0.000000e+00 0.000000e+00 0.000000e+00 0.000000e+00
<ENDHMM>
~h "ch"
<BEGINHMM>
<NUMSTATES> 5
<STATE> 2
<MEAN> 25
 7.819538e-01 2.333663e+00 -4.132234e+00 -2.024311e+00 -3.200699e+00 -1.696753e+00 8.929625e-01 -4.507445e-01 -2.212611e+00 1.220453e+00 9.596373e-01 2.943363e+00 -1.644553e+00 1.864922e+00 2.123259e-01 -1.002047e+00 5.293601e-01 1.496508e+00 5.507169e-01 -3.109672e-01 1.118262e+00 4.191737e-01 -4.833524e-01 1.496606e+00 -1.841210e+00
<VARIANCE> 25
 2.670189e+01 1.446702e+01 1.319054e+01 2.501791e+01 2.606838e+01 2.970416e+01 1.050843e+01 9.520587e+00 2.315368e+01 2.734376e+01 4.822673e+00 1.547122e+01 2.474358e+00 1.464917e+00 2.404479e+00 3.764996e+00 4.527954e+00 3.663389e+00 3.522197e-01 1.734648e+00 3.747042e+00 2.413412e+00 1.024552e+00 2.431042e+00 1.303336e+00
<GCONST> 8.890954e+01
<STATE> 3
<MEAN> 25
 -5.732975e+00 4.996974e+00 -1.726944e+00 -2.057350e+00 9.803292e-01 4.373870e+00 6.444709e-01 -1.249561e+00 3.927261e+00 3.827091e+00 -1.665673e+00 2.901555e+00 1.476040e-01 -7.995643e-02 -3.756222e-02 7.605981e-02 -2.818378e-02 -3.314211e-02 -2.236130e-02 -1.077985e-01 -1.700207e-01 -5.958768e-02 -4.288308e-02 -2.176149e-01 1.238903e-01
<VARIANCE> 25
 1.086717e+00 1.212521e+00 3.680135e+00 4.517365e+00 4.823921e+00 5.125735e+00 8.274663e+00 7.676685e+00 6.759674e+00 7.261178e+00 4.919858e+00 4.403672e+00 9.891577e-01 2.358099e-01 3.739885e-01 8.934062e-01 5.987403e-01 8.641278e-01 8.813779e-01 7.487210e-01 1.475800e+00 8.827183e-01 6.247336e-01 8.146902e-01 5.914687e-01
<GCONST> 5.879958e+01
<STATE> 4
<MEAN> 25
 1.503246e+01 -5.074974e+00 1.415303e+00 4.667042e+00 -6.293685e+00 -3.688150e+00 4.328451e+00 1.412443e+00 -1.505249e+01 -8.881366e+00 3.223661e+00 -6.683785e+00 7.389253e-01 -5.706719e-01 -3.597298e-02 -3.286496e-01 -5.909828e-01 -3.446250e-01 9.847468e-02 3.650446e-01 -2.535813e-01 -3.591976e-01 2.072338e-01 3.695377e-02 8.459356e-01
<VARIANCE> 25
 1.265841e+01 2.032350e+01 2.691768e+01 9.108810e+01 3.385303e+01 1.663138e+01 2.071187e+01 4.188830e+01 3.075391e+01 2.512849e+01 1.450911e+01 1.200305e+01 1.698082e+00 9.035792e-01 1.831566e+00 3.481855e+00 7.150260e-01 8.197311e-01 1.917697e+00 7.781531e-01 4.755895e+00 3.139933e+00 8.471538e-01 1.829510e+00 1.496390e+00
<GCONST> 8.990237e+01
<TRANSP> 5
 0.000000e+00 1.000000e+00 0.000000e+00 0.000000e+00 0.000000e+00
 0.000000e+00 7.355843e-01 2.644157e-01 0.000000e+00 0.000000e+00
 0.000000e+00 0.000000e+00 9.645503e-01 3.544975e-02 0.000000e+00
 0.000000e+00 0.000000e+00 0.000000e+00 9.460497e-01 5.395028e-02
 0.000000e+00 0.000000e+00 0.000000e+00 0.000000e+00 0.000000e+00
<ENDHMM>
~h "eh"
<BEGINHMM>
<NUMSTATES> 5
<STATE> 2
<MEAN> 25
 2.389190e+00 5.247039e+00 1.050812e+00 4.071199e-01 -2.932915e-01 3.098300e+00 3.173550e+00 1.052929e+00 2.078354e-01 -9.236665e-01 -2.293135e+00 -1.467116e+00 1.487468e+00 1.429476e+00 8.804343e-01 1.369942e+00 1.337941e+00 7.070739e-01 -1.083789e-01 -1.184125e+00 -5.238271e-01 3.058504e-01 -5.186766e-01 -1.430893e+00 6.753488e-01
<VARIANCE> 25
 8.132204e+01 4.221404e+01 2.636485e+01 2.250389e+01 4.015843e+01 3.138035e+01 2.088122e+01 1.320382e+01 2.533961e+01 4.266193e+01 6.475849e+00 3.243300e+01 2.886607e+00 3.177011e+00 3.091378e+00 2.076837e+00 4.148346e+00 6.277892e+00 3.196079e+00 2.504943e+00 5.727234e+00 2.044330e+00 1.748024e+00 6.907219e+00 2.683725e+00
<GCONST> 1.009191e+02
<STATE> 3
<MEAN> 25
 1.103872e+01 7.448520e+00 1.931336e+00 6.503842e+00 5.741945e+00 9.176305e+00 8.499146e+00 -5.897566e+00 -8.091387e+00 2.353769e+00 -6.713320e-02 -1.039271e+01 1.119992e+00 -3.882624e-01 -2.493309e-01 5.669137e-02 -1.173405e-01 -4.293088e-01 -1.034341e-01 -7.124063e-03 -6.238285e-01 -1.565112e-01 4.043043e-01 -4.775186e-01 9.666247e-01
<VARIANCE> 25
 2.775195e+01 1.862702e+01 8.293981e+00 1.478091e+01 2.078823e+01 2.119428e+01 2.916639e+01 1.281856e+01 2.233212e+01 2.723171e+01 1.113290e+01 2.058781e+01 2.052391e+00 1.200319e+00 9.731248e-01 1.509949e+00 8.778105e-01 2.260998e+00 2.362312e+00 9.454341e-01 3.691037e+00 2.163860e+00 1.552537e+00 2.824548e+00 2.266352e+00
<GCONST> 8.801039e+01
<STATE> 4
<MEAN> 25
 1.487322e+01 -3.259969e+00 1.556489e+00 4.887590e+00 3.380895e+00 -4.942329e+00 -4.618627e+00 -2.034741e+00 -1.058611e+01 -5.807496e+00 3.604608e+00 -8.242264e+00 1.341705e+00 -2.929632e+00 1.612874e+00 1.191753e+00 3.855662e-01 -3.711630e+00 -3.039471e+00 3.755257e-01 -1.565129e+00 -1.581480e+00 1.298458e+00 -8.318864e-01 3.005368e+00
<VARIANCE> 25
 1.291775e+01 4.120166e+01 2.276371e+01 2.433300e+01 3.461015e+01 6.668536e+01 6.959277e+01 1.259422e+01 3.209603e+01 1.627623e+01 2.739753e+01 1.836546e+01 5.873751e+00 4.802950e+00 2.039084e+00 1.397226e+00 1.709916e+00 3.653971e+00 5.357152e+00 1.077777e+00 7.726838e+00 3.290663e+00 2.212510e+00 3.480769e+00 6.517118e+00
<GCONST> 1.006643e+02
<TRANSP> 5
 0.000000e+00 1.000000e+00 0.000000e+00 0.000000e+00 0.000000e+00
 0.000000e+00 5.549389e-01 4.450612e-01 0.000000e+00 0.000000e+00
 0.000000e+00 0.000000e+00 8.018471e-01 1.981529e-01 0.000000e+00
 0.000000e+00 0.000000e+00 0.000000e+00 6.033569e-01 3.966431e-01
 0.000000e+00 0.000000e+00 0.000000e+00 0.000000e+00 0.000000e+00
<ENDHMM>
~h "eu"
<BEGINHMM>
<NUMSTATES> 5
<STATE> 2
<MEAN> 25
 7.209260e+00 -2.271349e-01 -3.228402e-02 -2.775365e+00 -3.451615e+00 -4.904256e+00 -4.398940e-01 -2.939611e+00 -6.546058e+00 -1.128838e+00 4.021792e+00 -7.079618e-01 4.881320e+00 -2.700019e+00 3.927198e-01 -9.995412e-01 -1.763474e+00 -3.092922e+00 6.319221e-01 6.046911e-01 -3.555624e+00 -1.684685e+00 2.543870e+00 -1.035323e+00 5.662610e+00
<VARIANCE> 25
 9.237009e+01 4.112247e+01 1.470325e+01 1.814655e+01 2.577055e+01 3.710945e+01 1.874789e+01 3.682721e+01 6.645959e+01 2.128037e+01 2.971647e+01 1.790081e+01 3.343018e+00 2.535726e+00 1.168766e+00 1.342382e+00 2.579671e+00 1.616412e+00 2.208625e+00 4.115806e+00 3.730440e+00 1.940825e+00 8.885605e-01 1.310739e+00 2.711101e+00
<GCONST> 9.605946e+01
<STATE> 3
<MEAN> 25
 1.762899e+01 -9.262387e+00 1.676002e+00 -2.874919e+00 -2.910634e+00 -9.355478e+00 -1.096346e+00 -2.994092e+00 -1.732716e+01 -5.742587e+00 8.089172e+00 -3.082685e+00 1.641765e-01 6.467254e-02 -1.518962e-01 -1.242045e-01 -1.507457e-01 1.531855e-01 -7.131509e-02 1.814021e-01 -1.586916e-02 1.419307e-01 -4.272668e-02 -4.243227e-02 -4.712554e-02
<VARIANCE> 25
 1.086717e+00 5.065440e+00 6.521035e+00 6.896976e+00 1.594798e+01 6.595110e+00 7.172193e+00 2.088630e+01 8.415792e+00 1.100809e+01 5.805655e+00 6.688361e+00 8.618857e-02 1.431996e+00 3.583886e-01 9.755285e-01 1.243629e+00 3.805727e-01 8.123348e-01 7.386072e-01 8.170569e-01 4.201160e-01 4.174537e-01 3.725867e-01 4.022513e-01
<GCONST> 6.106880e+01
<STATE> 4
<MEAN> 25
 9.878067e+00 -2.303197e+00 -2.096090e-01 -6.652419e-01 -2.677515e+00 -2.430014e+00 2.346012e+00 8.090160e+00 1.691688e+00 -3.643622e+00 2.314667e-01 -2.530633e+00 -6.098245e-01 2.793295e-01 -1.954948e-01 -3.728418e-02 7.641219e-02 1.908862e-01 9.383816e-02 1.982986e-01 6.997592e-01 1.274090e-01 -4.238715e-01 1.393440e-01 -6.720691e-01
<VARIANCE> 25
 5.371440e+01 1.576976e+01 1.968919e+01 7.179688e+01 9.169855e+01 4.806234e+01 6.796651e+01 1.307137e+02 1.339632e+02 2.352541e+01 3.154863e+01 2.257676e+01 1.656929e+00 1.501619e+00 1.144668e+00 2.008584e+00 2.826210e+00 2.782073e+00 3.221536e+00 3.713060e+00 3.762113e+00 2.069960e+00 2.211066e+00 1.481094e+00 9.604071e-01
<GCONST> 1.015360e+02
<TRANSP> 5
 0.000000e+00 1.000000e+00 0.000000e+00 0.000000e+00 0.000000e+00
 0.000000e+00 7.637685e-01 2.362315e-01 0.000000e+00 0.000000e+00
 0.000000e+00 0.000000e+00 9.218804e-01 7.811962e-02 0.000000e+00
 0.000000e+00 0.000000e+00 0.000000e+00 9.666514e-01 3.334860e-02
 0.000000e+00 0.000000e+00 0.000000e+00 0.000000e+00 0.000000e+00
<ENDHMM>
~h "ff"
<BEGINHMM>
<NUMSTATES> 5
<STATE> 2
<MEAN> 25
 1.559858e+01 -6.246810e+00 -4.831149e+00 -9.578646e+00 -1.360002e+01 -7.875932e+00 7.297253e+00 7.786489e+00 -5.762331e+00 -1.703424e+00 5.135522e+00 -4.098459e+00 4.099164e+00 -2.896069e+00 1.398980e-01 -1.807479e+00 -1.349110e+00 -2.225219e+00 6.142620e-01 1.747588e+00 -7.041566e-01 -1.313428e+00 1.817342e+00 -1.100914e+00 5.558302e+00
<VARIANCE> 25
 7.041441e+00 1.345508e+01 1.006930e+01 1.185011e+01 4.871284e+00 8.306117e+00 1.965711e+01 3.760073e+00 9.005363e+00 1.135040e+01 1.127739e+01 2.829182e+00 3.397019e+00 8.108209e-01 1.064595e+00 1.976608e+00 4.075890e+00 1.297684e+00 3.050162e+00 2.481328e+00 1.406421e+00 1.656341e+00 2.128780e+00 6.879784e-01 2.792056e+00
<GCONST> 7.907381e+01
<STATE> 3
<MEAN> 25
 7.247256e+00 -3.444451e+00 4.761559e+00 -2.352690e+00 4.008185e+00 -5.397003e+00 5.087403e+00 3.981857e+00 2.087324e+00 8.556920e-01 6.398968e+00 -5.298531e-02 -4.685910e-01 -2.534566e-02 6.119915e-01 7.730238e-01 8.011791e-01 1.715773e-01 -9.175670e-02 -1.034537e-01 2.303039e-01 5.505929e-02 -4.032502e-02 1.503453e-01 -1.335807e-01
<VARIANCE> 25
 8.746685e+01 3.091240e+01 3.478741e+01 4.024195e+01 8.772009e+01 2.406400e+01 2.153295e+01 1.796372e+01 4.956529e+01 1.331035e+01 1.667833e+01 1.096113e+01 3.767888e+00 3.088882e+00 2.102279e+00 2.314328e+00 2.825996e+00 2.897945e+00 2.435545e+00 2.309928e+00 2.995490e+00 1.563312e+00 1.813054e+00 1.291222e+00 1.367007e+00
<GCONST> 9.698047e+01
<STATE> 4
<MEAN> 25
 5.192928e-01 -1.722264e+01 1.325750e+01 9.849429e+00 2.050436e+00 -9.226642e+00 -2.387431e+00 1.915674e+00 4.572932e-02 -6.267668e+00 3.313873e+00 -1.927262e+00 -8.501919e-02 -6.145530e-02 -1.221049e-01 -1.005536e-02 -1.938595e-01 -5.591275e-02 -2.737732e-01 -1.432876e-01 -1.623084e-02 2.009603e-02 -1.136814e-01 -7.535922e-02 -1.879443e-01
<VARIANCE> 25
 7.001530e+01 5.489904e+01 9.948235e+00 7.432219e+01 1.371618e+01 1.927056e+01 2.225974e+01 2.119605e+01 7.888007e+01 1.979673e+01 9.993645e+00 1.410117e+01 2.064967e+00 2.679857e+00 1.360399e+00 2.959717e+00 1.037963e+00 1.120920e+00 1.014038e+00 1.208580e+00 3.453124e+00 1.505719e+00 1.198761e+00 1.327602e+00 5.416695e-01
<GCONST> 8.980100e+01
<TRANSP> 5
 0.000000e+00 1.000000e+00 0.000000e+00 0.000000e+00 0.000000e+00
 0.000000e+00 5.456970e-01 4.543029e-01 0.000000e+00 0.000000e+00
 0.000000e+00 0.000000e+00 9.588687e-01 4.113124e-02 0.000000e+00
 0.000000e+00 0.000000e+00 0.000000e+00 9.760002e-01 2.399977e-02
 0.000000e+00 0.000000e+00 0.000000e+00 0.000000e+00 0.000000e+00
<ENDHMM>
~h "la"
<BEGINHMM>
<NUMSTATES> 5
<STATE> 2
<MEAN> 25
 1.389103e+01 -8.072044e+00 -3.256527e+00 -4.755786e+00 -9.766236e+00 -6.356032e+00 6.568585e+00 7.120823e+00 -5.020637e+00 -3.972040e+00 2.544493e+00 -3.471000e+00 -3.050815e-01 -9.167057e-03 -4.881395e-01 -3.087144e-01 -1.357572e-01 -1.747915e-02 2.847924e-01 4.439144e-01 4.901083e-01 1.459517e-01 -1.477291e-01 8.565895e-02 -3.514470e-01
<VARIANCE> 25
 2.787560e+01 3.479942e+01 6.416457e+01 8.581753e+01 3.195244e+01 1.679856e+01 2.518876e+01 4.626414e+01 9.016027e+01 2.265890e+01 2.832804e+01 2.574634e+01 3.300429e+00 2.223026e+00 1.811113e+00 2.897548e+00 1.941817e+00 1.538317e+00 2.764609e+00 1.272673e+00 5.005138e+00 1.992836e+00 1.835624e+00 2.263645e+00 3.992541e+00
<GCONST> 1.001104e+02
<STATE> 3
<MEAN> 25
 -1.198425e+00 8.073649e-01 -7.801772e+00 -7.820763e+00 -5.964463e+00 -1.805704e-01 6.528911e+00 7.657826e+00 5.140350e+00 -9.347605e-01 -3.595618e+00 1.728709e+00 -1.027238e+00 1.003601e+00 1.202310e+00 5.437508e-01 9.755251e-01 1.050370e+00 -5.127362e-01 -1.163169e+00 -1.499449e-01 2.389651e-01 -3.188431e-01 3.846615e-02 -9.427944e-01
<VARIANCE> 25
 9.316891e+00 1.729254e+01 1.419621e+01 1.232959e+01 1.144883e+01 1.922186e+01 1.184037e+01 1.891698e+01 1.227539e+01 1.447032e+01 1.008045e+01 7.650622e+00 4.274392e-01 7.634842e-01 4.156449e-01 1.356412e+00 1.053137e+00 1.505131e+00 1.540459e+00 1.216663e+00 1.272556e+00 1.528656e+00 9.894032e-01 7.507876e-01 3.548392e-01
<GCONST> 7.525262e+01
<STATE> 4
<MEAN> 25
 -6.015799e+00 3.573593e+00 -3.181504e-01 -8.595292e-01 1.179995e+00 2.666594e+00 -4.580190e-01 -1.496370e+00 3.504178e+00 2.747982e+00 -1.619525e+00 2.060588e+00 -2.858104e-02 -6.245145e-03 4.682277e-02 6.497174e-02 4.991527e-02 -9.476209e-03 -5.623625e-02 -5.935491e-02 -2.495375e-02 2.823071e-02 4.026208e-02 1.754207e-02 -1.635553e-02
<VARIANCE> 25
 1.362286e+00 2.604807e+00 3.149753e+00 4.472137e+00 4.633857e+00 5.381530e+00 6.622193e+00 7.312972e+00 5.661508e+00 6.888622e+00 6.393675e+00 5.987688e+00 5.437332e-02 1.185924e-01 2.139698e-01 3.745033e-01 4.347688e-01 4.530790e-01 6.202889e-01 6.218735e-01 5.935489e-01 6.963921e-01 6.654617e-01 5.933402e-01 1.891393e-02
<GCONST> 4.833782e+01
<TRANSP> 5
 0.000000e+00 1.000000e+00 0.000000e+00 0.000000e+00 0.000000e+00
 0.000000e+00 9.542871e-01 4.571296e-02 0.000000e+00 0.000000e+00
 0.000000e+00 0.000000e+00 8.786297e-01 1.213703e-01 0.000000e+00
 0.000000e+00 0.000000e+00 0.000000e+00 9.827695e-01 1.723054e-02
 0.000000e+00 0.000000e+00 0.000000e+00 0.000000e+00 0.000000e+00
<ENDHMM>
~h "lu"
<BEGINHMM>
<NUMSTATES> 5
<STATE> 2
<MEAN> 25
 -3.292082e+00 2.212805e+00 4.048144e-02 -2.138179e+00 -7.608472e-01 3.402196e-01 -1.413171e+00 -1.683997e+00 3.384351e+00 3.048777e+00 -4.326630e-02 1.676946e+00 1.056308e+00 1.797773e-01 4.224388e-01 1.143664e+00 1.298552e+00 5.668689e-01 -3.045868e-01 -9.245618e-01 -1.386639e+00 -6.488322e-01 -5.736165e-02 -9.395215e-01 7.657973e-01
<VARIANCE> 25
 5.393943e+01 2.799675e+01 3.032345e+00 8.129652e+00 1.756904e+01 2.643087e+01 7.511370e+00 5.851995e+00 3.070643e+01 1.029713e+01 2.134819e+01 8.081961e+00 3.946594e+00 6.344057e-01 4.747254e-01 1.610421e+00 2.782675e+00 2.598665e+00 1.018429e+00 1.645252e+00 2.958796e+00 1.470005e+00 7.524495e-01 1.389253e+00 1.940116e+00
<GCONST> 8.262353e+01
<STATE> 3
<MEAN> 25
 1.242097e+01 -3.507450e+00 2.252657e+00 3.700243e+00 4.083986e+00 -2.838406e+00 -3.611867e+00 -5.709326e+00 -1.014264e+01 -2.056559e+00 4.818878e+00 -5.250371e+00 2.005480e+00 1.632669e-01 3.794618e-01 2.511779e+00 2.941467e+00 1.335681e+00 -7.841102e-01 -9.017732e-01 -2.275635e+00 -1.947585e+00 -3.221154e-03 -1.194114e+00 1.480783e+00
<VARIANCE> 25
 2.265640e+01 1.038824e+02 6.598367e+00 3.111547e+01 7.919048e+01 1.605611e+02 2.400462e+01 1.827855e+01 2.626444e+01 1.463187e+01 4.349429e+01 8.012382e+00 5.511432e+00 2.045707e+00 7.988555e-01 1.008515e+00 3.026931e+00 3.254887e+00 1.950240e+00 1.299860e+00 3.329847e+00 1.593390e+00 3.808988e+00 1.277006e+00 4.586770e+00
<GCONST> 9.657295e+01
<STATE> 4
<MEAN> 25
 1.335895e+01 -1.651150e+00 2.280061e+00 9.605367e+00 1.056621e+01 3.705513e+00 -2.483784e+00 -2.417725e+00 -6.880081e+00 -5.325456e+00 2.486143e+00 -4.919549e+00 1.065595e-01 -1.501346e-02 -7.960594e-02 -2.317125e-01 -2.687379e-01 -6.776695e-02 2.857108e-01 2.577494e-01 1.842171e-01 3.221401e-02 -1.918657e-02 1.806553e-01 1.182278e-01
<VARIANCE> 25
 6.052236e+00 3.278846e+01 1.455326e+01 2.513668e+01 6.053370e+01 3.474538e+01 3.946173e+01 2.417244e+01 4.441949e+01 3.023620e+01 1.879300e+01 2.503209e+01 4.346136e-01 1.848276e+00 9.837331e-01 2.256487e+00 2.249183e+00 2.655448e+00 2.814300e+00 2.109056e+00 2.614805e+00 2.926236e+00 1.622510e+00 2.160040e+00 1.099907e+00
<GCONST> 9.253845e+01
<TRANSP> 5
 0.000000e+00 1.000000e+00 0.000000e+00 0.000000e+00 0.000000e+00
 0.000000e+00 6.999097e-01 3.000903e-01 0.000000e+00 0.000000e+00
 0.000000e+00 0.000000e+00 6.302181e-01 3.697819e-01 0.000000e+00
 0.000000e+00 0.000000e+00 0.000000e+00 9.625444e-01 3.745558e-02
 0.000000e+00 0.000000e+00 0.000000e+00 0.000000e+00 0.000000e+00
<ENDHMM>
~h "sp"
<BEGINHMM>
<NUMSTATES> 3
<STATE> 2
~s "silst"
<TRANSP> 3
 0.000000e+00 1.483434e-01 8.516566e-01
 0.000000e+00 5.076424e-01 4.923576e-01
 0.000000e+00 0.000000e+00 0.000000e+00
<ENDHMM>
~h "ein"
<BEGINHMM>
<NUMSTATES> 5
<STATE> 2
<MEAN> 25
 6.303226e+00 3.552118e+00 -7.927422e+00 -1.069285e+01 -1.218296e+01 -3.880963e+00 9.682653e+00 9.397297e+00 2.721671e-01 -1.814060e+00 -5.443220e-01 1.447745e+00 -2.549040e+00 -4.102382e-02 -2.391842e-02 1.580046e-01 1.236040e+00 1.088737e+00 -8.210112e-02 2.063247e-01 1.882563e+00 7.145019e-01 -8.675451e-01 4.134495e-01 -1.946446e+00
<VARIANCE> 25
 1.870403e+01 9.639553e+00 8.740107e+00 3.095319e+01 1.492206e+01 8.354430e+00 1.827271e+01 1.872057e+01 1.878958e+01 1.242461e+01 7.446220e+00 9.483742e+00 2.613619e+00 9.244841e-01 8.578422e-01 1.876039e+00 3.032485e+00 1.818909e+00 1.392748e+00 1.094846e+00 3.403329e+00 2.084711e+00 1.534386e+00 1.148842e+00 1.789884e+00
<GCONST> 8.370885e+01
<STATE> 3
<MEAN> 25
 -2.438602e+00 3.311024e+00 -5.636268e+00 -9.297593e+00 -6.274728e+00 1.216749e+00 5.923764e+00 5.443691e+00 5.091488e+00 2.729255e-02 -4.950291e+00 4.172659e-02 -8.542982e-01 1.949295e-02 8.768104e-01 1.271391e+00 1.450226e+00 6.778784e-01 -6.400139e-01 -7.213758e-01 1.175906e-01 2.483925e-01 -8.745688e-02 -1.848992e-01 -5.225817e-01
<VARIANCE> 25
 3.724406e+00 1.267767e+00 7.406984e+00 1.191330e+01 1.587062e+01 6.522470e+00 9.904231e+00 9.209212e+00 7.646687e+00 7.654029e+00 4.629077e+00 6.202312e+00 3.294900e-01 1.773377e-01 3.667743e-01 7.960853e-01 8.644732e-01 6.682416e-01 7.211870e-01 6.708656e-01 4.686433e-01 6.373014e-01 7.350413e-01 7.805879e-01 1.041468e-01
<GCONST> 5.918717e+01
<STATE> 4
<MEAN> 25
 -6.218669e+00 3.307694e+00 -2.794152e-01 -1.056315e+00 1.038539e+00 2.646500e+00 5.215007e-02 -1.398365e+00 4.114169e+00 2.841634e+00 -2.311925e+00 2.329600e+00 -3.516265e-02 -2.397457e-02 4.429166e-02 8.075283e-02 4.734963e-02 -1.172529e-02 -6.449833e-02 -7.395650e-02 -3.959422e-02 1.415494e-02 6.005155e-02 3.380459e-02 -1.552458e-02
<VARIANCE> 25
 1.086717e+00 2.276191e+00 2.232227e+00 4.239956e+00 4.732013e+00 4.334793e+00 6.575771e+00 7.808511e+00 6.775506e+00 6.340594e+00 7.479448e+00 5.682210e+00 4.079366e-02 1.215676e-01 1.978827e-01 3.091680e-01 3.638224e-01 4.821181e-01 6.322343e-01 7.853095e-01 7.684700e-01 6.644258e-01 6.275892e-01 6.936405e-01 1.891393e-02
<GCONST> 4.755655e+01
<TRANSP> 5
 0.000000e+00 1.000000e+00 0.000000e+00 0.000000e+00 0.000000e+00
 0.000000e+00 7.941649e-01 2.058351e-01 0.000000e+00 0.000000e+00
 0.000000e+00 0.000000e+00 8.430226e-01 1.569774e-01 0.000000e+00
 0.000000e+00 0.000000e+00 0.000000e+00 9.783000e-01 2.170004e-02
 0.000000e+00 0.000000e+00 0.000000e+00 0.000000e+00 0.000000e+00
<ENDHMM>
~h "sil"
<BEGINHMM>
<NUMSTATES> 5
<STATE> 2
<MEAN> 25
 -2.424098e+01 -1.792953e+00 -9.232878e+00 3.092616e+00 -6.003358e-01 5.423205e+00 -1.123229e+01 -5.716983e+00 -2.150807e+00 3.508722e+00 8.961717e-01 2.629609e+00 8.096354e-03 -1.696692e-02 1.414359e-02 4.945705e-03 1.031556e-02 2.889773e-04 -8.611519e-03 1.183399e-01 2.154467e-02 -3.062266e-02 -1.936007e-02 8.257687e-03 -3.262601e-03
<VARIANCE> 25
 3.749218e+01 4.366271e+00 1.362927e+01 4.143491e+00 2.921617e+00 3.981559e+00 1.966078e+01 7.159538e+00 8.028637e+00 6.176008e+00 4.554005e+00 4.269570e+00 3.295513e-02 6.472296e-02 1.441566e-01 3.422710e-01 3.378172e-01 2.490491e-01 4.176967e-01 5.250781e-01 6.344274e-01 7.372762e-01 4.949149e-01 5.032043e-01 1.891393e-02
<GCONST> 5.008118e+01
<STATE> 3
~s "silst"
<STATE> 4
<MEAN> 25
 -4.968516e+00 1.919140e+00 -6.509532e-01 -1.358230e+00 2.037688e-02 1.531261e+00 2.070092e-01 -7.558568e-01 2.765883e+00 1.840831e+00 -1.158989e+00 2.247941e+00 -5.604306e-03 1.638818e-02 2.309032e-02 1.435633e-02 2.901313e-02 -9.015738e-03 7.534335e-03 6.525327e-03 4.023447e-02 1.238485e-02 -8.386210e-03 -1.514537e-03 1.372066e-02
<VARIANCE> 25
 2.182114e+01 1.579175e+01 7.922866e+00 8.818529e+00 8.535411e+00 1.575507e+01 1.075738e+01 2.734348e+01 2.137727e+01 1.283987e+01 1.078861e+01 8.719234e+00 2.753161e-01 8.969480e-01 4.482045e-01 7.496197e-01 7.003796e-01 8.009763e-01 1.120250e+00 1.423830e+00 1.049090e+00 9.021962e-01 7.953057e-01 8.473793e-01 3.061856e-01
<GCONST> 7.254662e+01
<TRANSP> 5
 0.000000e+00 1.000000e+00 0.000000e+00 0.000000e+00 0.000000e+00
 0.000000e+00 8.036023e-01 9.522577e-02 1.011720e-01 0.000000e+00
 0.000000e+00 0.000000e+00 7.587222e-01 2.412779e-01 0.000000e+00
 0.000000e+00 1.304245e-03 0.000000e+00 9.569616e-01 4.173415e-02
 0.000000e+00 0.000000e+00 0.000000e+00 0.000000e+00 0.000000e+00
<ENDHMM>
