~o
<STREAMINFO> 1 25
<VECSIZE> 25<NULLD><MFCC_D_N_Z_0><DIAGC>
~t "T_ein"
<TRANSP> 5
 0.000000e+00 1.000000e+00 0.000000e+00 0.000000e+00 0.000000e+00
 0.000000e+00 8.627390e-01 1.372610e-01 0.000000e+00 0.000000e+00
 0.000000e+00 0.000000e+00 8.856744e-01 1.143256e-01 0.000000e+00
 0.000000e+00 0.000000e+00 0.000000e+00 9.766961e-01 2.330389e-02
 0.000000e+00 0.000000e+00 0.000000e+00 0.000000e+00 0.000000e+00
~t "T_a"
<TRANSP> 5
 0.000000e+00 1.000000e+00 0.000000e+00 0.000000e+00 0.000000e+00
 0.000000e+00 9.670234e-01 3.297663e-02 0.000000e+00 0.000000e+00
 0.000000e+00 0.000000e+00 4.761913e-01 5.238087e-01 0.000000e+00
 0.000000e+00 0.000000e+00 0.000000e+00 9.044240e-01 9.557607e-02
 0.000000e+00 0.000000e+00 0.000000e+00 0.000000e+00 0.000000e+00
~t "T_i"
<TRANSP> 5
 0.000000e+00 1.000000e+00 0.000000e+00 0.000000e+00 0.000000e+00
 0.000000e+00 8.140559e-01 1.859441e-01 0.000000e+00 0.000000e+00
 0.000000e+00 0.000000e+00 8.614373e-01 1.385628e-01 0.000000e+00
 0.000000e+00 0.000000e+00 0.000000e+00 8.427537e-01 1.572463e-01
 0.000000e+00 0.000000e+00 0.000000e+00 0.000000e+00 0.000000e+00
~t "T_l"
<TRANSP> 5
 0.000000e+00 1.000000e+00 0.000000e+00 0.000000e+00 0.000000e+00
 0.000000e+00 9.642235e-01 3.577651e-02 0.000000e+00 0.000000e+00
 0.000000e+00 0.000000e+00 8.124121e-01 1.875879e-01 0.000000e+00
 0.000000e+00 0.000000e+00 0.000000e+00 8.888722e-01 1.111278e-01
 0.000000e+00 0.000000e+00 0.000000e+00 0.000000e+00 0.000000e+00
~t "T_m"
<TRANSP> 5
 0.000000e+00 1.000000e+00 0.000000e+00 0.000000e+00 0.000000e+00
 0.000000e+00 8.331880e-01 1.668120e-01 0.000000e+00 0.000000e+00
 0.000000e+00 0.000000e+00 8.874342e-01 1.125658e-01 0.000000e+00
 0.000000e+00 0.000000e+00 0.000000e+00 8.549367e-01 1.450633e-01
 0.000000e+00 0.000000e+00 0.000000e+00 0.000000e+00 0.000000e+00
~t "T_o"
<TRANSP> 5
 0.000000e+00 1.000000e+00 0.000000e+00 0.000000e+00 0.000000e+00
 0.000000e+00 9.306396e-01 6.936034e-02 0.000000e+00 0.000000e+00
 0.000000e+00 0.000000e+00 8.294060e-01 1.705940e-01 0.000000e+00
 0.000000e+00 0.000000e+00 0.000000e+00 9.811962e-01 1.880378e-02
 0.000000e+00 0.000000e+00 0.000000e+00 0.000000e+00 0.000000e+00
~t "T_p"
<TRANSP> 5
 0.000000e+00 1.000000e+00 0.000000e+00 0.000000e+00 0.000000e+00
 0.000000e+00 7.319312e-01 2.680688e-01 0.000000e+00 0.000000e+00
 0.000000e+00 0.000000e+00 6.788301e-01 3.211699e-01 0.000000e+00
 0.000000e+00 0.000000e+00 0.000000e+00 9.587293e-01 4.127065e-02
 0.000000e+00 0.000000e+00 0.000000e+00 0.000000e+00 0.000000e+00
~t "T_r"
<TRANSP> 5
 0.000000e+00 1.000000e+00 0.000000e+00 0.000000e+00 0.000000e+00
 0.000000e+00 7.088250e-01 2.911751e-01 0.000000e+00 0.000000e+00
 0.000000e+00 0.000000e+00 8.684064e-01 1.315936e-01 0.000000e+00
 0.000000e+00 0.000000e+00 0.000000e+00 9.847314e-01 1.526854e-02
 0.000000e+00 0.000000e+00 0.000000e+00 0.000000e+00 0.000000e+00
~t "T_t"
<TRANSP> 5
 0.000000e+00 1.000000e+00 0.000000e+00 0.000000e+00 0.000000e+00
 0.000000e+00 9.419575e-01 5.804252e-02 0.000000e+00 0.000000e+00
 0.000000e+00 0.000000e+00 8.708529e-01 1.291471e-01 0.000000e+00
 0.000000e+00 0.000000e+00 0.000000e+00 8.867058e-01 1.132942e-01
 0.000000e+00 0.000000e+00 0.000000e+00 0.000000e+00 0.000000e+00
~t "T_ai"
<TRANSP> 5
 0.000000e+00 1.000000e+00 0.000000e+00 0.000000e+00 0.000000e+00
 0.000000e+00 8.533965e-01 1.466035e-01 0.000000e+00 0.000000e+00
 0.000000e+00 0.000000e+00 7.268617e-01 2.731383e-01 0.000000e+00
 0.000000e+00 0.000000e+00 0.000000e+00 7.700755e-01 2.299245e-01
 0.000000e+00 0.000000e+00 0.000000e+00 0.000000e+00 0.000000e+00
~t "T_am"
<TRANSP> 5
 0.000000e+00 1.000000e+00 0.000000e+00 0.000000e+00 0.000000e+00
 0.000000e+00 7.001175e-01 2.998824e-01 0.000000e+00 0.000000e+00
 0.000000e+00 0.000000e+00 8.126028e-01 1.873972e-01 0.000000e+00
 0.000000e+00 0.000000e+00 0.000000e+00 9.085359e-01 9.146409e-02
 0.000000e+00 0.000000e+00 0.000000e+00 0.000000e+00 0.000000e+00
~t "T_ch"
<TRANSP> 5
 0.000000e+00 1.000000e+00 0.000000e+00 0.000000e+00 0.000000e+00
 0.000000e+00 7.786131e-01 2.213868e-01 0.000000e+00 0.000000e+00
 0.000000e+00 0.000000e+00 9.630607e-01 3.693924e-02 0.000000e+00
 0.000000e+00 0.000000e+00 0.000000e+00 9.276605e-01 7.233948e-02
 0.000000e+00 0.000000e+00 0.000000e+00 0.000000e+00 0.000000e+00
~t "T_eh"
<TRANSP> 5
 0.000000e+00 1.000000e+00 0.000000e+00 0.000000e+00 0.000000e+00
 0.000000e+00 6.085073e-01 3.914927e-01 0.000000e+00 0.000000e+00
 0.000000e+00 0.000000e+00 8.083423e-01 1.916576e-01 0.000000e+00
 0.000000e+00 0.000000e+00 0.000000e+00 7.507567e-01 2.492433e-01
 0.000000e+00 0.000000e+00 0.000000e+00 0.000000e+00 0.000000e+00
~t "T_eu"
<TRANSP> 5
 0.000000e+00 1.000000e+00 0.000000e+00 0.000000e+00 0.000000e+00
 0.000000e+00 7.641734e-01 2.358265e-01 0.000000e+00 0.000000e+00
 0.000000e+00 0.000000e+00 9.427834e-01 5.721657e-02 0.000000e+00
 0.000000e+00 0.000000e+00 0.000000e+00 9.575455e-01 4.245459e-02
 0.000000e+00 0.000000e+00 0.000000e+00 0.000000e+00 0.000000e+00
~t "T_ff"
<TRANSP> 5
 0.000000e+00 1.000000e+00 0.000000e+00 0.000000e+00 0.000000e+00
 0.000000e+00 8.023083e-01 1.976917e-01 0.000000e+00 0.000000e+00
 0.000000e+00 0.000000e+00 9.573654e-01 4.263458e-02 0.000000e+00
 0.000000e+00 0.000000e+00 0.000000e+00 9.747932e-01 2.520680e-02
 0.000000e+00 0.000000e+00 0.000000e+00 0.000000e+00 0.000000e+00
~t "T_lu"
<TRANSP> 5
 0.000000e+00 1.000000e+00 0.000000e+00 0.000000e+00 0.000000e+00
 0.000000e+00 7.027044e-01 2.972957e-01 0.000000e+00 0.000000e+00
 0.000000e+00 0.000000e+00 7.153124e-01 2.846876e-01 0.000000e+00
 0.000000e+00 0.000000e+00 0.000000e+00 9.631438e-01 3.685623e-02
 0.000000e+00 0.000000e+00 0.000000e+00 0.000000e+00 0.000000e+00
~s "silst"
<MEAN> 25
 -1.289760e+01 1.246057e+00 -5.223411e+00 8.130094e-01 -4.045824e-01 3.932956e+00 -4.854189e+00 -3.245116e+00 4.200039e-01 2.901732e+00 -7.428019e-01 2.227024e+00 4.035378e+00 1.056131e+00 1.719463e+00 -5.955533e-01 -4.149532e-02 -6.899064e-01 2.168467e+00 4.096528e-01 1.188627e-01 -5.729009e-01 -3.594991e-01 -3.273678e-01 4.406175e+00
<VARIANCE> 25
 9.896863e+01 1.120151e+01 2.826464e+01 1.471321e+01 9.834445e+00 6.419075e+00 4.197836e+01 1.399595e+01 1.767677e+01 1.000225e+01 1.215750e+01 7.184933e+00 4.002717e+00 7.763548e-01 1.294335e+00 2.484232e+00 1.250777e+00 6.562646e-01 3.138290e+00 1.840608e+00 5.586210e+00 1.246737e+00 1.572361e+00 1.406466e+00 4.759729e+00
<GCONST> 8.730704e+01
~h "la"
<BEGINHMM>
<NUMSTATES> 5
<STATE> 2
<MEAN> 25
 1.428052e+01 -8.418085e+00 -3.571024e+00 -5.174201e+00 -1.002558e+01 -6.713123e+00 6.181293e+00 7.424714e+00 -5.205031e+00 -3.961747e+00 2.847485e+00 -3.424394e+00 -3.358212e-01 -2.264307e-02 -5.447044e-01 -4.154170e-01 -1.547657e-01 4.208411e-03 2.255877e-01 4.546634e-01 6.341264e-01 2.102482e-01 -1.575030e-01 1.495294e-01 -3.633705e-01
<VARIANCE> 25
 2.754546e+01 3.024097e+01 6.016777e+01 8.001176e+01 2.935948e+01 1.644406e+01 2.612955e+01 4.409115e+01 8.564500e+01 2.204788e+01 2.706584e+01 2.436584e+01 2.696670e+00 2.264079e+00 1.618832e+00 2.713749e+00 1.880318e+00 1.511204e+00 2.620251e+00 1.258629e+00 4.236580e+00 2.058614e+00 1.682569e+00 1.947512e+00 3.476959e+00
<GCONST> 9.854076e+01
<STATE> 3
<MEAN> 25
 -1.483284e+00 1.286604e+00 -7.358181e+00 -7.875513e+00 -5.756462e+00 2.588664e-01 6.464483e+00 7.272525e+00 5.048959e+00 -8.458446e-01 -3.689927e+00 1.740151e+00 -9.915017e-01 9.196271e-01 1.169727e+00 5.700183e-01 9.468486e-01 9.776174e-01 -5.231718e-01 -1.128386e+00 -1.416451e-01 2.890753e-01 -2.790095e-01 9.693205e-06 -8.878480e-01
<VARIANCE> 25
 8.196465e+00 1.273539e+01 1.383289e+01 1.130600e+01 1.167093e+01 1.629387e+01 1.111397e+01 1.786931e+01 1.159372e+01 1.373218e+01 9.798117e+00 7.404855e+00 4.356767e-01 7.620766e-01 4.562294e-01 1.328588e+00 1.022586e+00 1.430252e+00 1.512031e+00 1.278275e+00 1.270161e+00 1.407804e+00 9.648070e-01 7.218173e-01 3.672397e-01
<GCONST> 7.419468e+01
<STATE> 4
<MEAN> 25
 -6.013429e+00 3.586469e+00 -3.108768e-01 -8.240258e-01 1.189358e+00 2.652069e+00 -5.137286e-01 -1.554082e+00 3.484578e+00 2.743508e+00 -1.611220e+00 2.071150e+00 -3.336496e-02 -1.126877e-02 4.659471e-02 6.294966e-02 4.805617e-02 -9.302995e-03 -5.588835e-02 -5.675174e-02 -2.867108e-02 3.101233e-02 4.890441e-02 2.137211e-02 -1.615227e-02
<VARIANCE> 25
 1.238112e+00 2.610815e+00 3.121949e+00 4.332092e+00 4.562996e+00 5.380641e+00 6.434034e+00 7.109804e+00 5.490660e+00 6.762256e+00 6.403668e+00 5.982299e+00 5.235729e-02 1.153961e-01 2.152525e-01 3.704440e-01 4.356367e-01 4.562830e-01 6.092824e-01 6.097677e-01 5.831117e-01 6.829068e-01 6.638032e-01 5.957838e-01 1.891393e-02
<GCONST> 4.794857e+01
<TRANSP> 5
 0.000000e+00 1.000000e+00 0.000000e+00 0.000000e+00 0.000000e+00
 0.000000e+00 9.581850e-01 4.181499e-02 0.000000e+00 0.000000e+00
 0.000000e+00 0.000000e+00 8.808514e-01 1.191486e-01 0.000000e+00
 0.000000e+00 0.000000e+00 0.000000e+00 9.822576e-01 1.774235e-02
 0.000000e+00 0.000000e+00 0.000000e+00 0.000000e+00 0.000000e+00
<ENDHMM>
~h "sp"
<BEGINHMM>
<NUMSTATES> 3
<STATE> 2
~s "silst"
<TRANSP> 3
 0.000000e+00 1.480977e-01 8.519022e-01
 0.000000e+00 6.136888e-01 3.863112e-01
 0.000000e+00 0.000000e+00 0.000000e+00
<ENDHMM>
~h "l+am"
<BEGINHMM>
<NUMSTATES> 5
<STATE> 2
<MEAN> 25
 -5.969512e+00 2.281700e+00 -3.567795e-01 -5.454179e-01 1.687750e+00 1.629902e+00 -5.137483e-01 -1.661857e-01 3.945191e+00 2.227155e+00 -1.726128e+00 1.204385e+00 -2.878067e-02 -2.039687e-02 -8.734910e-03 1.421596e-02 1.793241e-02 2.607948e-02 -1.223005e-02 -2.088152e-02 -3.724157e-02 -3.738748e-02 -8.423440e-03 -2.423010e-02 -2.392997e-02
<VARIANCE> 25
 1.086717e+00 1.973365e+00 1.742517e+00 4.777293e+00 3.226430e+00 3.734913e+00 7.260673e+00 8.261973e+00 5.460822e+00 6.431357e+00 3.240164e+00 4.266806e+00 6.962297e-02 1.416089e-01 1.651766e-01 2.891187e-01 2.911501e-01 4.095286e-01 6.702975e-01 7.241466e-01 5.954927e-01 6.533206e-01 3.403902e-01 5.243462e-01 1.917528e-02
<GCONST> 4.446563e+01
<STATE> 3
<MEAN> 25
 -5.833121e+00 3.289698e+00 6.971235e-01 1.048373e+00 1.650707e+00 9.388084e-01 -8.839146e-01 -1.033744e+00 2.214129e+00 2.048373e+00 -1.588317e+00 9.949805e-01 1.900533e+00 1.187425e-01 5.552286e-01 1.128855e+00 3.511807e-01 8.787043e-02 2.449802e-01 -8.849018e-01 -1.773928e+00 -9.487039e-01 1.234921e-01 -7.531868e-01 1.453410e+00
<VARIANCE> 25
 9.811726e+00 8.381446e+00 3.024823e+00 8.999959e+00 6.773192e+00 1.132807e+01 3.815771e+00 8.081027e+00 1.005164e+01 1.209833e+01 9.252655e+00 1.030139e+01 5.187563e+00 1.031253e+00 5.207939e-01 3.540812e+00 1.443561e+00 2.240509e+00 1.019337e+00 2.575101e+00 6.990286e+00 2.922033e+00 1.013189e+00 3.201864e+00 3.302776e+00
<GCONST> 8.060374e+01
<STATE> 4
<MEAN> 25
 1.544708e+01 -3.914590e+00 4.251882e+00 9.737773e+00 5.782847e+00 6.103637e+00 8.746511e-01 -7.910779e+00 -1.341730e+01 -6.554832e+00 3.559742e+00 -5.936445e+00 1.129306e+00 -9.050496e-01 2.332021e-02 4.212743e-01 -4.146458e-01 -1.737536e-01 4.675726e-01 1.091459e-01 -9.466324e-01 -4.684518e-01 2.453783e-01 -3.242436e-01 1.207859e+00
<VARIANCE> 25
 1.328704e+01 1.477758e+01 3.507526e+00 5.514356e+00 6.738138e+00 2.111805e+01 8.565711e+00 8.753140e+00 8.090082e+00 5.164228e+00 9.641240e+00 1.171078e+01 2.980391e+00 9.929436e-01 1.056176e+00 1.652568e+00 6.594973e-01 1.929517e+00 1.270849e+00 8.412979e-01 4.722929e+00 1.706800e+00 1.622535e+00 1.043871e+00 2.537531e+00
<GCONST> 7.741814e+01
~t "T_l"
<ENDHMM>
~h "i-ai+r"
<BEGINHMM>
<NUMSTATES> 5
<STATE> 2
<MEAN> 25
 -1.526632e+00 -1.094796e+01 -5.603659e+00 -4.373693e+00 -5.700850e-01 2.500249e+00 9.610303e+00 1.389934e+01 3.764968e+00 -6.461672e+00 1.013228e+00 6.842815e+00 -4.102733e-01 4.648072e-01 3.230717e-01 2.645029e-01 7.934006e-02 2.570555e-01 6.049760e-01 9.045141e-02 -3.167350e-01 1.390648e-01 6.999698e-02 5.689015e-02 -4.806747e-01
<VARIANCE> 25
 2.808116e+00 2.331357e+01 1.008035e+01 1.156934e+01 1.761592e+01 7.755122e+00 1.558850e+01 1.356438e+01 1.485868e+01 1.621353e+01 1.093979e+01 5.784925e+00 5.157442e-01 8.764142e-01 1.956829e+00 1.034021e+00 8.042515e-01 6.579240e-01 6.139342e-01 8.370777e-01 7.791777e-01 1.461617e+00 1.796190e+00 7.495311e-01 2.760868e-01
<GCONST> 7.253950e+01
<STATE> 3
<MEAN> 25
 -2.381458e+00 -2.947463e+00 -7.390785e+00 -5.714060e+00 -2.760507e+00 2.327203e+00 8.634426e+00 9.349789e+00 1.198015e+00 -6.104292e+00 -2.639256e+00 3.925659e+00 -1.688640e-01 1.380781e+00 3.704295e-01 1.004327e-01 -1.022392e-01 -1.575350e-01 -8.346651e-01 -1.479077e+00 -2.271759e-01 5.053778e-01 -3.710625e-01 -1.493909e-01 -7.467941e-01
<VARIANCE> 25
 3.926617e+00 1.081847e+01 5.292551e+00 2.561104e+00 3.705615e+00 5.049500e+00 1.124170e+01 1.242035e+01 1.668237e+01 1.983795e+01 4.552346e+00 7.487742e+00 3.127525e-01 5.761958e-01 1.033910e+00 1.012460e+00 5.490869e-01 8.607868e-01 1.671196e+00 8.855842e-01 1.412045e+00 9.346063e-01 1.429906e+00 1.199044e+00 8.272140e-02
<GCONST> 6.580064e+01
<STATE> 4
<MEAN> 25
 -1.841739e+00 2.773392e+00 -8.458940e+00 -9.560101e+00 -5.844497e+00 1.438416e+00 4.326324e+00 2.594652e+00 1.271688e+00 -1.784791e+00 -4.176230e+00 2.357249e+00 -3.477164e-01 3.952895e-01 4.632151e-01 2.832257e-02 1.108144e-01 1.829694e-01 -3.778141e-01 -5.577416e-01 1.317904e-01 4.443280e-01 1.531161e-01 -4.373290e-02 -3.408563e-01
<VARIANCE> 25
 2.535790e+00 2.614140e+00 5.671075e+00 5.069715e+00 5.248980e+00 4.423746e+00 4.444791e+00 4.764471e+00 8.475588e+00 9.264967e+00 5.023161e+00 6.014027e+00 1.752561e-01 1.699859e-01 6.725084e-01 8.492338e-01 1.006191e+00 5.302991e-01 6.245046e-01 2.984298e-01 1.321949e+00 1.087065e+00 6.841622e-01 7.041039e-01 7.177231e-02
<GCONST> 5.578262e+01
~t "T_ai"
<ENDHMM>
~h "m+eh"
<BEGINHMM>
<NUMSTATES> 5
<STATE> 2
<MEAN> 25
 -6.914477e+00 -1.006759e+00 -8.898345e-01 -1.055975e+00 -1.065587e+00 4.638761e-02 4.429893e-01 1.390999e+00 4.969926e+00 5.458086e+00 9.067811e-01 1.632330e+00 -1.080680e-02 -1.746500e-01 -1.695165e-01 1.788286e-01 4.797107e-02 -9.675962e-02 9.454191e-03 7.828444e-03 3.339833e-02 -2.778041e-01 -4.544104e-01 -3.737369e-01 5.358303e-02
<VARIANCE> 25
 1.998779e+00 2.975191e+01 8.273735e+00 1.586584e+01 2.028197e+01 2.346547e+01 2.044411e+01 2.048663e+01 1.345238e+01 2.170341e+01 6.861120e+00 2.001840e+01 1.285447e-01 5.174615e+00 5.800009e-01 1.901976e+00 1.819459e+00 2.081852e+00 3.657747e+00 4.041862e+00 1.221241e+00 2.291119e+00 1.215340e+00 1.532036e+00 9.405289e-01
<GCONST> 8.301653e+01
<STATE> 3
<MEAN> 25
 -7.029789e+00 3.180860e+00 -9.727106e-01 -1.713280e+00 1.049149e+00 3.248366e+00 6.227713e-01 -8.584749e-01 5.820191e+00 4.430480e+00 -1.949725e+00 2.583804e+00 4.439577e-02 1.703397e-01 3.200749e-02 -1.486680e-01 -7.150202e-02 8.438827e-02 -6.715183e-02 -1.567684e-01 -2.122472e-01 -1.758736e-01 -3.092583e-02 -8.666500e-03 -2.774907e-02
<VARIANCE> 25
 2.928627e+00 2.848761e+00 2.175538e+00 3.810907e+00 2.856300e+00 4.861687e+00 7.002720e+00 8.809113e+00 7.660757e+00 6.121647e+00 6.007052e+00 8.073628e+00 3.241559e-01 5.843351e-01 4.086973e-01 7.604715e-01 4.162823e-01 6.716319e-01 1.082227e+00 1.356226e+00 1.176991e+00 9.959888e-01 9.360068e-01 9.990944e-01 1.328882e-01
<GCONST> 5.901650e+01
<STATE> 4
<MEAN> 25
 -4.682105e+00 8.771402e-01 -2.157828e+00 -3.280177e-01 4.201523e-01 -7.869101e-02 7.131317e-01 1.855856e+00 2.581303e+00 1.934772e-01 -1.269041e+00 4.228056e+00 1.676808e+00 -1.009817e+00 -4.284282e-01 7.117832e-01 -3.890014e-01 -8.887409e-01 1.421354e+00 1.374454e+00 -1.854547e+00 -1.634688e+00 2.070124e-01 -3.773379e-01 1.479695e+00
<VARIANCE> 25
 1.479533e+01 1.754525e+01 1.110254e+01 1.433989e+01 1.149871e+01 4.440653e+01 1.770818e+01 2.750242e+01 1.779033e+01 4.964530e+01 9.955672e+00 2.961551e+01 1.480999e+00 3.536490e+00 1.244871e+00 3.009630e+00 1.947826e+00 6.051244e+00 1.882869e+00 3.510170e+00 1.873780e+00 3.621100e+00 7.047526e-01 6.021746e+00 1.118325e+00
<GCONST> 9.227435e+01
~t "T_m"
<ENDHMM>
~h "t-eh+o"
<BEGINHMM>
<NUMSTATES> 5
<STATE> 2
<MEAN> 25
 1.596635e+01 7.915349e+00 2.206744e+00 -1.025864e+00 -5.134641e+00 -1.286440e+00 1.593230e-01 2.445629e+00 -9.697846e-01 -4.505553e+00 -1.243176e+00 -4.484909e+00 -4.064862e-01 1.116654e+00 3.184944e-02 2.456781e-01 3.133693e-01 8.706021e-01 7.142659e-01 4.693297e-01 1.686822e+00 1.125022e+00 -4.681113e-01 1.961370e-01 -8.441314e-01
<VARIANCE> 25
 1.204934e+01 8.493466e+01 2.193205e+01 8.198811e+00 4.541868e+01 6.225380e+01 1.673169e+01 1.513462e+01 2.769807e+01 6.285350e+01 4.586704e+00 3.842472e+01 3.171844e+00 2.027530e+00 4.049943e+00 5.523278e-01 6.440816e+00 5.048957e+00 1.394138e+00 3.524762e+00 2.374203e+00 7.448897e-01 1.222954e+00 4.964705e+00 2.037394e+00
<GCONST> 9.501082e+01
<STATE> 3
<MEAN> 25
 1.578984e+01 -1.219555e+00 3.359297e+00 -1.276266e+00 -7.430588e+00 -5.643625e-01 1.449791e+00 3.380891e+00 -1.422254e+00 -1.021571e+01 -3.206729e+00 -8.771515e+00 1.005474e-01 1.291969e+00 5.819812e-02 6.994870e-02 -1.916091e+00 -2.629374e+00 1.659430e-01 1.061781e+00 2.500484e+00 1.786277e+00 -1.176315e+00 -1.172932e+00 -5.402060e-01
<VARIANCE> 25
 1.504289e+01 5.790825e+01 1.995981e+00 7.445808e+00 4.876768e+01 2.009455e+01 9.987904e+00 5.920898e+00 2.383699e+01 7.986395e+01 1.187461e+01 4.541313e+01 1.517049e-01 4.203565e-01 6.654501e-01 5.572453e-01 5.352211e-01 7.474375e-01 6.668813e-01 4.106482e-01 1.493147e+00 1.155552e+00 7.955704e-01 9.106339e-01 7.694864e-02
<GCONST> 7.192732e+01
<STATE> 4
<MEAN> 25
 1.601636e+01 7.592955e-01 3.316723e+00 -1.234707e+00 -9.409719e+00 -3.750067e+00 2.011574e+00 4.269140e+00 1.668310e-01 -7.929097e+00 -4.642058e+00 -9.354261e+00 2.702165e-02 1.238567e+00 -1.982744e-01 3.611540e-01 -9.978305e-01 -2.508069e+00 6.137252e-02 2.858209e-01 1.286845e+00 1.512665e+00 -6.157889e-01 8.048618e-02 -5.392039e-01
<VARIANCE> 25
 1.295018e+01 6.742387e+01 1.516792e+00 1.977886e+00 3.566660e+01 2.204384e+01 8.939659e+00 5.040352e+00 2.142854e+01 5.841880e+01 9.328522e+00 3.405186e+01 1.050489e-01 6.030436e-01 3.573592e-01 5.886770e-01 9.877324e-02 8.571181e-01 2.351942e-01 1.186053e-01 1.706632e+00 3.480049e+00 3.730068e-01 4.728897e-01 1.417732e-01
<GCONST> 6.491280e+01
~t "T_eh"
<ENDHMM>
~h "t-ein"
<BEGINHMM>
<NUMSTATES> 5
<STATE> 2
<MEAN> 25
 9.007059e+00 2.985505e+00 -7.907880e+00 -1.131026e+01 -1.380337e+01 -4.518365e+00 9.594042e+00 8.412066e+00 -1.759857e+00 -2.731191e+00 -3.000976e-01 6.782990e-01 -2.417809e+00 5.688174e-01 -3.666459e-02 2.503167e-02 8.161169e-01 7.208313e-01 5.725226e-02 4.348127e-02 1.629253e+00 8.800799e-01 -7.537826e-01 4.959435e-01 -2.149071e+00
<VARIANCE> 25
 3.789365e+01 9.537372e+00 7.706969e+00 2.484646e+01 1.897837e+01 1.130058e+01 1.807095e+01 1.877977e+01 2.585756e+01 1.987952e+01 8.103507e+00 1.362012e+01 2.202932e+00 1.657770e+00 9.771070e-01 1.656164e+00 2.731122e+00 1.713193e+00 1.415322e+00 1.119672e+00 2.759499e+00 1.753727e+00 1.186421e+00 1.188049e+00 1.745538e+00
<GCONST> 8.549032e+01
<STATE> 3
<MEAN> 25
 -3.239445e+00 3.794740e+00 -4.566818e+00 -7.986379e+00 -4.860985e+00 1.563283e+00 4.873888e+00 4.363831e+00 5.316598e+00 7.053127e-01 -4.951983e+00 5.237620e-01 -6.486487e-01 6.978356e-03 7.045666e-01 1.048798e+00 1.149030e+00 4.780180e-01 -5.139385e-01 -5.983965e-01 4.320138e-02 1.979396e-01 -6.412333e-02 -1.176312e-01 -3.953052e-01
<VARIANCE> 25
 3.196939e+00 1.499744e+00 5.850896e+00 1.151732e+01 1.308764e+01 6.049010e+00 6.655242e+00 7.548463e+00 7.071315e+00 7.857962e+00 6.186800e+00 7.794650e+00 3.573331e-01 1.561340e-01 4.125502e-01 8.240607e-01 9.950912e-01 7.827078e-01 6.553654e-01 6.693893e-01 7.114638e-01 8.760282e-01 9.067194e-01 8.828040e-01 1.166533e-01
<GCONST> 6.002378e+01
<STATE> 4
<MEAN> 25
 -6.319098e+00 3.223705e+00 -1.197512e-01 -7.677065e-01 1.285457e+00 2.696252e+00 -1.568362e-01 -1.671062e+00 4.047820e+00 2.885621e+00 -2.178133e+00 2.366133e+00 -3.049096e-02 -2.901772e-02 3.763929e-02 6.036891e-02 2.988858e-02 -1.917791e-02 -5.146524e-02 -5.296333e-02 -3.584679e-02 1.610931e-02 6.455676e-02 2.842183e-02 -8.731488e-03
<VARIANCE> 25
 1.086717e+00 2.216122e+00 1.900710e+00 2.924533e+00 3.875773e+00 4.336372e+00 5.915977e+00 6.983851e+00 6.717729e+00 6.229850e+00 6.964732e+00 5.539121e+00 3.794966e-02 1.223865e-01 1.939035e-01 2.987033e-01 3.566152e-01 4.608612e-01 6.405255e-01 8.008035e-01 7.400265e-01 6.038148e-01 5.920714e-01 6.806965e-01 1.891393e-02
<GCONST> 4.609474e+01
~t "T_ein"
<ENDHMM>
~h "lu+m"
<BEGINHMM>
<NUMSTATES> 5
<STATE> 2
<MEAN> 25
 -6.125353e+00 4.198379e+00 3.474389e-01 -1.081615e+00 3.429810e-01 1.340732e+00 -1.850254e+00 -2.581581e+00 3.939480e+00 2.926726e+00 -2.140714e+00 2.678255e+00 3.173643e+00 1.101173e+00 4.815688e-01 2.016949e+00 2.893569e+00 1.757614e+00 -6.192118e-01 -1.867633e+00 -2.736655e+00 -1.479069e+00 1.308546e-01 -2.055903e+00 2.043452e+00
<VARIANCE> 25
 1.086717e+00 1.579686e+00 2.880862e+00 3.867279e+00 2.913854e+00 1.810894e+00 3.807914e+00 6.639718e+00 1.014575e+01 4.751772e+00 4.112524e+00 3.976815e+00 1.474136e+00 3.007957e-01 2.380992e-01 5.783846e-01 1.147909e+00 8.452013e-01 1.435330e+00 1.722883e+00 1.491475e+00 1.243953e+00 6.703849e-01 4.927794e-01 6.637833e-01
<GCONST> 5.764148e+01
<STATE> 3
<MEAN> 25
 7.128190e+00 7.840678e+00 1.622875e+00 7.781437e+00 1.425364e+01 1.080358e+01 -1.731692e+00 -7.723449e+00 -6.512999e+00 -3.141203e+00 -1.133116e+00 -5.585318e+00 4.249313e+00 -5.482805e-02 -4.331876e-02 2.912858e+00 4.422543e+00 2.854442e+00 1.838254e-01 -8.240795e-01 -3.142469e+00 -2.066383e+00 1.237302e+00 -1.551435e+00 3.174583e+00
<VARIANCE> 25
 9.695293e+00 5.354050e+00 8.999001e+00 6.051716e+00 9.760902e+00 9.753662e+00 5.890076e+00 1.279207e+01 5.995250e+00 1.138999e+01 9.983997e+00 1.017764e+01 3.961134e-01 6.832837e-01 4.200708e-01 1.344486e+00 4.918063e-01 8.896042e-01 4.156829e-01 3.863065e-01 1.100127e+00 1.600603e+00 1.655009e+00 6.158583e-01 2.116637e-01
<GCONST> 6.611516e+01
<STATE> 4
<MEAN> 25
 1.215510e+01 1.027900e-01 1.449450e+00 1.131686e+01 1.691448e+01 5.601028e+00 -3.787077e+00 -1.292671e+00 -3.091257e+00 -3.810920e+00 1.842962e+00 -3.162219e+00 3.149370e-01 -3.663869e-01 -1.512339e-02 -1.651053e-01 -2.931409e-01 -2.521605e-01 3.975320e-01 2.169506e-01 1.841893e-01 1.622607e-01 6.525118e-02 2.116664e-01 5.652211e-01
<VARIANCE> 25
 6.273617e+00 3.352533e+01 1.171607e+01 1.113432e+01 1.939333e+01 3.712830e+01 2.095966e+01 2.838606e+01 3.136263e+01 1.783563e+01 1.581348e+01 1.260785e+01 5.367806e-01 1.706275e+00 7.961265e-01 2.087911e+00 1.908071e+00 2.644455e+00 2.789955e+00 2.375229e+00 2.849432e+00 2.449480e+00 1.317183e+00 1.566946e+00 6.751477e-01
<GCONST> 8.696116e+01
~t "T_lu"
<ENDHMM>
~h "lu-m"
<BEGINHMM>
<NUMSTATES> 5
<STATE> 2
<MEAN> 25
 8.282619e+00 1.842726e+00 -3.087557e+00 -5.859740e+00 -7.074173e+00 -3.474036e+00 3.544847e+00 5.882970e+00 -9.781110e-01 -3.280369e+00 1.108512e+00 2.500191e+00 -1.748226e+00 3.939183e-01 -9.111686e-02 -1.406768e-01 2.149040e-01 5.222850e-01 3.817921e-01 1.703556e-01 1.278108e+00 1.079184e+00 -2.383430e-02 8.225166e-01 -1.583134e+00
<VARIANCE> 25
 6.529231e+01 3.040374e+01 1.995121e+01 2.240312e+01 4.425503e+01 5.531400e+01 1.627197e+01 1.871008e+01 5.006017e+01 4.573952e+01 1.627684e+01 2.571407e+01 1.704209e+00 2.066198e+00 1.811703e+00 3.182728e+00 4.328665e+00 3.973376e+00 2.089145e+00 3.018688e+00 1.537340e+00 2.204714e+00 1.389129e+00 2.727949e+00 1.717228e+00
<GCONST> 9.772817e+01
<STATE> 3
<MEAN> 25
 -6.711765e+00 3.737180e+00 5.520184e-01 -4.716792e-01 2.079371e+00 3.653527e+00 1.306856e+00 -4.064105e-01 4.536138e+00 4.173213e+00 -3.077495e-01 3.577160e+00 -9.418940e-02 -5.209070e-02 1.169816e-01 1.738384e-01 8.603531e-02 -3.051981e-02 -1.733498e-01 -2.757057e-01 -1.891775e-01 -3.483024e-02 -5.989344e-02 -1.383292e-01 -4.141419e-02
<VARIANCE> 25
 2.169555e+00 1.918769e+00 3.091381e+00 5.705657e+00 4.161872e+00 5.246253e+00 8.089307e+00 1.137317e+01 6.464674e+00 5.256058e+00 9.819743e+00 6.962080e+00 1.525084e-01 1.453886e-01 3.484637e-01 6.089825e-01 5.873621e-01 6.217117e-01 6.905988e-01 6.617827e-01 8.825840e-01 6.392888e-01 9.031132e-01 5.801648e-01 6.496479e-02
<GCONST> 5.449706e+01
<STATE> 4
<MEAN> 25
 8.255662e+00 -2.873992e-01 4.669206e+00 6.062924e+00 -1.656661e+00 -2.707732e+00 4.287063e+00 -6.138985e-01 -1.270148e+01 -5.864977e+00 3.006048e+00 -4.347710e+00 1.233371e+00 -4.280595e-01 -1.949432e-01 -2.021315e-01 -4.543087e-01 -7.230730e-01 -4.334283e-02 2.321078e-01 -6.034949e-01 -4.500250e-01 2.597454e-01 -1.798660e-01 1.169972e+00
<VARIANCE> 25
 6.347745e+01 2.154877e+01 1.709771e+01 3.349828e+01 1.720113e+01 1.926041e+01 2.438608e+01 1.370205e+01 1.072142e+02 5.699379e+01 1.339681e+01 4.888109e+01 3.338721e+00 2.809436e+00 2.351196e+00 3.981730e+00 1.256521e+00 2.191343e+00 2.379988e+00 1.049821e+00 7.530871e+00 3.925763e+00 1.224714e+00 3.801295e+00 2.717695e+00
<GCONST> 9.866334e+01
~t "T_m"
<ENDHMM>
~h "a-lu+m"
<BEGINHMM>
<NUMSTATES> 5
<STATE> 2
<MEAN> 25
 -1.746454e+00 1.101056e+00 3.766960e-02 -2.837616e+00 -1.058269e+00 -7.264094e-01 -2.102669e+00 -1.156599e+00 3.062731e+00 3.605128e+00 1.756320e+00 1.392107e+00 1.260126e-02 -4.463345e-03 4.614179e-01 8.141810e-01 7.971539e-01 3.419893e-01 -3.702878e-01 -6.433568e-01 -7.306327e-01 -2.637063e-01 -2.227769e-01 -3.600382e-01 4.932046e-02
<VARIANCE> 25
 8.203797e+01 3.912983e+01 2.113955e+00 5.696901e+00 1.870615e+01 4.735403e+01 7.131850e+00 5.944649e+00 4.148542e+01 9.144860e+00 3.976059e+01 1.032521e+01 1.890679e+00 4.340643e-01 6.825794e-01 1.547553e+00 1.940781e+00 2.449194e+00 1.397651e+00 1.572564e+00 2.127509e+00 5.578274e-01 6.104934e-01 1.110947e+00 1.145372e+00
<GCONST> 8.112127e+01
<STATE> 3
<MEAN> 25
 1.594890e+01 -8.105654e+00 3.247268e+00 4.532380e+00 2.298816e+00 -9.350212e+00 -1.015302e+01 -4.054655e+00 -1.028440e+01 -4.817399e+00 6.760457e+00 -4.865625e+00 1.780672e-01 1.108084e+00 6.548169e-02 2.592258e+00 3.062758e+00 2.594204e+00 -6.880542e-01 -5.655766e-01 8.128543e-01 -1.592532e+00 -1.837536e+00 -5.044150e-01 -8.762712e-01
<VARIANCE> 25
 5.026289e+00 2.614022e+01 4.218733e+00 2.626899e+01 3.722058e+01 5.804659e+01 2.816585e+01 1.555410e+01 3.271643e+01 2.379583e+01 3.495648e+01 1.033945e+01 2.828059e+00 1.602488e+00 8.527511e-01 2.830333e-01 1.254797e+00 5.332988e+00 2.839668e+00 2.812630e+00 7.411640e+00 2.160424e+00 2.521313e+00 1.589898e+00 3.753385e+00
<GCONST> 9.139382e+01
<STATE> 4
<MEAN> 25
 1.392097e+01 -1.704463e+00 2.683015e+00 9.760994e+00 8.889390e+00 4.763371e+00 -1.160877e+00 -3.662681e+00 -8.474017e+00 -5.385355e+00 2.696676e+00 -6.061293e+00 7.448822e-03 1.289248e-01 -9.147426e-02 -3.701363e-01 -3.749077e-01 -9.982257e-02 2.619937e-01 1.598379e-01 -8.621898e-02 -2.875086e-02 -4.526817e-02 6.026888e-02 -3.176464e-02
<VARIANCE> 25
 4.434618e+00 2.888412e+01 1.572474e+01 2.025250e+01 3.932577e+01 1.642130e+01 6.141356e+01 1.876025e+01 4.515958e+01 3.138615e+01 2.035128e+01 3.099122e+01 3.612697e-01 1.759625e+00 1.073387e+00 1.957230e+00 1.680858e+00 1.808161e+00 3.434073e+00 1.855947e+00 2.226464e+00 3.296319e+00 1.643830e+00 2.464659e+00 1.006514e+00
<GCONST> 9.043829e+01
~t "T_lu"
<ENDHMM>
~h "lu-m+i"
<BEGINHMM>
<NUMSTATES> 5
<STATE> 2
<MEAN> 25
 1.617031e+01 2.397962e+00 9.064126e-01 4.757044e+00 6.925081e+00 7.869334e+00 8.395985e+00 -1.314199e+00 -5.010780e+00 -9.276800e-01 1.346068e+00 -2.115503e+00 2.531033e-01 2.240764e+00 5.788230e-01 4.447283e-01 -2.065302e+00 3.474411e-01 1.061639e+00 7.095332e-02 -2.669505e+00 -7.835239e-01 -1.637567e-01 -2.356657e+00 -1.995589e+00
<VARIANCE> 25
 5.689606e+00 1.943754e+01 1.430282e+01 1.820980e+01 9.607399e+00 1.128483e+01 5.843229e+00 1.713315e+01 4.055896e+01 1.160155e+01 8.024628e+00 2.473911e+01 5.548859e-01 1.360982e+00 1.629256e+00 1.883859e+00 1.463057e+00 1.359015e+00 1.639772e+00 1.196304e+00 2.968626e+00 1.133326e+00 1.207023e+00 2.461487e+00 1.264662e+00
<GCONST> 8.169101e+01
<STATE> 3
<MEAN> 25
 1.572619e+01 5.023264e+00 2.348272e+00 7.009400e+00 3.444482e+00 7.388648e+00 9.304102e+00 -2.738760e+00 -1.272994e+01 -4.656555e+00 1.428921e+00 -7.895574e+00 -1.373416e-01 -3.480648e-01 8.700466e-02 -4.195692e-01 -4.388814e-01 -5.810944e-01 -5.091416e-01 -2.311573e-01 -9.302697e-01 -1.017464e+00 -6.624249e-01 -9.249315e-01 3.689503e-02
<VARIANCE> 25
 1.086717e+00 5.121093e+00 1.246253e+00 4.847679e-01 9.894055e-01 7.298234e+00 7.830330e+00 1.062356e+01 1.090414e+01 3.533272e+00 5.079704e+00 5.393188e+00 1.727232e-02 9.188687e-02 1.499835e-01 1.631861e-01 1.534640e-01 2.623121e-01 4.090338e-01 4.716381e-01 1.124773e+00 5.706838e-01 2.078324e-01 5.499540e-01 3.514974e-02
<GCONST> 3.954496e+01
<STATE> 4
<MEAN> 25
 1.563627e+01 1.141024e+00 2.940933e+00 9.872449e+00 4.911436e+00 4.958000e-01 4.599956e+00 7.161582e-01 -8.381632e+00 -5.076399e+00 -2.057915e+00 -9.777349e+00 -4.495663e-01 -1.905112e+00 1.542588e+00 2.288857e+00 -3.582459e-01 -4.143483e+00 -1.326712e+00 2.168485e+00 1.732259e+00 -3.804370e-01 -1.250925e+00 -8.988948e-01 8.387517e-01
<VARIANCE> 25
 2.071873e+00 1.889073e+01 7.308511e+00 3.408340e+01 1.015221e+01 6.962597e+01 2.844520e+01 1.981206e+01 2.834438e+01 6.468434e+00 1.744020e+01 7.798344e+00 3.260134e-01 7.659507e-01 2.967919e+00 3.408144e+00 2.353649e+00 6.477827e+00 2.728012e+00 1.445555e+00 2.083930e+00 5.666436e-01 7.717977e-01 5.363892e-01 1.482608e-01
<GCONST> 8.054955e+01
~t "T_m"
<ENDHMM>
~h "eh+t"
<BEGINHMM>
<NUMSTATES> 5
<STATE> 2
<MEAN> 25
 -4.597748e+00 1.932244e+00 -3.278708e+00 -3.267619e+00 -1.331569e-01 3.259718e+00 1.773173e+00 -3.609680e-01 3.097738e+00 2.640476e+00 -2.547875e+00 2.423390e+00 2.057010e+00 -3.881296e-01 6.945691e-01 1.380409e+00 2.161258e-01 -2.075559e+00 -1.729781e+00 -3.410801e-01 -1.884088e+00 -2.284651e-01 7.548688e-01 -1.882505e+00 1.791134e+00
<VARIANCE> 25
 4.781067e+00 5.661505e+00 3.225456e+01 1.908551e+01 1.111977e+01 2.304770e+00 1.007352e+01 3.300200e+00 1.269297e+01 5.260554e+00 1.783612e+00 8.582840e-01 1.952083e+00 4.205673e-01 1.123763e+00 1.683975e+00 4.328009e-01 9.953489e-01 6.808150e-01 6.611227e-01 3.795485e+00 8.564762e-01 1.054487e+00 9.628409e-01 1.654728e+00
<GCONST> 6.754044e+01
<STATE> 3
<MEAN> 25
 -4.048026e+00 3.824540e+00 -1.076584e-01 -1.048894e-01 1.488291e+00 9.751177e-01 -1.257127e+00 -1.495474e+00 2.654710e+00 2.265193e+00 -1.691546e+00 1.807062e+00 4.830985e+00 -2.402814e+00 1.753165e+00 2.374977e+00 1.421335e+00 -3.897878e+00 -3.326705e+00 -6.773453e-01 -5.060081e+00 -1.726873e+00 1.903338e+00 -4.080260e+00 5.261488e+00
<VARIANCE> 25
 3.547241e+00 2.566031e+00 6.705297e+00 5.306087e+00 9.133547e+00 4.379616e+00 4.144829e+00 6.439476e+00 4.286140e+00 1.929324e+00 3.862442e+00 6.475296e+00 1.071708e+00 3.965230e-01 1.536608e+00 4.424999e+00 4.963078e-01 3.871679e-01 8.167439e-01 8.955534e-01 1.494703e+00 2.299192e-01 2.003669e+00 3.468151e-01 1.053280e+00
<GCONST> 6.175098e+01
<STATE> 4
<MEAN> 25
 1.216205e+01 -8.517452e+00 6.394306e+00 6.785823e+00 6.488747e+00 -1.234578e+01 -1.156378e+01 -2.924034e+00 -1.438849e+01 -6.116940e+00 6.530996e+00 -1.048685e+01 2.040728e+00 -2.030857e+00 1.567251e+00 1.010208e+00 1.038104e+00 -1.733657e+00 -1.215823e+00 2.637284e-01 -1.741100e+00 -1.861934e+00 7.799451e-01 -1.352734e+00 3.227313e+00
<VARIANCE> 25
 8.815805e+00 2.336610e+01 2.012279e+01 1.929462e+01 1.090679e+01 9.084555e+00 1.300368e+01 1.261456e+01 1.550686e+01 1.522600e+01 1.824345e+01 7.482698e+00 5.052086e+00 1.962769e+00 1.222539e+00 2.194532e+00 1.087001e+00 4.101888e+00 2.971979e+00 1.273884e+00 9.766649e+00 1.473044e+00 2.758603e+00 3.414826e+00 6.527360e+00
<GCONST> 9.020556e+01
~t "T_eh"
<ENDHMM>
~h "eh-o"
<BEGINHMM>
<NUMSTATES> 5
<STATE> 2
<MEAN> 25
 1.659514e+01 1.693044e+00 4.423093e+00 2.301390e+00 -1.448479e+01 -1.550355e+01 -3.317331e+00 2.638472e+00 -2.010214e-01 -4.156934e+00 -3.058652e+00 -9.125569e+00 -4.978651e-01 6.182227e-01 3.312474e-02 2.838998e-02 -8.472551e-02 -5.214725e-01 -3.416666e-01 -2.755528e-01 -7.733779e-02 4.614508e-01 1.582100e-02 8.668638e-02 -6.515165e-01
<VARIANCE> 25
 6.339529e+00 1.816113e+01 1.006620e+01 7.895613e+00 6.445102e+00 1.852451e+01 8.656094e+00 5.359298e+00 9.428102e+00 1.116690e+01 7.056083e+00 1.054817e+01 5.862859e-01 7.329313e-01 7.333251e-01 8.234913e-01 5.564376e-01 9.639761e-01 3.610193e-01 3.871212e-01 8.321382e-01 1.191946e+00 4.370584e-01 5.289274e-01 5.804656e-01
<GCONST> 6.669808e+01
<STATE> 3
<MEAN> 25
 6.108092e-01 9.207141e+00 2.300087e+00 -1.195316e+00 -3.373494e+00 -2.567720e+00 -1.395069e+00 -1.050478e+00 2.999151e+00 2.515819e+00 -3.173327e+00 -1.597689e+00 -2.327152e+00 -7.225159e-01 -4.425482e-01 3.719385e-02 2.257418e+00 2.791311e+00 7.171406e-01 9.022458e-02 1.260868e+00 1.153545e+00 6.650789e-01 1.947628e+00 -1.552699e+00
<VARIANCE> 25
 2.383863e+01 9.891720e+00 7.076494e+00 8.934152e+00 5.959358e+01 9.118235e+01 3.108222e+01 1.389147e+01 1.679698e+01 2.059887e+01 1.893956e+01 3.249838e+01 1.202917e+00 1.349062e+00 8.346224e-01 1.536305e+00 3.008286e+00 4.160132e+00 1.351020e+00 1.047714e+00 1.634981e+00 1.349097e+00 1.154725e+00 1.048304e+00 7.814029e-01
<GCONST> 8.683636e+01
<STATE> 4
<MEAN> 25
 -6.509829e+00 3.528497e+00 -7.477020e-01 -6.046111e-01 1.775470e+00 3.015353e+00 -3.542421e-01 -1.392290e+00 3.684723e+00 2.932739e+00 -1.765617e+00 3.329570e+00 -2.420161e-02 -2.878119e-02 -2.485758e-02 -1.917653e-02 3.098311e-03 1.858785e-02 2.369991e-02 1.245620e-02 -4.374710e-04 -6.330308e-03 -6.559928e-03 -3.589335e-03 -8.845112e-03
<VARIANCE> 25
 1.086717e+00 1.562859e+00 2.383974e+00 2.752638e+00 4.495745e+00 4.516185e+00 7.316912e+00 6.199916e+00 6.540664e+00 6.330853e+00 5.658971e+00 6.608679e+00 5.533943e-02 1.625118e-01 2.113944e-01 3.253011e-01 4.147012e-01 5.119726e-01 8.012481e-01 6.468893e-01 6.954771e-01 6.787681e-01 6.559873e-01 7.247232e-01 1.891393e-02
<GCONST> 4.747134e+01
~t "T_o"
<ENDHMM>
~h "sil"
<BEGINHMM>
<NUMSTATES> 5
<STATE> 2
<MEAN> 25
 -2.437702e+01 -1.868736e+00 -9.330315e+00 3.071712e+00 -6.776972e-01 5.396543e+00 -1.139978e+01 -5.862814e+00 -2.221074e+00 3.536548e+00 9.410731e-01 2.674278e+00 1.569516e-02 -1.096638e-02 2.706863e-02 3.812315e-02 1.533037e-02 -2.576478e-02 -3.548530e-02 1.088134e-01 3.403549e-02 -4.197298e-02 -3.164329e-02 2.224958e-02 -7.326327e-04
<VARIANCE> 25
 3.490446e+01 3.801674e+00 1.231353e+01 4.551333e+00 2.850616e+00 4.185092e+00 1.631717e+01 6.053997e+00 7.092095e+00 5.958658e+00 4.338622e+00 4.021491e+00 3.198353e-02 5.646923e-02 1.407025e-01 3.161786e-01 3.154603e-01 2.082659e-01 4.377320e-01 5.134426e-01 6.453984e-01 7.876868e-01 5.032651e-01 4.776335e-01 1.891393e-02
<GCONST> 4.882162e+01
<STATE> 3
~s "silst"
<STATE> 4
<MEAN> 25
 -6.013912e+00 2.699396e+00 -9.136354e-01 -1.183762e+00 3.779119e-01 2.198872e+00 1.250555e-01 -1.346336e+00 2.875905e+00 2.128689e+00 -1.563221e+00 2.269319e+00 9.474203e-03 1.846627e-02 2.666855e-02 1.525141e-02 1.361044e-02 -8.581857e-03 4.461383e-03 3.042657e-02 5.240787e-02 1.727205e-02 1.008335e-02 -9.283244e-03 1.146176e-02
<VARIANCE> 25
 2.356471e+00 7.969500e+00 5.264781e+00 6.565797e+00 5.632866e+00 7.216433e+00 9.898641e+00 1.029616e+01 7.550498e+00 7.272399e+00 6.778824e+00 7.364636e+00 1.108267e-01 7.423714e-01 3.340347e-01 5.764267e-01 5.276610e-01 7.363550e-01 9.695255e-01 1.104209e+00 7.860716e-01 7.172959e-01 7.034596e-01 7.635152e-01 1.438147e-01
<GCONST> 6.051192e+01
<TRANSP> 5
 0.000000e+00 1.000000e+00 0.000000e+00 0.000000e+00 0.000000e+00
 0.000000e+00 8.083875e-01 8.982081e-02 1.017917e-01 0.000000e+00
 0.000000e+00 0.000000e+00 7.857978e-01 2.142023e-01 0.000000e+00
 0.000000e+00 9.989985e-14 0.000000e+00 9.594627e-01 4.053731e-02
 0.000000e+00 0.000000e+00 0.000000e+00 0.000000e+00 0.000000e+00
<ENDHMM>
~h "eu+r"
<BEGINHMM>
<NUMSTATES> 5
<STATE> 2
<MEAN> 25
 7.698558e+00 6.109527e-01 1.950543e+00 -2.120428e+00 -3.243691e+00 -5.570747e+00 -2.934429e+00 -4.994034e+00 -7.597667e+00 -3.116052e+00 4.623123e+00 -1.212204e+00 4.507909e+00 -2.534716e+00 8.268824e-01 -5.886150e-01 -1.151622e+00 -2.759960e+00 1.966292e-01 -4.444577e-01 -3.851595e+00 -2.107293e+00 2.557415e+00 -8.512608e-01 5.532759e+00
<VARIANCE> 25
 7.185089e+01 3.457079e+01 1.669100e+01 1.123905e+01 1.581154e+01 3.242216e+01 2.709837e+01 1.499263e+01 6.902929e+01 2.572000e+01 3.210323e+01 2.005337e+01 3.318968e+00 2.403074e+00 1.074631e+00 1.378915e+00 3.293009e+00 1.829804e+00 5.122502e+00 1.229381e+00 3.837172e+00 1.798271e+00 1.197091e+00 1.199625e+00 2.536019e+00
<GCONST> 9.452446e+01
<STATE> 3
<MEAN> 25
 1.777538e+01 -9.259366e+00 2.471323e+00 -2.183481e+00 -2.885862e+00 -9.603556e+00 -2.221425e+00 -3.741943e+00 -1.656986e+01 -5.962101e+00 8.416080e+00 -2.897076e+00 1.758738e-01 1.155543e-01 -2.192891e-01 -2.354926e-01 -3.733669e-01 1.214801e-01 9.538637e-02 2.639945e-01 1.915034e-01 1.562123e-01 -2.458224e-01 -6.064796e-03 -8.425721e-02
<VARIANCE> 25
 1.212484e+00 7.245304e+00 7.053209e+00 8.146968e+00 1.339544e+01 6.640948e+00 9.217125e+00 1.017487e+01 9.544112e+00 1.014660e+01 5.569614e+00 6.609994e+00 1.227645e-01 1.473402e+00 5.256164e-01 8.143682e-01 1.326326e+00 4.801440e-01 1.243661e+00 9.749632e-01 1.394019e+00 7.757344e-01 3.882388e-01 4.164374e-01 4.634775e-01
<GCONST> 6.404930e+01
<STATE> 4
<MEAN> 25
 5.315557e+00 -3.878623e+00 5.108790e-01 -6.062268e+00 -7.336026e+00 -5.629316e+00 4.673150e+00 1.698765e+01 1.050870e+01 -3.308672e+00 -2.585131e+00 -3.077549e-01 -8.254097e-01 2.792678e-01 -2.192081e-01 1.168469e-02 2.166741e-01 2.047126e-01 7.049005e-02 3.495739e-01 8.827982e-01 3.200963e-01 -3.834654e-01 1.463453e-01 -8.433042e-01
<VARIANCE> 25
 4.549438e+01 1.974690e+01 2.378041e+01 1.497369e+01 2.115277e+01 1.300907e+01 1.638751e+01 7.063429e+01 5.927099e+01 2.464293e+01 1.664383e+01 1.985585e+01 2.068157e+00 2.002389e+00 1.493411e+00 1.922883e+00 2.401912e+00 1.464680e+00 1.813019e+00 5.862718e+00 4.577783e+00 2.055001e+00 1.978909e+00 1.748624e+00 4.879313e-01
<GCONST> 9.324396e+01
~t "T_eu"
<ENDHMM>
~h "eu-r"
<BEGINHMM>
<NUMSTATES> 5
<STATE> 2
<MEAN> 25
 -2.345089e+00 3.183320e+00 -4.932326e+00 -6.583835e+00 -4.904817e+00 -5.059917e-01 2.954827e+00 5.166096e+00 6.783409e+00 2.368481e+00 -2.545524e+00 1.304237e+00 -8.390017e-01 2.534020e-01 8.995818e-01 8.493169e-01 9.949073e-01 1.015020e+00 -1.855442e-01 -1.283040e+00 -7.586796e-01 3.743272e-01 7.461548e-01 4.416435e-01 -5.872119e-01
<VARIANCE> 25
 4.038624e+00 3.240153e+00 6.919950e+00 5.164019e+00 9.174769e+00 1.049277e+01 8.518526e+00 1.396836e+01 1.615616e+01 7.908622e+00 6.517705e+00 5.729527e+00 3.151028e-01 1.041616e+00 6.486959e-01 2.374320e+00 1.273135e+00 7.399735e-01 1.515920e+00 6.804865e-01 1.159253e+00 6.734346e-01 1.323816e+00 3.924674e-01 8.517024e-02
<GCONST> 6.583495e+01
<STATE> 3
<MEAN> 25
 -5.659337e+00 1.984920e+00 -9.649375e-02 4.367806e-01 -1.712509e-01 1.698784e+00 9.067149e-01 -1.104438e+00 1.978938e+00 2.888073e+00 4.472409e-01 2.085745e+00 -9.715067e-02 1.278543e-02 1.387918e-01 1.758581e-01 1.404904e-01 6.795871e-02 -1.754979e-01 -2.994557e-01 -2.114982e-01 -1.683161e-01 -7.243722e-02 -1.153747e-01 -6.276450e-02
<VARIANCE> 25
 1.086717e+00 1.068011e+01 4.453124e+00 2.723492e+01 3.902645e+00 1.236458e+01 1.174489e+01 8.712804e+00 1.128200e+01 5.342293e+00 6.521022e+00 7.151370e+00 5.540035e-02 8.719930e-01 2.210278e-01 1.649542e+00 5.079992e-01 1.329253e+00 7.776728e-01 6.964921e-01 1.151260e+00 5.949182e-01 6.284062e-01 7.827234e-01 7.871894e-02
<GCONST> 6.096765e+01
<STATE> 4
<MEAN> 25
 -5.984785e+00 4.528396e+00 -5.205318e-01 -4.867370e-01 2.163826e+00 3.544213e+00 -1.260005e+00 -2.638418e+00 3.078245e+00 3.138280e+00 -1.652616e+00 2.113872e+00 -7.956363e-03 -1.468904e-02 1.325249e-04 1.484435e-02 1.682924e-02 9.309270e-04 -6.466870e-03 -6.625857e-03 -1.107043e-02 8.299690e-03 -1.422731e-03 1.138189e-02 2.674211e-03
<VARIANCE> 25
 1.086717e+00 2.547343e+00 2.769304e+00 2.902010e+00 3.180480e+00 4.335081e+00 5.982992e+00 6.376236e+00 8.220449e+00 6.889179e+00 6.003185e+00 6.757149e+00 5.078002e-02 1.475443e-01 1.697240e-01 2.981421e-01 4.060021e-01 4.700089e-01 6.718025e-01 6.700445e-01 6.826410e-01 6.330670e-01 7.135778e-01 7.159964e-01 1.891393e-02
<GCONST> 4.724326e+01
~t "T_r"
<ENDHMM>
~h "ff-i+ch"
<BEGINHMM>
<NUMSTATES> 5
<STATE> 2
<MEAN> 25
 3.553252e+00 -8.649642e+00 4.806880e+00 8.984623e+00 -8.571974e-01 -5.844848e+00 -8.567864e+00 -1.527223e+00 -1.350464e+00 -1.035457e+00 1.394190e+00 -4.558125e+00 6.903138e-01 3.784900e+00 -2.466306e+00 4.338121e-02 2.648903e-01 8.081954e-01 9.356643e-01 5.909707e-01 -1.176739e+00 7.176278e-01 7.229576e-01 -7.681549e-02 -2.360780e+00
<VARIANCE> 25
 1.111469e+01 4.254597e+01 2.255508e+00 1.115154e+01 1.101383e+01 5.519382e+00 5.581936e+00 5.710800e+00 7.656391e+00 1.536563e+01 2.379242e+01 4.152531e+01 3.973204e-01 1.341278e+00 8.123608e-01 5.917552e-01 8.427914e-01 8.732647e-01 1.559227e+00 1.086145e+00 9.638503e-01 5.363719e-01 4.292738e-01 1.063783e+00 4.706159e-01
<GCONST> 7.122451e+01
<STATE> 3
<MEAN> 25
 3.929839e+00 -5.563403e+00 1.785325e+00 8.222347e+00 -1.139538e+00 -7.135813e+00 -6.833917e+00 1.915636e-01 -3.075501e+00 -3.847086e-02 2.082304e+00 -4.872018e+00 -5.657853e-01 1.969742e+00 -2.729200e+00 -1.040159e+00 2.452880e-01 1.117280e+00 2.227962e+00 1.109481e+00 1.144862e+00 1.997915e+00 1.008870e+00 7.761678e-01 -2.163929e+00
<VARIANCE> 25
 8.119568e+00 2.855717e+01 6.533730e+00 8.014076e+00 1.789504e+01 1.142204e+01 3.975517e+00 5.986167e+00 9.136993e+00 8.390882e+00 1.028723e+01 1.559972e+01 1.433318e+00 5.057198e+00 1.286031e+00 2.740032e-01 1.168547e+00 4.997154e-01 1.083031e+00 1.043315e+00 4.125789e-01 1.047031e+00 9.631269e-01 2.713845e+00 4.711215e-01
<GCONST> 7.314935e+01
<STATE> 4
<MEAN> 25
 2.200541e+00 -5.347908e+00 -3.826168e+00 3.281376e+00 2.922907e-01 -1.826004e+00 -4.520742e-01 3.421946e+00 7.955298e-01 2.669755e+00 4.046394e+00 -1.142136e+00 2.411274e-01 1.459339e+00 -1.277879e+00 -1.887423e+00 -4.277345e-01 9.417149e-01 1.577004e+00 1.512983e-01 -7.930813e-01 -4.987807e-01 -3.508995e-01 7.122801e-01 -5.592922e-01
<VARIANCE> 25
 9.421037e+00 2.212802e+01 2.055414e+01 1.355508e+01 1.200630e+01 1.590861e+01 1.352280e+01 1.509415e+01 2.714884e+01 1.895861e+01 5.131836e+00 1.821534e+01 1.620509e+00 1.673018e+00 3.029668e+00 1.205511e+00 2.244381e+00 2.692924e+00 9.719946e-01 2.054106e+00 3.251571e+00 3.671023e+00 1.935780e+00 4.380764e+00 1.181651e+00
<GCONST> 8.783633e+01
~t "T_i"
<ENDHMM>
~h "a-ff+i"
<BEGINHMM>
<NUMSTATES> 5
<STATE> 2
<MEAN> 25
 1.687507e+01 -8.093913e+00 -4.752534e+00 -1.061132e+01 -1.248800e+01 -8.883890e+00 6.191585e+00 7.627893e+00 -5.121501e+00 -1.937856e+00 5.471087e+00 -3.558294e+00 1.978877e+00 -8.966379e-01 3.013259e-01 -9.358240e-01 8.460641e-03 -1.010696e+00 -8.447358e-02 5.209101e-01 -3.377860e-01 -5.875691e-01 9.831549e-01 -3.985599e-01 2.693104e+00
<VARIANCE> 25
 4.808574e+00 1.235913e+01 5.176731e+00 8.377702e+00 5.712587e+00 5.680820e+00 1.244741e+01 2.526632e+00 6.829100e+00 8.251783e+00 1.232749e+01 2.999575e+00 5.172994e+00 4.542396e+00 7.824062e-01 1.747311e+00 3.535287e+00 2.010581e+00 2.154507e+00 2.578731e+00 9.333928e-01 1.362755e+00 1.737642e+00 1.007295e+00 8.165308e+00
<GCONST> 7.841750e+01
<STATE> 3
<MEAN> 25
 5.768619e+00 -3.280231e+00 6.559522e+00 -6.957650e-02 6.179711e+00 -4.954011e+00 4.813405e+00 3.764550e+00 2.851985e+00 1.128044e+00 6.487475e+00 2.476209e-01 -3.862468e-01 -1.051558e-01 6.915408e-01 1.129455e+00 6.537611e-01 1.679100e-01 -5.578645e-02 -1.004612e-02 4.606017e-02 -1.999306e-02 -1.065498e-01 6.619635e-02 -2.204351e-01
<VARIANCE> 25
 7.857679e+01 3.134180e+01 2.715181e+01 4.555529e+01 5.786852e+01 2.273417e+01 2.273528e+01 1.864811e+01 4.956956e+01 1.349864e+01 1.612609e+01 1.052979e+01 4.513416e+00 3.065742e+00 2.385619e+00 2.842933e+00 3.194135e+00 3.046925e+00 2.521336e+00 2.541681e+00 3.962542e+00 1.942831e+00 1.866125e+00 1.446696e+00 1.291405e+00
<GCONST> 9.771327e+01
<STATE> 4
<MEAN> 25
 2.930792e-01 -1.757388e+01 1.329997e+01 9.761553e+00 1.791648e+00 -9.374495e+00 -2.618151e+00 1.688254e+00 -2.748318e-02 -6.573339e+00 3.153917e+00 -1.976677e+00 -1.716557e-01 -6.550531e-02 -1.925612e-01 -1.864102e-01 -1.757647e-01 -4.818016e-02 -2.653225e-01 -1.766652e-01 1.004570e-01 6.864989e-02 -1.056355e-01 -3.668357e-02 -1.820612e-01
<VARIANCE> 25
 7.040501e+01 5.463155e+01 1.020043e+01 7.615514e+01 1.237031e+01 1.953853e+01 2.199453e+01 2.043888e+01 7.992135e+01 1.797616e+01 9.680715e+00 1.435213e+01 1.805388e+00 2.719979e+00 1.180320e+00 2.382680e+00 9.619958e-01 1.115045e+00 9.945216e-01 1.125800e+00 3.114206e+00 1.357921e+00 1.220036e+00 1.303346e+00 5.440865e-01
<GCONST> 8.876270e+01
~t "T_ff"
<ENDHMM>
~h "m-eh+t"
<BEGINHMM>
<NUMSTATES> 5
<STATE> 2
<MEAN> 25
 -1.425512e+00 4.888411e+00 1.469051e+00 2.408105e+00 3.116319e+00 5.814065e+00 6.161493e+00 2.066459e+00 6.452548e-01 7.327216e-01 -2.044117e+00 -5.597050e-01 1.801211e+00 2.376920e+00 1.909832e+00 1.828943e+00 2.039321e+00 2.009650e+00 7.137037e-01 -1.560829e+00 -1.078091e+00 3.055555e-02 -1.098433e+00 -2.403305e+00 7.811091e-01
<VARIANCE> 25
 1.460783e+01 3.487214e+01 3.158331e+01 3.119595e+01 2.763242e+01 1.575220e+01 2.214515e+01 2.263182e+01 2.553563e+01 2.587943e+01 1.242426e+01 3.453236e+01 2.794113e+00 2.378581e+00 1.224536e+00 1.714763e+00 1.976667e+00 2.464459e+00 3.481403e+00 2.804774e+00 3.421455e+00 2.625296e+00 9.835190e-01 5.630022e+00 1.874514e+00
<GCONST> 9.495420e+01
<STATE> 3
<MEAN> 25
 1.182925e+01 8.448521e+00 1.988930e+00 7.371939e+00 6.978565e+00 1.076867e+01 1.008318e+01 -6.617620e+00 -9.320011e+00 3.175679e+00 1.895640e-01 -1.148299e+01 8.976673e-01 -3.884783e-01 -4.590066e-01 -1.447230e-01 -1.183891e-01 -1.028482e-01 2.208619e-02 -2.978723e-02 -4.856248e-01 -2.108803e-01 3.921068e-01 -1.089016e-01 7.511505e-01
<VARIANCE> 25
 8.294782e+00 9.292171e+00 7.672438e+00 8.506615e+00 5.117909e+00 4.084952e+00 1.507464e+01 7.692973e+00 1.151867e+01 1.428679e+01 1.083015e+01 6.286354e+00 8.807375e-01 9.454429e-01 4.976951e-01 8.473830e-01 5.524050e-01 1.393700e+00 2.345699e+00 8.957022e-01 1.511307e+00 1.962851e+00 1.135778e+00 2.024188e+00 6.256480e-01
<GCONST> 7.247295e+01
<STATE> 4
<MEAN> 25
 1.628864e+01 -7.766003e+00 2.334513e+00 7.153173e+00 5.401472e+00 -5.088681e+00 -5.827106e+00 -1.537532e+00 -1.150362e+01 -7.784817e+00 5.357658e+00 -6.662437e+00 -3.840884e-01 -3.212597e+00 1.890509e+00 7.517548e-01 -1.469650e-01 -3.310499e+00 -3.444281e+00 5.124711e-01 -5.914828e-01 -1.587277e+00 6.450092e-01 -1.038735e-01 1.765209e+00
<VARIANCE> 25
 3.412211e+00 4.914795e+01 2.700589e+01 1.482512e+01 7.366682e+00 5.085964e+01 5.025132e+01 3.925289e+00 9.239132e+00 5.859222e+00 1.065732e+01 7.264933e+00 6.049902e-01 4.053807e+00 1.946065e+00 1.447413e+00 1.118192e+00 5.501153e+00 4.417150e+00 7.082636e-01 1.698668e+00 1.310826e+00 2.516697e+00 1.112384e+00 1.556762e+00
<GCONST> 8.377528e+01
~t "T_eh"
<ENDHMM>
~h "l-am+p"
<BEGINHMM>
<NUMSTATES> 5
<STATE> 2
<MEAN> 25
 1.811567e+01 -8.082388e+00 2.439251e+00 4.962888e+00 -1.823476e+00 -3.787647e+00 2.202235e+00 -2.433669e+00 -1.719042e+01 -7.863452e+00 1.908485e+00 -8.183435e+00 1.046928e+00 -1.584471e+00 2.008508e-01 -2.761361e+00 -1.838304e+00 -2.368518e+00 -8.484073e-01 1.581263e+00 -8.896565e-01 -5.644563e-01 7.629292e-01 -5.147721e-01 2.151030e+00
<VARIANCE> 25
 1.295653e+01 1.723834e+01 7.725666e+00 5.755679e+01 1.291318e+01 1.233515e+01 6.064622e+01 9.853642e+00 5.610135e+00 5.785891e+00 1.494353e+01 8.308874e+00 2.645274e+00 3.463915e-01 7.293124e-01 7.671641e+00 7.438685e-01 1.594766e+00 4.998689e+00 3.301533e-01 4.541515e+00 1.580510e+00 2.410249e+00 3.473657e+00 1.505146e+00
<GCONST> 8.402930e+01
<STATE> 3
<MEAN> 25
 1.314370e+01 -6.760232e+00 9.513341e+00 8.237211e+00 -5.878130e+00 -7.808092e+00 1.134260e+01 4.109545e+00 -2.145245e+01 -1.129492e+01 3.952830e+00 -5.368530e+00 1.054461e-01 -2.009539e-01 -2.576813e-02 -7.377229e-01 -6.032780e-01 -1.929239e-01 -4.668406e-02 4.076737e-01 5.546994e-01 -3.740252e-01 -5.019747e-02 5.771439e-01 3.035343e-01
<VARIANCE> 25
 5.858733e+00 8.096115e+00 8.764869e+00 4.430372e+01 5.250142e+00 1.654624e+00 2.936236e+01 2.174292e+00 5.569839e+00 6.077115e+00 3.027855e+00 3.731433e+00 8.111738e-02 9.876332e-02 4.608417e-01 8.728003e-01 7.099807e-01 5.586472e-01 6.073886e-01 1.190262e+00 1.256442e+00 2.754428e-01 4.544028e-01 4.828106e-01 8.443353e-02
<GCONST> 5.599628e+01
<STATE> 4
<MEAN> 25
 1.907785e+01 -5.734174e+00 4.016230e-01 -4.189771e+00 -1.439179e+01 -1.289700e+01 2.527313e+00 3.922105e+00 -3.558550e+00 -1.933113e+00 1.684064e+00 -4.006622e-01 -1.216615e-01 9.434851e-01 -1.660025e-01 2.304184e-01 -5.649477e-01 -3.054526e-01 4.244362e-01 7.128563e-02 1.138294e+00 7.731641e-01 -6.658464e-01 2.289055e-01 -6.982403e-01
<VARIANCE> 25
 4.595039e+00 4.096332e+01 1.254131e+01 4.413172e+01 2.093629e+01 2.186858e+01 2.456422e+01 2.483334e+01 2.931666e+01 4.453164e+01 6.348950e+00 4.840543e+00 4.668436e-01 3.090876e+00 1.771171e+00 4.045072e+00 1.987790e+00 1.761821e+00 3.772280e+00 3.153503e+00 5.204685e+00 4.063447e+00 1.338225e+00 9.099234e-01 1.389471e+00
<GCONST> 9.028334e+01
~t "T_am"
<ENDHMM>
~h "i-ch"
<BEGINHMM>
<NUMSTATES> 5
<STATE> 2
<MEAN> 25
 9.591868e-02 2.626106e+00 -4.371948e+00 -2.951144e+00 -3.125328e+00 -7.017883e-01 1.962901e+00 6.188111e-01 -1.202827e+00 8.718126e-01 5.351034e-01 3.328640e+00 -1.498163e+00 1.597761e+00 3.250319e-01 -7.044017e-01 6.698844e-01 1.508107e+00 4.608178e-01 -2.379139e-01 1.055254e+00 2.625481e-01 -4.997885e-01 1.192464e+00 -1.636481e+00
<VARIANCE> 25
 2.477031e+01 1.130896e+01 1.246535e+01 2.418604e+01 2.234588e+01 3.023832e+01 1.601366e+01 1.515333e+01 2.577128e+01 2.447626e+01 5.113508e+00 1.341410e+01 2.189662e+00 1.604989e+00 1.744558e+00 3.255044e+00 3.691297e+00 3.084099e+00 5.307210e-01 1.787208e+00 3.303612e+00 2.261324e+00 9.529331e-01 2.584791e+00 1.314951e+00
<GCONST> 8.853261e+01
<STATE> 3
<MEAN> 25
 -5.810430e+00 5.042439e+00 -1.617624e+00 -1.923862e+00 1.105921e+00 4.400398e+00 4.726945e-01 -1.446374e+00 3.929511e+00 3.972107e+00 -1.652406e+00 2.846441e+00 1.186778e-01 -6.461171e-02 -4.882437e-02 2.536378e-02 -5.535585e-02 -5.670542e-02 -3.555109e-02 -1.061937e-01 -1.387278e-01 -2.049161e-02 -3.078286e-02 -1.766032e-01 1.009003e-01
<VARIANCE> 25
 1.086717e+00 1.071843e+00 3.218799e+00 3.814330e+00 4.495519e+00 5.097478e+00 7.082600e+00 6.195529e+00 6.776030e+00 6.723936e+00 4.982172e+00 4.427471e+00 7.634996e-01 1.773998e-01 3.696191e-01 7.261065e-01 5.791254e-01 7.809017e-01 8.569811e-01 7.140251e-01 1.226334e+00 8.408004e-01 6.118872e-01 6.510144e-01 4.294998e-01
<GCONST> 5.609911e+01
<STATE> 4
<MEAN> 25
 1.329992e+01 -2.994008e+00 3.506353e+00 9.670943e+00 -3.977392e+00 -1.650348e+00 5.147724e+00 -1.535604e+00 -1.688324e+01 -1.041054e+01 2.071005e+00 -7.521289e+00 1.062919e+00 -7.236807e-01 1.471548e-01 -5.602697e-02 -5.591286e-01 -4.954864e-01 6.991433e-02 2.313423e-01 -7.634764e-01 -6.766045e-01 2.541759e-01 -7.684553e-02 1.186427e+00
<VARIANCE> 25
 1.836180e+01 1.256723e+01 1.569273e+01 2.172086e+01 2.365059e+01 8.461636e+00 1.868444e+01 1.401045e+01 3.029836e+01 2.071911e+01 1.489734e+01 1.312383e+01 2.293791e+00 7.146788e-01 1.920000e+00 4.180183e+00 5.811822e-01 9.748586e-01 2.107459e+00 7.386811e-01 5.392829e+00 3.028254e+00 8.372485e-01 2.595425e+00 1.704671e+00
<GCONST> 8.635790e+01
~t "T_ch"
<ENDHMM>
~h "a+ff"
<BEGINHMM>
<NUMSTATES> 5
<STATE> 2
<MEAN> 25
 -5.296018e+00 5.071854e+00 -1.900055e+00 -1.823453e+00 9.222711e-01 3.376603e+00 -9.907264e-01 -2.135969e+00 2.803371e+00 2.902133e+00 -1.433683e+00 2.968797e+00 -2.479670e-02 -2.392884e-02 1.181610e-03 -6.755544e-03 -3.051552e-03 -3.150561e-02 -8.448555e-02 -8.420274e-02 -3.605057e-02 -2.929611e-03 2.406817e-02 4.784244e-02 -1.371868e-02
<VARIANCE> 25
 1.086717e+00 3.342007e+00 2.857850e+00 4.365151e+00 3.689136e+00 6.289899e+00 8.584703e+00 7.467529e+00 7.402052e+00 5.919945e+00 6.236769e+00 5.786178e+00 8.436099e-02 3.678421e-01 2.476790e-01 3.470232e-01 2.373453e-01 4.920317e-01 8.257577e-01 8.329101e-01 8.473256e-01 6.554183e-01 7.769123e-01 5.224450e-01 5.116486e-02
<GCONST> 5.152029e+01
<STATE> 3
<MEAN> 25
 -6.166435e+00 5.008646e+00 -1.021939e+00 -1.369214e+00 5.403672e-01 2.388645e+00 -1.309189e+00 -2.581095e+00 2.250745e+00 3.413268e+00 -1.596467e+00 3.334710e+00 3.861379e+00 -2.007889e+00 -1.277381e+00 -1.252562e+00 -3.358855e+00 -2.349949e+00 1.733334e+00 1.856410e+00 -2.058779e+00 -1.010018e+00 1.051639e+00 -1.676453e+00 3.545344e+00
<VARIANCE> 25
 1.086717e+00 1.647350e+00 1.999816e+00 1.622424e+00 2.182556e+00 2.772069e+00 4.890852e+00 4.985994e+00 4.402658e+00 3.404047e+00 5.079257e+00 2.244387e+00 2.691969e+00 7.335504e-01 7.279271e-01 1.076036e+00 1.906959e+00 7.723095e-01 2.807600e+00 1.562349e+00 1.326173e+00 6.587088e-01 9.324304e-01 7.836094e-01 2.201504e+00
<GCONST> 6.048306e+01
<STATE> 4
<MEAN> 25
 4.158463e+00 -7.663631e-01 -6.732752e+00 -5.346735e+00 -9.345249e+00 -2.797414e+00 4.510316e+00 9.467258e-01 -1.976082e+00 8.970275e-01 2.069179e+00 6.796207e-01 6.661524e+00 -3.583379e+00 -1.233382e+00 -2.530461e+00 -4.280727e+00 -3.339118e+00 2.447648e+00 3.002742e+00 -2.515311e+00 -1.274554e+00 2.195648e+00 -2.307374e+00 6.945080e+00
<VARIANCE> 25
 1.759305e+01 1.948553e+01 2.034882e+01 1.877308e+01 9.406578e+01 1.914723e+01 6.927982e+01 4.832612e+01 1.083741e+01 1.302080e+01 1.353606e+01 1.243967e+01 4.245300e-01 6.970329e-01 1.941973e-01 8.181438e-01 1.989431e-01 8.360438e-01 1.415998e+00 3.275151e-01 7.662110e-01 1.047654e+00 1.390710e+00 3.626127e-01 3.689041e-01
<GCONST> 7.589657e+01
~t "T_a"
<ENDHMM>
~h "a+lu"
<BEGINHMM>
<NUMSTATES> 5
<STATE> 2
<MEAN> 25
 -6.814723e+00 3.103009e+00 -9.529976e-01 -2.107230e+00 1.439530e-01 2.169474e+00 -2.874371e-01 -1.143792e+00 4.788754e+00 3.393528e+00 -2.053023e+00 2.995661e+00 -1.809684e-02 2.059975e-02 1.413285e-02 5.123143e-03 8.257332e-03 -4.234893e-03 -7.979976e-02 -7.721226e-02 -3.207553e-02 -2.452053e-03 3.775846e-03 -1.281729e-02 -2.280549e-02
<VARIANCE> 25
 1.401400e+00 2.871009e+00 4.291887e+00 4.438275e+00 5.006081e+00 5.109840e+00 8.878284e+00 9.519146e+00 7.672708e+00 7.941528e+00 5.335296e+00 6.055787e+00 8.148455e-02 2.363811e-01 3.412869e-01 4.000097e-01 5.594419e-01 6.044585e-01 7.562132e-01 9.434673e-01 8.531553e-01 7.591147e-01 5.806956e-01 6.370833e-01 3.548189e-02
<GCONST> 5.341957e+01
<STATE> 3
<MEAN> 25
 -6.664572e+00 4.129451e+00 -3.439972e-02 -1.333806e+00 5.314402e-01 1.846945e+00 -2.128380e+00 -3.720818e+00 2.066059e+00 2.699629e+00 -2.008464e+00 2.676210e+00 4.694196e+00 -2.040794e+00 -9.988379e-01 -2.094141e+00 -3.562998e+00 -2.180408e+00 9.019594e-01 1.536758e+00 -1.659406e+00 -1.481017e+00 1.176107e+00 -1.145035e+00 4.487017e+00
<VARIANCE> 25
 1.298016e+00 1.318143e+00 3.024382e+00 3.942984e+00 2.313370e+00 3.493440e+00 6.837664e+00 1.583663e+00 7.321137e+00 4.213037e+00 3.937755e+00 4.105968e+00 2.529499e+00 3.394644e+00 3.766415e-01 6.525267e-01 1.821560e+00 7.770422e-01 1.472691e+00 1.974432e+00 4.524206e-01 8.724500e-01 1.006078e+00 5.169566e-01 4.134580e+00
<GCONST> 6.164412e+01
<STATE> 4
<MEAN> 25
 1.449417e+01 -7.509019e+00 -1.276123e+00 -2.099570e+00 -3.900600e+00 -6.240252e+00 1.361666e+00 2.400555e+00 -6.951394e+00 -3.123328e+00 5.311782e+00 -4.635334e+00 6.415147e-01 -5.052423e-01 1.257895e-01 -4.760846e-04 -1.255107e-01 -5.866978e-01 -1.980775e-01 8.198772e-02 -2.964187e-01 1.003346e-01 6.194348e-01 -1.299846e-01 8.439163e-01
<VARIANCE> 25
 1.797716e+01 5.199473e+01 1.714841e+01 1.159481e+02 1.427202e+02 4.764570e+01 3.303392e+01 3.830615e+01 3.113749e+01 2.472801e+01 3.352661e+01 1.968285e+01 4.557042e+00 4.230182e+00 1.252953e+00 3.178173e+00 5.637031e+00 3.621925e+00 3.299413e+00 3.482414e+00 2.596473e+00 2.889562e+00 1.964952e+00 1.613971e+00 6.844520e+00
<GCONST> 1.043799e+02
~t "T_a"
<ENDHMM>
~h "m-i+ai"
<BEGINHMM>
<NUMSTATES> 5
<STATE> 2
<MEAN> 25
 1.245932e+01 -8.519275e+00 1.447473e+01 1.201870e+01 1.617710e-02 -1.452320e+01 -1.321717e+00 3.574059e+00 -9.727633e+00 -8.047026e+00 7.365322e-01 -8.293036e+00 1.105095e-01 -8.265963e-01 -1.100366e-01 -1.247489e+00 -2.983417e-02 -4.864331e-01 -1.291791e+00 -8.358739e-01 -1.142727e+00 -1.434344e-01 1.247864e+00 7.269110e-01 6.772439e-01
<VARIANCE> 25
 3.444103e+00 2.337245e+01 1.412453e+01 2.321108e+01 1.784495e+01 1.629108e+01 3.772547e+01 2.861228e+01 2.276973e+01 6.159039e+00 2.055567e+01 1.486839e+01 6.119469e-01 4.373450e-01 4.538366e+00 1.029249e+00 1.919011e+00 1.918167e+00 2.742169e+00 1.509187e+00 7.943707e-01 6.519926e-01 6.762595e-01 8.384376e-01 2.563167e-01
<GCONST> 7.981002e+01
<STATE> 3
<MEAN> 25
 1.626480e+01 -7.532297e+00 1.645826e+00 1.715592e-01 -2.855575e+00 -1.389414e+01 -9.396401e+00 -2.248193e+00 -1.184928e+01 8.523982e-01 9.064911e+00 -6.533285e+00 -2.951759e-02 6.566633e-01 -8.915877e-01 -5.555852e-01 -3.884514e-01 7.980483e-01 1.939678e-01 2.527511e-02 1.132806e+00 8.388371e-01 -1.667903e-01 -3.063763e-02 -6.188754e-01
<VARIANCE> 25
 3.149292e+00 2.455673e+01 1.814148e+01 1.046563e+01 2.056755e+01 1.494453e+01 1.049501e+01 6.654671e+00 2.864691e+01 4.428521e+01 8.872043e+00 1.124802e+01 3.188754e-01 7.073801e-01 6.684181e-01 6.807941e-01 1.591895e+00 1.318154e+00 1.044931e+00 8.680482e-01 1.571169e+00 1.054790e+00 8.996066e-01 6.574829e-01 2.440225e-01
<GCONST> 7.420113e+01
<STATE> 4
<MEAN> 25
 7.244623e+00 -5.918071e+00 -7.323118e+00 -4.912055e+00 -5.647427e-01 -3.126791e-01 -1.584131e-03 7.246135e+00 5.252099e+00 -3.227066e+00 -2.735062e+00 -1.635773e+00 -1.288637e+00 -3.513384e-01 -6.433216e-01 -5.823758e-01 4.397839e-03 6.835314e-01 1.148554e+00 9.976630e-01 7.077368e-01 -8.102533e-01 -7.722235e-01 8.931931e-01 -9.305825e-01
<VARIANCE> 25
 2.821323e+01 3.607110e+01 1.514358e+01 2.959613e+01 1.688380e+01 1.708078e+01 3.300402e+01 5.316401e+01 1.886328e+01 4.299705e+01 3.184570e+01 2.118444e+01 2.448928e+00 4.596289e+00 1.012087e+00 3.247789e+00 2.728494e+00 3.090899e+00 4.061992e+00 5.088841e+00 1.179202e+00 3.326823e+00 1.546303e+00 1.843260e+00 1.046137e+00
<GCONST> 9.655544e+01
~t "T_i"
<ENDHMM>
~h "eh-t+ein"
<BEGINHMM>
<NUMSTATES> 5
<STATE> 2
<MEAN> 25
 3.243715e+00 -1.797792e+00 4.839115e+00 4.185291e+00 5.802078e+00 -3.237118e+00 -4.024498e+00 2.097138e-01 -1.748741e+00 -2.274420e+00 1.218269e+00 -3.237411e+00 -1.033124e-02 2.149864e-01 -2.847295e-01 -6.353910e-01 -2.845791e-01 3.197241e-01 4.743809e-01 5.470912e-02 3.358827e-01 3.508464e-01 5.009314e-02 4.664944e-01 -6.522441e-02
<VARIANCE> 25
 5.402295e+01 3.935773e+01 2.906927e+01 3.610995e+01 1.915852e+01 3.195042e+01 3.177101e+01 1.505204e+01 4.521098e+01 3.380306e+01 2.095327e+01 3.057546e+01 6.430982e+00 4.597594e+00 1.988002e+00 2.042828e+00 1.298229e+00 3.230246e+00 2.268777e+00 2.522923e+00 4.892058e+00 2.767607e+00 2.298545e+00 1.986616e+00 1.081625e+01
<GCONST> 1.014184e+02
<STATE> 3
<MEAN> 25
 1.781721e+01 -9.162281e+00 2.542736e+00 -3.008521e+00 7.157745e-01 -1.085355e+01 -3.263407e+00 -4.417049e+00 -1.269305e+01 -3.167736e+00 7.512509e+00 -3.078836e+00 2.747334e+00 -1.495353e+00 -2.239117e+00 -2.598220e-01 -2.500586e+00 -1.111356e+00 7.853750e-01 -1.001632e+00 -2.001207e+00 -1.258589e-01 9.011447e-01 7.683893e-02 1.660851e+00
<VARIANCE> 25
 2.477176e+00 2.276190e+01 1.076091e+01 5.990997e+00 1.311358e+01 1.407020e+01 4.173935e+00 2.475957e+01 4.039180e+00 1.003045e+01 1.454778e+01 4.441977e+00 1.618952e+00 1.375906e+00 9.687021e-01 1.129057e+00 4.743989e-01 1.061685e+00 1.544912e+00 3.814953e+00 4.127693e+00 2.784787e-01 9.802936e-01 2.087224e+00 4.183199e-01
<GCONST> 7.383354e+01
<STATE> 4
<MEAN> 25
 2.014850e+01 -6.924600e+00 -4.338304e+00 -9.573294e+00 -1.043214e+01 -6.954325e+00 5.325721e+00 6.041124e+00 -8.882016e+00 -6.333743e+00 5.739627e+00 -2.856535e+00 -1.304629e-02 6.170293e-01 -4.947944e-01 -5.221612e-01 -9.562947e-01 2.175575e-01 5.645493e-01 5.954204e-01 2.554761e-01 -1.832531e-01 -4.294357e-01 -8.986190e-03 -5.296246e-01
<VARIANCE> 25
 1.777393e+00 1.427171e+01 6.025702e+00 1.725095e+01 1.681658e+01 1.160743e+01 1.780976e+01 2.725401e+01 7.905449e+00 1.454195e+01 1.606623e+01 2.552352e+01 3.050094e-01 1.030066e+00 7.105936e-01 9.528579e-01 9.679413e-01 7.730119e-01 1.181429e+00 1.867688e+00 9.059076e-01 8.604797e-01 1.185195e+00 1.507028e+00 4.421711e-01
<GCONST> 7.451268e+01
~t "T_t"
<ENDHMM>
~h "eh-t+eh"
<BEGINHMM>
<NUMSTATES> 5
<STATE> 2
<MEAN> 25
 3.544843e+00 -2.754518e+00 4.509944e+00 4.843260e+00 5.744021e+00 -3.053481e+00 -5.176562e+00 -1.740916e+00 -4.556355e+00 -4.598376e+00 8.625474e-01 -4.353817e+00 -4.040470e-01 4.129874e-01 -3.193244e-04 -4.426725e-01 2.720440e-01 4.869977e-01 1.703443e-01 7.379393e-02 7.261288e-01 2.874427e-01 -1.324596e-01 2.230259e-01 -3.464997e-01
<VARIANCE> 25
 4.378840e+01 4.083280e+01 2.300531e+01 3.735823e+01 1.322399e+01 2.186106e+01 3.118396e+01 1.682156e+01 4.812415e+01 3.242662e+01 1.658648e+01 2.513530e+01 4.968321e+00 5.716971e+00 2.850972e+00 3.412091e+00 2.250771e+00 2.441199e+00 4.461151e+00 2.750230e+00 3.898320e+00 4.265352e+00 2.337664e+00 2.239543e+00 1.085870e+01
<GCONST> 1.021908e+02
<STATE> 3
<MEAN> 25
 1.356638e+01 -1.290266e+01 8.409863e+00 6.233899e+00 6.825372e+00 -5.088248e+00 -1.290656e+01 -4.048785e+00 -1.420611e+01 -1.081015e+01 3.981112e+00 -7.119785e+00 5.901018e-01 -8.972201e-02 -3.696707e-01 -2.425090e-01 -7.793713e-01 2.539255e-01 5.493367e-01 -1.408306e-01 -8.701368e-01 -6.813996e-01 -1.156382e-01 6.072518e-02 2.418521e-01
<VARIANCE> 25
 3.158423e+00 5.932992e+00 1.107053e+01 1.339007e+01 7.581514e+00 1.385098e+01 2.495617e+01 5.578511e+00 1.644402e+01 1.812828e+01 6.764339e+00 1.093347e+01 5.533876e-01 1.684909e+00 8.176816e-01 2.898469e+00 2.000156e+00 1.865677e+00 3.922758e+00 1.465836e+00 2.978515e+00 4.493950e+00 1.413904e+00 1.557003e+00 5.449647e-01
<GCONST> 8.010261e+01
<STATE> 4
<MEAN> 25
 1.771103e+01 -4.264757e+00 2.623744e+00 -2.870072e+00 -9.331851e+00 -3.573822e+00 2.682357e-01 -7.741117e-02 -1.209059e+01 -1.612889e+01 -1.664295e+00 -7.951674e+00 2.819675e-01 2.231448e+00 1.856026e-02 -2.584531e-01 -3.109647e+00 -1.706070e+00 4.624981e-01 1.575777e+00 3.380546e+00 1.039411e+00 -1.496933e+00 -2.137702e+00 -9.699270e-01
<VARIANCE> 25
 1.086717e+00 2.173559e+01 3.831024e+00 3.041683e+00 3.205014e+01 4.767637e+01 5.920677e+00 8.264816e+00 1.309016e+01 2.039526e+01 4.891193e+00 1.486853e+01 2.395621e-01 4.917576e-01 1.866728e-01 3.850798e-01 2.809985e+00 1.936216e+00 1.698303e+00 4.477496e-01 3.414745e-01 3.376615e+00 2.240799e+00 1.184897e+00 1.745571e-01
<GCONST> 6.868260e+01
~t "T_t"
<ENDHMM>
~h "ai-r"
<BEGINHMM>
<NUMSTATES> 5
<STATE> 2
<MEAN> 25
 -4.524810e+00 3.609460e+00 -2.344521e+00 -4.865049e+00 -9.204130e-01 3.618963e+00 2.268601e+00 9.194274e-01 3.467892e+00 6.778246e-01 -3.496122e+00 2.824595e+00 -7.466949e-01 1.671357e-01 1.382411e+00 1.365893e+00 7.943202e-01 2.322302e-01 -1.196074e+00 -1.196913e+00 -5.898228e-01 4.990150e-01 3.242835e-01 -3.402175e-01 -4.668898e-01
<VARIANCE> 25
 1.086717e+00 2.060669e+00 6.916250e+00 6.133241e+00 1.928329e+00 5.773902e+00 9.336205e+00 1.000009e+01 6.985049e+00 2.222385e+00 3.003106e+00 2.632832e+00 1.326714e-01 1.091970e-01 1.690188e-01 5.710840e-01 2.866837e-01 4.905438e-01 7.754788e-01 4.358020e-01 7.686679e-01 3.228530e-01 6.316460e-01 4.117317e-01 5.347420e-02
<GCONST> 4.696935e+01
<STATE> 3
<MEAN> 25
 -5.485309e+00 3.608227e+00 -1.156514e+00 -2.266657e+00 -9.706380e-01 2.794348e+00 -8.644527e-02 -1.948318e+00 2.681193e+00 2.209767e+00 -1.353807e+00 2.494063e+00 -2.353412e-01 2.129870e-02 2.641220e-01 4.729281e-01 2.350736e-01 -2.713025e-03 -2.159725e-01 -3.497528e-01 -2.100787e-02 1.696579e-01 3.272062e-01 -2.134664e-02 -1.528738e-01
<VARIANCE> 25
 1.086717e+00 1.223345e+00 3.077867e+00 6.047085e+00 1.333107e+00 2.653432e+00 5.677612e+00 3.511365e+00 5.545401e+00 5.513236e+00 5.894295e+00 2.661244e+00 9.541181e-02 1.200894e-01 6.753768e-01 8.110949e-01 2.483904e-01 6.363347e-01 3.656256e-01 3.169860e-01 7.452886e-01 1.001575e+00 5.213423e-01 5.705122e-01 6.336602e-02
<GCONST> 4.624974e+01
<STATE> 4
<MEAN> 25
 -6.661235e+00 3.774451e+00 7.403872e-02 -7.745677e-01 7.867526e-01 2.631489e+00 -1.050814e+00 -2.515222e+00 3.503939e+00 2.852321e+00 -2.019855e+00 2.475991e+00 -5.392917e-03 -3.434377e-03 1.183876e-04 -1.832859e-03 4.174577e-03 -6.588474e-03 -1.816142e-02 -2.003397e-02 -2.113656e-03 -6.177751e-04 -4.840301e-03 7.328074e-03 -2.657565e-03
<VARIANCE> 25
 1.086717e+00 2.004746e+00 2.134238e+00 3.094954e+00 3.587669e+00 5.288305e+00 5.262041e+00 5.478225e+00 5.712408e+00 6.239332e+00 5.749688e+00 5.393847e+00 4.095152e-02 1.067302e-01 2.128808e-01 2.955339e-01 3.775564e-01 5.598698e-01 6.034431e-01 5.678395e-01 6.207041e-01 6.482459e-01 6.212682e-01 5.473736e-01 1.891393e-02
<GCONST> 4.514492e+01
~t "T_r"
<ENDHMM>
~h "am-p"
<BEGINHMM>
<NUMSTATES> 5
<STATE> 2
<MEAN> 25
 1.158753e+01 2.735042e+00 4.156341e+00 1.312819e+00 -7.741870e+00 -3.644347e+00 8.991408e+00 4.901254e+00 1.090485e+00 -1.428134e+00 -5.027968e+00 -3.033780e+00 -2.955339e+00 6.085094e-01 -2.533168e-01 2.026707e-01 3.833765e+00 3.539851e+00 3.721629e-01 8.022893e-01 2.053573e+00 9.724628e-01 3.691909e-01 -1.700631e-02 -2.454553e+00
<VARIANCE> 25
 1.883535e+01 3.972591e+01 2.271532e+01 4.107954e+01 4.334576e+01 7.002927e+01 1.873844e+01 1.691971e+01 2.315398e+01 1.576913e+01 6.463289e+00 1.339417e+01 6.968730e-01 1.411800e+00 1.650126e+00 2.659917e+00 1.516316e+00 5.495732e+00 3.546087e+00 7.245311e-01 5.409567e-01 9.973312e-01 2.408850e+00 3.024226e+00 2.539392e-01
<GCONST> 8.806637e+01
<STATE> 3
<MEAN> 25
 4.429198e+00 -7.635616e+00 -7.668820e+00 -2.319193e+00 -2.388842e+00 -3.273446e+00 4.635272e+00 1.345631e+01 7.782513e+00 -1.681916e+00 -1.910940e+00 -1.628367e+00 -1.299683e+00 -4.193878e-01 -1.262737e+00 -3.219250e-01 -3.040793e-01 -7.103778e-01 -1.354578e+00 -5.316406e-01 -9.999780e-02 4.146489e-02 5.575728e-01 5.274798e-01 -1.211486e+00
<VARIANCE> 25
 4.129891e+00 6.767801e+01 3.347855e+01 1.101165e+01 2.271511e+01 1.982530e+01 1.439006e+01 4.758849e+01 1.842167e+01 2.422211e+01 1.361020e+01 5.189828e+00 1.424388e+00 9.492493e-01 1.468208e+00 1.283174e+00 2.987387e+00 6.792804e-01 1.944703e+00 3.953661e+00 1.802086e+00 1.093539e+00 5.092201e-01 1.143229e+00 6.919207e-01
<GCONST> 8.393874e+01
<STATE> 4
<MEAN> 25
 -3.896814e+00 3.005340e+00 -1.096227e-01 1.268923e-03 1.923517e+00 1.284394e+00 7.118570e-01 2.058152e+00 4.619907e+00 2.166126e+00 -5.447870e-01 2.822374e+00 -1.762211e-01 -8.070011e-02 -7.777068e-02 -4.347489e-02 2.395555e-02 -2.054542e-02 -1.245856e-01 -7.031867e-02 -3.379318e-02 -9.008400e-02 -7.150273e-02 2.796874e-02 -1.242424e-01
<VARIANCE> 25
 1.362388e+01 9.396722e+00 9.103921e+00 8.578223e+00 1.304615e+01 1.237813e+01 6.871108e+00 1.679632e+01 8.492834e+00 1.128169e+01 6.641387e+00 8.869525e+00 1.749206e+00 7.719344e-01 6.406065e-01 6.079168e-01 8.071597e-01 1.041154e+00 9.499313e-01 1.721854e+00 1.001218e+00 9.362081e-01 6.770169e-01 1.140803e+00 1.156267e+00
<GCONST> 7.312584e+01
~t "T_p"
<ENDHMM>
