~o
<STREAMINFO> 1 25
<VECSIZE> 25<NULLD><MFCC_D_N_Z_0><DIAGC>
~h "a"
<BEGINHMM>
<NUMSTATES> 5
<STATE> 2
<MEAN> 25
 -1.352694e+00 5.917491e-01 -9.762066e-02 -3.980739e-01 6.042972e-01 6.803206e-01 -5.964372e-01 -5.528204e-01 6.798558e-01 2.649099e-01 -9.217739e-02 7.265147e-01 1.540620e-01 -8.697854e-03 6.392404e-02 -9.810304e-03 1.041049e-02 -3.844588e-02 7.898506e-02 3.436244e-02 3.473548e-03 -2.071197e-02 4.450780e-03 -2.027212e-02 1.928824e-01
<VARIANCE> 25
 9.091714e+01 4.469523e+01 2.312893e+01 3.523863e+01 3.350668e+01 3.185384e+01 2.568402e+01 2.584237e+01 4.283260e+01 2.660649e+01 2.137752e+01 1.880774e+01 1.938571e+00 1.593833e+00 8.142517e-01 1.296518e+00 1.457738e+00 1.402587e+00 1.815901e+00 1.589756e+00 1.598638e+00 1.452165e+00 1.164538e+00 1.113124e+00 2.150783e+00
<GCONST> 9.229100e+01
<STATE> 3
<MEAN> 25
 -7.284473e-01 4.076174e-01 1.204549e-01 -3.644564e-01 6.207848e-01 4.553621e-01 -3.312331e-01 -4.103116e-01 5.793898e-01 1.564372e-01 3.524710e-03 6.000143e-01 1.033685e-01 -3.400114e-02 3.472788e-02 7.099875e-03 1.115308e-03 -3.964249e-02 4.289564e-02 2.407203e-02 -1.905313e-02 -1.861374e-02 1.725177e-02 -2.196313e-02 1.318855e-01
<VARIANCE> 25
 8.572362e+01 4.694421e+01 2.269651e+01 3.786012e+01 3.540701e+01 3.213366e+01 2.478648e+01 2.553368e+01 4.396430e+01 2.731402e+01 2.168740e+01 1.949321e+01 1.745009e+00 1.655934e+00 7.937396e-01 1.368778e+00 1.556668e+00 1.458466e+00 1.760493e+00 1.618432e+00 1.642537e+00 1.488983e+00 1.170228e+00 1.148142e+00 1.889235e+00
<GCONST> 9.246470e+01
<STATE> 4
<MEAN> 25
 1.906682e+00 -1.156617e+00 9.630403e-01 6.019086e-01 9.363428e-01 -6.201581e-01 9.236279e-02 -1.740145e-02 -5.459990e-01 -6.477361e-01 9.244299e-01 -2.790117e-01 1.013756e-01 -6.382991e-02 3.130425e-02 3.879015e-02 7.458076e-03 -4.222332e-02 2.178442e-02 1.670061e-02 -4.589947e-02 -3.283669e-02 3.445574e-02 -3.372971e-02 1.284244e-01
<VARIANCE> 25
 9.913483e+01 5.909659e+01 3.092440e+01 5.633190e+01 4.985382e+01 3.954037e+01 2.966576e+01 2.741770e+01 5.399146e+01 3.197567e+01 2.377514e+01 2.338601e+01 2.167976e+00 1.926981e+00 9.977532e-01 1.858950e+00 2.162852e+00 1.881817e+00 1.926147e+00 1.831910e+00 2.078740e+00 1.788732e+00 1.326227e+00 1.305893e+00 2.278967e+00
<GCONST> 9.754585e+01
<TRANSP> 5
 0.000000e+00 1.000000e+00 0.000000e+00 0.000000e+00 0.000000e+00
 0.000000e+00 8.279717e-01 1.720283e-01 0.000000e+00 0.000000e+00
 0.000000e+00 0.000000e+00 8.279717e-01 1.720283e-01 0.000000e+00
 0.000000e+00 0.000000e+00 0.000000e+00 9.640840e-01 3.591605e-02
 0.000000e+00 0.000000e+00 0.000000e+00 0.000000e+00 0.000000e+00
<ENDHMM>
~h "i"
<BEGINHMM>
<NUMSTATES> 5
<STATE> 2
<MEAN> 25
 3.251648e+00 -3.421560e+00 1.977666e+00 1.780983e+00 8.850186e-01 -2.037024e+00 6.658967e-01 1.366074e+00 -6.840596e-01 -1.490196e+00 1.137902e+00 -8.132187e-01 -3.579165e-02 -8.849550e-03 -2.433615e-03 -3.386623e-03 -7.372728e-03 -7.483745e-04 -1.252679e-02 -4.746160e-03 1.310782e-02 3.634413e-03 -1.076440e-02 9.506823e-03 -2.860884e-02
<VARIANCE> 25
 9.050033e+01 7.851218e+01 5.647838e+01 7.009966e+01 5.359673e+01 5.492627e+01 3.659746e+01 3.557878e+01 6.259607e+01 3.430503e+01 2.197658e+01 2.646690e+01 1.930527e+00 1.853560e+00 1.461000e+00 2.139414e+00 1.799937e+00 2.097791e+00 1.813843e+00 1.697779e+00 2.690275e+00 1.670356e+00 1.276219e+00 1.450494e+00 1.598031e+00
<GCONST> 9.975161e+01
<STATE> 3
<MEAN> 25
 3.015638e+00 -3.435918e+00 1.929520e+00 1.731611e+00 8.214719e-01 -2.019046e+00 5.871840e-01 1.323657e+00 -6.068867e-01 -1.456303e+00 1.057720e+00 -7.479999e-01 -4.371566e-02 2.523487e-03 -9.606501e-03 -1.029272e-02 -1.123523e-02 5.814595e-03 -1.410040e-02 -9.789264e-03 1.406325e-02 8.070504e-03 -1.471655e-02 1.217421e-02 -4.381038e-02
<VARIANCE> 25
 9.050683e+01 7.978741e+01 5.657064e+01 6.926291e+01 5.137126e+01 5.469075e+01 3.617072e+01 3.568826e+01 6.297687e+01 3.444693e+01 2.178849e+01 2.649942e+01 1.866268e+00 1.833478e+00 1.445264e+00 2.115395e+00 1.744081e+00 2.048056e+00 1.775491e+00 1.661316e+00 2.655747e+00 1.659182e+00 1.257671e+00 1.435266e+00 1.545663e+00
<GCONST> 9.946127e+01
<STATE> 4
<MEAN> 25
 2.674753e+00 -3.120025e+00 1.416417e+00 1.273174e+00 3.976482e-01 -1.854169e+00 3.712869e-01 1.139861e+00 -6.718286e-01 -1.366798e+00 7.514140e-01 -6.609828e-01 -5.085610e-02 3.706330e-02 -3.288244e-02 -3.629524e-02 -2.535046e-02 2.144926e-02 -8.048635e-03 -1.454319e-02 1.463881e-02 2.016609e-02 -2.243937e-02 1.806619e-02 -7.348977e-02
<VARIANCE> 25
 9.257162e+01 7.871332e+01 5.285341e+01 6.466027e+01 4.693427e+01 5.365220e+01 3.508927e+01 3.629658e+01 6.589761e+01 3.453794e+01 2.127655e+01 2.664865e+01 1.743150e+00 1.759024e+00 1.374489e+00 2.020137e+00 1.585879e+00 1.937764e+00 1.717432e+00 1.564389e+00 2.575807e+00 1.647716e+00 1.213767e+00 1.398234e+00 1.567545e+00
<GCONST> 9.870547e+01
<TRANSP> 5
 0.000000e+00 1.000000e+00 0.000000e+00 0.000000e+00 0.000000e+00
 0.000000e+00 8.284817e-01 1.715183e-01 0.000000e+00 0.000000e+00
 0.000000e+00 0.000000e+00 8.284817e-01 1.715183e-01 0.000000e+00
 0.000000e+00 0.000000e+00 0.000000e+00 9.647783e-01 3.522162e-02
 0.000000e+00 0.000000e+00 0.000000e+00 0.000000e+00 0.000000e+00
<ENDHMM>
~h "l"
<BEGINHMM>
<NUMSTATES> 5
<STATE> 2
<MEAN> 25
 1.824865e+00 -1.834752e-01 1.834419e-01 5.238424e-02 -5.154564e-01 -1.337294e-01 1.229937e+00 2.786421e-01 -3.094968e-01 -1.087471e-01 1.506425e-01 -2.366554e-01 6.721772e-02 1.752655e-02 3.889031e-02 -8.976383e-03 -1.863351e-02 -2.457078e-02 4.797355e-02 2.540682e-02 1.596561e-02 -7.204022e-03 -1.209219e-02 -1.475469e-03 7.089692e-02
<VARIANCE> 25
 1.077104e+02 3.378821e+01 1.868528e+01 4.432574e+01 4.268682e+01 3.790482e+01 2.267210e+01 2.805680e+01 7.269926e+01 2.529240e+01 1.547726e+01 2.537190e+01 2.484930e+00 1.462526e+00 8.588414e-01 1.882889e+00 1.795915e+00 2.246507e+00 1.466466e+00 1.580320e+00 2.753304e+00 1.674783e+00 1.062174e+00 1.626979e+00 2.578222e+00
<GCONST> 9.522903e+01
<STATE> 3
<MEAN> 25
 2.112904e+00 -1.439940e-01 3.349428e-01 4.820042e-02 -6.409330e-01 -2.452941e-01 1.398291e+00 3.644011e-01 -3.333740e-01 -1.671738e-01 1.335667e-01 -2.354109e-01 4.780545e-02 5.490274e-03 2.424454e-02 1.195822e-03 -2.031850e-02 -1.832497e-02 2.573802e-02 1.384142e-02 -7.045935e-03 -1.080802e-02 -1.633166e-03 -3.673475e-04 4.107087e-02
<VARIANCE> 25
 1.052753e+02 3.390702e+01 1.771982e+01 4.348996e+01 4.256763e+01 3.895833e+01 2.111140e+01 2.843482e+01 7.372847e+01 2.604965e+01 1.508883e+01 2.443920e+01 2.400080e+00 1.495057e+00 8.259151e-01 1.866454e+00 1.779799e+00 2.275566e+00 1.425510e+00 1.569532e+00 2.805674e+00 1.709074e+00 1.074789e+00 1.593242e+00 2.400977e+00
<GCONST> 9.495172e+01
<STATE> 4
<MEAN> 25
 3.461079e+00 -2.587857e-01 7.315857e-01 2.042537e-01 -1.177179e+00 -6.490698e-01 1.596975e+00 3.313361e-01 -9.118034e-01 -4.168801e-01 3.332600e-01 -2.585520e-01 4.307401e-02 -3.728099e-03 1.245361e-02 4.854289e-03 -2.174219e-02 -2.161074e-02 6.438307e-03 9.774024e-03 -1.919822e-02 -1.196247e-02 5.245312e-03 -2.472890e-03 2.715162e-02
<VARIANCE> 25
 1.147791e+02 3.615030e+01 1.829359e+01 4.335712e+01 4.792473e+01 4.687438e+01 2.279389e+01 3.118787e+01 7.959291e+01 3.015525e+01 1.476728e+01 2.305091e+01 2.620031e+00 1.669396e+00 8.683922e-01 2.037401e+00 1.912203e+00 2.537048e+00 1.634633e+00 1.666325e+00 3.104474e+00 1.875917e+00 1.208326e+00 1.589289e+00 2.492181e+00
<GCONST> 9.680579e+01
<TRANSP> 5
 0.000000e+00 1.000000e+00 0.000000e+00 0.000000e+00 0.000000e+00
 0.000000e+00 8.309593e-01 1.690407e-01 0.000000e+00 0.000000e+00
 0.000000e+00 0.000000e+00 8.309593e-01 1.690407e-01 0.000000e+00
 0.000000e+00 0.000000e+00 0.000000e+00 9.667262e-01 3.327381e-02
 0.000000e+00 0.000000e+00 0.000000e+00 0.000000e+00 0.000000e+00
<ENDHMM>
~h "m"
<BEGINHMM>
<NUMSTATES> 5
<STATE> 2
<MEAN> 25
 3.404505e+00 -2.981846e-01 -5.295409e-01 5.756591e-01 4.476565e-01 3.140659e-01 9.553968e-01 2.568691e-01 -1.497043e+00 -5.637699e-01 7.420825e-01 -8.791253e-01 7.263184e-02 5.717289e-03 2.466935e-02 5.146668e-03 1.233394e-02 -1.087252e-02 3.425920e-02 1.868179e-02 -2.367628e-03 -1.362355e-02 -3.185201e-03 -1.830496e-02 7.863531e-02
<VARIANCE> 25
 1.083456e+02 3.982148e+01 2.828209e+01 5.576155e+01 6.195021e+01 4.394623e+01 3.507596e+01 3.143909e+01 6.317424e+01 3.518068e+01 2.028259e+01 3.362162e+01 1.780558e+00 1.506241e+00 1.203238e+00 1.901956e+00 1.880858e+00 2.061478e+00 2.085829e+00 1.606693e+00 2.565030e+00 1.925789e+00 1.276469e+00 1.612047e+00 1.998788e+00
<GCONST> 9.821654e+01
<STATE> 3
<MEAN> 25
 3.669196e+00 -2.947840e-01 -4.417234e-01 6.331356e-01 5.016285e-01 2.707907e-01 1.066748e+00 3.438907e-01 -1.539760e+00 -6.286014e-01 7.337976e-01 -9.864317e-01 3.986802e-02 8.186735e-04 1.480679e-02 9.133031e-03 8.528179e-03 -6.844275e-03 1.707806e-02 1.373355e-02 -6.285810e-03 -1.011596e-02 -2.011537e-03 -1.743501e-02 4.216320e-02
<VARIANCE> 25
 1.024982e+02 4.033345e+01 2.863007e+01 5.559838e+01 6.132614e+01 4.449092e+01 3.506234e+01 3.194499e+01 6.396212e+01 3.534645e+01 2.023501e+01 3.439784e+01 1.649325e+00 1.551777e+00 1.207225e+00 1.896248e+00 1.867054e+00 2.096850e+00 2.074868e+00 1.630359e+00 2.573815e+00 1.945197e+00 1.273995e+00 1.653646e+00 1.820537e+00
<GCONST> 9.815458e+01
<STATE> 4
<MEAN> 25
 4.270043e+00 -4.484540e-01 -6.128547e-03 9.684600e-01 6.993384e-01 3.438393e-02 1.000654e+00 4.339240e-01 -1.857816e+00 -8.578035e-01 7.670830e-01 -1.409170e+00 1.633212e-03 -5.869195e-04 1.620460e-02 4.967516e-03 3.972972e-03 -8.198855e-03 -5.471544e-03 2.870868e-03 -6.404193e-04 -2.679458e-03 -3.853837e-03 -9.976046e-03 8.069430e-03
<VARIANCE> 25
 9.789075e+01 4.384289e+01 3.151693e+01 5.451738e+01 5.945355e+01 4.861083e+01 3.890567e+01 3.361010e+01 6.679650e+01 3.651482e+01 2.000610e+01 3.608119e+01 1.669588e+00 1.771806e+00 1.285041e+00 1.965281e+00 1.858277e+00 2.288805e+00 2.192032e+00 1.700788e+00 2.656063e+00 2.007522e+00 1.290680e+00 1.760625e+00 1.830327e+00
<GCONST> 9.916031e+01
<TRANSP> 5
 0.000000e+00 1.000000e+00 0.000000e+00 0.000000e+00 0.000000e+00
 0.000000e+00 8.276390e-01 1.723609e-01 0.000000e+00 0.000000e+00
 0.000000e+00 0.000000e+00 8.276390e-01 1.723610e-01 0.000000e+00
 0.000000e+00 0.000000e+00 0.000000e+00 9.637482e-01 3.625187e-02
 0.000000e+00 0.000000e+00 0.000000e+00 0.000000e+00 0.000000e+00
<ENDHMM>
~h "o"
<BEGINHMM>
<NUMSTATES> 5
<STATE> 2
<MEAN> 25
 5.588406e-01 1.928877e-01 1.411756e+00 3.340921e-01 -2.674488e-01 -1.151483e+00 -8.124700e-01 1.332479e-01 7.170626e-01 -1.620407e-01 -4.787221e-02 1.454898e-02 -7.786013e-02 -1.407359e-03 -2.154411e-02 -2.099880e-02 2.054622e-02 3.890895e-02 2.272800e-02 7.040429e-03 3.200640e-02 2.649067e-02 1.048033e-02 5.421274e-02 -6.069455e-02
<VARIANCE> 25
 9.832329e+01 5.026434e+01 2.307914e+01 2.442176e+01 5.049064e+01 5.200580e+01 2.634951e+01 1.846268e+01 4.834254e+01 3.275391e+01 2.230353e+01 2.978269e+01 1.742236e+00 1.422916e+00 7.354550e-01 1.113442e+00 1.678440e+00 1.791744e+00 1.549467e+00 1.170648e+00 1.908005e+00 1.371758e+00 1.112899e+00 1.201204e+00 1.559951e+00
<GCONST> 9.281493e+01
<STATE> 3
<MEAN> 25
 1.355104e-01 1.725416e-01 1.294227e+00 2.277455e-01 -1.307391e-01 -9.215407e-01 -6.871095e-01 1.654698e-01 8.722087e-01 -2.658752e-02 1.652439e-02 3.104065e-01 -6.767990e-02 -4.502911e-03 -1.996480e-02 -1.673887e-02 2.476493e-02 4.069107e-02 2.217732e-02 5.835273e-03 2.299663e-02 2.047359e-02 1.128560e-02 4.750859e-02 -5.165851e-02
<VARIANCE> 25
 9.542609e+01 5.025821e+01 2.304657e+01 2.456896e+01 4.813728e+01 4.954458e+01 2.474189e+01 1.914688e+01 4.747442e+01 3.161782e+01 2.252531e+01 2.761022e+01 1.733178e+00 1.384338e+00 7.078545e-01 1.095489e+00 1.622794e+00 1.702516e+00 1.502347e+00 1.167860e+00 1.883157e+00 1.319407e+00 1.105847e+00 1.158219e+00 1.517342e+00
<GCONST> 9.221966e+01
<STATE> 4
<MEAN> 25
 -7.188038e-01 4.530081e-02 1.036250e+00 5.714490e-02 2.729441e-01 -3.485888e-01 -3.978149e-01 2.221452e-01 1.071449e+00 1.749290e-01 1.755909e-01 9.166712e-01 -4.239158e-02 -7.310675e-03 -1.775912e-02 -9.513849e-03 2.518566e-02 3.883461e-02 1.894826e-02 1.691374e-03 4.203518e-03 6.757778e-03 6.788182e-03 3.034630e-02 -3.272381e-02
<VARIANCE> 25
 8.764160e+01 5.187793e+01 2.312992e+01 2.510531e+01 4.122102e+01 4.260709e+01 2.216514e+01 2.155879e+01 4.739405e+01 2.997059e+01 2.270637e+01 2.239003e+01 1.700394e+00 1.332923e+00 6.687811e-01 1.081981e+00 1.469973e+00 1.490824e+00 1.439252e+00 1.186966e+00 1.865910e+00 1.254018e+00 1.113829e+00 1.081866e+00 1.426460e+00
<GCONST> 9.107015e+01
<TRANSP> 5
 0.000000e+00 1.000000e+00 0.000000e+00 0.000000e+00 0.000000e+00
 0.000000e+00 8.239940e-01 1.760059e-01 0.000000e+00 0.000000e+00
 0.000000e+00 0.000000e+00 8.239942e-01 1.760059e-01 0.000000e+00
 0.000000e+00 0.000000e+00 0.000000e+00 9.588152e-01 4.118487e-02
 0.000000e+00 0.000000e+00 0.000000e+00 0.000000e+00 0.000000e+00
<ENDHMM>
~h "p"
<BEGINHMM>
<NUMSTATES> 5
<STATE> 2
<MEAN> 25
 2.213649e+00 1.812029e-01 4.510825e-01 -4.555919e-01 -1.514374e+00 -1.316489e+00 1.321056e+00 1.686221e+00 2.630911e-02 -5.366405e-01 5.860505e-02 4.035434e-02 -8.372268e-02 2.639845e-02 -1.200153e-02 -2.421134e-02 1.725527e-02 1.752293e-02 -2.433841e-02 -1.811775e-03 4.386721e-02 1.305690e-02 -1.479947e-02 1.713868e-02 -7.965508e-02
<VARIANCE> 25
 1.045307e+02 3.560333e+01 2.214044e+01 3.439873e+01 4.306427e+01 3.908723e+01 2.717111e+01 3.077463e+01 6.949007e+01 2.887782e+01 1.503753e+01 1.999944e+01 2.279645e+00 1.437356e+00 9.615945e-01 1.792178e+00 1.728207e+00 2.203119e+00 1.760574e+00 1.668683e+00 2.900941e+00 1.748055e+00 1.099634e+00 1.392835e+00 2.249259e+00
<GCONST> 9.527830e+01
<STATE> 3
<MEAN> 25
 1.690059e+00 3.423247e-01 3.745290e-01 -6.048241e-01 -1.397791e+00 -1.197708e+00 1.168149e+00 1.666262e+00 2.928801e-01 -4.558778e-01 -3.195900e-02 1.412330e-01 -8.969992e-02 2.806873e-02 -1.115291e-02 -2.308813e-02 2.204619e-02 2.224726e-02 -2.755288e-02 -8.148365e-03 4.366937e-02 1.521562e-02 -1.580987e-02 1.606249e-02 -8.394890e-02
<VARIANCE> 25
 1.017411e+02 3.441019e+01 2.195259e+01 3.273055e+01 4.135137e+01 3.674623e+01 2.697255e+01 2.990065e+01 6.581812e+01 2.771227e+01 1.521881e+01 1.956596e+01 2.183383e+00 1.353238e+00 9.522879e-01 1.680676e+00 1.644474e+00 2.093689e+00 1.717732e+00 1.622547e+00 2.797805e+00 1.681249e+00 1.071778e+00 1.360717e+00 2.173396e+00
<GCONST> 9.442588e+01
<STATE> 4
<MEAN> 25
 6.987929e-01 5.218067e-01 1.294849e-01 -1.062519e+00 -1.146827e+00 -9.215762e-01 8.470088e-01 1.693218e+00 7.442250e-01 -3.709958e-01 -1.320708e-01 2.207702e-01 -8.741026e-02 2.736772e-02 -1.101836e-02 -2.059274e-02 2.462008e-02 2.950927e-02 -3.178303e-02 -2.433191e-02 3.418054e-02 1.614072e-02 -1.690670e-02 1.025678e-02 -8.099219e-02
<VARIANCE> 25
 9.425637e+01 3.243251e+01 2.234010e+01 3.047907e+01 3.721120e+01 3.007710e+01 2.661137e+01 2.801307e+01 5.835701e+01 2.534681e+01 1.649879e+01 1.949016e+01 2.054600e+00 1.196613e+00 9.444902e-01 1.441635e+00 1.434635e+00 1.801883e+00 1.615782e+00 1.502548e+00 2.644520e+00 1.542162e+00 1.018506e+00 1.314331e+00 2.124490e+00
<GCONST> 9.269817e+01
<TRANSP> 5
 0.000000e+00 1.000000e+00 0.000000e+00 0.000000e+00 0.000000e+00
 0.000000e+00 8.309532e-01 1.690468e-01 0.000000e+00 0.000000e+00
 0.000000e+00 0.000000e+00 8.309534e-01 1.690467e-01 0.000000e+00
 0.000000e+00 0.000000e+00 0.000000e+00 9.667006e-01 3.329938e-02
 0.000000e+00 0.000000e+00 0.000000e+00 0.000000e+00 0.000000e+00
<ENDHMM>
~h "r"
<BEGINHMM>
<NUMSTATES> 5
<STATE> 2
<MEAN> 25
 -6.543283e-01 6.082697e-01 -5.376963e-02 -1.268067e+00 -5.086871e-01 -2.016711e-01 -5.667355e-02 5.655485e-01 1.213184e+00 3.492016e-01 -4.016753e-01 8.410476e-01 -3.277890e-02 2.047808e-02 4.109383e-03 1.774143e-03 4.860147e-03 1.524932e-02 -6.783370e-03 -1.693370e-02 1.002958e-02 9.359934e-03 -6.054957e-03 7.325170e-03 -3.527191e-02
<VARIANCE> 25
 8.104031e+01 3.241129e+01 1.596119e+01 2.295593e+01 2.477968e+01 3.485732e+01 2.146874e+01 5.187143e+01 6.314104e+01 2.494101e+01 2.042722e+01 1.684570e+01 1.276574e+00 1.068611e+00 7.045212e-01 1.070294e+00 1.096117e+00 1.323951e+00 1.320690e+00 1.546919e+00 2.051878e+00 1.186335e+00 1.153341e+00 9.396416e-01 1.383169e+00
<GCONST> 8.911308e+01
<STATE> 3
<MEAN> 25
 -8.475115e-01 7.340264e-01 -3.120895e-02 -1.253423e+00 -4.757664e-01 -1.058044e-01 -9.765756e-02 4.625422e-01 1.272888e+00 4.057261e-01 -4.407333e-01 8.831404e-01 -3.038574e-02 2.010673e-02 2.697878e-03 1.685047e-03 5.566449e-03 1.570541e-02 -6.378755e-03 -1.642851e-02 9.614760e-03 9.313460e-03 -6.582229e-03 6.138850e-03 -3.349406e-02
<VARIANCE> 25
 7.944681e+01 3.166782e+01 1.522843e+01 2.270787e+01 2.417335e+01 3.398132e+01 2.103642e+01 5.132598e+01 6.212782e+01 2.453717e+01 2.014848e+01 1.650653e+01 1.261690e+00 1.049413e+00 6.849442e-01 1.065806e+00 1.080903e+00 1.308773e+00 1.300288e+00 1.522821e+00 2.036803e+00 1.168638e+00 1.152279e+00 9.336383e-01 1.371695e+00
<GCONST> 8.870734e+01
<STATE> 4
<MEAN> 25
 -8.731118e-01 9.017396e-01 -4.334357e-02 -1.165981e+00 -4.359491e-01 7.721983e-02 -7.087068e-02 3.796086e-01 1.241125e+00 3.846880e-01 -4.754125e-01 8.190967e-01 -3.104545e-02 2.305103e-02 -1.855072e-03 6.392595e-03 1.014575e-02 2.232190e-02 -3.268464e-03 -2.018624e-02 6.501161e-03 1.187025e-02 -7.770440e-03 4.246978e-03 -3.786475e-02
<VARIANCE> 25
 7.856319e+01 3.041620e+01 1.465622e+01 2.475118e+01 2.547797e+01 3.287326e+01 2.203148e+01 5.143804e+01 6.216120e+01 2.459389e+01 1.983965e+01 1.652545e+01 1.257296e+00 1.017855e+00 6.712096e-01 1.122705e+00 1.100940e+00 1.349530e+00 1.321589e+00 1.521078e+00 2.035462e+00 1.173147e+00 1.165130e+00 9.376293e-01 1.387141e+00
<GCONST> 8.885168e+01
<TRANSP> 5
 0.000000e+00 1.000000e+00 0.000000e+00 0.000000e+00 0.000000e+00
 0.000000e+00 8.309166e-01 1.690834e-01 0.000000e+00 0.000000e+00
 0.000000e+00 0.000000e+00 8.309164e-01 1.690836e-01 0.000000e+00
 0.000000e+00 0.000000e+00 0.000000e+00 9.676237e-01 3.237624e-02
 0.000000e+00 0.000000e+00 0.000000e+00 0.000000e+00 0.000000e+00
<ENDHMM>
~h "t"
<BEGINHMM>
<NUMSTATES> 5
<STATE> 2
<MEAN> 25
 3.169471e+00 -2.100467e-01 8.831280e-01 4.292761e-01 2.242757e-02 -9.853113e-01 -1.205107e-01 1.878809e-01 -1.537439e+00 -1.217567e+00 7.257759e-02 -1.869025e+00 2.346828e-02 -8.259483e-03 1.364760e-02 -3.759009e-03 -1.488264e-02 -2.912832e-02 -1.805510e-02 2.656209e-03 -3.787356e-03 -1.961790e-02 -4.734223e-03 -7.228801e-03 2.743940e-02
<VARIANCE> 25
 9.879185e+01 4.953559e+01 2.798394e+01 4.070162e+01 4.928185e+01 4.606999e+01 4.924130e+01 2.683917e+01 6.389032e+01 3.689741e+01 2.008633e+01 3.541717e+01 2.178742e+00 2.311934e+00 1.292388e+00 1.641307e+00 1.567635e+00 2.251958e+00 2.296858e+00 1.572790e+00 2.800640e+00 1.932893e+00 1.404069e+00 1.692871e+00 2.876161e+00
<GCONST> 9.925308e+01
<STATE> 3
<MEAN> 25
 3.264915e+00 -2.489724e-01 9.422105e-01 3.812297e-01 -8.796658e-02 -1.153947e+00 -2.165064e-01 2.101094e-01 -1.524916e+00 -1.310696e+00 3.859676e-02 -1.877270e+00 1.098707e-02 -5.865090e-03 1.001087e-02 -8.520475e-03 -1.841263e-02 -2.761534e-02 -1.623964e-02 3.181608e-03 5.323668e-03 -1.332906e-02 -6.530096e-03 1.568614e-03 1.589761e-02
<VARIANCE> 25
 9.961179e+01 4.936978e+01 2.801800e+01 4.046980e+01 5.071313e+01 4.654197e+01 4.913770e+01 2.641587e+01 6.319600e+01 3.688348e+01 2.024178e+01 3.508640e+01 2.163217e+00 2.257926e+00 1.271767e+00 1.627367e+00 1.589254e+00 2.228082e+00 2.258741e+00 1.550376e+00 2.756369e+00 1.912153e+00 1.379014e+00 1.664971e+00 2.860216e+00
<GCONST> 9.911100e+01
<STATE> 4
<MEAN> 25
 3.141418e+00 -2.408872e-01 7.842700e-01 -1.094467e-01 -7.391058e-01 -1.511682e+00 -1.245996e-01 4.989476e-01 -1.156636e+00 -1.301106e+00 -4.850187e-02 -1.577211e+00 -3.538998e-02 1.203151e-02 -5.124830e-03 -2.073254e-02 -2.083805e-02 -4.976412e-03 7.120948e-04 3.574015e-03 3.317327e-02 1.319777e-02 -1.187596e-02 2.708627e-02 -3.306171e-02
<VARIANCE> 25
 1.020880e+02 4.661650e+01 2.791214e+01 3.930974e+01 5.254437e+01 4.520728e+01 4.510355e+01 2.618259e+01 6.048169e+01 3.574910e+01 2.048015e+01 3.327182e+01 2.073241e+00 1.955671e+00 1.181036e+00 1.541420e+00 1.609702e+00 2.022108e+00 2.014562e+00 1.446730e+00 2.580489e+00 1.755128e+00 1.281378e+00 1.550030e+00 2.643184e+00
<GCONST> 9.788278e+01
<TRANSP> 5
 0.000000e+00 1.000000e+00 0.000000e+00 0.000000e+00 0.000000e+00
 0.000000e+00 8.264084e-01 1.735916e-01 0.000000e+00 0.000000e+00
 0.000000e+00 0.000000e+00 8.264087e-01 1.735913e-01 0.000000e+00
 0.000000e+00 0.000000e+00 0.000000e+00 9.622254e-01 3.777460e-02
 0.000000e+00 0.000000e+00 0.000000e+00 0.000000e+00 0.000000e+00
<ENDHMM>
~h "ai"
<BEGINHMM>
<NUMSTATES> 5
<STATE> 2
<MEAN> 25
 1.238535e+00 -4.666116e-01 -2.279382e-01 -1.044341e-01 7.703871e-01 -3.055637e-01 -1.979471e-01 5.210786e-01 2.853182e-02 -2.802285e-01 -1.928786e-01 1.226607e-01 -8.279511e-02 3.964235e-02 1.528822e-04 -2.510166e-02 -1.751344e-02 1.610314e-02 -7.981915e-03 -2.590599e-02 3.400527e-02 2.686312e-02 -2.102322e-02 2.922855e-02 -8.271122e-02
<VARIANCE> 25
 9.206438e+01 3.955875e+01 3.163991e+01 4.063435e+01 3.723701e+01 4.804557e+01 3.222809e+01 3.460190e+01 5.149052e+01 2.970336e+01 2.143122e+01 2.626860e+01 1.129559e+00 1.231393e+00 1.066074e+00 1.397972e+00 1.297382e+00 1.867004e+00 1.701909e+00 1.534338e+00 1.890662e+00 1.437423e+00 1.124597e+00 1.098025e+00 1.261274e+00
<GCONST> 9.349466e+01
<STATE> 3
<MEAN> 25
 7.575823e-01 -2.314328e-01 -2.271384e-01 -2.534435e-01 6.605302e-01 -2.101076e-01 -2.386322e-01 3.724426e-01 2.269964e-01 -1.238502e-01 -3.138139e-01 2.925345e-01 -7.823719e-02 3.945832e-02 1.693288e-03 -2.328335e-02 -1.754996e-02 1.595102e-02 -7.204160e-03 -2.525298e-02 3.224335e-02 2.562195e-02 -1.942583e-02 2.707739e-02 -7.866023e-02
<VARIANCE> 25
 9.035997e+01 3.849100e+01 2.976854e+01 3.775945e+01 3.431327e+01 4.565371e+01 3.044082e+01 3.365610e+01 5.060252e+01 2.903050e+01 2.076630e+01 2.495727e+01 1.116484e+00 1.176756e+00 1.009030e+00 1.327584e+00 1.231715e+00 1.770968e+00 1.635913e+00 1.481521e+00 1.835488e+00 1.393047e+00 1.101730e+00 1.058178e+00 1.258982e+00
<GCONST> 9.251031e+01
<STATE> 4
<MEAN> 25
 2.420838e-01 3.032311e-02 -1.989271e-01 -6.333682e-01 2.088005e-01 -2.579353e-01 -1.868998e-01 2.676581e-01 4.152953e-01 -2.734207e-02 -4.417024e-01 4.824510e-01 -6.498872e-02 3.580707e-02 2.298551e-03 -2.090813e-02 -2.057568e-02 1.578079e-02 1.339838e-04 -1.846009e-02 2.781305e-02 2.077402e-02 -1.469705e-02 2.234105e-02 -6.602255e-02
<VARIANCE> 25
 8.883934e+01 3.651706e+01 2.663896e+01 3.273216e+01 3.012242e+01 4.150080e+01 2.760562e+01 3.314643e+01 5.319867e+01 2.854856e+01 2.017926e+01 2.247766e+01 1.243704e+00 1.122077e+00 9.292378e-01 1.233127e+00 1.137766e+00 1.621935e+00 1.542616e+00 1.413670e+00 1.891796e+00 1.360372e+00 1.105540e+00 1.007426e+00 1.462895e+00
<GCONST> 9.149026e+01
<TRANSP> 5
 0.000000e+00 1.000000e+00 0.000000e+00 0.000000e+00 0.000000e+00
 0.000000e+00 8.298643e-01 1.701356e-01 0.000000e+00 0.000000e+00
 0.000000e+00 0.000000e+00 8.298643e-01 1.701357e-01 0.000000e+00
 0.000000e+00 0.000000e+00 0.000000e+00 9.663700e-01 3.362989e-02
 0.000000e+00 0.000000e+00 0.000000e+00 0.000000e+00 0.000000e+00
<ENDHMM>
~h "am"
<BEGINHMM>
<NUMSTATES> 5
<STATE> 2
<MEAN> 25
 3.627059e+00 -2.729558e-01 7.740834e-01 2.118765e-01 -1.416952e+00 -1.016294e+00 1.629284e+00 7.179387e-01 -9.994175e-01 -5.844885e-01 3.157903e-01 -3.196125e-01 2.278159e-02 8.985596e-04 4.807116e-03 -4.670136e-04 -1.669396e-02 -1.883621e-02 1.816461e-03 1.644240e-02 -6.665201e-03 -9.147530e-03 1.835153e-03 4.217727e-04 7.138610e-03
<VARIANCE> 25
 1.149416e+02 3.735818e+01 1.913977e+01 4.192620e+01 4.760924e+01 4.712941e+01 2.422063e+01 3.227379e+01 7.991920e+01 3.111395e+01 1.434664e+01 2.196942e+01 2.604026e+00 1.698748e+00 8.809081e-01 2.136266e+00 1.917983e+00 2.518233e+00 1.704774e+00 1.715627e+00 3.156785e+00 1.895768e+00 1.195518e+00 1.534184e+00 2.472095e+00
<GCONST> 9.701689e+01
<STATE> 3
<MEAN> 25
 3.727964e+00 -2.635791e-01 7.935239e-01 1.974729e-01 -1.514920e+00 -1.133415e+00 1.635501e+00 8.318853e-01 -1.011262e+00 -6.275926e-01 3.218605e-01 -3.115580e-01 9.201627e-03 3.827671e-03 1.794364e-03 -4.580642e-03 -1.469785e-02 -1.720957e-02 -6.469656e-04 1.807687e-02 2.362843e-03 -5.554984e-03 -4.280722e-04 3.390552e-03 -4.102807e-03
<VARIANCE> 25
 1.152730e+02 3.766967e+01 1.956526e+01 4.133223e+01 4.811100e+01 4.758270e+01 2.487308e+01 3.272250e+01 8.006848e+01 3.152827e+01 1.433439e+01 2.169166e+01 2.601242e+00 1.700975e+00 8.989226e-01 2.145580e+00 1.933966e+00 2.532879e+00 1.749201e+00 1.735281e+00 3.172217e+00 1.908306e+00 1.203021e+00 1.522105e+00 2.467917e+00
<GCONST> 9.718192e+01
<STATE> 4
<MEAN> 25
 3.479043e+00 -1.929406e-01 7.946026e-01 1.626474e-02 -1.635343e+00 -1.429839e+00 1.614892e+00 1.369269e+00 -6.831005e-01 -6.016812e-01 3.451540e-01 -1.921584e-01 -4.283956e-02 1.267047e-02 -9.652508e-03 -1.840447e-02 5.493499e-05 -5.067948e-03 -8.887853e-03 2.398844e-02 2.940359e-02 2.655277e-03 -7.459786e-03 1.007030e-02 -4.610644e-02
<VARIANCE> 25
 1.117285e+02 3.786137e+01 2.185561e+01 3.937518e+01 4.842053e+01 4.546760e+01 2.774173e+01 3.181148e+01 7.828349e+01 3.203187e+01 1.507970e+01 2.174814e+01 2.593716e+00 1.659073e+00 9.777753e-01 2.067173e+00 1.922769e+00 2.501946e+00 1.875636e+00 1.721510e+00 3.189985e+00 1.915804e+00 1.210851e+00 1.536359e+00 2.512865e+00
<GCONST> 9.741250e+01
<TRANSP> 5
 0.000000e+00 1.000000e+00 0.000000e+00 0.000000e+00 0.000000e+00
 0.000000e+00 8.309575e-01 1.690426e-01 0.000000e+00 0.000000e+00
 0.000000e+00 0.000000e+00 8.309574e-01 1.690426e-01 0.000000e+00
 0.000000e+00 0.000000e+00 0.000000e+00 9.667181e-01 3.328192e-02
 0.000000e+00 0.000000e+00 0.000000e+00 0.000000e+00 0.000000e+00
<ENDHMM>
~h "ch"
<BEGINHMM>
<NUMSTATES> 5
<STATE> 2
<MEAN> 25
 1.365052e+00 -3.922241e+00 1.862575e+00 1.104751e+00 -8.690925e-01 -2.300233e+00 8.476155e-01 1.161989e+00 -2.556392e-01 -1.277428e+00 7.939445e-01 -3.992212e-01 -1.262973e-02 7.159140e-02 -6.728974e-02 -5.138292e-02 -2.680386e-02 4.322005e-02 -6.251320e-03 -1.592848e-02 -7.913436e-03 2.434313e-02 -2.338018e-02 4.369190e-03 -7.603243e-02
<VARIANCE> 25
 8.700810e+01 1.080321e+02 6.038269e+01 7.214011e+01 3.909478e+01 4.729570e+01 2.888372e+01 3.644707e+01 7.272293e+01 3.611317e+01 1.837290e+01 2.401325e+01 2.027851e+00 1.945521e+00 1.395629e+00 2.195027e+00 1.460854e+00 1.462348e+00 1.354947e+00 1.327854e+00 2.808065e+00 1.639158e+00 1.162307e+00 1.535504e+00 1.667603e+00
<GCONST> 9.837478e+01
<STATE> 3
<MEAN> 25
 1.313297e+00 -3.471893e+00 1.449232e+00 7.801576e-01 -1.029943e+00 -2.038611e+00 8.268627e-01 1.076994e+00 -3.073634e-01 -1.127131e+00 6.562069e-01 -3.735169e-01 -5.665943e-03 7.828158e-02 -7.122999e-02 -5.614446e-02 -2.737275e-02 4.485947e-02 -1.636898e-03 -1.307654e-02 -9.487736e-03 2.472148e-02 -2.373489e-02 3.807582e-03 -7.379603e-02
<VARIANCE> 25
 8.793950e+01 1.054373e+02 5.735176e+01 6.942291e+01 3.880814e+01 4.727343e+01 2.820922e+01 3.688319e+01 7.256470e+01 3.564884e+01 1.828129e+01 2.438610e+01 1.979431e+00 1.887724e+00 1.370058e+00 2.143395e+00 1.413975e+00 1.444120e+00 1.334168e+00 1.302014e+00 2.773609e+00 1.633432e+00 1.153208e+00 1.539286e+00 1.691044e+00
<GCONST> 9.806277e+01
<STATE> 4
<MEAN> 25
 1.766718e+00 -2.127550e+00 1.677294e-01 -2.898681e-01 -1.621017e+00 -1.358049e+00 1.031563e+00 1.082255e+00 -6.871328e-01 -8.071424e-01 2.971440e-01 -4.454791e-01 9.779308e-03 8.218645e-02 -6.510434e-02 -5.489542e-02 -1.823387e-02 4.149275e-02 6.611912e-03 -3.359322e-03 -7.543880e-03 2.348522e-02 -2.191299e-02 3.566365e-04 -5.740403e-02
<VARIANCE> 25
 9.398682e+01 9.116266e+01 4.595232e+01 6.178170e+01 4.130902e+01 4.524143e+01 2.720874e+01 4.139721e+01 7.517504e+01 3.408425e+01 1.867059e+01 2.538014e+01 1.948596e+00 1.758508e+00 1.291836e+00 1.984306e+00 1.351307e+00 1.419300e+00 1.318371e+00 1.305900e+00 2.733241e+00 1.655763e+00 1.145768e+00 1.538146e+00 1.879616e+00
<GCONST> 9.759826e+01
<TRANSP> 5
 0.000000e+00 1.000000e+00 0.000000e+00 0.000000e+00 0.000000e+00
 0.000000e+00 8.270693e-01 1.729307e-01 0.000000e+00 0.000000e+00
 0.000000e+00 0.000000e+00 8.270691e-01 1.729309e-01 0.000000e+00
 0.000000e+00 0.000000e+00 0.000000e+00 9.629998e-01 3.700019e-02
 0.000000e+00 0.000000e+00 0.000000e+00 0.000000e+00 0.000000e+00
<ENDHMM>
~h "eh"
<BEGINHMM>
<NUMSTATES> 5
<STATE> 2
<MEAN> 25
 2.116582e+00 9.138303e-02 8.683406e-01 6.247258e-01 3.789434e-02 -6.226770e-01 -2.230935e-01 -7.368566e-02 -8.238578e-01 -5.702483e-01 -1.278428e-02 -1.276301e+00 3.971441e-02 6.201566e-03 1.943938e-02 -4.181603e-03 3.592161e-03 -1.249421e-02 1.507765e-02 1.384837e-02 -1.295502e-03 -9.739068e-03 -1.576349e-03 -1.327932e-02 4.559839e-02
<VARIANCE> 25
 1.023724e+02 5.013762e+01 2.659919e+01 3.385674e+01 4.590471e+01 4.838852e+01 4.301006e+01 2.525543e+01 6.262768e+01 3.673903e+01 1.892911e+01 3.701091e+01 2.074740e+00 2.106261e+00 1.199495e+00 1.492662e+00 1.560242e+00 2.199331e+00 2.174434e+00 1.483990e+00 2.621521e+00 1.875124e+00 1.344213e+00 1.649845e+00 2.524838e+00
<GCONST> 9.805940e+01
<STATE> 3
<MEAN> 25
 2.261292e+00 9.920868e-02 9.424455e-01 6.191597e-01 5.589307e-02 -6.760500e-01 -1.882421e-01 -1.589376e-02 -8.530303e-01 -6.241459e-01 -9.543737e-03 -1.350662e+00 2.288093e-02 5.361410e-04 1.260603e-02 -7.042428e-04 3.332122e-03 -8.703668e-03 4.973168e-03 9.354773e-03 -4.917807e-03 -9.438998e-03 7.702960e-04 -1.169019e-02 2.677596e-02
<VARIANCE> 25
 9.990656e+01 5.012057e+01 2.620637e+01 3.412982e+01 4.664357e+01 4.873454e+01 4.282639e+01 2.490241e+01 6.245016e+01 3.668726e+01 1.928134e+01 3.689101e+01 2.028055e+00 2.122211e+00 1.184741e+00 1.493680e+00 1.572774e+00 2.209836e+00 2.171765e+00 1.490028e+00 2.622592e+00 1.872122e+00 1.349030e+00 1.653095e+00 2.461366e+00
<GCONST> 9.801112e+01
<STATE> 4
<MEAN> 25
 2.725566e+00 -1.611807e-01 1.068061e+00 5.341170e-01 -7.500025e-02 -1.036737e+00 -2.357841e-01 2.096852e-01 -1.054763e+00 -9.459199e-01 1.125722e-01 -1.530388e+00 3.389154e-03 -5.944086e-03 3.515316e-03 -6.819767e-03 -3.743981e-03 -1.146741e-02 -4.727589e-03 5.920737e-03 2.590436e-04 -8.632133e-03 1.479018e-03 1.902688e-03 9.125791e-03
<VARIANCE> 25
 1.004361e+02 5.106852e+01 2.709115e+01 3.619665e+01 4.927329e+01 4.875321e+01 4.360672e+01 2.525662e+01 6.362377e+01 3.688428e+01 2.067504e+01 3.590694e+01 2.133752e+00 2.126677e+00 1.195784e+00 1.546674e+00 1.607444e+00 2.213880e+00 2.163232e+00 1.490508e+00 2.706086e+00 1.862992e+00 1.356295e+00 1.644939e+00 2.609663e+00
<GCONST> 9.848371e+01
<TRANSP> 5
 0.000000e+00 1.000000e+00 0.000000e+00 0.000000e+00 0.000000e+00
 0.000000e+00 8.256655e-01 1.743345e-01 0.000000e+00 0.000000e+00
 0.000000e+00 0.000000e+00 8.256652e-01 1.743348e-01 0.000000e+00
 0.000000e+00 0.000000e+00 0.000000e+00 9.612384e-01 3.876164e-02
 0.000000e+00 0.000000e+00 0.000000e+00 0.000000e+00 0.000000e+00
<ENDHMM>
~h "eu"
<BEGINHMM>
<NUMSTATES> 5
<STATE> 2
<MEAN> 25
 8.902038e-01 -1.266478e-01 4.392514e-02 -1.762475e+00 -1.550979e+00 -1.202020e+00 2.289317e-01 1.329090e+00 7.324291e-01 -6.058419e-03 -1.795537e-03 2.797326e-01 1.801369e-02 7.522886e-03 6.445533e-03 -2.340729e-02 -5.855318e-05 -1.216922e-03 3.361470e-02 2.756035e-02 2.409302e-02 -2.930859e-03 -4.546205e-05 8.318731e-03 2.765881e-02
<VARIANCE> 25
 9.758140e+01 3.499817e+01 1.354510e+01 1.808983e+01 3.033782e+01 3.779216e+01 2.103037e+01 6.895273e+01 8.658167e+01 2.531191e+01 2.335301e+01 1.758814e+01 1.778147e+00 1.224773e+00 6.967920e-01 9.505146e-01 1.291338e+00 1.302856e+00 1.320812e+00 1.742857e+00 2.485173e+00 1.148919e+00 1.283622e+00 9.302648e-01 1.868820e+00
<GCONST> 9.119067e+01
<STATE> 3
<MEAN> 25
 9.197161e-01 -1.400231e-01 3.800478e-02 -1.857036e+00 -1.558683e+00 -1.209181e+00 3.561143e-01 1.477604e+00 8.223751e-01 -3.540234e-02 3.082736e-02 3.154716e-01 1.203697e-03 -1.925342e-03 -1.079086e-03 -1.209698e-02 1.417124e-03 5.805474e-04 1.817959e-02 2.068767e-02 1.268446e-02 -4.034956e-03 5.593369e-03 5.483684e-03 7.622082e-03
<VARIANCE> 25
 9.367332e+01 3.487104e+01 1.278057e+01 1.750661e+01 2.910387e+01 3.731167e+01 2.030370e+01 7.047901e+01 8.686877e+01 2.491385e+01 2.370952e+01 1.681058e+01 1.682448e+00 1.244623e+00 6.725504e-01 9.684897e-01 1.293751e+00 1.295147e+00 1.306656e+00 1.781402e+00 2.495765e+00 1.171356e+00 1.297394e+00 9.405308e-01 1.743231e+00
<GCONST> 9.087189e+01
<STATE> 4
<MEAN> 25
 1.428084e+00 -5.277879e-01 1.346769e-01 -2.012805e+00 -1.595220e+00 -1.504698e+00 3.544863e-01 2.062521e+00 9.307752e-01 -3.301151e-01 2.610111e-01 2.761913e-01 -1.255576e-02 5.799449e-03 7.796511e-04 6.942787e-03 1.360246e-02 8.719881e-03 -5.271275e-03 3.121462e-03 1.002620e-02 1.582197e-03 2.771616e-03 5.807896e-03 -1.414562e-02
<VARIANCE> 25
 9.317740e+01 3.751884e+01 1.351503e+01 1.992558e+01 2.891075e+01 3.951382e+01 2.213464e+01 8.269510e+01 9.325491e+01 2.572191e+01 2.598927e+01 1.587494e+01 1.713328e+00 1.404492e+00 7.422919e-01 1.121261e+00 1.394416e+00 1.369335e+00 1.445190e+00 2.082088e+00 2.600826e+00 1.295590e+00 1.340633e+00 9.933350e-01 1.761646e+00
<GCONST> 9.257081e+01
<TRANSP> 5
 0.000000e+00 1.000000e+00 0.000000e+00 0.000000e+00 0.000000e+00
 0.000000e+00 8.322292e-01 1.677708e-01 0.000000e+00 0.000000e+00
 0.000000e+00 0.000000e+00 8.322292e-01 1.677707e-01 0.000000e+00
 0.000000e+00 0.000000e+00 0.000000e+00 9.691184e-01 3.088169e-02
 0.000000e+00 0.000000e+00 0.000000e+00 0.000000e+00 0.000000e+00
<ENDHMM>
~h "ff"
<BEGINHMM>
<NUMSTATES> 5
<STATE> 2
<MEAN> 25
 1.482318e+00 -2.877542e+00 2.607348e+00 9.760684e-01 4.505137e-01 -2.240498e+00 1.188603e+00 1.008464e+00 1.005747e-01 -9.051518e-01 1.338669e+00 5.434091e-02 5.365651e-02 -9.484275e-02 6.074447e-02 4.108857e-02 2.229586e-05 -6.505892e-02 2.710124e-02 3.854234e-02 -3.325217e-03 -2.934496e-02 2.762853e-02 -2.021718e-02 1.216621e-01
<VARIANCE> 25
 8.278747e+01 8.877588e+01 5.503943e+01 6.611049e+01 4.010519e+01 3.937524e+01 2.818004e+01 2.744743e+01 5.167697e+01 3.287334e+01 2.068676e+01 1.863184e+01 2.735311e+00 2.117013e+00 1.292869e+00 2.038541e+00 1.915083e+00 1.732584e+00 1.678735e+00 1.742211e+00 2.390970e+00 1.556307e+00 1.257574e+00 1.349891e+00 2.181584e+00
<GCONST> 9.807747e+01
<STATE> 3
<MEAN> 25
 1.777748e+00 -3.442409e+00 2.980101e+00 1.247760e+00 4.707217e-01 -2.607533e+00 1.325042e+00 1.222550e+00 8.088081e-02 -1.089066e+00 1.500498e+00 -6.380486e-02 4.799493e-02 -9.524891e-02 6.297766e-02 4.689775e-02 4.343657e-03 -6.110072e-02 2.159376e-02 3.568570e-02 -2.629903e-03 -3.080952e-02 2.716150e-02 -1.987423e-02 1.158268e-01
<VARIANCE> 25
 8.372730e+01 9.172904e+01 5.789019e+01 7.034625e+01 4.188202e+01 3.995713e+01 2.890953e+01 2.832284e+01 5.421584e+01 3.366686e+01 2.070311e+01 1.874486e+01 2.842310e+00 2.172082e+00 1.365937e+00 2.140589e+00 1.993564e+00 1.784387e+00 1.680761e+00 1.770635e+00 2.522242e+00 1.596807e+00 1.280040e+00 1.380742e+00 2.228745e+00
<GCONST> 9.882343e+01
<STATE> 4
<MEAN> 25
 2.326987e+00 -5.258485e+00 4.085370e+00 2.377763e+00 5.271542e-01 -3.504719e+00 1.321854e+00 1.553278e+00 -1.062225e-01 -1.837553e+00 1.839620e+00 -4.525394e-01 1.009938e-02 -6.177111e-02 2.711675e-02 3.457546e-02 -7.757584e-03 -2.726994e-02 -2.238123e-03 1.277256e-02 -4.130692e-03 -2.330270e-02 4.128893e-03 -1.298761e-02 4.181977e-02
<VARIANCE> 25
 8.420081e+01 1.028703e+02 6.491094e+01 8.031374e+01 4.393978e+01 4.246746e+01 3.044298e+01 3.007610e+01 6.571649e+01 3.648262e+01 1.951378e+01 1.984469e+01 2.834336e+00 2.261386e+00 1.540475e+00 2.385247e+00 1.958259e+00 1.815118e+00 1.612529e+00 1.685056e+00 2.936697e+00 1.720138e+00 1.294135e+00 1.467873e+00 2.073589e+00
<GCONST> 1.000826e+02
<TRANSP> 5
 0.000000e+00 1.000000e+00 0.000000e+00 0.000000e+00 0.000000e+00
 0.000000e+00 8.270731e-01 1.729269e-01 0.000000e+00 0.000000e+00
 0.000000e+00 0.000000e+00 8.270730e-01 1.729270e-01 0.000000e+00
 0.000000e+00 0.000000e+00 0.000000e+00 9.630151e-01 3.698489e-02
 0.000000e+00 0.000000e+00 0.000000e+00 0.000000e+00 0.000000e+00
<ENDHMM>
~h "la"
<BEGINHMM>
<NUMSTATES> 5
<STATE> 2
<MEAN> 25
 9.106566e-01 1.110560e-01 -6.042056e-01 -9.628308e-01 -1.139922e+00 -7.503711e-02 1.447706e+00 7.653785e-01 -2.513039e-01 -1.161792e-01 -3.544727e-02 -3.089655e-02 -2.519780e-02 3.780552e-02 -3.847908e-03 -1.738869e-02 1.376897e-03 2.170504e-02 3.175383e-03 -6.555052e-03 2.600191e-02 2.214391e-02 -1.506023e-02 1.063509e-02 -3.385864e-02
<VARIANCE> 25
 9.395844e+01 4.170827e+01 2.708343e+01 4.211251e+01 4.143330e+01 3.171174e+01 2.549916e+01 3.443871e+01 6.292066e+01 2.740815e+01 1.722928e+01 2.490735e+01 1.489733e+00 1.095802e+00 9.852110e-01 1.497810e+00 1.291909e+00 1.222578e+00 1.433460e+00 1.267084e+00 2.368070e+00 1.414679e+00 9.948986e-01 1.413009e+00 1.579541e+00
<GCONST> 9.267263e+01
<STATE> 3
<MEAN> 25
 7.254412e-01 3.126174e-01 -6.357199e-01 -1.042359e+00 -1.119991e+00 5.419543e-02 1.435044e+00 7.192174e-01 -1.071709e-01 1.562111e-02 -1.134582e-01 3.054239e-02 -3.016983e-02 3.300054e-02 -3.942182e-03 -1.073022e-02 5.422751e-03 2.241248e-02 -3.055021e-03 -8.508548e-03 2.289133e-02 2.159799e-02 -1.240791e-02 9.547890e-03 -3.860026e-02
<VARIANCE> 25
 9.197224e+01 3.974191e+01 2.561374e+01 4.075815e+01 4.121427e+01 3.110584e+01 2.465859e+01 3.404464e+01 6.205398e+01 2.649023e+01 1.719991e+01 2.466407e+01 1.415721e+00 1.051502e+00 9.589199e-01 1.445766e+00 1.253476e+00 1.216783e+00 1.395525e+00 1.243266e+00 2.326762e+00 1.384275e+00 9.876702e-01 1.392787e+00 1.481157e+00
<GCONST> 9.202468e+01
<STATE> 4
<MEAN> 25
 2.664635e-01 6.969844e-01 -6.628044e-01 -1.057264e+00 -9.577129e-01 3.155152e-01 1.302771e+00 5.751495e-01 2.321994e-01 3.183556e-01 -3.264167e-01 9.663918e-02 -2.446202e-02 2.176278e-02 4.011560e-03 5.625952e-03 1.954025e-02 1.879674e-02 -1.293754e-02 -1.293311e-02 1.809064e-02 1.524670e-02 -1.011222e-02 2.425198e-03 -2.920723e-02
<VARIANCE> 25
 8.824083e+01 3.490797e+01 2.244650e+01 3.773301e+01 4.076297e+01 2.991011e+01 2.366503e+01 3.343599e+01 5.917378e+01 2.419926e+01 1.683592e+01 2.332620e+01 1.292148e+00 9.775465e-01 8.942033e-01 1.331643e+00 1.155349e+00 1.237277e+00 1.382105e+00 1.192674e+00 2.205559e+00 1.307691e+00 9.838862e-01 1.311527e+00 1.326660e+00
<GCONST> 9.060305e+01
<TRANSP> 5
 0.000000e+00 1.000000e+00 0.000000e+00 0.000000e+00 0.000000e+00
 0.000000e+00 8.293595e-01 1.706405e-01 0.000000e+00 0.000000e+00
 0.000000e+00 0.000000e+00 8.293597e-01 1.706403e-01 0.000000e+00
 0.000000e+00 0.000000e+00 0.000000e+00 9.657227e-01 3.427726e-02
 0.000000e+00 0.000000e+00 0.000000e+00 0.000000e+00 0.000000e+00
<ENDHMM>
~h "lu"
<BEGINHMM>
<NUMSTATES> 5
<STATE> 2
<MEAN> 25
 3.318784e+00 -4.572798e-01 -2.508933e-01 3.486476e-01 3.113027e-01 1.060901e-01 5.009117e-01 -4.869804e-02 -1.684226e+00 -8.526763e-01 8.349746e-01 -9.157233e-01 1.022566e-01 -1.913438e-02 7.183447e-03 2.821399e-02 1.879442e-02 -1.422613e-02 1.554636e-02 1.139800e-02 -3.681137e-02 -2.598303e-02 1.863514e-02 -2.571619e-02 9.624544e-02
<VARIANCE> 25
 1.061213e+02 3.888321e+01 2.116806e+01 5.946701e+01 6.735161e+01 4.124594e+01 3.185871e+01 2.928445e+01 5.916328e+01 3.057501e+01 2.305624e+01 2.888347e+01 1.802973e+00 1.549496e+00 1.036210e+00 1.910891e+00 2.130400e+00 1.956719e+00 2.030403e+00 1.651551e+00 2.428229e+00 1.811385e+00 1.338636e+00 1.489272e+00 2.122648e+00
<GCONST> 9.745142e+01
<STATE> 3
<MEAN> 25
 3.881927e+00 -5.850454e-01 -2.171813e-01 5.448223e-01 4.334952e-01 3.273122e-02 5.613352e-01 7.804038e-03 -1.919088e+00 -1.009844e+00 9.485931e-01 -1.079619e+00 9.311831e-02 -2.181595e-02 5.170953e-03 3.292126e-02 2.009021e-02 -1.295892e-02 9.588633e-03 1.033378e-02 -3.864274e-02 -2.605213e-02 1.909665e-02 -2.751878e-02 8.590232e-02
<VARIANCE> 25
 1.048353e+02 3.943415e+01 2.213997e+01 6.208199e+01 7.037707e+01 4.288745e+01 3.264699e+01 2.968721e+01 6.006565e+01 3.132729e+01 2.314519e+01 2.966924e+01 1.795906e+00 1.562160e+00 1.062453e+00 1.978223e+00 2.202661e+00 2.034162e+00 2.047203e+00 1.672801e+00 2.501843e+00 1.872877e+00 1.369176e+00 1.522969e+00 2.101983e+00
<GCONST> 9.798786e+01
<STATE> 4
<MEAN> 25
 5.280551e+00 -8.668794e-01 4.317033e-02 1.308408e+00 9.138713e-01 -7.178532e-02 6.705291e-01 1.295497e-01 -2.534389e+00 -1.405943e+00 1.198842e+00 -1.593751e+00 4.770375e-02 -9.159213e-03 6.441563e-03 2.475300e-02 1.543555e-02 -5.564531e-03 6.636484e-03 1.155129e-02 -1.747681e-02 -1.302845e-02 7.891385e-03 -1.637025e-02 4.270705e-02
<VARIANCE> 25
 1.013892e+02 4.046687e+01 2.601189e+01 6.625274e+01 7.555708e+01 4.718592e+01 3.542612e+01 3.136200e+01 6.414525e+01 3.369463e+01 2.241739e+01 3.195536e+01 1.786630e+00 1.555142e+00 1.163944e+00 2.165270e+00 2.270139e+00 2.252702e+00 2.123149e+00 1.707945e+00 2.703057e+00 2.006997e+00 1.385088e+00 1.670213e+00 2.006512e+00
<GCONST> 9.925567e+01
<TRANSP> 5
 0.000000e+00 1.000000e+00 0.000000e+00 0.000000e+00 0.000000e+00
 0.000000e+00 8.292422e-01 1.707578e-01 0.000000e+00 0.000000e+00
 0.000000e+00 0.000000e+00 8.292421e-01 1.707579e-01 0.000000e+00
 0.000000e+00 0.000000e+00 0.000000e+00 9.656102e-01 3.438978e-02
 0.000000e+00 0.000000e+00 0.000000e+00 0.000000e+00 0.000000e+00
<ENDHMM>
~h "ein"
<BEGINHMM>
<NUMSTATES> 5
<STATE> 2
<MEAN> 25
 2.842325e-01 3.948159e-01 -5.262598e-01 -1.775226e+00 -1.121148e+00 -5.993486e-01 1.069946e+00 8.881873e-01 3.758938e-01 -2.052572e-01 -5.434745e-01 1.723812e-01 -2.968473e-02 1.648475e-02 4.906094e-03 2.560661e-03 8.794266e-03 1.966406e-02 -4.045833e-04 -1.930610e-02 1.332116e-02 1.532017e-02 -1.148429e-02 1.385449e-02 -3.060248e-02
<VARIANCE> 25
 9.148512e+01 3.014872e+01 2.297556e+01 3.578013e+01 4.043620e+01 2.711470e+01 3.132430e+01 2.785715e+01 4.746768e+01 2.473462e+01 1.923704e+01 2.097541e+01 1.719421e+00 1.313390e+00 9.196087e-01 1.256287e+00 1.151403e+00 1.212700e+00 1.368562e+00 1.353552e+00 2.206923e+00 1.141151e+00 1.058243e+00 1.218280e+00 2.248355e+00
<GCONST> 9.131795e+01
<STATE> 3
<MEAN> 25
 8.025849e-02 5.060748e-01 -5.045786e-01 -1.759937e+00 -1.071297e+00 -4.662800e-01 1.072122e+00 7.717432e-01 4.680679e-01 -9.977136e-02 -6.157774e-01 2.621017e-01 -3.353122e-02 1.785848e-02 3.283257e-03 3.211453e-03 8.087398e-03 2.237684e-02 5.332232e-04 -2.008932e-02 1.440759e-02 1.879609e-02 -1.072324e-02 1.361677e-02 -3.557373e-02
<VARIANCE> 25
 9.116385e+01 2.926096e+01 2.201941e+01 3.422355e+01 3.977399e+01 2.669820e+01 3.014614e+01 2.742249e+01 4.630671e+01 2.437970e+01 1.879242e+01 2.015495e+01 1.619375e+00 1.217540e+00 8.839662e-01 1.199743e+00 1.123338e+00 1.145098e+00 1.328043e+00 1.305728e+00 2.123202e+00 1.106539e+00 1.015241e+00 1.184354e+00 2.102575e+00
<GCONST> 9.043340e+01
<STATE> 4
<MEAN> 25
 -5.860262e-01 8.359702e-01 -5.701815e-01 -1.715433e+00 -1.117509e+00 -3.682095e-02 1.163436e+00 5.603676e-01 7.611569e-01 2.695590e-01 -7.483166e-01 4.893277e-01 -4.927482e-02 2.118519e-02 4.008410e-03 1.141594e-02 1.517972e-02 3.080533e-02 -3.406923e-03 -2.454591e-02 2.000931e-02 2.675536e-02 -1.060471e-02 1.387782e-02 -5.161344e-02
<VARIANCE> 25
 8.604961e+01 2.578363e+01 1.964582e+01 3.100237e+01 3.678789e+01 2.389005e+01 2.619007e+01 2.620761e+01 4.365674e+01 2.269952e+01 1.750377e+01 1.778512e+01 1.329606e+00 9.329501e-01 7.928080e-01 1.064312e+00 1.023154e+00 9.613798e-01 1.219549e+00 1.114610e+00 1.914238e+00 1.007653e+00 9.499832e-01 1.088958e+00 1.597508e+00
<GCONST> 8.750849e+01
<TRANSP> 5
 0.000000e+00 1.000000e+00 0.000000e+00 0.000000e+00 0.000000e+00
 0.000000e+00 8.283557e-01 1.716444e-01 0.000000e+00 0.000000e+00
 0.000000e+00 0.000000e+00 8.283557e-01 1.716443e-01 0.000000e+00
 0.000000e+00 0.000000e+00 0.000000e+00 9.646140e-01 3.538598e-02
 0.000000e+00 0.000000e+00 0.000000e+00 0.000000e+00 0.000000e+00
<ENDHMM>
~h "sil"
<BEGINHMM>
<NUMSTATES> 5
<STATE> 2
<MEAN> 25
 -1.461822e+01 9.950061e-01 -4.776619e+00 8.393708e-01 1.227878e-01 3.804751e+00 -5.638581e+00 -3.693719e+00 7.234763e-01 2.986697e+00 -6.197103e-01 2.412710e+00 1.790337e-01 5.221564e-02 9.870511e-02 -1.424131e-02 4.455496e-02 -3.884351e-02 1.145137e-01 9.257691e-02 3.948491e-02 -2.870502e-02 -5.417568e-02 4.739607e-03 1.950921e-01
<VARIANCE> 25
 1.055164e+02 1.159683e+01 2.768720e+01 1.036335e+01 6.173216e+00 8.495710e+00 4.018044e+01 1.348747e+01 1.669544e+01 7.928994e+00 8.207785e+00 5.740941e+00 1.025600e+00 2.197797e-01 3.629295e-01 4.913851e-01 4.433002e-01 4.778790e-01 9.095703e-01 7.725729e-01 7.424440e-01 8.091361e-01 6.320552e-01 5.861169e-01 1.197599e+00
<GCONST> 7.126814e+01
<STATE> 3
<MEAN> 25
 -1.225160e+01 1.700485e+00 -3.648969e+00 2.784790e-01 3.464271e-01 3.488884e+00 -4.260212e+00 -3.128261e+00 1.470107e+00 2.884678e+00 -9.941445e-01 2.439808e+00 4.301799e-01 1.243180e-01 2.037272e-01 -1.074573e-01 3.207801e-02 -5.868582e-02 2.493436e-01 1.015592e-01 1.354175e-01 -1.665939e-02 -5.835467e-02 5.320655e-03 4.972530e-01
<VARIANCE> 25
 8.865858e+01 1.061579e+01 2.424595e+01 9.794333e+00 6.357062e+00 8.064322e+00 3.638159e+01 1.205847e+01 1.509979e+01 7.680887e+00 7.894005e+00 5.987947e+00 2.185386e+00 3.464562e-01 5.722687e-01 5.697051e-01 4.710081e-01 5.520225e-01 1.416373e+00 8.201478e-01 8.124845e-01 7.210300e-01 6.855140e-01 6.015366e-01 2.657282e+00
<GCONST> 7.385474e+01
<STATE> 4
<MEAN> 25
 -6.433663e+00 2.702404e+00 -9.692972e-01 -7.605377e-01 7.656626e-01 2.392286e+00 -1.005380e+00 -1.831431e+00 2.558386e+00 2.327513e+00 -1.411193e+00 2.019225e+00 1.987837e-01 2.906292e-02 9.164119e-02 -4.186510e-02 5.421641e-03 -4.414078e-02 1.010162e-01 4.484823e-02 4.842512e-02 -1.265167e-02 2.128955e-03 -1.220363e-02 2.414723e-01
<VARIANCE> 25
 3.629383e+01 1.078159e+01 1.060598e+01 9.532850e+00 9.157388e+00 1.100820e+01 1.622986e+01 1.155791e+01 1.402540e+01 9.793558e+00 8.471376e+00 8.366581e+00 1.156187e+00 5.373059e-01 4.705161e-01 5.938054e-01 5.977818e-01 7.365059e-01 1.211505e+00 9.114609e-01 9.056626e-01 8.096966e-01 7.476817e-01 7.041274e-01 1.438385e+00
<GCONST> 7.250290e+01
<TRANSP> 5
 0.000000e+00 1.000000e+00 0.000000e+00 0.000000e+00 0.000000e+00
 0.000000e+00 8.287564e-01 1.712436e-01 0.000000e+00 0.000000e+00
 0.000000e+00 0.000000e+00 8.287559e-01 1.712441e-01 0.000000e+00
 0.000000e+00 0.000000e+00 0.000000e+00 9.649988e-01 3.500122e-02
 0.000000e+00 0.000000e+00 0.000000e+00 0.000000e+00 0.000000e+00
<ENDHMM>
