~h "a"
<BEGINHMM>
<NUMSTATES> 5
<STATE> 2
<MEAN> 25
 -8.390636e-08 2.051673e-09 7.969690e-08 4.623340e-08 -4.230692e-08 -7.992682e-08 1.259303e-08 3.763759e-08 2.964314e-08 3.961852e-09 9.568580e-09 3.489613e-08 4.393292e-02 1.259483e-02 2.338511e-02 -9.669703e-03 4.142964e-03 -7.841899e-03 2.522888e-02 1.176930e-02 1.451078e-02 -2.016486e-03 -5.010985e-03 -8.989504e-04 5.233088e-02
<VARIANCE> 25
 1.086717e+02 4.408944e+01 2.830351e+01 3.928667e+01 4.007676e+01 3.833020e+01 3.226454e+01 3.081372e+01 5.522676e+01 2.902037e+01 1.853148e+01 2.472725e+01 1.727232e+00 1.379744e+00 9.541185e-01 1.441309e+00 1.402845e+00 1.604629e+00 1.661587e+00 1.408165e+00 2.147006e+00 1.474729e+00 1.123595e+00 1.269005e+00 1.891393e+00
<GCONST> 9.417422e+01
<STATE> 3
<MEAN> 25
 -8.390636e-08 2.051673e-09 7.969690e-08 4.623340e-08 -4.230692e-08 -7.992682e-08 1.259303e-08 3.763759e-08 2.964314e-08 3.961852e-09 9.568580e-09 3.489613e-08 4.393292e-02 1.259483e-02 2.338511e-02 -9.669703e-03 4.142964e-03 -7.841899e-03 2.522888e-02 1.176930e-02 1.451078e-02 -2.016486e-03 -5.010985e-03 -8.989504e-04 5.233088e-02
<VARIANCE> 25
 1.086717e+02 4.408944e+01 2.830351e+01 3.928667e+01 4.007676e+01 3.833020e+01 3.226454e+01 3.081372e+01 5.522676e+01 2.902037e+01 1.853148e+01 2.472725e+01 1.727232e+00 1.379744e+00 9.541185e-01 1.441309e+00 1.402845e+00 1.604629e+00 1.661587e+00 1.408165e+00 2.147006e+00 1.474729e+00 1.123595e+00 1.269005e+00 1.891393e+00
<GCONST> 9.417422e+01
<STATE> 4
<MEAN> 25
 -8.390636e-08 2.051673e-09 7.969690e-08 4.623340e-08 -4.230692e-08 -7.992682e-08 1.259303e-08 3.763759e-08 2.964314e-08 3.961852e-09 9.568580e-09 3.489613e-08 4.393292e-02 1.259483e-02 2.338511e-02 -9.669703e-03 4.142964e-03 -7.841899e-03 2.522888e-02 1.176930e-02 1.451078e-02 -2.016486e-03 -5.010985e-03 -8.989504e-04 5.233088e-02
<VARIANCE> 25
 1.086717e+02 4.408944e+01 2.830351e+01 3.928667e+01 4.007676e+01 3.833020e+01 3.226454e+01 3.081372e+01 5.522676e+01 2.902037e+01 1.853148e+01 2.472725e+01 1.727232e+00 1.379744e+00 9.541185e-01 1.441309e+00 1.402845e+00 1.604629e+00 1.661587e+00 1.408165e+00 2.147006e+00 1.474729e+00 1.123595e+00 1.269005e+00 1.891393e+00
<GCONST> 9.417422e+01
<TRANSP> 5
 0.000000e+00 1.000000e+00 0.000000e+00 0.000000e+00 0.000000e+00
 0.000000e+00 6.000000e-01 4.000000e-01 0.000000e+00 0.000000e+00
 0.000000e+00 0.000000e+00 6.000000e-01 4.000000e-01 0.000000e+00
 0.000000e+00 0.000000e+00 0.000000e+00 7.000000e-01 3.000000e-01
 0.000000e+00 0.000000e+00 0.000000e+00 0.000000e+00 0.000000e+00
<ENDHMM>
~h "ff"
<BEGINHMM>
<NUMSTATES> 5
<STATE> 2
<MEAN> 25
 -8.390636e-08 2.051673e-09 7.969690e-08 4.623340e-08 -4.230692e-08 -7.992682e-08 1.259303e-08 3.763759e-08 2.964314e-08 3.961852e-09 9.568580e-09 3.489613e-08 4.393292e-02 1.259483e-02 2.338511e-02 -9.669703e-03 4.142964e-03 -7.841899e-03 2.522888e-02 1.176930e-02 1.451078e-02 -2.016486e-03 -5.010985e-03 -8.989504e-04 5.233088e-02
<VARIANCE> 25
 1.086717e+02 4.408944e+01 2.830351e+01 3.928667e+01 4.007676e+01 3.833020e+01 3.226454e+01 3.081372e+01 5.522676e+01 2.902037e+01 1.853148e+01 2.472725e+01 1.727232e+00 1.379744e+00 9.541185e-01 1.441309e+00 1.402845e+00 1.604629e+00 1.661587e+00 1.408165e+00 2.147006e+00 1.474729e+00 1.123595e+00 1.269005e+00 1.891393e+00
<GCONST> 9.417422e+01
<STATE> 3
<MEAN> 25
 -8.390636e-08 2.051673e-09 7.969690e-08 4.623340e-08 -4.230692e-08 -7.992682e-08 1.259303e-08 3.763759e-08 2.964314e-08 3.961852e-09 9.568580e-09 3.489613e-08 4.393292e-02 1.259483e-02 2.338511e-02 -9.669703e-03 4.142964e-03 -7.841899e-03 2.522888e-02 1.176930e-02 1.451078e-02 -2.016486e-03 -5.010985e-03 -8.989504e-04 5.233088e-02
<VARIANCE> 25
 1.086717e+02 4.408944e+01 2.830351e+01 3.928667e+01 4.007676e+01 3.833020e+01 3.226454e+01 3.081372e+01 5.522676e+01 2.902037e+01 1.853148e+01 2.472725e+01 1.727232e+00 1.379744e+00 9.541185e-01 1.441309e+00 1.402845e+00 1.604629e+00 1.661587e+00 1.408165e+00 2.147006e+00 1.474729e+00 1.123595e+00 1.269005e+00 1.891393e+00
<GCONST> 9.417422e+01
<STATE> 4
<MEAN> 25
 -8.390636e-08 2.051673e-09 7.969690e-08 4.623340e-08 -4.230692e-08 -7.992682e-08 1.259303e-08 3.763759e-08 2.964314e-08 3.961852e-09 9.568580e-09 3.489613e-08 4.393292e-02 1.259483e-02 2.338511e-02 -9.669703e-03 4.142964e-03 -7.841899e-03 2.522888e-02 1.176930e-02 1.451078e-02 -2.016486e-03 -5.010985e-03 -8.989504e-04 5.233088e-02
<VARIANCE> 25
 1.086717e+02 4.408944e+01 2.830351e+01 3.928667e+01 4.007676e+01 3.833020e+01 3.226454e+01 3.081372e+01 5.522676e+01 2.902037e+01 1.853148e+01 2.472725e+01 1.727232e+00 1.379744e+00 9.541185e-01 1.441309e+00 1.402845e+00 1.604629e+00 1.661587e+00 1.408165e+00 2.147006e+00 1.474729e+00 1.123595e+00 1.269005e+00 1.891393e+00
<GCONST> 9.417422e+01
<TRANSP> 5
 0.000000e+00 1.000000e+00 0.000000e+00 0.000000e+00 0.000000e+00
 0.000000e+00 6.000000e-01 4.000000e-01 0.000000e+00 0.000000e+00
 0.000000e+00 0.000000e+00 6.000000e-01 4.000000e-01 0.000000e+00
 0.000000e+00 0.000000e+00 0.000000e+00 7.000000e-01 3.000000e-01
 0.000000e+00 0.000000e+00 0.000000e+00 0.000000e+00 0.000000e+00
<ENDHMM>
~h "i"
<BEGINHMM>
<NUMSTATES> 5
<STATE> 2
<MEAN> 25
 -8.390636e-08 2.051673e-09 7.969690e-08 4.623340e-08 -4.230692e-08 -7.992682e-08 1.259303e-08 3.763759e-08 2.964314e-08 3.961852e-09 9.568580e-09 3.489613e-08 4.393292e-02 1.259483e-02 2.338511e-02 -9.669703e-03 4.142964e-03 -7.841899e-03 2.522888e-02 1.176930e-02 1.451078e-02 -2.016486e-03 -5.010985e-03 -8.989504e-04 5.233088e-02
<VARIANCE> 25
 1.086717e+02 4.408944e+01 2.830351e+01 3.928667e+01 4.007676e+01 3.833020e+01 3.226454e+01 3.081372e+01 5.522676e+01 2.902037e+01 1.853148e+01 2.472725e+01 1.727232e+00 1.379744e+00 9.541185e-01 1.441309e+00 1.402845e+00 1.604629e+00 1.661587e+00 1.408165e+00 2.147006e+00 1.474729e+00 1.123595e+00 1.269005e+00 1.891393e+00
<GCONST> 9.417422e+01
<STATE> 3
<MEAN> 25
 -8.390636e-08 2.051673e-09 7.969690e-08 4.623340e-08 -4.230692e-08 -7.992682e-08 1.259303e-08 3.763759e-08 2.964314e-08 3.961852e-09 9.568580e-09 3.489613e-08 4.393292e-02 1.259483e-02 2.338511e-02 -9.669703e-03 4.142964e-03 -7.841899e-03 2.522888e-02 1.176930e-02 1.451078e-02 -2.016486e-03 -5.010985e-03 -8.989504e-04 5.233088e-02
<VARIANCE> 25
 1.086717e+02 4.408944e+01 2.830351e+01 3.928667e+01 4.007676e+01 3.833020e+01 3.226454e+01 3.081372e+01 5.522676e+01 2.902037e+01 1.853148e+01 2.472725e+01 1.727232e+00 1.379744e+00 9.541185e-01 1.441309e+00 1.402845e+00 1.604629e+00 1.661587e+00 1.408165e+00 2.147006e+00 1.474729e+00 1.123595e+00 1.269005e+00 1.891393e+00
<GCONST> 9.417422e+01
<STATE> 4
<MEAN> 25
 -8.390636e-08 2.051673e-09 7.969690e-08 4.623340e-08 -4.230692e-08 -7.992682e-08 1.259303e-08 3.763759e-08 2.964314e-08 3.961852e-09 9.568580e-09 3.489613e-08 4.393292e-02 1.259483e-02 2.338511e-02 -9.669703e-03 4.142964e-03 -7.841899e-03 2.522888e-02 1.176930e-02 1.451078e-02 -2.016486e-03 -5.010985e-03 -8.989504e-04 5.233088e-02
<VARIANCE> 25
 1.086717e+02 4.408944e+01 2.830351e+01 3.928667e+01 4.007676e+01 3.833020e+01 3.226454e+01 3.081372e+01 5.522676e+01 2.902037e+01 1.853148e+01 2.472725e+01 1.727232e+00 1.379744e+00 9.541185e-01 1.441309e+00 1.402845e+00 1.604629e+00 1.661587e+00 1.408165e+00 2.147006e+00 1.474729e+00 1.123595e+00 1.269005e+00 1.891393e+00
<GCONST> 9.417422e+01
<TRANSP> 5
 0.000000e+00 1.000000e+00 0.000000e+00 0.000000e+00 0.000000e+00
 0.000000e+00 6.000000e-01 4.000000e-01 0.000000e+00 0.000000e+00
 0.000000e+00 0.000000e+00 6.000000e-01 4.000000e-01 0.000000e+00
 0.000000e+00 0.000000e+00 0.000000e+00 7.000000e-01 3.000000e-01
 0.000000e+00 0.000000e+00 0.000000e+00 0.000000e+00 0.000000e+00
<ENDHMM>
~h "ch"<BEGINHMM>
<NUMSTATES> 5
<STATE> 2
<MEAN> 25
 -8.390636e-08 2.051673e-09 7.969690e-08 4.623340e-08 -4.230692e-08 -7.992682e-08 1.259303e-08 3.763759e-08 2.964314e-08 3.961852e-09 9.568580e-09 3.489613e-08 4.393292e-02 1.259483e-02 2.338511e-02 -9.669703e-03 4.142964e-03 -7.841899e-03 2.522888e-02 1.176930e-02 1.451078e-02 -2.016486e-03 -5.010985e-03 -8.989504e-04 5.233088e-02
<VARIANCE> 25
 1.086717e+02 4.408944e+01 2.830351e+01 3.928667e+01 4.007676e+01 3.833020e+01 3.226454e+01 3.081372e+01 5.522676e+01 2.902037e+01 1.853148e+01 2.472725e+01 1.727232e+00 1.379744e+00 9.541185e-01 1.441309e+00 1.402845e+00 1.604629e+00 1.661587e+00 1.408165e+00 2.147006e+00 1.474729e+00 1.123595e+00 1.269005e+00 1.891393e+00
<GCONST> 9.417422e+01
<STATE> 3
<MEAN> 25
 -8.390636e-08 2.051673e-09 7.969690e-08 4.623340e-08 -4.230692e-08 -7.992682e-08 1.259303e-08 3.763759e-08 2.964314e-08 3.961852e-09 9.568580e-09 3.489613e-08 4.393292e-02 1.259483e-02 2.338511e-02 -9.669703e-03 4.142964e-03 -7.841899e-03 2.522888e-02 1.176930e-02 1.451078e-02 -2.016486e-03 -5.010985e-03 -8.989504e-04 5.233088e-02
<VARIANCE> 25
 1.086717e+02 4.408944e+01 2.830351e+01 3.928667e+01 4.007676e+01 3.833020e+01 3.226454e+01 3.081372e+01 5.522676e+01 2.902037e+01 1.853148e+01 2.472725e+01 1.727232e+00 1.379744e+00 9.541185e-01 1.441309e+00 1.402845e+00 1.604629e+00 1.661587e+00 1.408165e+00 2.147006e+00 1.474729e+00 1.123595e+00 1.269005e+00 1.891393e+00
<GCONST> 9.417422e+01
<STATE> 4
<MEAN> 25
 -8.390636e-08 2.051673e-09 7.969690e-08 4.623340e-08 -4.230692e-08 -7.992682e-08 1.259303e-08 3.763759e-08 2.964314e-08 3.961852e-09 9.568580e-09 3.489613e-08 4.393292e-02 1.259483e-02 2.338511e-02 -9.669703e-03 4.142964e-03 -7.841899e-03 2.522888e-02 1.176930e-02 1.451078e-02 -2.016486e-03 -5.010985e-03 -8.989504e-04 5.233088e-02
<VARIANCE> 25
 1.086717e+02 4.408944e+01 2.830351e+01 3.928667e+01 4.007676e+01 3.833020e+01 3.226454e+01 3.081372e+01 5.522676e+01 2.902037e+01 1.853148e+01 2.472725e+01 1.727232e+00 1.379744e+00 9.541185e-01 1.441309e+00 1.402845e+00 1.604629e+00 1.661587e+00 1.408165e+00 2.147006e+00 1.474729e+00 1.123595e+00 1.269005e+00 1.891393e+00
<GCONST> 9.417422e+01
<TRANSP> 5
 0.000000e+00 1.000000e+00 0.000000e+00 0.000000e+00 0.000000e+00
 0.000000e+00 6.000000e-01 4.000000e-01 0.000000e+00 0.000000e+00
 0.000000e+00 0.000000e+00 6.000000e-01 4.000000e-01 0.000000e+00
 0.000000e+00 0.000000e+00 0.000000e+00 7.000000e-01 3.000000e-01
 0.000000e+00 0.000000e+00 0.000000e+00 0.000000e+00 0.000000e+00
<ENDHMM>
~h "lu"
<BEGINHMM>
<NUMSTATES> 5
<STATE> 2
<MEAN> 25
 -8.390636e-08 2.051673e-09 7.969690e-08 4.623340e-08 -4.230692e-08 -7.992682e-08 1.259303e-08 3.763759e-08 2.964314e-08 3.961852e-09 9.568580e-09 3.489613e-08 4.393292e-02 1.259483e-02 2.338511e-02 -9.669703e-03 4.142964e-03 -7.841899e-03 2.522888e-02 1.176930e-02 1.451078e-02 -2.016486e-03 -5.010985e-03 -8.989504e-04 5.233088e-02
<VARIANCE> 25
 1.086717e+02 4.408944e+01 2.830351e+01 3.928667e+01 4.007676e+01 3.833020e+01 3.226454e+01 3.081372e+01 5.522676e+01 2.902037e+01 1.853148e+01 2.472725e+01 1.727232e+00 1.379744e+00 9.541185e-01 1.441309e+00 1.402845e+00 1.604629e+00 1.661587e+00 1.408165e+00 2.147006e+00 1.474729e+00 1.123595e+00 1.269005e+00 1.891393e+00
<GCONST> 9.417422e+01
<STATE> 3
<MEAN> 25
 -8.390636e-08 2.051673e-09 7.969690e-08 4.623340e-08 -4.230692e-08 -7.992682e-08 1.259303e-08 3.763759e-08 2.964314e-08 3.961852e-09 9.568580e-09 3.489613e-08 4.393292e-02 1.259483e-02 2.338511e-02 -9.669703e-03 4.142964e-03 -7.841899e-03 2.522888e-02 1.176930e-02 1.451078e-02 -2.016486e-03 -5.010985e-03 -8.989504e-04 5.233088e-02
<VARIANCE> 25
 1.086717e+02 4.408944e+01 2.830351e+01 3.928667e+01 4.007676e+01 3.833020e+01 3.226454e+01 3.081372e+01 5.522676e+01 2.902037e+01 1.853148e+01 2.472725e+01 1.727232e+00 1.379744e+00 9.541185e-01 1.441309e+00 1.402845e+00 1.604629e+00 1.661587e+00 1.408165e+00 2.147006e+00 1.474729e+00 1.123595e+00 1.269005e+00 1.891393e+00
<GCONST> 9.417422e+01
<STATE> 4
<MEAN> 25
 -8.390636e-08 2.051673e-09 7.969690e-08 4.623340e-08 -4.230692e-08 -7.992682e-08 1.259303e-08 3.763759e-08 2.964314e-08 3.961852e-09 9.568580e-09 3.489613e-08 4.393292e-02 1.259483e-02 2.338511e-02 -9.669703e-03 4.142964e-03 -7.841899e-03 2.522888e-02 1.176930e-02 1.451078e-02 -2.016486e-03 -5.010985e-03 -8.989504e-04 5.233088e-02
<VARIANCE> 25
 1.086717e+02 4.408944e+01 2.830351e+01 3.928667e+01 4.007676e+01 3.833020e+01 3.226454e+01 3.081372e+01 5.522676e+01 2.902037e+01 1.853148e+01 2.472725e+01 1.727232e+00 1.379744e+00 9.541185e-01 1.441309e+00 1.402845e+00 1.604629e+00 1.661587e+00 1.408165e+00 2.147006e+00 1.474729e+00 1.123595e+00 1.269005e+00 1.891393e+00
<GCONST> 9.417422e+01
<TRANSP> 5
 0.000000e+00 1.000000e+00 0.000000e+00 0.000000e+00 0.000000e+00
 0.000000e+00 6.000000e-01 4.000000e-01 0.000000e+00 0.000000e+00
 0.000000e+00 0.000000e+00 6.000000e-01 4.000000e-01 0.000000e+00
 0.000000e+00 0.000000e+00 0.000000e+00 7.000000e-01 3.000000e-01
 0.000000e+00 0.000000e+00 0.000000e+00 0.000000e+00 0.000000e+00
<ENDHMM>
~h "m"
<BEGINHMM>
<NUMSTATES> 5
<STATE> 2
<MEAN> 25
 -8.390636e-08 2.051673e-09 7.969690e-08 4.623340e-08 -4.230692e-08 -7.992682e-08 1.259303e-08 3.763759e-08 2.964314e-08 3.961852e-09 9.568580e-09 3.489613e-08 4.393292e-02 1.259483e-02 2.338511e-02 -9.669703e-03 4.142964e-03 -7.841899e-03 2.522888e-02 1.176930e-02 1.451078e-02 -2.016486e-03 -5.010985e-03 -8.989504e-04 5.233088e-02
<VARIANCE> 25
 1.086717e+02 4.408944e+01 2.830351e+01 3.928667e+01 4.007676e+01 3.833020e+01 3.226454e+01 3.081372e+01 5.522676e+01 2.902037e+01 1.853148e+01 2.472725e+01 1.727232e+00 1.379744e+00 9.541185e-01 1.441309e+00 1.402845e+00 1.604629e+00 1.661587e+00 1.408165e+00 2.147006e+00 1.474729e+00 1.123595e+00 1.269005e+00 1.891393e+00
<GCONST> 9.417422e+01
<STATE> 3
<MEAN> 25
 -8.390636e-08 2.051673e-09 7.969690e-08 4.623340e-08 -4.230692e-08 -7.992682e-08 1.259303e-08 3.763759e-08 2.964314e-08 3.961852e-09 9.568580e-09 3.489613e-08 4.393292e-02 1.259483e-02 2.338511e-02 -9.669703e-03 4.142964e-03 -7.841899e-03 2.522888e-02 1.176930e-02 1.451078e-02 -2.016486e-03 -5.010985e-03 -8.989504e-04 5.233088e-02
<VARIANCE> 25
 1.086717e+02 4.408944e+01 2.830351e+01 3.928667e+01 4.007676e+01 3.833020e+01 3.226454e+01 3.081372e+01 5.522676e+01 2.902037e+01 1.853148e+01 2.472725e+01 1.727232e+00 1.379744e+00 9.541185e-01 1.441309e+00 1.402845e+00 1.604629e+00 1.661587e+00 1.408165e+00 2.147006e+00 1.474729e+00 1.123595e+00 1.269005e+00 1.891393e+00
<GCONST> 9.417422e+01
<STATE> 4
<MEAN> 25
 -8.390636e-08 2.051673e-09 7.969690e-08 4.623340e-08 -4.230692e-08 -7.992682e-08 1.259303e-08 3.763759e-08 2.964314e-08 3.961852e-09 9.568580e-09 3.489613e-08 4.393292e-02 1.259483e-02 2.338511e-02 -9.669703e-03 4.142964e-03 -7.841899e-03 2.522888e-02 1.176930e-02 1.451078e-02 -2.016486e-03 -5.010985e-03 -8.989504e-04 5.233088e-02
<VARIANCE> 25
 1.086717e+02 4.408944e+01 2.830351e+01 3.928667e+01 4.007676e+01 3.833020e+01 3.226454e+01 3.081372e+01 5.522676e+01 2.902037e+01 1.853148e+01 2.472725e+01 1.727232e+00 1.379744e+00 9.541185e-01 1.441309e+00 1.402845e+00 1.604629e+00 1.661587e+00 1.408165e+00 2.147006e+00 1.474729e+00 1.123595e+00 1.269005e+00 1.891393e+00
<GCONST> 9.417422e+01
<TRANSP> 5
 0.000000e+00 1.000000e+00 0.000000e+00 0.000000e+00 0.000000e+00
 0.000000e+00 6.000000e-01 4.000000e-01 0.000000e+00 0.000000e+00
 0.000000e+00 0.000000e+00 6.000000e-01 4.000000e-01 0.000000e+00
 0.000000e+00 0.000000e+00 0.000000e+00 7.000000e-01 3.000000e-01
 0.000000e+00 0.000000e+00 0.000000e+00 0.000000e+00 0.000000e+00
<ENDHMM>
~h "eh"
<BEGINHMM>
<NUMSTATES> 5
<STATE> 2
<MEAN> 25
 -8.390636e-08 2.051673e-09 7.969690e-08 4.623340e-08 -4.230692e-08 -7.992682e-08 1.259303e-08 3.763759e-08 2.964314e-08 3.961852e-09 9.568580e-09 3.489613e-08 4.393292e-02 1.259483e-02 2.338511e-02 -9.669703e-03 4.142964e-03 -7.841899e-03 2.522888e-02 1.176930e-02 1.451078e-02 -2.016486e-03 -5.010985e-03 -8.989504e-04 5.233088e-02
<VARIANCE> 25
 1.086717e+02 4.408944e+01 2.830351e+01 3.928667e+01 4.007676e+01 3.833020e+01 3.226454e+01 3.081372e+01 5.522676e+01 2.902037e+01 1.853148e+01 2.472725e+01 1.727232e+00 1.379744e+00 9.541185e-01 1.441309e+00 1.402845e+00 1.604629e+00 1.661587e+00 1.408165e+00 2.147006e+00 1.474729e+00 1.123595e+00 1.269005e+00 1.891393e+00
<GCONST> 9.417422e+01
<STATE> 3
<MEAN> 25
 -8.390636e-08 2.051673e-09 7.969690e-08 4.623340e-08 -4.230692e-08 -7.992682e-08 1.259303e-08 3.763759e-08 2.964314e-08 3.961852e-09 9.568580e-09 3.489613e-08 4.393292e-02 1.259483e-02 2.338511e-02 -9.669703e-03 4.142964e-03 -7.841899e-03 2.522888e-02 1.176930e-02 1.451078e-02 -2.016486e-03 -5.010985e-03 -8.989504e-04 5.233088e-02
<VARIANCE> 25
 1.086717e+02 4.408944e+01 2.830351e+01 3.928667e+01 4.007676e+01 3.833020e+01 3.226454e+01 3.081372e+01 5.522676e+01 2.902037e+01 1.853148e+01 2.472725e+01 1.727232e+00 1.379744e+00 9.541185e-01 1.441309e+00 1.402845e+00 1.604629e+00 1.661587e+00 1.408165e+00 2.147006e+00 1.474729e+00 1.123595e+00 1.269005e+00 1.891393e+00
<GCONST> 9.417422e+01
<STATE> 4
<MEAN> 25
 -8.390636e-08 2.051673e-09 7.969690e-08 4.623340e-08 -4.230692e-08 -7.992682e-08 1.259303e-08 3.763759e-08 2.964314e-08 3.961852e-09 9.568580e-09 3.489613e-08 4.393292e-02 1.259483e-02 2.338511e-02 -9.669703e-03 4.142964e-03 -7.841899e-03 2.522888e-02 1.176930e-02 1.451078e-02 -2.016486e-03 -5.010985e-03 -8.989504e-04 5.233088e-02
<VARIANCE> 25
 1.086717e+02 4.408944e+01 2.830351e+01 3.928667e+01 4.007676e+01 3.833020e+01 3.226454e+01 3.081372e+01 5.522676e+01 2.902037e+01 1.853148e+01 2.472725e+01 1.727232e+00 1.379744e+00 9.541185e-01 1.441309e+00 1.402845e+00 1.604629e+00 1.661587e+00 1.408165e+00 2.147006e+00 1.474729e+00 1.123595e+00 1.269005e+00 1.891393e+00
<GCONST> 9.417422e+01
<TRANSP> 5
 0.000000e+00 1.000000e+00 0.000000e+00 0.000000e+00 0.000000e+00
 0.000000e+00 6.000000e-01 4.000000e-01 0.000000e+00 0.000000e+00
 0.000000e+00 0.000000e+00 6.000000e-01 4.000000e-01 0.000000e+00
 0.000000e+00 0.000000e+00 0.000000e+00 7.000000e-01 3.000000e-01
 0.000000e+00 0.000000e+00 0.000000e+00 0.000000e+00 0.000000e+00
<ENDHMM>
~h "t"
<BEGINHMM>
<NUMSTATES> 5
<STATE> 2
<MEAN> 25
 -8.390636e-08 2.051673e-09 7.969690e-08 4.623340e-08 -4.230692e-08 -7.992682e-08 1.259303e-08 3.763759e-08 2.964314e-08 3.961852e-09 9.568580e-09 3.489613e-08 4.393292e-02 1.259483e-02 2.338511e-02 -9.669703e-03 4.142964e-03 -7.841899e-03 2.522888e-02 1.176930e-02 1.451078e-02 -2.016486e-03 -5.010985e-03 -8.989504e-04 5.233088e-02
<VARIANCE> 25
 1.086717e+02 4.408944e+01 2.830351e+01 3.928667e+01 4.007676e+01 3.833020e+01 3.226454e+01 3.081372e+01 5.522676e+01 2.902037e+01 1.853148e+01 2.472725e+01 1.727232e+00 1.379744e+00 9.541185e-01 1.441309e+00 1.402845e+00 1.604629e+00 1.661587e+00 1.408165e+00 2.147006e+00 1.474729e+00 1.123595e+00 1.269005e+00 1.891393e+00
<GCONST> 9.417422e+01
<STATE> 3
<MEAN> 25
 -8.390636e-08 2.051673e-09 7.969690e-08 4.623340e-08 -4.230692e-08 -7.992682e-08 1.259303e-08 3.763759e-08 2.964314e-08 3.961852e-09 9.568580e-09 3.489613e-08 4.393292e-02 1.259483e-02 2.338511e-02 -9.669703e-03 4.142964e-03 -7.841899e-03 2.522888e-02 1.176930e-02 1.451078e-02 -2.016486e-03 -5.010985e-03 -8.989504e-04 5.233088e-02
<VARIANCE> 25
 1.086717e+02 4.408944e+01 2.830351e+01 3.928667e+01 4.007676e+01 3.833020e+01 3.226454e+01 3.081372e+01 5.522676e+01 2.902037e+01 1.853148e+01 2.472725e+01 1.727232e+00 1.379744e+00 9.541185e-01 1.441309e+00 1.402845e+00 1.604629e+00 1.661587e+00 1.408165e+00 2.147006e+00 1.474729e+00 1.123595e+00 1.269005e+00 1.891393e+00
<GCONST> 9.417422e+01
<STATE> 4
<MEAN> 25
 -8.390636e-08 2.051673e-09 7.969690e-08 4.623340e-08 -4.230692e-08 -7.992682e-08 1.259303e-08 3.763759e-08 2.964314e-08 3.961852e-09 9.568580e-09 3.489613e-08 4.393292e-02 1.259483e-02 2.338511e-02 -9.669703e-03 4.142964e-03 -7.841899e-03 2.522888e-02 1.176930e-02 1.451078e-02 -2.016486e-03 -5.010985e-03 -8.989504e-04 5.233088e-02
<VARIANCE> 25
 1.086717e+02 4.408944e+01 2.830351e+01 3.928667e+01 4.007676e+01 3.833020e+01 3.226454e+01 3.081372e+01 5.522676e+01 2.902037e+01 1.853148e+01 2.472725e+01 1.727232e+00 1.379744e+00 9.541185e-01 1.441309e+00 1.402845e+00 1.604629e+00 1.661587e+00 1.408165e+00 2.147006e+00 1.474729e+00 1.123595e+00 1.269005e+00 1.891393e+00
<GCONST> 9.417422e+01
<TRANSP> 5
 0.000000e+00 1.000000e+00 0.000000e+00 0.000000e+00 0.000000e+00
 0.000000e+00 6.000000e-01 4.000000e-01 0.000000e+00 0.000000e+00
 0.000000e+00 0.000000e+00 6.000000e-01 4.000000e-01 0.000000e+00
 0.000000e+00 0.000000e+00 0.000000e+00 7.000000e-01 3.000000e-01
 0.000000e+00 0.000000e+00 0.000000e+00 0.000000e+00 0.000000e+00
<ENDHMM>
~h "ein"
<BEGINHMM>
<NUMSTATES> 5
<STATE> 2
<MEAN> 25
 -8.390636e-08 2.051673e-09 7.969690e-08 4.623340e-08 -4.230692e-08 -7.992682e-08 1.259303e-08 3.763759e-08 2.964314e-08 3.961852e-09 9.568580e-09 3.489613e-08 4.393292e-02 1.259483e-02 2.338511e-02 -9.669703e-03 4.142964e-03 -7.841899e-03 2.522888e-02 1.176930e-02 1.451078e-02 -2.016486e-03 -5.010985e-03 -8.989504e-04 5.233088e-02
<VARIANCE> 25
 1.086717e+02 4.408944e+01 2.830351e+01 3.928667e+01 4.007676e+01 3.833020e+01 3.226454e+01 3.081372e+01 5.522676e+01 2.902037e+01 1.853148e+01 2.472725e+01 1.727232e+00 1.379744e+00 9.541185e-01 1.441309e+00 1.402845e+00 1.604629e+00 1.661587e+00 1.408165e+00 2.147006e+00 1.474729e+00 1.123595e+00 1.269005e+00 1.891393e+00
<GCONST> 9.417422e+01
<STATE> 3
<MEAN> 25
 -8.390636e-08 2.051673e-09 7.969690e-08 4.623340e-08 -4.230692e-08 -7.992682e-08 1.259303e-08 3.763759e-08 2.964314e-08 3.961852e-09 9.568580e-09 3.489613e-08 4.393292e-02 1.259483e-02 2.338511e-02 -9.669703e-03 4.142964e-03 -7.841899e-03 2.522888e-02 1.176930e-02 1.451078e-02 -2.016486e-03 -5.010985e-03 -8.989504e-04 5.233088e-02
<VARIANCE> 25
 1.086717e+02 4.408944e+01 2.830351e+01 3.928667e+01 4.007676e+01 3.833020e+01 3.226454e+01 3.081372e+01 5.522676e+01 2.902037e+01 1.853148e+01 2.472725e+01 1.727232e+00 1.379744e+00 9.541185e-01 1.441309e+00 1.402845e+00 1.604629e+00 1.661587e+00 1.408165e+00 2.147006e+00 1.474729e+00 1.123595e+00 1.269005e+00 1.891393e+00
<GCONST> 9.417422e+01
<STATE> 4
<MEAN> 25
 -8.390636e-08 2.051673e-09 7.969690e-08 4.623340e-08 -4.230692e-08 -7.992682e-08 1.259303e-08 3.763759e-08 2.964314e-08 3.961852e-09 9.568580e-09 3.489613e-08 4.393292e-02 1.259483e-02 2.338511e-02 -9.669703e-03 4.142964e-03 -7.841899e-03 2.522888e-02 1.176930e-02 1.451078e-02 -2.016486e-03 -5.010985e-03 -8.989504e-04 5.233088e-02
<VARIANCE> 25
 1.086717e+02 4.408944e+01 2.830351e+01 3.928667e+01 4.007676e+01 3.833020e+01 3.226454e+01 3.081372e+01 5.522676e+01 2.902037e+01 1.853148e+01 2.472725e+01 1.727232e+00 1.379744e+00 9.541185e-01 1.441309e+00 1.402845e+00 1.604629e+00 1.661587e+00 1.408165e+00 2.147006e+00 1.474729e+00 1.123595e+00 1.269005e+00 1.891393e+00
<GCONST> 9.417422e+01
<TRANSP> 5
 0.000000e+00 1.000000e+00 0.000000e+00 0.000000e+00 0.000000e+00
 0.000000e+00 6.000000e-01 4.000000e-01 0.000000e+00 0.000000e+00
 0.000000e+00 0.000000e+00 6.000000e-01 4.000000e-01 0.000000e+00
 0.000000e+00 0.000000e+00 0.000000e+00 7.000000e-01 3.000000e-01
 0.000000e+00 0.000000e+00 0.000000e+00 0.000000e+00 0.000000e+00
<ENDHMM>
~h "eu"
<BEGINHMM>
<NUMSTATES> 5
<STATE> 2
<MEAN> 25
 -8.390636e-08 2.051673e-09 7.969690e-08 4.623340e-08 -4.230692e-08 -7.992682e-08 1.259303e-08 3.763759e-08 2.964314e-08 3.961852e-09 9.568580e-09 3.489613e-08 4.393292e-02 1.259483e-02 2.338511e-02 -9.669703e-03 4.142964e-03 -7.841899e-03 2.522888e-02 1.176930e-02 1.451078e-02 -2.016486e-03 -5.010985e-03 -8.989504e-04 5.233088e-02
<VARIANCE> 25
 1.086717e+02 4.408944e+01 2.830351e+01 3.928667e+01 4.007676e+01 3.833020e+01 3.226454e+01 3.081372e+01 5.522676e+01 2.902037e+01 1.853148e+01 2.472725e+01 1.727232e+00 1.379744e+00 9.541185e-01 1.441309e+00 1.402845e+00 1.604629e+00 1.661587e+00 1.408165e+00 2.147006e+00 1.474729e+00 1.123595e+00 1.269005e+00 1.891393e+00
<GCONST> 9.417422e+01
<STATE> 3
<MEAN> 25
 -8.390636e-08 2.051673e-09 7.969690e-08 4.623340e-08 -4.230692e-08 -7.992682e-08 1.259303e-08 3.763759e-08 2.964314e-08 3.961852e-09 9.568580e-09 3.489613e-08 4.393292e-02 1.259483e-02 2.338511e-02 -9.669703e-03 4.142964e-03 -7.841899e-03 2.522888e-02 1.176930e-02 1.451078e-02 -2.016486e-03 -5.010985e-03 -8.989504e-04 5.233088e-02
<VARIANCE> 25
 1.086717e+02 4.408944e+01 2.830351e+01 3.928667e+01 4.007676e+01 3.833020e+01 3.226454e+01 3.081372e+01 5.522676e+01 2.902037e+01 1.853148e+01 2.472725e+01 1.727232e+00 1.379744e+00 9.541185e-01 1.441309e+00 1.402845e+00 1.604629e+00 1.661587e+00 1.408165e+00 2.147006e+00 1.474729e+00 1.123595e+00 1.269005e+00 1.891393e+00
<GCONST> 9.417422e+01
<STATE> 4
<MEAN> 25
 -8.390636e-08 2.051673e-09 7.969690e-08 4.623340e-08 -4.230692e-08 -7.992682e-08 1.259303e-08 3.763759e-08 2.964314e-08 3.961852e-09 9.568580e-09 3.489613e-08 4.393292e-02 1.259483e-02 2.338511e-02 -9.669703e-03 4.142964e-03 -7.841899e-03 2.522888e-02 1.176930e-02 1.451078e-02 -2.016486e-03 -5.010985e-03 -8.989504e-04 5.233088e-02
<VARIANCE> 25
 1.086717e+02 4.408944e+01 2.830351e+01 3.928667e+01 4.007676e+01 3.833020e+01 3.226454e+01 3.081372e+01 5.522676e+01 2.902037e+01 1.853148e+01 2.472725e+01 1.727232e+00 1.379744e+00 9.541185e-01 1.441309e+00 1.402845e+00 1.604629e+00 1.661587e+00 1.408165e+00 2.147006e+00 1.474729e+00 1.123595e+00 1.269005e+00 1.891393e+00
<GCONST> 9.417422e+01
<TRANSP> 5
 0.000000e+00 1.000000e+00 0.000000e+00 0.000000e+00 0.000000e+00
 0.000000e+00 6.000000e-01 4.000000e-01 0.000000e+00 0.000000e+00
 0.000000e+00 0.000000e+00 6.000000e-01 4.000000e-01 0.000000e+00
 0.000000e+00 0.000000e+00 0.000000e+00 7.000000e-01 3.000000e-01
 0.000000e+00 0.000000e+00 0.000000e+00 0.000000e+00 0.000000e+00
<ENDHMM>
~h "r"
<BEGINHMM>
<NUMSTATES> 5
<STATE> 2
<MEAN> 25
 -8.390636e-08 2.051673e-09 7.969690e-08 4.623340e-08 -4.230692e-08 -7.992682e-08 1.259303e-08 3.763759e-08 2.964314e-08 3.961852e-09 9.568580e-09 3.489613e-08 4.393292e-02 1.259483e-02 2.338511e-02 -9.669703e-03 4.142964e-03 -7.841899e-03 2.522888e-02 1.176930e-02 1.451078e-02 -2.016486e-03 -5.010985e-03 -8.989504e-04 5.233088e-02
<VARIANCE> 25
 1.086717e+02 4.408944e+01 2.830351e+01 3.928667e+01 4.007676e+01 3.833020e+01 3.226454e+01 3.081372e+01 5.522676e+01 2.902037e+01 1.853148e+01 2.472725e+01 1.727232e+00 1.379744e+00 9.541185e-01 1.441309e+00 1.402845e+00 1.604629e+00 1.661587e+00 1.408165e+00 2.147006e+00 1.474729e+00 1.123595e+00 1.269005e+00 1.891393e+00
<GCONST> 9.417422e+01
<STATE> 3
<MEAN> 25
 -8.390636e-08 2.051673e-09 7.969690e-08 4.623340e-08 -4.230692e-08 -7.992682e-08 1.259303e-08 3.763759e-08 2.964314e-08 3.961852e-09 9.568580e-09 3.489613e-08 4.393292e-02 1.259483e-02 2.338511e-02 -9.669703e-03 4.142964e-03 -7.841899e-03 2.522888e-02 1.176930e-02 1.451078e-02 -2.016486e-03 -5.010985e-03 -8.989504e-04 5.233088e-02
<VARIANCE> 25
 1.086717e+02 4.408944e+01 2.830351e+01 3.928667e+01 4.007676e+01 3.833020e+01 3.226454e+01 3.081372e+01 5.522676e+01 2.902037e+01 1.853148e+01 2.472725e+01 1.727232e+00 1.379744e+00 9.541185e-01 1.441309e+00 1.402845e+00 1.604629e+00 1.661587e+00 1.408165e+00 2.147006e+00 1.474729e+00 1.123595e+00 1.269005e+00 1.891393e+00
<GCONST> 9.417422e+01
<STATE> 4
<MEAN> 25
 -8.390636e-08 2.051673e-09 7.969690e-08 4.623340e-08 -4.230692e-08 -7.992682e-08 1.259303e-08 3.763759e-08 2.964314e-08 3.961852e-09 9.568580e-09 3.489613e-08 4.393292e-02 1.259483e-02 2.338511e-02 -9.669703e-03 4.142964e-03 -7.841899e-03 2.522888e-02 1.176930e-02 1.451078e-02 -2.016486e-03 -5.010985e-03 -8.989504e-04 5.233088e-02
<VARIANCE> 25
 1.086717e+02 4.408944e+01 2.830351e+01 3.928667e+01 4.007676e+01 3.833020e+01 3.226454e+01 3.081372e+01 5.522676e+01 2.902037e+01 1.853148e+01 2.472725e+01 1.727232e+00 1.379744e+00 9.541185e-01 1.441309e+00 1.402845e+00 1.604629e+00 1.661587e+00 1.408165e+00 2.147006e+00 1.474729e+00 1.123595e+00 1.269005e+00 1.891393e+00
<GCONST> 9.417422e+01
<TRANSP> 5
 0.000000e+00 1.000000e+00 0.000000e+00 0.000000e+00 0.000000e+00
 0.000000e+00 6.000000e-01 4.000000e-01 0.000000e+00 0.000000e+00
 0.000000e+00 0.000000e+00 6.000000e-01 4.000000e-01 0.000000e+00
 0.000000e+00 0.000000e+00 0.000000e+00 7.000000e-01 3.000000e-01
 0.000000e+00 0.000000e+00 0.000000e+00 0.000000e+00 0.000000e+00
<ENDHMM>
~h "la"
<BEGINHMM>
<NUMSTATES> 5
<STATE> 2
<MEAN> 25
 -8.390636e-08 2.051673e-09 7.969690e-08 4.623340e-08 -4.230692e-08 -7.992682e-08 1.259303e-08 3.763759e-08 2.964314e-08 3.961852e-09 9.568580e-09 3.489613e-08 4.393292e-02 1.259483e-02 2.338511e-02 -9.669703e-03 4.142964e-03 -7.841899e-03 2.522888e-02 1.176930e-02 1.451078e-02 -2.016486e-03 -5.010985e-03 -8.989504e-04 5.233088e-02
<VARIANCE> 25
 1.086717e+02 4.408944e+01 2.830351e+01 3.928667e+01 4.007676e+01 3.833020e+01 3.226454e+01 3.081372e+01 5.522676e+01 2.902037e+01 1.853148e+01 2.472725e+01 1.727232e+00 1.379744e+00 9.541185e-01 1.441309e+00 1.402845e+00 1.604629e+00 1.661587e+00 1.408165e+00 2.147006e+00 1.474729e+00 1.123595e+00 1.269005e+00 1.891393e+00
<GCONST> 9.417422e+01
<STATE> 3
<MEAN> 25
 -8.390636e-08 2.051673e-09 7.969690e-08 4.623340e-08 -4.230692e-08 -7.992682e-08 1.259303e-08 3.763759e-08 2.964314e-08 3.961852e-09 9.568580e-09 3.489613e-08 4.393292e-02 1.259483e-02 2.338511e-02 -9.669703e-03 4.142964e-03 -7.841899e-03 2.522888e-02 1.176930e-02 1.451078e-02 -2.016486e-03 -5.010985e-03 -8.989504e-04 5.233088e-02
<VARIANCE> 25
 1.086717e+02 4.408944e+01 2.830351e+01 3.928667e+01 4.007676e+01 3.833020e+01 3.226454e+01 3.081372e+01 5.522676e+01 2.902037e+01 1.853148e+01 2.472725e+01 1.727232e+00 1.379744e+00 9.541185e-01 1.441309e+00 1.402845e+00 1.604629e+00 1.661587e+00 1.408165e+00 2.147006e+00 1.474729e+00 1.123595e+00 1.269005e+00 1.891393e+00
<GCONST> 9.417422e+01
<STATE> 4
<MEAN> 25
 -8.390636e-08 2.051673e-09 7.969690e-08 4.623340e-08 -4.230692e-08 -7.992682e-08 1.259303e-08 3.763759e-08 2.964314e-08 3.961852e-09 9.568580e-09 3.489613e-08 4.393292e-02 1.259483e-02 2.338511e-02 -9.669703e-03 4.142964e-03 -7.841899e-03 2.522888e-02 1.176930e-02 1.451078e-02 -2.016486e-03 -5.010985e-03 -8.989504e-04 5.233088e-02
<VARIANCE> 25
 1.086717e+02 4.408944e+01 2.830351e+01 3.928667e+01 4.007676e+01 3.833020e+01 3.226454e+01 3.081372e+01 5.522676e+01 2.902037e+01 1.853148e+01 2.472725e+01 1.727232e+00 1.379744e+00 9.541185e-01 1.441309e+00 1.402845e+00 1.604629e+00 1.661587e+00 1.408165e+00 2.147006e+00 1.474729e+00 1.123595e+00 1.269005e+00 1.891393e+00
<GCONST> 9.417422e+01
<TRANSP> 5
 0.000000e+00 1.000000e+00 0.000000e+00 0.000000e+00 0.000000e+00
 0.000000e+00 6.000000e-01 4.000000e-01 0.000000e+00 0.000000e+00
 0.000000e+00 0.000000e+00 6.000000e-01 4.000000e-01 0.000000e+00
 0.000000e+00 0.000000e+00 0.000000e+00 7.000000e-01 3.000000e-01
 0.000000e+00 0.000000e+00 0.000000e+00 0.000000e+00 0.000000e+00
<ENDHMM>
~h "l"
<BEGINHMM>
<NUMSTATES> 5
<STATE> 2
<MEAN> 25
 -8.390636e-08 2.051673e-09 7.969690e-08 4.623340e-08 -4.230692e-08 -7.992682e-08 1.259303e-08 3.763759e-08 2.964314e-08 3.961852e-09 9.568580e-09 3.489613e-08 4.393292e-02 1.259483e-02 2.338511e-02 -9.669703e-03 4.142964e-03 -7.841899e-03 2.522888e-02 1.176930e-02 1.451078e-02 -2.016486e-03 -5.010985e-03 -8.989504e-04 5.233088e-02
<VARIANCE> 25
 1.086717e+02 4.408944e+01 2.830351e+01 3.928667e+01 4.007676e+01 3.833020e+01 3.226454e+01 3.081372e+01 5.522676e+01 2.902037e+01 1.853148e+01 2.472725e+01 1.727232e+00 1.379744e+00 9.541185e-01 1.441309e+00 1.402845e+00 1.604629e+00 1.661587e+00 1.408165e+00 2.147006e+00 1.474729e+00 1.123595e+00 1.269005e+00 1.891393e+00
<GCONST> 9.417422e+01
<STATE> 3
<MEAN> 25
 -8.390636e-08 2.051673e-09 7.969690e-08 4.623340e-08 -4.230692e-08 -7.992682e-08 1.259303e-08 3.763759e-08 2.964314e-08 3.961852e-09 9.568580e-09 3.489613e-08 4.393292e-02 1.259483e-02 2.338511e-02 -9.669703e-03 4.142964e-03 -7.841899e-03 2.522888e-02 1.176930e-02 1.451078e-02 -2.016486e-03 -5.010985e-03 -8.989504e-04 5.233088e-02
<VARIANCE> 25
 1.086717e+02 4.408944e+01 2.830351e+01 3.928667e+01 4.007676e+01 3.833020e+01 3.226454e+01 3.081372e+01 5.522676e+01 2.902037e+01 1.853148e+01 2.472725e+01 1.727232e+00 1.379744e+00 9.541185e-01 1.441309e+00 1.402845e+00 1.604629e+00 1.661587e+00 1.408165e+00 2.147006e+00 1.474729e+00 1.123595e+00 1.269005e+00 1.891393e+00
<GCONST> 9.417422e+01
<STATE> 4
<MEAN> 25
 -8.390636e-08 2.051673e-09 7.969690e-08 4.623340e-08 -4.230692e-08 -7.992682e-08 1.259303e-08 3.763759e-08 2.964314e-08 3.961852e-09 9.568580e-09 3.489613e-08 4.393292e-02 1.259483e-02 2.338511e-02 -9.669703e-03 4.142964e-03 -7.841899e-03 2.522888e-02 1.176930e-02 1.451078e-02 -2.016486e-03 -5.010985e-03 -8.989504e-04 5.233088e-02
<VARIANCE> 25
 1.086717e+02 4.408944e+01 2.830351e+01 3.928667e+01 4.007676e+01 3.833020e+01 3.226454e+01 3.081372e+01 5.522676e+01 2.902037e+01 1.853148e+01 2.472725e+01 1.727232e+00 1.379744e+00 9.541185e-01 1.441309e+00 1.402845e+00 1.604629e+00 1.661587e+00 1.408165e+00 2.147006e+00 1.474729e+00 1.123595e+00 1.269005e+00 1.891393e+00
<GCONST> 9.417422e+01
<TRANSP> 5
 0.000000e+00 1.000000e+00 0.000000e+00 0.000000e+00 0.000000e+00
 0.000000e+00 6.000000e-01 4.000000e-01 0.000000e+00 0.000000e+00
 0.000000e+00 0.000000e+00 6.000000e-01 4.000000e-01 0.000000e+00
 0.000000e+00 0.000000e+00 0.000000e+00 7.000000e-01 3.000000e-01
 0.000000e+00 0.000000e+00 0.000000e+00 0.000000e+00 0.000000e+00
<ENDHMM>
~h "am"
<BEGINHMM>
<NUMSTATES> 5
<STATE> 2
<MEAN> 25
 -8.390636e-08 2.051673e-09 7.969690e-08 4.623340e-08 -4.230692e-08 -7.992682e-08 1.259303e-08 3.763759e-08 2.964314e-08 3.961852e-09 9.568580e-09 3.489613e-08 4.393292e-02 1.259483e-02 2.338511e-02 -9.669703e-03 4.142964e-03 -7.841899e-03 2.522888e-02 1.176930e-02 1.451078e-02 -2.016486e-03 -5.010985e-03 -8.989504e-04 5.233088e-02
<VARIANCE> 25
 1.086717e+02 4.408944e+01 2.830351e+01 3.928667e+01 4.007676e+01 3.833020e+01 3.226454e+01 3.081372e+01 5.522676e+01 2.902037e+01 1.853148e+01 2.472725e+01 1.727232e+00 1.379744e+00 9.541185e-01 1.441309e+00 1.402845e+00 1.604629e+00 1.661587e+00 1.408165e+00 2.147006e+00 1.474729e+00 1.123595e+00 1.269005e+00 1.891393e+00
<GCONST> 9.417422e+01
<STATE> 3
<MEAN> 25
 -8.390636e-08 2.051673e-09 7.969690e-08 4.623340e-08 -4.230692e-08 -7.992682e-08 1.259303e-08 3.763759e-08 2.964314e-08 3.961852e-09 9.568580e-09 3.489613e-08 4.393292e-02 1.259483e-02 2.338511e-02 -9.669703e-03 4.142964e-03 -7.841899e-03 2.522888e-02 1.176930e-02 1.451078e-02 -2.016486e-03 -5.010985e-03 -8.989504e-04 5.233088e-02
<VARIANCE> 25
 1.086717e+02 4.408944e+01 2.830351e+01 3.928667e+01 4.007676e+01 3.833020e+01 3.226454e+01 3.081372e+01 5.522676e+01 2.902037e+01 1.853148e+01 2.472725e+01 1.727232e+00 1.379744e+00 9.541185e-01 1.441309e+00 1.402845e+00 1.604629e+00 1.661587e+00 1.408165e+00 2.147006e+00 1.474729e+00 1.123595e+00 1.269005e+00 1.891393e+00
<GCONST> 9.417422e+01
<STATE> 4
<MEAN> 25
 -8.390636e-08 2.051673e-09 7.969690e-08 4.623340e-08 -4.230692e-08 -7.992682e-08 1.259303e-08 3.763759e-08 2.964314e-08 3.961852e-09 9.568580e-09 3.489613e-08 4.393292e-02 1.259483e-02 2.338511e-02 -9.669703e-03 4.142964e-03 -7.841899e-03 2.522888e-02 1.176930e-02 1.451078e-02 -2.016486e-03 -5.010985e-03 -8.989504e-04 5.233088e-02
<VARIANCE> 25
 1.086717e+02 4.408944e+01 2.830351e+01 3.928667e+01 4.007676e+01 3.833020e+01 3.226454e+01 3.081372e+01 5.522676e+01 2.902037e+01 1.853148e+01 2.472725e+01 1.727232e+00 1.379744e+00 9.541185e-01 1.441309e+00 1.402845e+00 1.604629e+00 1.661587e+00 1.408165e+00 2.147006e+00 1.474729e+00 1.123595e+00 1.269005e+00 1.891393e+00
<GCONST> 9.417422e+01
<TRANSP> 5
 0.000000e+00 1.000000e+00 0.000000e+00 0.000000e+00 0.000000e+00
 0.000000e+00 6.000000e-01 4.000000e-01 0.000000e+00 0.000000e+00
 0.000000e+00 0.000000e+00 6.000000e-01 4.000000e-01 0.000000e+00
 0.000000e+00 0.000000e+00 0.000000e+00 7.000000e-01 3.000000e-01
 0.000000e+00 0.000000e+00 0.000000e+00 0.000000e+00 0.000000e+00
<ENDHMM>
~h "p"
<BEGINHMM>
<NUMSTATES> 5
<STATE> 2
<MEAN> 25
 -8.390636e-08 2.051673e-09 7.969690e-08 4.623340e-08 -4.230692e-08 -7.992682e-08 1.259303e-08 3.763759e-08 2.964314e-08 3.961852e-09 9.568580e-09 3.489613e-08 4.393292e-02 1.259483e-02 2.338511e-02 -9.669703e-03 4.142964e-03 -7.841899e-03 2.522888e-02 1.176930e-02 1.451078e-02 -2.016486e-03 -5.010985e-03 -8.989504e-04 5.233088e-02
<VARIANCE> 25
 1.086717e+02 4.408944e+01 2.830351e+01 3.928667e+01 4.007676e+01 3.833020e+01 3.226454e+01 3.081372e+01 5.522676e+01 2.902037e+01 1.853148e+01 2.472725e+01 1.727232e+00 1.379744e+00 9.541185e-01 1.441309e+00 1.402845e+00 1.604629e+00 1.661587e+00 1.408165e+00 2.147006e+00 1.474729e+00 1.123595e+00 1.269005e+00 1.891393e+00
<GCONST> 9.417422e+01
<STATE> 3
<MEAN> 25
 -8.390636e-08 2.051673e-09 7.969690e-08 4.623340e-08 -4.230692e-08 -7.992682e-08 1.259303e-08 3.763759e-08 2.964314e-08 3.961852e-09 9.568580e-09 3.489613e-08 4.393292e-02 1.259483e-02 2.338511e-02 -9.669703e-03 4.142964e-03 -7.841899e-03 2.522888e-02 1.176930e-02 1.451078e-02 -2.016486e-03 -5.010985e-03 -8.989504e-04 5.233088e-02
<VARIANCE> 25
 1.086717e+02 4.408944e+01 2.830351e+01 3.928667e+01 4.007676e+01 3.833020e+01 3.226454e+01 3.081372e+01 5.522676e+01 2.902037e+01 1.853148e+01 2.472725e+01 1.727232e+00 1.379744e+00 9.541185e-01 1.441309e+00 1.402845e+00 1.604629e+00 1.661587e+00 1.408165e+00 2.147006e+00 1.474729e+00 1.123595e+00 1.269005e+00 1.891393e+00
<GCONST> 9.417422e+01
<STATE> 4
<MEAN> 25
 -8.390636e-08 2.051673e-09 7.969690e-08 4.623340e-08 -4.230692e-08 -7.992682e-08 1.259303e-08 3.763759e-08 2.964314e-08 3.961852e-09 9.568580e-09 3.489613e-08 4.393292e-02 1.259483e-02 2.338511e-02 -9.669703e-03 4.142964e-03 -7.841899e-03 2.522888e-02 1.176930e-02 1.451078e-02 -2.016486e-03 -5.010985e-03 -8.989504e-04 5.233088e-02
<VARIANCE> 25
 1.086717e+02 4.408944e+01 2.830351e+01 3.928667e+01 4.007676e+01 3.833020e+01 3.226454e+01 3.081372e+01 5.522676e+01 2.902037e+01 1.853148e+01 2.472725e+01 1.727232e+00 1.379744e+00 9.541185e-01 1.441309e+00 1.402845e+00 1.604629e+00 1.661587e+00 1.408165e+00 2.147006e+00 1.474729e+00 1.123595e+00 1.269005e+00 1.891393e+00
<GCONST> 9.417422e+01
<TRANSP> 5
 0.000000e+00 1.000000e+00 0.000000e+00 0.000000e+00 0.000000e+00
 0.000000e+00 6.000000e-01 4.000000e-01 0.000000e+00 0.000000e+00
 0.000000e+00 0.000000e+00 6.000000e-01 4.000000e-01 0.000000e+00
 0.000000e+00 0.000000e+00 0.000000e+00 7.000000e-01 3.000000e-01
 0.000000e+00 0.000000e+00 0.000000e+00 0.000000e+00 0.000000e+00
<ENDHMM>
~h "ai"
<BEGINHMM>
<NUMSTATES> 5
<STATE> 2
<MEAN> 25
 -8.390636e-08 2.051673e-09 7.969690e-08 4.623340e-08 -4.230692e-08 -7.992682e-08 1.259303e-08 3.763759e-08 2.964314e-08 3.961852e-09 9.568580e-09 3.489613e-08 4.393292e-02 1.259483e-02 2.338511e-02 -9.669703e-03 4.142964e-03 -7.841899e-03 2.522888e-02 1.176930e-02 1.451078e-02 -2.016486e-03 -5.010985e-03 -8.989504e-04 5.233088e-02
<VARIANCE> 25
 1.086717e+02 4.408944e+01 2.830351e+01 3.928667e+01 4.007676e+01 3.833020e+01 3.226454e+01 3.081372e+01 5.522676e+01 2.902037e+01 1.853148e+01 2.472725e+01 1.727232e+00 1.379744e+00 9.541185e-01 1.441309e+00 1.402845e+00 1.604629e+00 1.661587e+00 1.408165e+00 2.147006e+00 1.474729e+00 1.123595e+00 1.269005e+00 1.891393e+00
<GCONST> 9.417422e+01
<STATE> 3
<MEAN> 25
 -8.390636e-08 2.051673e-09 7.969690e-08 4.623340e-08 -4.230692e-08 -7.992682e-08 1.259303e-08 3.763759e-08 2.964314e-08 3.961852e-09 9.568580e-09 3.489613e-08 4.393292e-02 1.259483e-02 2.338511e-02 -9.669703e-03 4.142964e-03 -7.841899e-03 2.522888e-02 1.176930e-02 1.451078e-02 -2.016486e-03 -5.010985e-03 -8.989504e-04 5.233088e-02
<VARIANCE> 25
 1.086717e+02 4.408944e+01 2.830351e+01 3.928667e+01 4.007676e+01 3.833020e+01 3.226454e+01 3.081372e+01 5.522676e+01 2.902037e+01 1.853148e+01 2.472725e+01 1.727232e+00 1.379744e+00 9.541185e-01 1.441309e+00 1.402845e+00 1.604629e+00 1.661587e+00 1.408165e+00 2.147006e+00 1.474729e+00 1.123595e+00 1.269005e+00 1.891393e+00
<GCONST> 9.417422e+01
<STATE> 4
<MEAN> 25
 -8.390636e-08 2.051673e-09 7.969690e-08 4.623340e-08 -4.230692e-08 -7.992682e-08 1.259303e-08 3.763759e-08 2.964314e-08 3.961852e-09 9.568580e-09 3.489613e-08 4.393292e-02 1.259483e-02 2.338511e-02 -9.669703e-03 4.142964e-03 -7.841899e-03 2.522888e-02 1.176930e-02 1.451078e-02 -2.016486e-03 -5.010985e-03 -8.989504e-04 5.233088e-02
<VARIANCE> 25
 1.086717e+02 4.408944e+01 2.830351e+01 3.928667e+01 4.007676e+01 3.833020e+01 3.226454e+01 3.081372e+01 5.522676e+01 2.902037e+01 1.853148e+01 2.472725e+01 1.727232e+00 1.379744e+00 9.541185e-01 1.441309e+00 1.402845e+00 1.604629e+00 1.661587e+00 1.408165e+00 2.147006e+00 1.474729e+00 1.123595e+00 1.269005e+00 1.891393e+00
<GCONST> 9.417422e+01
<TRANSP> 5
 0.000000e+00 1.000000e+00 0.000000e+00 0.000000e+00 0.000000e+00
 0.000000e+00 6.000000e-01 4.000000e-01 0.000000e+00 0.000000e+00
 0.000000e+00 0.000000e+00 6.000000e-01 4.000000e-01 0.000000e+00
 0.000000e+00 0.000000e+00 0.000000e+00 7.000000e-01 3.000000e-01
 0.000000e+00 0.000000e+00 0.000000e+00 0.000000e+00 0.000000e+00
<ENDHMM>
~h "o"
<BEGINHMM>
<NUMSTATES> 5
<STATE> 2
<MEAN> 25
 -8.390636e-08 2.051673e-09 7.969690e-08 4.623340e-08 -4.230692e-08 -7.992682e-08 1.259303e-08 3.763759e-08 2.964314e-08 3.961852e-09 9.568580e-09 3.489613e-08 4.393292e-02 1.259483e-02 2.338511e-02 -9.669703e-03 4.142964e-03 -7.841899e-03 2.522888e-02 1.176930e-02 1.451078e-02 -2.016486e-03 -5.010985e-03 -8.989504e-04 5.233088e-02
<VARIANCE> 25
 1.086717e+02 4.408944e+01 2.830351e+01 3.928667e+01 4.007676e+01 3.833020e+01 3.226454e+01 3.081372e+01 5.522676e+01 2.902037e+01 1.853148e+01 2.472725e+01 1.727232e+00 1.379744e+00 9.541185e-01 1.441309e+00 1.402845e+00 1.604629e+00 1.661587e+00 1.408165e+00 2.147006e+00 1.474729e+00 1.123595e+00 1.269005e+00 1.891393e+00
<GCONST> 9.417422e+01
<STATE> 3
<MEAN> 25
 -8.390636e-08 2.051673e-09 7.969690e-08 4.623340e-08 -4.230692e-08 -7.992682e-08 1.259303e-08 3.763759e-08 2.964314e-08 3.961852e-09 9.568580e-09 3.489613e-08 4.393292e-02 1.259483e-02 2.338511e-02 -9.669703e-03 4.142964e-03 -7.841899e-03 2.522888e-02 1.176930e-02 1.451078e-02 -2.016486e-03 -5.010985e-03 -8.989504e-04 5.233088e-02
<VARIANCE> 25
 1.086717e+02 4.408944e+01 2.830351e+01 3.928667e+01 4.007676e+01 3.833020e+01 3.226454e+01 3.081372e+01 5.522676e+01 2.902037e+01 1.853148e+01 2.472725e+01 1.727232e+00 1.379744e+00 9.541185e-01 1.441309e+00 1.402845e+00 1.604629e+00 1.661587e+00 1.408165e+00 2.147006e+00 1.474729e+00 1.123595e+00 1.269005e+00 1.891393e+00
<GCONST> 9.417422e+01
<STATE> 4
<MEAN> 25
 -8.390636e-08 2.051673e-09 7.969690e-08 4.623340e-08 -4.230692e-08 -7.992682e-08 1.259303e-08 3.763759e-08 2.964314e-08 3.961852e-09 9.568580e-09 3.489613e-08 4.393292e-02 1.259483e-02 2.338511e-02 -9.669703e-03 4.142964e-03 -7.841899e-03 2.522888e-02 1.176930e-02 1.451078e-02 -2.016486e-03 -5.010985e-03 -8.989504e-04 5.233088e-02
<VARIANCE> 25
 1.086717e+02 4.408944e+01 2.830351e+01 3.928667e+01 4.007676e+01 3.833020e+01 3.226454e+01 3.081372e+01 5.522676e+01 2.902037e+01 1.853148e+01 2.472725e+01 1.727232e+00 1.379744e+00 9.541185e-01 1.441309e+00 1.402845e+00 1.604629e+00 1.661587e+00 1.408165e+00 2.147006e+00 1.474729e+00 1.123595e+00 1.269005e+00 1.891393e+00
<GCONST> 9.417422e+01
<TRANSP> 5
 0.000000e+00 1.000000e+00 0.000000e+00 0.000000e+00 0.000000e+00
 0.000000e+00 6.000000e-01 4.000000e-01 0.000000e+00 0.000000e+00
 0.000000e+00 0.000000e+00 6.000000e-01 4.000000e-01 0.000000e+00
 0.000000e+00 0.000000e+00 0.000000e+00 7.000000e-01 3.000000e-01
 0.000000e+00 0.000000e+00 0.000000e+00 0.000000e+00 0.000000e+00
<ENDHMM>
~h "sil"
<BEGINHMM>
<NUMSTATES> 5
<STATE> 2
<MEAN> 25
 -8.390636e-08 2.051673e-09 7.969690e-08 4.623340e-08 -4.230692e-08 -7.992682e-08 1.259303e-08 3.763759e-08 2.964314e-08 3.961852e-09 9.568580e-09 3.489613e-08 4.393292e-02 1.259483e-02 2.338511e-02 -9.669703e-03 4.142964e-03 -7.841899e-03 2.522888e-02 1.176930e-02 1.451078e-02 -2.016486e-03 -5.010985e-03 -8.989504e-04 5.233088e-02
<VARIANCE> 25
 1.086717e+02 4.408944e+01 2.830351e+01 3.928667e+01 4.007676e+01 3.833020e+01 3.226454e+01 3.081372e+01 5.522676e+01 2.902037e+01 1.853148e+01 2.472725e+01 1.727232e+00 1.379744e+00 9.541185e-01 1.441309e+00 1.402845e+00 1.604629e+00 1.661587e+00 1.408165e+00 2.147006e+00 1.474729e+00 1.123595e+00 1.269005e+00 1.891393e+00
<GCONST> 9.417422e+01
<STATE> 3
<MEAN> 25
 -8.390636e-08 2.051673e-09 7.969690e-08 4.623340e-08 -4.230692e-08 -7.992682e-08 1.259303e-08 3.763759e-08 2.964314e-08 3.961852e-09 9.568580e-09 3.489613e-08 4.393292e-02 1.259483e-02 2.338511e-02 -9.669703e-03 4.142964e-03 -7.841899e-03 2.522888e-02 1.176930e-02 1.451078e-02 -2.016486e-03 -5.010985e-03 -8.989504e-04 5.233088e-02
<VARIANCE> 25
 1.086717e+02 4.408944e+01 2.830351e+01 3.928667e+01 4.007676e+01 3.833020e+01 3.226454e+01 3.081372e+01 5.522676e+01 2.902037e+01 1.853148e+01 2.472725e+01 1.727232e+00 1.379744e+00 9.541185e-01 1.441309e+00 1.402845e+00 1.604629e+00 1.661587e+00 1.408165e+00 2.147006e+00 1.474729e+00 1.123595e+00 1.269005e+00 1.891393e+00
<GCONST> 9.417422e+01
<STATE> 4
<MEAN> 25
 -8.390636e-08 2.051673e-09 7.969690e-08 4.623340e-08 -4.230692e-08 -7.992682e-08 1.259303e-08 3.763759e-08 2.964314e-08 3.961852e-09 9.568580e-09 3.489613e-08 4.393292e-02 1.259483e-02 2.338511e-02 -9.669703e-03 4.142964e-03 -7.841899e-03 2.522888e-02 1.176930e-02 1.451078e-02 -2.016486e-03 -5.010985e-03 -8.989504e-04 5.233088e-02
<VARIANCE> 25
 1.086717e+02 4.408944e+01 2.830351e+01 3.928667e+01 4.007676e+01 3.833020e+01 3.226454e+01 3.081372e+01 5.522676e+01 2.902037e+01 1.853148e+01 2.472725e+01 1.727232e+00 1.379744e+00 9.541185e-01 1.441309e+00 1.402845e+00 1.604629e+00 1.661587e+00 1.408165e+00 2.147006e+00 1.474729e+00 1.123595e+00 1.269005e+00 1.891393e+00
<GCONST> 9.417422e+01
<TRANSP> 5
 0.000000e+00 1.000000e+00 0.000000e+00 0.000000e+00 0.000000e+00
 0.000000e+00 6.000000e-01 4.000000e-01 0.000000e+00 0.000000e+00
 0.000000e+00 0.000000e+00 6.000000e-01 4.000000e-01 0.000000e+00
 0.000000e+00 0.000000e+00 0.000000e+00 7.000000e-01 3.000000e-01
 0.000000e+00 0.000000e+00 0.000000e+00 0.000000e+00 0.000000e+00
<ENDHMM>


