~o
<STREAMINFO> 1 25
<VECSIZE> 25<NULLD><MFCC_D_N_Z_0><DIAGC>
~h "a"
<BEGINHMM>
<NUMSTATES> 5
<STATE> 2
<MEAN> 25
 -6.033444e+00 4.706597e+00 -7.006308e-01 -1.377460e+00 1.211319e+00 3.844090e+00 6.580391e-01 -2.030315e+00 4.107361e+00 4.005485e+00 -2.178872e+00 2.297171e+00 3.820586e-01 -1.435579e-01 -2.249973e-01 -2.665684e-01 -3.376392e-01 -1.036266e-01 6.457032e-02 1.081992e-01 -1.506270e-01 -8.394629e-02 1.836367e-02 -1.497956e-01 3.243378e-01
<VARIANCE> 25
 1.953588e+00 2.117109e+00 2.708037e+00 4.554595e+00 5.846212e+00 7.638821e+00 8.006500e+00 8.641743e+00 7.526866e+00 8.769820e+00 5.623296e+00 5.871944e+00 1.520937e+00 3.594811e-01 3.162937e-01 7.128475e-01 1.374171e+00 9.823470e-01 8.412643e-01 1.248002e+00 7.697617e-01 9.049450e-01 7.271832e-01 6.370705e-01 1.074021e+00
<GCONST> 6.279760e+01
<STATE> 3
<MEAN> 25
 -5.667961e+00 4.446933e+00 -1.578472e+00 -2.127710e+00 3.318953e-01 3.499185e+00 3.841534e-01 -1.779723e+00 3.076478e+00 3.551006e+00 -1.882225e+00 2.536011e+00 1.610097e+00 -8.904377e-01 -6.321715e-01 -7.043678e-01 -1.054383e+00 -8.095806e-01 4.096363e-01 2.616279e-01 -7.681898e-01 -5.510263e-01 3.879105e-01 -3.500555e-01 1.581087e+00
<VARIANCE> 25
 3.806150e+00 3.219646e+00 7.108860e+00 7.898518e+00 5.446402e+00 6.418807e+00 1.431101e+01 9.813658e+00 1.084849e+01 7.125536e+00 4.570828e+00 6.971488e+00 6.650976e+00 1.972544e+00 5.357391e-01 2.249704e+00 4.848152e+00 2.224363e+00 1.539173e+00 1.813535e+00 1.644613e+00 1.601139e+00 8.271612e-01 2.077742e+00 6.702089e+00
<GCONST> 7.836658e+01
<STATE> 4
<MEAN> 25
 7.115373e+00 -2.682090e+00 1.632990e+00 2.103895e+00 9.400027e-01 -1.512276e+00 -4.540033e-01 -1.582139e-02 -3.196338e+00 -2.113554e+00 2.582302e+00 -2.094831e+00 1.706427e-01 -1.599877e-01 1.588163e-02 1.729884e-02 -6.445850e-02 -9.181121e-02 5.068883e-02 6.552707e-02 -6.615200e-02 -3.817716e-02 6.800930e-02 -6.391067e-02 2.180161e-01
<VARIANCE> 25
 1.019468e+02 7.120596e+01 3.328399e+01 8.171921e+01 7.940008e+01 5.350385e+01 4.274426e+01 3.211504e+01 6.974379e+01 4.083025e+01 2.389802e+01 2.971144e+01 3.588235e+00 2.934994e+00 1.117963e+00 2.672521e+00 3.370105e+00 3.008327e+00 2.510043e+00 2.323101e+00 2.714679e+00 2.469399e+00 1.740526e+00 1.621454e+00 4.137641e+00
<GCONST> 1.047324e+02
<TRANSP> 5
 0.000000e+00 1.000000e+00 0.000000e+00 0.000000e+00 0.000000e+00
 0.000000e+00 7.624765e-01 2.375235e-01 0.000000e+00 0.000000e+00
 0.000000e+00 0.000000e+00 5.324230e-01 4.675770e-01 0.000000e+00
 0.000000e+00 0.000000e+00 0.000000e+00 9.741423e-01 2.585775e-02
 0.000000e+00 0.000000e+00 0.000000e+00 0.000000e+00 0.000000e+00
<ENDHMM>
~h "i"
<BEGINHMM>
<NUMSTATES> 5
<STATE> 2
<MEAN> 25
 1.137824e+01 -6.892845e+00 6.690713e+00 6.316705e+00 -1.030383e+00 -1.211007e+01 -2.544382e+00 3.690438e+00 -7.778496e+00 -3.978930e+00 2.525598e+00 -6.715607e+00 -2.192152e-01 -2.349018e-01 -1.748430e-01 -7.346221e-01 -2.556533e-01 -1.658125e-01 -1.701703e-01 -2.801934e-02 -1.087085e-01 1.090216e-01 4.456650e-01 4.159421e-01 1.747403e-02
<VARIANCE> 25
 2.283757e+01 2.053268e+01 8.942605e+01 6.895896e+01 2.982297e+01 4.569768e+01 4.578947e+01 2.900958e+01 5.806670e+01 3.164498e+01 3.718050e+01 3.436180e+01 1.554579e+00 2.439992e+00 4.443687e+00 1.994727e+00 2.462949e+00 4.621952e+00 3.265411e+00 2.787809e+00 3.345795e+00 2.305369e+00 1.701035e+00 1.693947e+00 1.560357e+00
<GCONST> 1.016044e+02
<STATE> 3
<MEAN> 25
 1.028255e+01 -7.061345e+00 8.979201e-01 6.824216e-01 -1.393680e+00 -8.899533e+00 -3.306825e+00 2.805780e+00 -6.318537e+00 -2.575847e+00 4.377919e+00 -3.355150e+00 -4.696115e-01 1.044148e-01 -6.056837e-01 -6.781974e-01 1.124442e-01 6.744633e-01 3.464216e-01 2.020470e-01 4.088198e-01 1.096888e-01 -6.249800e-02 4.817160e-01 -4.601382e-01
<VARIANCE> 25
 4.459447e+01 3.138928e+01 7.217180e+01 5.129678e+01 3.437583e+01 7.129314e+01 5.114885e+01 3.642590e+01 9.036613e+01 3.885401e+01 2.497073e+01 4.203002e+01 1.813029e+00 2.670262e+00 1.951757e+00 2.000696e+00 2.356755e+00 2.886002e+00 2.474317e+00 2.442624e+00 3.153083e+00 2.643840e+00 1.632085e+00 2.030152e+00 1.366359e+00
<GCONST> 1.021480e+02
<STATE> 4
<MEAN> 25
 7.041409e+00 -7.609564e+00 -3.924255e+00 -2.503228e+00 -1.934666e+00 -4.154213e+00 5.706404e-01 6.087732e+00 -9.581028e-01 -3.044392e+00 1.300803e+00 -9.181116e-01 -5.476619e-01 2.923609e-01 -3.070782e-01 -2.739605e-01 9.686219e-03 6.141869e-01 5.621634e-01 2.713052e-01 6.353753e-01 2.991036e-02 -4.838060e-01 3.218029e-01 -5.859321e-01
<VARIANCE> 25
 6.394417e+01 4.608776e+01 3.144803e+01 3.526706e+01 2.556495e+01 6.587719e+01 6.753808e+01 6.601763e+01 8.880656e+01 4.318903e+01 4.067465e+01 4.126665e+01 1.914602e+00 2.962973e+00 1.641337e+00 2.009331e+00 1.848103e+00 2.317820e+00 2.339193e+00 2.847053e+00 2.327453e+00 2.415007e+00 1.324606e+00 1.617345e+00 9.262196e-01
<GCONST> 1.011477e+02
<TRANSP> 5
 0.000000e+00 1.000000e+00 0.000000e+00 0.000000e+00 0.000000e+00
 0.000000e+00 8.066813e-01 1.933187e-01 0.000000e+00 0.000000e+00
 0.000000e+00 0.000000e+00 7.400080e-01 2.599920e-01 0.000000e+00
 0.000000e+00 0.000000e+00 0.000000e+00 8.664347e-01 1.335653e-01
 0.000000e+00 0.000000e+00 0.000000e+00 0.000000e+00 0.000000e+00
<ENDHMM>
~h "l"
<BEGINHMM>
<NUMSTATES> 5
<STATE> 2
<MEAN> 25
 -3.186262e+00 2.915346e+00 4.485829e-01 3.522883e-02 1.761302e+00 1.763612e+00 -1.740767e+00 -2.795519e+00 1.201016e+00 1.515627e+00 -1.482162e+00 -1.594974e-01 1.212153e+00 -2.622550e-01 1.164092e-01 4.915574e-01 3.019486e-01 1.557122e-01 -6.515297e-02 -5.491593e-01 -9.027029e-01 -4.697351e-01 3.182103e-01 -5.929830e-01 1.053276e+00
<VARIANCE> 25
 4.680500e+01 7.575769e+00 4.572191e+00 2.777253e+01 1.090559e+01 5.252210e+00 7.254776e+00 8.386024e+00 3.248862e+01 1.310657e+01 7.831635e+00 2.150063e+01 4.365045e+00 8.149085e-01 3.105981e-01 2.079968e+00 9.561431e-01 8.482572e-01 9.422426e-01 2.008858e+00 3.676326e+00 1.237746e+00 8.875576e-01 2.261682e+00 2.930270e+00
<GCONST> 8.054613e+01
<STATE> 3
<MEAN> 25
 -1.820292e+00 1.810892e+00 2.713699e-01 3.416165e-01 1.955715e+00 2.129369e+00 -2.257862e+00 -3.372690e+00 7.637885e-01 1.494862e+00 -4.260018e-02 -3.349187e-01 7.031655e-01 -2.521450e-01 1.919905e-01 4.040580e-01 1.303751e-01 2.274938e-01 1.041391e-01 -2.039147e-01 -5.384638e-01 -2.892227e-01 4.221987e-01 -2.007164e-01 6.559761e-01
<VARIANCE> 25
 7.365250e+01 1.316061e+01 6.320014e+00 3.096999e+01 8.945660e+00 5.842334e+00 5.734245e+00 1.256492e+01 4.407474e+01 1.572534e+01 9.394652e+00 2.099602e+01 3.300546e+00 5.040305e-01 4.301023e-01 1.045011e+00 5.479935e-01 8.672011e-01 7.426108e-01 1.608197e+00 3.236650e+00 1.221353e+00 6.016250e-01 1.157396e+00 2.280893e+00
<GCONST> 7.913948e+01
<STATE> 4
<MEAN> 25
 1.387197e+01 -3.466633e+00 3.842677e+00 8.347769e+00 4.962494e+00 5.957647e+00 1.222617e+00 -7.246589e+00 -1.239198e+01 -5.948136e+00 3.316328e+00 -4.957322e+00 1.096404e+00 -8.273165e-01 1.973316e-01 3.785781e-01 -4.176541e-01 -3.545720e-01 4.571411e-01 2.309597e-01 -1.092929e+00 -5.729876e-01 2.715465e-01 -3.362072e-01 1.211653e+00
<VARIANCE> 25
 5.384702e+01 1.988575e+01 4.899157e+00 1.636673e+01 1.162731e+01 2.700163e+01 1.259789e+01 1.643198e+01 4.102373e+01 1.476876e+01 1.011448e+01 1.336524e+01 2.743443e+00 9.202185e-01 1.017791e+00 2.962808e+00 7.644827e-01 2.055753e+00 1.599148e+00 9.169375e-01 5.270579e+00 1.808605e+00 1.306841e+00 1.124244e+00 2.252828e+00
<GCONST> 8.601897e+01
<TRANSP> 5
 0.000000e+00 1.000000e+00 0.000000e+00 0.000000e+00 0.000000e+00
 0.000000e+00 8.136649e-01 1.863351e-01 0.000000e+00 0.000000e+00
 0.000000e+00 0.000000e+00 8.034560e-01 1.965440e-01 0.000000e+00
 0.000000e+00 0.000000e+00 0.000000e+00 8.556595e-01 1.443404e-01
 0.000000e+00 0.000000e+00 0.000000e+00 0.000000e+00 0.000000e+00
<ENDHMM>
~h "m"
<BEGINHMM>
<NUMSTATES> 5
<STATE> 2
<MEAN> 25
 2.299881e+00 2.507421e+00 -1.031005e+00 -1.132196e+00 -2.609267e-01 2.034377e+00 3.576848e+00 2.285778e+00 1.578222e+00 1.640699e+00 1.356010e+00 2.494015e+00 -2.657461e-01 -2.528404e-02 1.011609e-01 1.003638e-01 -1.873527e-01 1.235549e-01 4.698004e-01 1.824116e-01 -2.053315e-01 -2.997701e-01 -2.926080e-01 -2.815557e-01 -2.337679e-01
<VARIANCE> 25
 1.033749e+02 2.411447e+01 1.615845e+01 3.061830e+01 3.768323e+01 2.612969e+01 2.328888e+01 2.366138e+01 5.028433e+01 3.502608e+01 1.421731e+01 2.855486e+01 2.660630e+00 1.754698e+00 1.341184e+00 1.960845e+00 2.059616e+00 2.152225e+00 2.267005e+00 2.308605e+00 3.584055e+00 1.914635e+00 1.198541e+00 2.791364e+00 2.353390e+00
<GCONST> 9.629775e+01
<STATE> 3
<MEAN> 25
 1.072208e+00 1.842472e+00 -5.345715e-01 -1.356129e-01 -2.892154e-01 1.735339e+00 3.296851e+00 1.673319e+00 1.598709e-01 8.685005e-01 9.741847e-01 1.331549e+00 -1.876675e-02 -6.426646e-02 1.207653e-01 1.920740e-01 -1.393282e-01 -4.483220e-02 2.081601e-01 7.214311e-02 -4.995609e-01 -4.310616e-01 -1.813862e-01 -3.864975e-01 -2.420873e-02
<VARIANCE> 25
 1.032613e+02 2.510820e+01 1.994596e+01 3.327338e+01 3.528686e+01 2.378638e+01 2.411090e+01 1.917253e+01 5.065503e+01 3.692688e+01 1.463326e+01 3.345700e+01 1.872808e+00 1.743202e+00 1.205097e+00 1.623570e+00 1.632123e+00 1.861534e+00 1.715762e+00 1.658156e+00 2.922975e+00 1.658224e+00 1.201030e+00 2.005151e+00 1.727580e+00
<GCONST> 9.391664e+01
<STATE> 4
<MEAN> 25
 1.038845e+01 -2.954984e+00 4.483511e-01 -3.578376e-01 -5.092113e+00 -1.901130e+00 5.725423e+00 3.312478e+00 -7.698492e+00 -2.399452e+00 2.983189e+00 -5.153573e+00 1.702045e-02 -1.631746e-02 -8.595984e-02 -4.288523e-02 4.112653e-02 -1.924799e-01 -5.052275e-02 1.958231e-01 3.258489e-01 7.744124e-02 -2.343641e-01 -1.604580e-01 1.628994e-01
<VARIANCE> 25
 6.018870e+01 5.973388e+01 5.565762e+01 8.170187e+01 6.946229e+01 5.393311e+01 2.411246e+01 5.090575e+01 8.362347e+01 2.744696e+01 2.558885e+01 4.559430e+01 2.817842e+00 2.728420e+00 2.405511e+00 3.239705e+00 2.163027e+00 4.060616e+00 2.641387e+00 2.177896e+00 5.260050e+00 2.062302e+00 1.523394e+00 3.121249e+00 2.833783e+00
<GCONST> 1.056986e+02
<TRANSP> 5
 0.000000e+00 1.000000e+00 0.000000e+00 0.000000e+00 0.000000e+00
 0.000000e+00 6.609074e-01 3.390925e-01 0.000000e+00 0.000000e+00
 0.000000e+00 0.000000e+00 6.734000e-01 3.266000e-01 0.000000e+00
 0.000000e+00 0.000000e+00 0.000000e+00 8.928792e-01 1.071209e-01
 0.000000e+00 0.000000e+00 0.000000e+00 0.000000e+00 0.000000e+00
<ENDHMM>
~h "o"
<BEGINHMM>
<NUMSTATES> 5
<STATE> 2
<MEAN> 25
 1.401636e+01 3.719356e+00 3.232592e+00 2.013060e+00 -1.172071e+01 -1.414471e+01 -3.131548e+00 1.509641e+00 8.138976e-01 -1.387821e+00 -3.459444e+00 -6.461033e+00 -8.893520e-01 3.908260e-01 -2.460101e-02 -8.269130e-02 5.107828e-01 5.013890e-01 -4.507542e-02 -1.181383e-01 1.779401e-01 5.164499e-01 2.131371e-01 4.342983e-01 -8.344392e-01
<VARIANCE> 25
 4.377177e+01 3.533164e+01 7.162564e+00 8.124393e+00 3.341599e+01 6.043373e+01 1.337661e+01 7.985848e+00 2.118122e+01 1.738932e+01 1.211393e+01 1.298130e+01 1.551038e+00 1.107443e+00 9.658372e-01 6.711021e-01 2.381512e+00 4.129040e+00 9.247495e-01 5.231845e-01 1.349282e+00 1.476942e+00 4.858011e-01 1.282536e+00 8.457853e-01
<GCONST> 8.231908e+01
<STATE> 3
<MEAN> 25
 1.628519e+00 7.810399e+00 1.873632e+00 -7.431800e-01 3.671118e-01 2.133133e+00 1.817599e+00 9.119225e-01 2.827533e+00 3.000012e+00 -4.955351e-01 1.773155e+00 -1.420010e+00 -9.533780e-01 -5.728360e-01 4.010891e-02 1.023186e+00 1.327941e+00 6.686363e-01 2.946204e-01 5.420603e-01 2.332247e-01 3.546724e-01 1.175907e+00 -8.532144e-01
<VARIANCE> 25
 5.924885e+01 5.165735e+01 6.227249e+00 8.893984e+00 2.233673e+01 4.305762e+01 1.918504e+01 9.995700e+00 7.648132e+01 3.047859e+01 2.412528e+01 1.552293e+01 1.620884e+00 8.560225e-01 6.605471e-01 1.225729e+00 3.110857e+00 2.924450e+00 9.190736e-01 6.080037e-01 1.818227e+00 1.742219e+00 1.087207e+00 1.870489e+00 5.600507e-01
<GCONST> 8.681782e+01
<STATE> 4
<MEAN> 25
 -5.546123e+00 3.376166e+00 -1.416247e+00 -2.234521e+00 6.929542e-01 3.858237e+00 2.601315e+00 6.414852e-01 5.110542e+00 4.081954e+00 -1.481126e+00 3.466535e+00 -2.795686e-01 -2.642669e-01 -1.203309e-01 1.501679e-02 2.760324e-02 4.763592e-02 -1.060167e-01 -1.059818e-01 -7.584361e-02 3.798625e-02 9.083535e-02 8.845970e-02 -1.552749e-01
<VARIANCE> 25
 1.901266e+01 1.641825e+01 7.946258e+00 5.923476e+00 9.572993e+00 1.197179e+01 1.058250e+01 1.001212e+01 2.184818e+01 1.433546e+01 1.340258e+01 8.532487e+00 3.543160e-01 5.811032e-01 4.645834e-01 5.453989e-01 8.040932e-01 5.899062e-01 6.508037e-01 5.829672e-01 1.073884e+00 1.030351e+00 8.206468e-01 9.490833e-01 1.317150e-01
<GCONST> 6.858860e+01
<TRANSP> 5
 0.000000e+00 1.000000e+00 0.000000e+00 0.000000e+00 0.000000e+00
 0.000000e+00 8.935710e-01 1.064291e-01 0.000000e+00 0.000000e+00
 0.000000e+00 0.000000e+00 4.844538e-01 5.155462e-01 0.000000e+00
 0.000000e+00 0.000000e+00 0.000000e+00 9.042407e-01 9.575938e-02
 0.000000e+00 0.000000e+00 0.000000e+00 0.000000e+00 0.000000e+00
<ENDHMM>
~h "p"
<BEGINHMM>
<NUMSTATES> 5
<STATE> 2
<MEAN> 25
 7.278337e+00 3.182634e-01 -5.975524e-01 -1.309465e+00 -3.205336e+00 -2.253670e+00 5.814107e+00 8.341534e+00 5.662495e+00 3.357061e-01 -2.057360e+00 -3.270197e-01 -2.069302e+00 9.197024e-02 -8.884794e-01 6.990290e-02 1.605427e+00 7.735724e-01 -8.607337e-01 3.398673e-01 9.376777e-01 7.093336e-01 5.047150e-01 1.411479e-01 -1.843662e+00
<VARIANCE> 25
 3.918961e+01 8.204720e+01 2.074508e+01 1.690659e+01 4.334288e+01 4.293513e+01 1.661481e+01 4.753554e+01 2.440770e+01 2.472182e+01 1.235514e+01 1.449516e+01 1.321482e+00 1.950095e+00 1.573953e+00 2.046100e+00 4.178724e+00 4.959455e+00 3.294214e+00 2.356684e+00 1.323898e+00 1.029868e+00 1.488474e+00 2.227690e+00 6.893020e-01
<GCONST> 9.400726e+01
<STATE> 3
<MEAN> 25
 2.587541e+00 6.304285e-01 -1.425735e+00 -5.561056e-01 -2.389165e-01 -2.524853e-02 4.513119e+00 7.448292e+00 6.439536e+00 2.093662e+00 -7.762638e-01 5.912358e-02 -1.635566e+00 -5.505570e-01 -8.654695e-01 -2.523833e-01 4.654859e-01 2.507904e-01 -8.566746e-01 -3.100347e-01 1.119117e-01 1.103777e-01 4.919029e-01 3.598000e-01 -1.215272e+00
<VARIANCE> 25
 2.976455e+01 7.625475e+01 3.394236e+01 1.066503e+01 2.187034e+01 2.155472e+01 1.652951e+01 6.650551e+01 1.535837e+01 2.315008e+01 1.032399e+01 1.669580e+01 2.176529e+00 6.924605e-01 1.033683e+00 1.318431e+00 3.783682e+00 3.816675e+00 1.826953e+00 2.517074e+00 1.364621e+00 7.772043e-01 6.026840e-01 1.200284e+00 9.916921e-01
<GCONST> 8.838969e+01
<STATE> 4
<MEAN> 25
 -3.728967e+00 2.664588e+00 3.484221e-01 9.587737e-01 3.268287e+00 2.252344e+00 1.117639e+00 1.917661e+00 4.825130e+00 2.685776e+00 -3.078789e-01 3.255278e+00 -1.342036e-01 -1.026918e-01 -1.240435e-01 -7.661574e-02 -2.630574e-02 -5.783808e-02 -1.008308e-01 -5.238163e-02 -5.996554e-02 -1.331361e-01 -5.133159e-02 -1.913484e-02 -8.946031e-02
<VARIANCE> 25
 1.771766e+01 1.323019e+01 1.060954e+01 7.631232e+00 1.008470e+01 1.020475e+01 9.209795e+00 2.278909e+01 8.125864e+00 1.008544e+01 7.429045e+00 9.604585e+00 2.134376e+00 6.753860e-01 7.612073e-01 6.447362e-01 8.172377e-01 9.912561e-01 9.811153e-01 1.834098e+00 7.506921e-01 6.355960e-01 6.969567e-01 1.363413e+00 1.184443e+00
<GCONST> 7.386129e+01
<TRANSP> 5
 0.000000e+00 1.000000e+00 0.000000e+00 0.000000e+00 0.000000e+00
 0.000000e+00 4.672383e-01 5.327618e-01 0.000000e+00 0.000000e+00
 0.000000e+00 0.000000e+00 4.272607e-01 5.727393e-01 0.000000e+00
 0.000000e+00 0.000000e+00 0.000000e+00 9.370117e-01 6.298827e-02
 0.000000e+00 0.000000e+00 0.000000e+00 0.000000e+00 0.000000e+00
<ENDHMM>
~h "r"
<BEGINHMM>
<NUMSTATES> 5
<STATE> 2
<MEAN> 25
 -3.816967e+00 1.677298e+00 -3.305832e+00 -3.595771e+00 -1.821948e+00 1.085332e+00 2.397624e+00 2.887192e+00 3.977438e+00 1.304751e+00 -1.759720e+00 2.236397e+00 -3.114326e-01 2.898767e-01 3.430883e-01 1.867556e-01 1.831390e-01 1.660176e-01 -4.214897e-01 -9.519409e-01 -4.977660e-01 1.937237e-03 4.229904e-03 -9.071786e-02 -3.163674e-01
<VARIANCE> 25
 5.431730e+00 8.323161e+00 1.429608e+01 1.533288e+01 1.317489e+01 1.029575e+01 1.741699e+01 2.757366e+01 1.703934e+01 1.882378e+01 9.956402e+00 8.701720e+00 2.102041e-01 7.294779e-01 7.215157e-01 1.152152e+00 6.702147e-01 6.602646e-01 9.200741e-01 9.158182e-01 1.141477e+00 1.132589e+00 8.644226e-01 6.682481e-01 1.357711e-01
<GCONST> 7.112981e+01
<STATE> 3
<MEAN> 25
 -4.904797e+00 2.694994e+00 -1.618917e+00 -2.542042e+00 -7.623900e-01 1.832318e+00 1.046975e+00 1.036855e-01 3.641695e+00 2.056171e+00 -1.559285e+00 2.136137e+00 -1.616806e-01 2.069860e-01 2.338376e-01 8.291772e-02 1.081587e-01 2.008779e-01 -9.922931e-02 -3.977698e-01 -1.035143e-01 7.755736e-02 5.853589e-02 1.776396e-02 -1.577462e-01
<VARIANCE> 25
 3.332991e+00 4.398263e+00 9.492458e+00 1.092753e+01 9.532280e+00 5.618420e+00 1.288145e+01 1.757116e+01 1.008015e+01 1.251843e+01 6.807170e+00 7.541881e+00 1.025430e-01 3.014942e-01 4.666112e-01 4.398432e-01 3.751020e-01 4.511831e-01 6.829401e-01 1.033193e+00 1.120254e+00 7.617664e-01 6.975886e-01 8.715812e-01 5.912270e-02
<GCONST> 6.078329e+01
<STATE> 4
<MEAN> 25
 -5.770306e+00 3.281037e+00 -2.434857e-01 -1.098872e+00 9.429363e-01 3.102526e+00 2.408544e-02 -1.540878e+00 3.838777e+00 3.043698e+00 -9.707714e-01 2.308512e+00 -5.732967e-02 1.691328e-02 5.675644e-02 7.801613e-02 8.870836e-02 7.639343e-02 -5.863673e-02 -1.465386e-01 -2.962612e-03 5.394565e-02 2.652955e-02 1.039047e-02 -4.296267e-02
<VARIANCE> 25
 1.549093e+00 2.093050e+00 4.630278e+00 7.411152e+00 7.088206e+00 4.605747e+00 9.775641e+00 1.121115e+01 9.445217e+00 9.084621e+00 7.054820e+00 7.214284e+00 1.154391e-01 1.810482e-01 2.504204e-01 4.454019e-01 3.713764e-01 4.107324e-01 7.853091e-01 9.664542e-01 1.112383e+00 7.454214e-01 8.565704e-01 8.411024e-01 4.652457e-02
<GCONST> 5.542274e+01
<TRANSP> 5
 0.000000e+00 1.000000e+00 0.000000e+00 0.000000e+00 0.000000e+00
 0.000000e+00 6.341448e-01 3.658552e-01 0.000000e+00 0.000000e+00
 0.000000e+00 0.000000e+00 7.665071e-01 2.334929e-01 0.000000e+00
 0.000000e+00 0.000000e+00 0.000000e+00 9.128395e-01 8.716050e-02
 0.000000e+00 0.000000e+00 0.000000e+00 0.000000e+00 0.000000e+00
<ENDHMM>
~h "t"
<BEGINHMM>
<NUMSTATES> 5
<STATE> 2
<MEAN> 25
 8.436699e+00 -3.608060e+00 4.705992e+00 5.122797e+00 5.236660e+00 -3.234194e+00 -4.657341e+00 -1.818402e+00 -7.528036e+00 -5.218816e+00 2.302377e+00 -5.732620e+00 1.501423e-01 -4.758926e-01 1.261033e-01 -1.163914e-01 -6.836490e-02 -4.263649e-01 -3.109741e-01 1.532116e-01 -4.542637e-02 -3.312346e-01 9.078598e-02 1.174186e-01 4.554335e-01
<VARIANCE> 25
 6.130979e+01 5.448011e+01 2.535614e+01 2.760157e+01 2.166345e+01 4.644595e+01 7.344133e+01 1.575446e+01 6.193560e+01 3.986837e+01 2.089478e+01 2.523708e+01 4.523135e+00 5.766043e+00 2.547944e+00 2.446351e+00 1.771285e+00 4.586976e+00 5.521899e+00 2.071078e+00 4.946175e+00 4.132566e+00 2.145961e+00 2.160561e+00 8.386230e+00
<GCONST> 1.049595e+02
<STATE> 3
<MEAN> 25
 1.021851e+01 -7.037353e+00 4.628216e+00 2.409706e+00 2.821795e+00 -5.269345e+00 -5.616618e+00 -1.244901e+00 -8.058385e+00 -6.847994e+00 2.913916e+00 -4.352045e+00 5.842177e-01 -1.846520e-01 -3.396822e-01 -5.409719e-01 -7.124171e-01 -2.112431e-01 3.707974e-01 1.725025e-01 -5.223327e-02 -9.934311e-02 1.915670e-02 3.444819e-02 5.588564e-01
<VARIANCE> 25
 6.630786e+01 4.650657e+01 2.788706e+01 4.378650e+01 5.020884e+01 2.496572e+01 6.200096e+01 2.137218e+01 7.137928e+01 4.105980e+01 2.069351e+01 2.362198e+01 3.640264e+00 3.777277e+00 2.085250e+00 2.934475e+00 2.547872e+00 2.663263e+00 3.353986e+00 2.693540e+00 5.626048e+00 3.617742e+00 2.092541e+00 2.078772e+00 5.528987e+00
<GCONST> 1.043280e+02
<STATE> 4
<MEAN> 25
 1.650258e+01 -4.995677e+00 -3.754853e+00 -7.771369e+00 -1.048271e+01 -7.096912e+00 5.066468e+00 6.912352e+00 -5.832170e+00 -5.767131e+00 2.661674e+00 -4.059985e+00 -5.961951e-01 7.889383e-01 -2.622598e-01 -1.220584e-01 -2.431597e-01 2.085180e-01 3.089932e-01 3.347042e-01 6.038336e-01 3.569584e-01 -3.923282e-01 9.126216e-02 -1.055463e+00
<VARIANCE> 25
 2.619891e+01 5.013750e+01 2.743383e+01 3.986696e+01 3.629922e+01 1.967752e+01 4.203252e+01 3.551586e+01 4.419891e+01 1.864038e+01 2.957732e+01 2.626354e+01 1.970340e+00 1.340265e+00 1.010399e+00 1.390852e+00 2.151420e+00 1.860936e+00 1.433981e+00 1.607561e+00 2.323467e+00 1.565261e+00 1.134538e+00 1.825671e+00 1.633212e+00
<GCONST> 9.341719e+01
<TRANSP> 5
 0.000000e+00 1.000000e+00 0.000000e+00 0.000000e+00 0.000000e+00
 0.000000e+00 9.254677e-01 7.453223e-02 0.000000e+00 0.000000e+00
 0.000000e+00 0.000000e+00 8.995538e-01 1.004462e-01 0.000000e+00
 0.000000e+00 0.000000e+00 0.000000e+00 9.106038e-01 8.939625e-02
 0.000000e+00 0.000000e+00 0.000000e+00 0.000000e+00 0.000000e+00
<ENDHMM>
~h "ai"
<BEGINHMM>
<NUMSTATES> 5
<STATE> 2
<MEAN> 25
 -7.694587e-01 -5.501202e+00 -6.543085e+00 -5.544226e+00 -3.216382e-01 1.748905e+00 7.694004e+00 1.172319e+01 4.215731e+00 -5.714086e+00 -2.455860e+00 4.644594e+00 -3.770332e-01 8.663576e-01 1.286127e-01 -4.022966e-02 -3.786505e-02 3.028688e-01 -1.377685e-01 -6.016843e-01 -2.989035e-01 1.601031e-01 -8.152746e-02 2.863071e-02 -7.023587e-01
<VARIANCE> 25
 1.254298e+01 2.838586e+01 1.516939e+01 1.104911e+01 1.609745e+01 9.253010e+00 3.085337e+01 3.029021e+01 2.538201e+01 2.099513e+01 3.052376e+01 2.086058e+01 8.561417e-01 8.658313e-01 9.740252e-01 9.149932e-01 1.101236e+00 7.520196e-01 1.889033e+00 1.501227e+00 7.227862e-01 1.001806e+00 2.327900e+00 1.024104e+00 3.377289e-01
<GCONST> 8.142167e+01
<STATE> 3
<MEAN> 25
 -1.429415e+00 -2.875971e+00 -6.849722e+00 -6.079670e+00 -1.918641e+00 1.976498e+00 7.297907e+00 9.518589e+00 2.713485e+00 -5.148571e+00 -2.704355e+00 4.052608e+00 -3.693432e-01 8.356538e-01 1.347289e-01 -4.231741e-02 -2.885069e-01 2.179810e-02 -5.305262e-01 -1.007403e+00 -4.336716e-01 4.399793e-01 2.445238e-01 3.269727e-02 -6.968750e-01
<VARIANCE> 25
 5.211218e+00 2.405635e+01 1.413567e+01 9.114536e+00 1.235160e+01 7.073398e+00 2.148729e+01 2.784833e+01 2.175737e+01 2.142015e+01 1.646994e+01 1.327099e+01 5.700658e-01 9.020416e-01 9.539056e-01 1.062415e+00 9.766196e-01 6.538908e-01 2.098630e+00 1.335430e+00 1.280213e+00 1.120472e+00 2.263888e+00 1.184584e+00 2.372218e-01
<GCONST> 7.787129e+01
<STATE> 4
<MEAN> 25
 -1.790735e+00 2.675528e-01 -7.650030e+00 -7.711904e+00 -4.200395e+00 1.309220e+00 5.218719e+00 5.403003e+00 1.624653e+00 -2.908519e+00 -2.796386e+00 3.222070e+00 -3.335146e-01 5.833454e-01 2.963598e-01 4.751340e-02 -1.039476e-01 3.049295e-02 -5.720995e-01 -9.381528e-01 -1.772262e-01 5.363512e-01 6.238834e-02 -1.210257e-01 -4.930316e-01
<VARIANCE> 25
 3.887508e+00 1.537945e+01 1.345543e+01 1.069619e+01 1.086942e+01 4.931507e+00 1.718799e+01 2.342007e+01 1.433795e+01 2.060643e+01 8.915700e+00 7.364223e+00 2.952335e-01 5.297581e-01 8.594412e-01 1.133512e+00 8.663944e-01 5.065700e-01 1.088574e+00 7.709484e-01 1.361529e+00 1.046552e+00 1.390963e+00 7.288554e-01 1.548222e-01
<GCONST> 7.048147e+01
<TRANSP> 5
 0.000000e+00 1.000000e+00 0.000000e+00 0.000000e+00 0.000000e+00
 0.000000e+00 6.329941e-01 3.670059e-01 0.000000e+00 0.000000e+00
 0.000000e+00 0.000000e+00 5.938736e-01 4.061264e-01 0.000000e+00
 0.000000e+00 0.000000e+00 0.000000e+00 7.043349e-01 2.956651e-01
 0.000000e+00 0.000000e+00 0.000000e+00 0.000000e+00 0.000000e+00
<ENDHMM>
~h "am"
<BEGINHMM>
<NUMSTATES> 5
<STATE> 2
<MEAN> 25
 1.564031e+01 -6.595924e+00 3.364335e+00 5.279354e+00 -1.197110e+00 -1.798406e+00 2.605583e+00 -2.188231e+00 -1.418191e+01 -7.261100e+00 2.827665e+00 -5.486935e+00 9.787893e-01 -6.524029e-01 -1.328752e-02 -9.057465e-01 -1.210867e+00 -1.662026e+00 3.142103e-01 1.054087e+00 -6.771502e-01 -4.556723e-01 -1.048941e-01 -2.944338e-01 1.270284e+00
<VARIANCE> 25
 4.373854e+01 2.475411e+01 1.073895e+01 6.638840e+01 2.740867e+01 5.091389e+01 4.063605e+01 2.804201e+01 4.273993e+01 1.365553e+01 1.147932e+01 1.678767e+01 2.785691e+00 1.606200e+00 1.182429e+00 7.313931e+00 8.993652e-01 1.943004e+00 3.785791e+00 1.376630e+00 8.263187e+00 2.809089e+00 1.753342e+00 2.175555e+00 2.823041e+00
<GCONST> 9.679945e+01
<STATE> 3
<MEAN> 25
 1.781277e+01 -6.956929e+00 2.568778e+00 2.410586e-01 -7.446444e+00 -8.636478e+00 2.926551e+00 2.070876e+00 -1.176422e+01 -6.057168e+00 2.802161e+00 -4.469859e+00 2.562777e-01 2.535418e-01 -1.668018e-02 -6.034883e-01 -1.169965e+00 -1.130436e+00 2.867287e-01 7.742757e-01 5.219158e-01 2.808372e-01 5.977199e-03 2.964386e-01 1.606226e-01
<VARIANCE> 25
 1.696368e+01 2.641867e+01 2.000319e+01 8.779063e+01 4.303109e+01 4.055907e+01 4.914236e+01 3.304068e+01 7.542618e+01 3.095238e+01 9.449640e+00 1.466668e+01 1.063164e+00 2.928647e+00 9.735599e-01 5.798492e+00 1.740285e+00 1.903211e+00 2.799038e+00 2.829933e+00 5.379174e+00 2.452926e+00 1.722262e+00 1.650907e+00 2.632972e+00
<GCONST> 9.779383e+01
<STATE> 4
<MEAN> 25
 1.598189e+01 -4.482418e+00 3.885281e+00 8.548099e-01 -1.126949e+01 -9.699720e+00 6.527071e+00 3.749372e+00 -7.368909e+00 -4.230026e+00 7.550781e-01 -1.914373e+00 -5.587441e-01 4.796647e-01 -1.560972e-01 -1.054715e-01 2.924803e-01 5.334448e-01 1.680413e-01 2.018287e-01 1.071691e+00 4.277364e-01 -3.363936e-01 2.362233e-01 -6.893584e-01
<VARIANCE> 25
 1.986769e+01 3.788914e+01 3.031147e+01 6.589650e+01 4.012167e+01 4.164491e+01 3.869881e+01 1.855468e+01 9.612650e+01 4.903679e+01 1.547581e+01 1.059892e+01 1.688151e+00 2.143634e+00 1.602688e+00 3.275446e+00 4.464362e+00 4.308845e+00 3.575225e+00 1.951781e+00 3.466239e+00 3.084450e+00 1.648282e+00 1.257525e+00 1.738981e+00
<GCONST> 9.922165e+01
<TRANSP> 5
 0.000000e+00 1.000000e+00 0.000000e+00 0.000000e+00 0.000000e+00
 0.000000e+00 7.311842e-01 2.688158e-01 0.000000e+00 0.000000e+00
 0.000000e+00 0.000000e+00 7.898676e-01 2.101323e-01 0.000000e+00
 0.000000e+00 0.000000e+00 0.000000e+00 9.327919e-01 6.720805e-02
 0.000000e+00 0.000000e+00 0.000000e+00 0.000000e+00 0.000000e+00
<ENDHMM>
~h "ch"
<BEGINHMM>
<NUMSTATES> 5
<STATE> 2
<MEAN> 25
 3.364828e+00 1.304870e+00 -1.417940e+00 -5.270219e-01 -1.540698e+00 -6.061126e-01 2.008925e+00 1.372755e+00 -1.378244e+00 1.225498e+00 6.987091e-01 4.429134e-01 -1.650719e+00 7.300552e-01 -1.157115e-01 -8.139417e-01 -4.365708e-02 9.069573e-01 1.869896e-01 -4.375270e-01 1.529364e+00 7.018149e-01 -9.075750e-01 9.278580e-01 -1.061441e+00
<VARIANCE> 25
 6.734247e+01 5.703407e+01 2.831597e+01 6.869822e+01 4.351463e+01 4.384986e+01 1.254541e+01 2.213087e+01 4.130350e+01 1.612955e+01 1.022196e+01 2.686558e+01 3.205861e+00 1.691550e+00 1.745907e+00 2.388109e+00 1.746719e+00 2.413080e+00 5.081712e-01 1.491807e+00 4.152912e+00 1.903595e+00 1.333950e+00 3.438188e+00 3.983681e+00
<GCONST> 9.632365e+01
<STATE> 3
<MEAN> 25
 -2.654511e-01 2.271156e+00 -1.765929e+00 -1.915623e+00 -1.326606e+00 1.289304e+00 1.999307e+00 3.246037e-01 1.634508e+00 2.146698e+00 -8.081260e-01 2.087304e+00 -9.466908e-01 1.542339e-02 -3.234969e-01 -5.564141e-01 -1.626878e-01 4.796590e-01 1.025717e-01 -2.226847e-01 9.619346e-01 1.927880e-01 -5.743609e-01 2.529371e-01 -6.124406e-01
<VARIANCE> 25
 5.512691e+01 4.838302e+01 1.539953e+01 4.682577e+01 3.963113e+01 3.011427e+01 1.031404e+01 2.021699e+01 3.365927e+01 1.593105e+01 9.877923e+00 1.688067e+01 2.986966e+00 1.193684e+00 2.059187e+00 2.235225e+00 1.150506e+00 1.304627e+00 7.096863e-01 1.494264e+00 3.340835e+00 1.157162e+00 1.259884e+00 2.075116e+00 2.335748e+00
<GCONST> 9.066651e+01
<STATE> 4
<MEAN> 25
 8.810000e+00 -3.807320e+00 -2.888693e+00 -2.323378e+00 -6.725132e+00 -2.468900e+00 4.780867e+00 4.423422e+00 -4.750074e+00 -3.498608e+00 3.391018e-01 -2.184879e+00 -1.475872e-02 -1.019047e-02 -1.854895e-01 -1.341693e-01 -1.269238e-01 -3.387794e-02 1.367462e-01 2.111139e-01 6.523500e-02 -6.209324e-02 -5.941627e-02 -1.284250e-02 -1.131545e-01
<VARIANCE> 25
 9.832726e+01 4.763200e+01 3.407632e+01 8.047390e+01 4.612828e+01 2.907769e+01 2.495590e+01 6.933330e+01 9.129044e+01 3.952116e+01 2.299552e+01 2.843781e+01 2.680770e+00 1.617180e+00 1.505629e+00 2.324781e+00 1.310104e+00 1.113747e+00 1.524812e+00 1.224747e+00 3.210426e+00 2.094666e+00 1.043752e+00 1.679087e+00 2.803919e+00
<GCONST> 9.886655e+01
<TRANSP> 5
 0.000000e+00 1.000000e+00 0.000000e+00 0.000000e+00 0.000000e+00
 0.000000e+00 5.033167e-01 4.966833e-01 0.000000e+00 0.000000e+00
 0.000000e+00 0.000000e+00 5.550675e-01 4.449325e-01 0.000000e+00
 0.000000e+00 0.000000e+00 0.000000e+00 9.736655e-01 2.633449e-02
 0.000000e+00 0.000000e+00 0.000000e+00 0.000000e+00 0.000000e+00
<ENDHMM>
~h "eh"
<BEGINHMM>
<NUMSTATES> 5
<STATE> 2
<MEAN> 25
 1.254771e+00 3.203909e+00 1.064132e+00 1.618290e+00 1.177186e+00 1.702733e+00 1.187559e+00 -1.357102e+00 -2.193879e-01 1.478304e+00 -8.739705e-01 -1.936209e+00 9.272352e-01 1.325463e-02 1.643821e-01 3.253341e-01 2.934754e-01 -1.372058e-02 -1.357738e-01 -4.520630e-01 -9.143550e-01 -9.135015e-02 4.088517e-01 -3.789453e-01 7.281290e-01
<VARIANCE> 25
 8.900372e+01 5.057385e+01 1.557781e+01 2.353795e+01 3.201783e+01 4.709318e+01 2.619833e+01 1.985224e+01 6.087309e+01 2.591582e+01 1.616655e+01 3.983829e+01 3.590210e+00 2.480923e+00 1.434753e+00 2.604030e+00 1.698397e+00 3.147823e+00 2.200944e+00 1.968266e+00 4.642925e+00 1.914806e+00 1.839572e+00 2.646897e+00 3.208260e+00
<GCONST> 9.924831e+01
<STATE> 3
<MEAN> 25
 4.363128e+00 3.364562e+00 1.346157e+00 1.940399e+00 1.649376e+00 1.979602e+00 8.635156e-01 -2.889860e+00 -2.595690e+00 1.079957e+00 -1.113881e-02 -3.342954e+00 8.907894e-01 -2.070172e-01 1.013102e-01 5.532406e-02 2.364093e-02 -1.322023e-01 -1.312233e-01 -1.955377e-01 -7.874269e-01 -3.247348e-01 3.236914e-01 -3.867886e-01 8.226780e-01
<VARIANCE> 25
 1.011499e+02 5.318074e+01 1.543524e+01 2.007610e+01 3.231328e+01 5.972121e+01 3.689046e+01 1.961667e+01 7.010152e+01 3.825117e+01 1.988224e+01 4.752124e+01 4.060981e+00 2.098861e+00 1.599349e+00 2.002662e+00 1.675085e+00 3.135662e+00 2.256305e+00 1.482006e+00 5.441653e+00 2.217674e+00 2.132503e+00 2.638513e+00 4.153162e+00
<GCONST> 1.009827e+02
<STATE> 4
<MEAN> 25
 9.804327e+00 -5.967965e-01 4.078554e+00 3.398841e+00 1.528121e+00 -2.155933e+00 -1.624588e+00 -1.638576e+00 -7.645780e+00 -3.689162e+00 2.138231e+00 -6.527321e+00 3.376185e-01 -9.824355e-02 1.693825e-01 7.477855e-02 -1.492562e-01 -2.448564e-01 7.719649e-02 2.444085e-01 -3.840317e-02 -2.743667e-01 -6.284586e-02 -1.394403e-01 3.662214e-01
<VARIANCE> 25
 6.989696e+01 7.155067e+01 2.402200e+01 2.267759e+01 4.901934e+01 7.208932e+01 6.016237e+01 1.582673e+01 8.267113e+01 5.128045e+01 3.770653e+01 3.647247e+01 4.093660e+00 2.923259e+00 1.927019e+00 1.333168e+00 1.893581e+00 3.754539e+00 2.598235e+00 1.205461e+00 5.492665e+00 3.148597e+00 2.097992e+00 2.534498e+00 5.371628e+00
<GCONST> 1.041034e+02
<TRANSP> 5
 0.000000e+00 1.000000e+00 0.000000e+00 0.000000e+00 0.000000e+00
 0.000000e+00 6.685604e-01 3.314396e-01 0.000000e+00 0.000000e+00
 0.000000e+00 0.000000e+00 6.437432e-01 3.562568e-01 0.000000e+00
 0.000000e+00 0.000000e+00 0.000000e+00 7.457849e-01 2.542151e-01
 0.000000e+00 0.000000e+00 0.000000e+00 0.000000e+00 0.000000e+00
<ENDHMM>
~h "eu"
<BEGINHMM>
<NUMSTATES> 5
<STATE> 2
<MEAN> 25
 4.093638e+00 -1.495245e+00 2.195277e-01 -1.603897e-01 -6.853325e-01 -1.615158e+00 7.122260e-01 -2.390746e+00 -6.670616e+00 -1.676835e+00 2.333255e+00 -5.105724e-01 1.729948e+00 -9.776248e-01 1.123135e-01 -1.480765e-01 -6.082045e-01 -1.216832e+00 2.925202e-01 1.165936e-01 -1.364433e+00 -7.506939e-01 5.590262e-01 -3.369067e-01 2.042154e+00
<VARIANCE> 25
 1.168622e+02 4.817026e+01 7.685755e+00 5.755683e+00 1.084660e+01 3.716868e+01 2.557377e+01 2.487827e+01 8.687684e+01 2.305735e+01 2.120227e+01 1.924813e+01 5.316634e+00 3.656318e+00 8.927437e-01 5.485355e-01 1.436574e+00 2.433335e+00 1.473075e+00 1.629980e+00 4.215159e+00 2.501458e+00 1.847690e+00 1.630911e+00 7.190407e+00
<GCONST> 9.425325e+01
<STATE> 3
<MEAN> 25
 5.731640e+00 -5.089713e+00 1.944992e-01 -5.547966e-01 -1.168842e+00 -3.265894e+00 1.954077e+00 -5.946945e-01 -8.287943e+00 -2.350506e+00 3.632914e+00 -9.700994e-01 6.431048e-01 -5.817665e-02 2.186287e-01 -1.741481e-01 -1.789960e-01 -6.043594e-01 -2.223202e-01 -4.494704e-02 -3.037927e-01 -1.795528e-03 1.253586e-01 -2.497587e-01 6.877279e-01
<VARIANCE> 25
 1.314702e+02 3.484811e+01 9.757713e+00 7.666099e+00 1.303145e+01 2.956146e+01 1.775255e+01 2.645908e+01 8.443398e+01 2.184459e+01 1.422626e+01 1.425412e+01 2.975712e+00 3.427259e+00 9.122294e-01 8.051834e-01 1.296095e+00 2.391387e+00 1.295979e+00 1.341134e+00 3.918682e+00 1.683347e+00 1.294956e+00 7.706177e-01 4.440632e+00
<GCONST> 9.070255e+01
<STATE> 4
<MEAN> 25
 8.924787e+00 -5.358833e+00 1.483063e+00 -4.332747e+00 -5.171484e+00 -6.826219e+00 1.701408e+00 8.410631e+00 8.103160e-01 -3.740566e+00 1.352928e+00 -1.262035e+00 -2.550646e-01 1.250040e-01 -1.360045e-01 -6.652548e-02 -2.723840e-02 7.904385e-02 6.488017e-02 2.340530e-01 4.443890e-01 1.513544e-01 -1.591778e-01 6.833299e-02 -3.116303e-01
<VARIANCE> 25
 7.149956e+01 2.624375e+01 1.858408e+01 1.692215e+01 2.421227e+01 1.880552e+01 2.874517e+01 1.527861e+02 1.921565e+02 2.221741e+01 3.862838e+01 1.676005e+01 2.528529e+00 2.334023e+00 1.250163e+00 1.690170e+00 2.369145e+00 1.557968e+00 2.050890e+00 4.004292e+00 4.179435e+00 1.889375e+00 1.789257e+00 1.259900e+00 2.320304e+00
<GCONST> 9.823150e+01
<TRANSP> 5
 0.000000e+00 1.000000e+00 0.000000e+00 0.000000e+00 0.000000e+00
 0.000000e+00 7.137287e-01 2.862713e-01 0.000000e+00 0.000000e+00
 0.000000e+00 0.000000e+00 6.614133e-01 3.385868e-01 0.000000e+00
 0.000000e+00 0.000000e+00 0.000000e+00 9.750101e-01 2.498990e-02
 0.000000e+00 0.000000e+00 0.000000e+00 0.000000e+00 0.000000e+00
<ENDHMM>
~h "ff"
<BEGINHMM>
<NUMSTATES> 5
<STATE> 2
<MEAN> 25
 9.474901e+00 -1.110760e+00 -8.704462e-01 -3.852491e+00 -1.234911e+00 -3.880836e+00 5.888433e+00 3.550923e+00 -2.200718e+00 -4.958281e-01 4.353842e+00 -1.480169e+00 8.815036e-01 -7.638413e-01 4.679557e-01 1.773039e-01 5.525067e-02 -9.122058e-01 2.682663e-01 8.909739e-01 -2.652823e-01 -5.213524e-01 6.391662e-01 -5.056268e-01 1.510019e+00
<VARIANCE> 25
 7.120892e+01 2.453445e+01 3.997343e+01 4.358545e+01 9.462064e+01 2.080082e+01 2.798219e+01 2.087725e+01 4.418637e+01 2.037225e+01 2.292596e+01 1.742198e+01 1.082868e+01 4.150377e+00 1.801795e+00 2.858940e+00 5.374852e+00 3.110067e+00 3.192624e+00 2.528745e+00 5.034413e+00 2.163414e+00 2.582623e+00 1.807490e+00 8.233419e+00
<GCONST> 1.040098e+02
<STATE> 3
<MEAN> 25
 8.734086e+00 -2.422661e+00 1.793157e+00 -3.665718e+00 9.004556e-01 -5.110311e+00 5.174635e+00 5.115068e+00 -4.373907e-01 -7.724770e-01 6.062478e+00 -1.785498e+00 -4.804987e-03 -3.636850e-01 7.001821e-01 5.036177e-01 6.385406e-01 -3.440977e-01 -1.641901e-01 1.896539e-01 8.836636e-02 -2.529667e-01 3.299012e-01 -1.340511e-01 6.298829e-01
<VARIANCE> 25
 7.686221e+01 2.663816e+01 3.456343e+01 4.518391e+01 1.067027e+02 1.597493e+01 3.016765e+01 1.503783e+01 5.992121e+01 1.815714e+01 1.856241e+01 1.309517e+01 6.094807e+00 3.112236e+00 1.844697e+00 3.509857e+00 3.390027e+00 2.962765e+00 3.275293e+00 2.379278e+00 3.118484e+00 1.636280e+00 2.159632e+00 1.494949e+00 4.510503e+00
<GCONST> 1.004477e+02
<STATE> 4
<MEAN> 25
 2.589377e+00 -1.230835e+01 1.080245e+01 7.075710e+00 3.073035e+00 -7.579621e+00 1.974905e-01 2.585172e+00 1.084013e-01 -4.669995e+00 4.228973e+00 -1.171969e+00 -5.095065e-03 -8.764277e-02 2.013870e-03 1.515307e-01 -6.820365e-02 -8.757115e-02 -1.823571e-01 -6.311246e-02 -9.637592e-02 -4.204288e-04 -2.303528e-03 -1.433735e-02 -6.141298e-02
<VARIANCE> 25
 7.761134e+01 8.222630e+01 3.376656e+01 6.960590e+01 3.455089e+01 2.764403e+01 2.582393e+01 2.355184e+01 8.500646e+01 3.191357e+01 1.465283e+01 1.412793e+01 2.903387e+00 3.296565e+00 2.195462e+00 3.111231e+00 1.673627e+00 2.127097e+00 1.886832e+00 1.755221e+00 3.511810e+00 1.876935e+00 1.777492e+00 1.780378e+00 1.319516e+00
<GCONST> 9.894382e+01
<TRANSP> 5
 0.000000e+00 1.000000e+00 0.000000e+00 0.000000e+00 0.000000e+00
 0.000000e+00 5.848991e-01 4.151009e-01 0.000000e+00 0.000000e+00
 0.000000e+00 0.000000e+00 7.819595e-01 2.180405e-01 0.000000e+00
 0.000000e+00 0.000000e+00 0.000000e+00 9.730826e-01 2.691738e-02
 0.000000e+00 0.000000e+00 0.000000e+00 0.000000e+00 0.000000e+00
<ENDHMM>
~h "la"
<BEGINHMM>
<NUMSTATES> 5
<STATE> 2
<MEAN> 25
 7.380912e+00 -3.633263e+00 -2.854322e+00 -2.326730e+00 -5.220857e+00 -3.753796e+00 4.830519e+00 4.019863e+00 -2.257911e+00 -3.251064e+00 4.007961e-01 -1.578217e+00 -5.504038e-03 6.614354e-02 -8.834133e-02 -1.038947e-01 -6.449389e-02 1.452064e-02 6.063689e-02 5.435871e-02 2.931158e-02 -6.572828e-03 -2.938757e-02 -4.917492e-02 -1.615469e-01
<VARIANCE> 25
 9.532391e+01 4.577275e+01 5.324664e+01 7.648269e+01 4.232927e+01 2.893224e+01 2.355321e+01 3.349589e+01 8.034850e+01 3.757301e+01 1.754962e+01 2.778326e+01 2.524559e+00 1.581844e+00 1.573261e+00 2.820650e+00 1.687925e+00 1.509514e+00 2.771933e+00 1.213581e+00 3.142473e+00 1.943098e+00 1.303230e+00 1.684728e+00 2.455238e+00
<GCONST> 9.914029e+01
<STATE> 3
<MEAN> 25
 -2.105152e-01 1.001571e-01 -7.213674e+00 -6.712366e+00 -5.176949e+00 -7.924013e-01 5.673759e+00 6.695062e+00 4.190646e+00 -5.706478e-01 -2.410122e+00 6.839871e-01 -9.132870e-01 8.349949e-01 8.594961e-01 4.164913e-01 6.796287e-01 7.665261e-01 -2.923026e-01 -7.020695e-01 -6.291696e-02 1.676350e-01 -1.597601e-01 2.204097e-01 -8.968793e-01
<VARIANCE> 25
 2.843516e+01 2.186772e+01 1.783500e+01 2.466710e+01 1.573779e+01 2.566708e+01 1.497239e+01 2.044480e+01 1.902098e+01 1.595202e+01 1.564288e+01 1.272553e+01 6.532521e-01 1.071129e+00 9.468853e-01 1.633660e+00 1.312716e+00 1.742105e+00 1.704077e+00 1.223077e+00 1.438177e+00 1.430332e+00 7.385505e-01 8.548331e-01 5.881215e-01
<GCONST> 8.257146e+01
<STATE> 4
<MEAN> 25
 -5.481425e+00 4.265452e+00 -1.227696e+00 -1.939263e+00 2.974538e-01 2.994628e+00 6.759390e-01 -1.994776e-01 4.150451e+00 2.537731e+00 -1.953670e+00 2.101910e+00 -1.456198e-01 1.176792e-01 2.914708e-01 2.664853e-01 2.687181e-01 1.046841e-01 -2.465356e-01 -3.068802e-01 -4.514440e-02 1.319765e-01 7.608181e-02 5.412472e-02 -1.124709e-01
<VARIANCE> 25
 3.339886e+00 3.807251e+00 7.445662e+00 1.235716e+01 1.145751e+01 8.476923e+00 1.233416e+01 1.650945e+01 8.344043e+00 8.268572e+00 7.829585e+00 5.845631e+00 1.986762e-01 2.998698e-01 4.389773e-01 7.567966e-01 6.426346e-01 7.497783e-01 7.458937e-01 9.787716e-01 1.085506e+00 9.556387e-01 7.270769e-01 6.737968e-01 1.019610e-01
<GCONST> 6.303426e+01
<TRANSP> 5
 0.000000e+00 1.000000e+00 0.000000e+00 0.000000e+00 0.000000e+00
 0.000000e+00 9.180586e-01 8.194142e-02 0.000000e+00 0.000000e+00
 0.000000e+00 0.000000e+00 6.420183e-01 3.579817e-01 0.000000e+00
 0.000000e+00 0.000000e+00 0.000000e+00 9.229423e-01 7.705775e-02
 0.000000e+00 0.000000e+00 0.000000e+00 0.000000e+00 0.000000e+00
<ENDHMM>
~h "lu"
<BEGINHMM>
<NUMSTATES> 5
<STATE> 2
<MEAN> 25
 1.642139e+00 -1.141918e+00 -6.736093e-01 -1.645039e+00 -1.500912e+00 1.633170e-01 -1.730387e-01 -1.406428e+00 7.123768e-02 1.083313e+00 8.320546e-02 -2.035553e-01 1.488154e+00 4.169551e-01 2.119123e-01 8.618253e-01 1.221804e+00 2.567752e-01 -3.600640e-01 -5.928033e-01 -1.037731e+00 -3.914325e-01 3.962031e-01 -7.877027e-01 1.049570e+00
<VARIANCE> 25
 9.859236e+01 7.347102e+01 9.052317e+00 4.956111e+01 1.036533e+02 4.423253e+01 2.087642e+01 2.757002e+01 2.418894e+01 1.346740e+01 2.548211e+01 1.545743e+01 3.089464e+00 2.858827e+00 7.561414e-01 2.157834e+00 3.140157e+00 2.753529e+00 2.328207e+00 1.847338e+00 3.252099e+00 1.536190e+00 1.137181e+00 1.538643e+00 2.687623e+00
<GCONST> 9.692984e+01
<STATE> 3
<MEAN> 25
 7.196933e+00 -3.861876e-01 -4.400939e-03 1.557112e+00 2.714791e+00 9.466549e-01 -1.164909e+00 -2.537402e+00 -3.102760e+00 -8.547300e-01 1.576321e+00 -2.164136e+00 1.597985e+00 6.227046e-02 4.993275e-01 1.219939e+00 1.316632e+00 -1.991169e-01 -4.283517e-01 -4.861193e-01 -1.326811e+00 -6.001002e-01 7.556184e-01 -6.761981e-01 1.334345e+00
<VARIANCE> 25
 7.289686e+01 7.694936e+01 1.360636e+01 7.830263e+01 1.539793e+02 9.064437e+01 2.567012e+01 3.428037e+01 3.336217e+01 1.781854e+01 3.684110e+01 1.392229e+01 4.731620e+00 1.798236e+00 9.443425e-01 2.265541e+00 3.795265e+00 3.828950e+00 3.159547e+00 1.478766e+00 6.337782e+00 2.613519e+00 1.282998e+00 2.407168e+00 3.833493e+00
<GCONST> 1.028999e+02
<STATE> 4
<MEAN> 25
 1.191143e+01 -2.239265e+00 1.719267e+00 5.657093e+00 5.104849e+00 -1.356545e-02 -1.010365e+00 -9.391661e-01 -5.964253e+00 -3.561295e+00 2.712684e+00 -3.990313e+00 9.335603e-02 3.317358e-02 -8.234594e-02 -7.495695e-02 -7.816997e-02 1.799674e-02 1.332269e-01 1.120350e-01 2.590085e-02 1.357928e-02 1.064037e-02 9.142926e-02 3.502297e-02
<VARIANCE> 25
 3.593192e+01 4.049193e+01 2.744864e+01 7.176228e+01 1.123666e+02 6.386409e+01 4.880575e+01 2.787752e+01 5.476201e+01 3.374476e+01 2.492557e+01 2.891302e+01 1.808874e+00 2.176048e+00 1.336885e+00 2.476492e+00 2.839673e+00 2.908375e+00 2.711606e+00 2.079946e+00 3.928199e+00 3.069176e+00 2.030040e+00 2.405884e+00 2.812338e+00
<GCONST> 1.025297e+02
<TRANSP> 5
 0.000000e+00 1.000000e+00 0.000000e+00 0.000000e+00 0.000000e+00
 0.000000e+00 4.887244e-01 5.112756e-01 0.000000e+00 0.000000e+00
 0.000000e+00 0.000000e+00 5.284985e-01 4.715015e-01 0.000000e+00
 0.000000e+00 0.000000e+00 0.000000e+00 9.687070e-01 3.129296e-02
 0.000000e+00 0.000000e+00 0.000000e+00 0.000000e+00 0.000000e+00
<ENDHMM>
~h "ein"
<BEGINHMM>
<NUMSTATES> 5
<STATE> 2
<MEAN> 25
 4.570493e+00 2.736387e+00 -7.558940e+00 -9.659529e+00 -9.718013e+00 -2.079784e+00 8.840615e+00 8.946439e+00 2.034485e+00 -1.688199e+00 -1.570071e+00 1.124455e+00 -1.756467e+00 -1.097239e-01 2.224402e-01 1.558955e-01 7.709775e-01 5.792571e-01 -3.816006e-01 -3.848530e-01 8.149081e-01 1.119481e-01 -7.873775e-01 1.896280e-01 -1.268076e+00
<VARIANCE> 25
 3.017366e+01 1.723079e+01 5.944660e+00 3.240921e+01 1.702162e+01 6.780844e+00 1.913903e+01 2.540824e+01 2.321270e+01 1.932487e+01 1.576428e+01 7.152588e+00 1.407046e+00 1.664126e+00 9.599870e-01 2.118538e+00 2.234241e+00 1.610973e+00 8.410932e-01 1.388885e+00 2.104121e+00 1.223473e+00 9.205579e-01 8.755060e-01 7.464904e-01
<GCONST> 8.266260e+01
<STATE> 3
<MEAN> 25
 6.466752e-02 1.925776e+00 -7.097493e+00 -9.269999e+00 -7.839443e+00 -7.398453e-01 7.135016e+00 7.686481e+00 3.939331e+00 -1.387007e+00 -3.879590e+00 9.647227e-01 -1.081667e+00 -5.730715e-03 5.604634e-01 5.874423e-01 9.676959e-01 6.816247e-01 -4.619529e-01 -6.243336e-01 2.182909e-01 2.178085e-01 -3.819386e-01 -1.725188e-01 -7.171282e-01
<VARIANCE> 25
 1.356226e+01 6.145284e+00 8.567333e+00 1.342610e+01 1.721804e+01 1.081049e+01 1.610004e+01 1.400724e+01 1.597500e+01 1.460751e+01 9.337516e+00 5.920405e+00 5.642117e-01 8.975924e-01 6.841571e-01 2.471625e+00 1.888339e+00 7.919216e-01 7.577890e-01 1.165002e+00 7.857565e-01 9.682080e-01 6.838430e-01 5.973458e-01 1.819072e-01
<GCONST> 7.247468e+01
<STATE> 4
<MEAN> 25
 -5.317238e+00 3.136562e+00 -1.249919e+00 -2.467966e+00 -6.094381e-01 1.712175e+00 8.876810e-01 3.372748e-01 4.315408e+00 1.893796e+00 -2.544869e+00 1.936619e+00 -1.193330e-01 5.386716e-02 1.977567e-01 2.533363e-01 2.329690e-01 5.703233e-02 -1.590266e-01 -2.488219e-01 -5.523579e-02 8.483830e-02 8.854367e-02 6.017533e-02 -7.551090e-02
<VARIANCE> 25
 5.122269e+00 1.954704e+00 1.140956e+01 1.959457e+01 1.824889e+01 5.713028e+00 1.384386e+01 1.525147e+01 7.163748e+00 9.041954e+00 7.865450e+00 6.346910e+00 1.884822e-01 1.826387e-01 3.587511e-01 6.171075e-01 5.948755e-01 5.312243e-01 5.799351e-01 6.202457e-01 6.438843e-01 6.940055e-01 6.251494e-01 6.994067e-01 8.362515e-02
<GCONST> 6.057570e+01
<TRANSP> 5
 0.000000e+00 1.000000e+00 0.000000e+00 0.000000e+00 0.000000e+00
 0.000000e+00 6.607056e-01 3.392944e-01 0.000000e+00 0.000000e+00
 0.000000e+00 0.000000e+00 5.571699e-01 4.428301e-01 0.000000e+00
 0.000000e+00 0.000000e+00 0.000000e+00 9.490861e-01 5.091390e-02
 0.000000e+00 0.000000e+00 0.000000e+00 0.000000e+00 0.000000e+00
<ENDHMM>
~h "sil"
<BEGINHMM>
<NUMSTATES> 5
<STATE> 2
<MEAN> 25
 -2.404780e+01 -1.718941e+00 -9.535052e+00 2.774416e+00 -8.400477e-01 5.418379e+00 -1.101958e+01 -5.522445e+00 -1.961436e+00 3.417311e+00 7.765403e-01 2.718665e+00 -3.167982e-02 -9.612471e-03 7.970118e-02 7.602954e-02 7.734954e-02 7.745776e-03 -6.221051e-02 3.685527e-02 2.110982e-02 1.646828e-02 -6.287032e-02 2.817357e-03 -2.960975e-02
<VARIANCE> 25
 4.529369e+01 5.278955e+00 8.856422e+00 8.240917e+00 3.162667e+00 4.178292e+00 2.565543e+01 9.662375e+00 9.702335e+00 6.366095e+00 5.425878e+00 4.317482e+00 9.564528e-02 6.614527e-02 1.763271e-01 3.562815e-01 3.724736e-01 2.582037e-01 4.159977e-01 5.957479e-01 6.446124e-01 7.910323e-01 5.235425e-01 5.106431e-01 4.871887e-02
<GCONST> 5.450408e+01
<STATE> 3
<MEAN> 25
 -1.362807e+01 1.179097e+00 -6.192571e+00 -1.245812e-02 -8.921937e-01 4.303928e+00 -4.973558e+00 -2.879244e+00 7.232912e-01 3.197999e+00 -6.228590e-01 2.635566e+00 3.579881e+00 1.010377e+00 1.478969e+00 -8.728595e-01 2.124537e-01 -4.773273e-01 2.037022e+00 5.085056e-01 8.547544e-01 -2.246533e-01 -5.726711e-01 1.520806e-02 4.032660e+00
<VARIANCE> 25
 9.882567e+01 1.075570e+01 2.167580e+01 1.763591e+01 8.868204e+00 5.512865e+00 4.383533e+01 1.725639e+01 1.767684e+01 9.499739e+00 1.192459e+01 5.714286e+00 6.390318e+00 6.557131e-01 1.325897e+00 1.253563e+00 7.813500e-01 7.454736e-01 3.457696e+00 1.574450e+00 9.682195e-01 6.892098e-01 9.768698e-01 5.651211e-01 7.821878e+00
<GCONST> 8.287827e+01
<STATE> 4
<MEAN> 25
 -4.940703e+00 2.577573e+00 -1.988302e-01 -6.170107e-01 9.441482e-01 1.932759e+00 -4.436743e-01 -1.463306e+00 2.665715e+00 2.053146e+00 -1.396928e+00 1.780995e+00 -5.636677e-03 7.900577e-04 2.151419e-02 1.942607e-02 1.581994e-02 -2.885088e-03 -1.536025e-02 -1.290596e-02 3.518131e-03 8.992168e-03 1.149609e-02 -2.801511e-03 3.710642e-03
<VARIANCE> 25
 2.417335e+01 1.754519e+01 9.201268e+00 1.274835e+01 1.109385e+01 1.532956e+01 1.171055e+01 9.551470e+00 1.594860e+01 1.148171e+01 8.578921e+00 1.219997e+01 2.783523e-01 4.782467e-01 3.980673e-01 6.444423e-01 6.272901e-01 8.005283e-01 9.335942e-01 8.638393e-01 9.229096e-01 7.683628e-01 7.027074e-01 7.652237e-01 2.751888e-01
<GCONST> 6.994061e+01
<TRANSP> 5
 0.000000e+00 1.000000e+00 0.000000e+00 0.000000e+00 0.000000e+00
 0.000000e+00 8.089259e-01 1.910741e-01 0.000000e+00 0.000000e+00
 0.000000e+00 0.000000e+00 6.080532e-01 3.919468e-01 0.000000e+00
 0.000000e+00 0.000000e+00 0.000000e+00 9.893155e-01 1.068447e-02
 0.000000e+00 0.000000e+00 0.000000e+00 0.000000e+00 0.000000e+00
<ENDHMM>
